<ranker>
	<info>
		<type>LAMBDAMART</type>
		<trees>1000</trees>
		<leaves>10</leaves>
		<shrinkage>0.10000000149011612</shrinkage>
		<leafsupport>1</leafsupport>
		<discretization>0</discretization>
		<estop>100</estop>
		<subsample>1</subsample>
		<max_features>1</max_features>
		<collapse_leaves_factor>0</collapse_leaves_factor>
	</info>
	<ensemble>
		<tree id="1" weight="0.10000000149011612">
			<split>
				<feature>4</feature>
				<threshold>0.632014334</threshold>
				<split pos="left">
					<feature>3</feature>
					<threshold>0</threshold>
					<split pos="left">
						<output>1.4795137610165972</output>
					</split>
					<split pos="right">
						<feature>4</feature>
						<threshold>0.437390327</threshold>
						<split pos="left">
							<feature>6</feature>
							<threshold>0.24832274</threshold>
							<split pos="left">
								<output>-1.809788305770619</output>
							</split>
							<split pos="right">
								<output>0.34296938586194825</output>
							</split>
						</split>
						<split pos="right">
							<output>-2</output>
						</split>
					</split>
				</split>
				<split pos="right">
					<feature>4</feature>
					<threshold>0.684440851</threshold>
					<split pos="left">
						<feature>3</feature>
						<threshold>0.130814537</threshold>
						<split pos="left">
							<output>2</output>
						</split>
						<split pos="right">
							<output>2</output>
						</split>
					</split>
					<split pos="right">
						<feature>3</feature>
						<threshold>0.457930356</threshold>
						<split pos="left">
							<feature>3</feature>
							<threshold>0.340388</threshold>
							<split pos="left">
								<feature>8</feature>
								<threshold>0.595173597</threshold>
								<split pos="left">
									<output>-0.56604306576085872</output>
								</split>
								<split pos="right">
									<output>2</output>
								</split>
							</split>
							<split pos="right">
								<output>2</output>
							</split>
						</split>
						<split pos="right">
							<output>-2</output>
						</split>
					</split>
				</split>
			</split>
		</tree>
		<tree id="2" weight="0.10000000149011612">
			<split>
				<feature>6</feature>
				<threshold>0.24832274</threshold>
				<split pos="left">
					<feature>3</feature>
					<threshold>0</threshold>
					<split pos="left">
						<output>0.094916004536581999</output>
					</split>
					<split pos="right">
						<output>-1.6009830883733731</output>
					</split>
				</split>
				<split pos="right">
					<feature>6</feature>
					<threshold>0.502154648</threshold>
					<split pos="left">
						<feature>5</feature>
						<threshold>0.823733747</threshold>
						<split pos="left">
							<feature>6</feature>
							<threshold>0.49979791</threshold>
							<split pos="left">
								<feature>3</feature>
								<threshold>0.0369723886</threshold>
								<split pos="left">
									<output>1.7359392577947164</output>
								</split>
								<split pos="right">
									<output>-0.30917465391463494</output>
								</split>
							</split>
							<split pos="right">
								<output>1.7348757650332267</output>
							</split>
						</split>
						<split pos="right">
							<output>1.6898093779517562</output>
						</split>
					</split>
					<split pos="right">
						<feature>4</feature>
						<threshold>0.632014334</threshold>
						<split pos="left">
							<output>-1.2016670064258292</output>
						</split>
						<split pos="right">
							<feature>3</feature>
							<threshold>0.457930356</threshold>
							<split pos="left">
								<feature>4</feature>
								<threshold>0.846128166</threshold>
								<split pos="left">
									<output>1.6950515639195416</output>
								</split>
								<split pos="right">
									<output>0.95029369590972979</output>
								</split>
							</split>
							<split pos="right">
								<output>-1.7277222691917806</output>
							</split>
						</split>
					</split>
				</split>
			</split>
		</tree>
		<tree id="3" weight="0.10000000149011612">
			<split>
				<feature>6</feature>
				<threshold>0.24832274</threshold>
				<split pos="left">
					<feature>3</feature>
					<threshold>0</threshold>
					<split pos="left">
						<output>0.34108985952787574</output>
					</split>
					<split pos="right">
						<output>-1.4898674809109644</output>
					</split>
				</split>
				<split pos="right">
					<feature>6</feature>
					<threshold>0.502154648</threshold>
					<split pos="left">
						<feature>5</feature>
						<threshold>0.823733747</threshold>
						<split pos="left">
							<feature>6</feature>
							<threshold>0.49979791</threshold>
							<split pos="left">
								<feature>3</feature>
								<threshold>0.0369723886</threshold>
								<split pos="left">
									<output>1.5463758352317318</output>
								</split>
								<split pos="right">
									<output>0.00040981630580328338</output>
								</split>
							</split>
							<split pos="right">
								<output>1.5550144284700704</output>
							</split>
						</split>
						<split pos="right">
							<output>1.5225918039832642</output>
						</split>
					</split>
					<split pos="right">
						<feature>4</feature>
						<threshold>0.622551024</threshold>
						<split pos="left">
							<output>-1.1801035160354478</output>
						</split>
						<split pos="right">
							<feature>3</feature>
							<threshold>0.457930356</threshold>
							<split pos="left">
								<feature>4</feature>
								<threshold>0.846128166</threshold>
								<split pos="left">
									<output>1.5160859178691986</output>
								</split>
								<split pos="right">
									<output>0.87350563526497604</output>
								</split>
							</split>
							<split pos="right">
								<output>-1.5326386573860662</output>
							</split>
						</split>
					</split>
				</split>
			</split>
		</tree>
		<tree id="4" weight="0.10000000149011612">
			<split>
				<feature>6</feature>
				<threshold>0.24832274</threshold>
				<split pos="left">
					<feature>3</feature>
					<threshold>0</threshold>
					<split pos="left">
						<output>0.27514735870094964</output>
					</split>
					<split pos="right">
						<output>-1.3673674636039306</output>
					</split>
				</split>
				<split pos="right">
					<feature>6</feature>
					<threshold>0.502154648</threshold>
					<split pos="left">
						<feature>8</feature>
						<threshold>0.0698565245</threshold>
						<split pos="left">
							<output>1.4135031129775335</output>
						</split>
						<split pos="right">
							<feature>6</feature>
							<threshold>0.49979791</threshold>
							<split pos="left">
								<feature>3</feature>
								<threshold>0.0369723886</threshold>
								<split pos="left">
									<output>1.41978246840555</output>
								</split>
								<split pos="right">
									<output>0.010002753377853163</output>
								</split>
							</split>
							<split pos="right">
								<output>1.4361930758764636</output>
							</split>
						</split>
					</split>
					<split pos="right">
						<feature>4</feature>
						<threshold>0.622551024</threshold>
						<split pos="left">
							<output>-1.0637658582797447</output>
						</split>
						<split pos="right">
							<feature>3</feature>
							<threshold>0.457930356</threshold>
							<split pos="left">
								<feature>4</feature>
								<threshold>0.846128166</threshold>
								<split pos="left">
									<output>1.3956112873971773</output>
								</split>
								<split pos="right">
									<output>0.78102129830901035</output>
								</split>
							</split>
							<split pos="right">
								<output>-1.4062196212575793</output>
							</split>
						</split>
					</split>
				</split>
			</split>
		</tree>
		<tree id="5" weight="0.10000000149011612">
			<split>
				<feature>4</feature>
				<threshold>0.632014334</threshold>
				<split pos="left">
					<feature>3</feature>
					<threshold>0</threshold>
					<split pos="left">
						<output>0.88822147985917621</output>
					</split>
					<split pos="right">
						<feature>7</feature>
						<threshold>0.298092693</threshold>
						<split pos="left">
							<output>-1.2679437197384431</output>
						</split>
						<split pos="right">
							<feature>4</feature>
							<threshold>0.437390327</threshold>
							<split pos="left">
								<feature>6</feature>
								<threshold>0.725774705</threshold>
								<split pos="left">
									<output>0.94745958530105912</output>
								</split>
								<split pos="right">
									<output>-1.3468280779821722</output>
								</split>
							</split>
							<split pos="right">
								<output>-1.3825514069321523</output>
							</split>
						</split>
					</split>
				</split>
				<split pos="right">
					<feature>4</feature>
					<threshold>0.684440851</threshold>
					<split pos="left">
						<output>1.3339085173056917</output>
					</split>
					<split pos="right">
						<feature>3</feature>
						<threshold>0.457930356</threshold>
						<split pos="left">
							<feature>3</feature>
							<threshold>0.340388</threshold>
							<split pos="left">
								<feature>8</feature>
								<threshold>0.595173597</threshold>
								<split pos="left">
									<output>-0.10484733322434452</output>
								</split>
								<split pos="right">
									<output>1.3600529535367181</output>
								</split>
							</split>
							<split pos="right">
								<output>1.3802294746147912</output>
							</split>
						</split>
						<split pos="right">
							<output>-1.3321998424906232</output>
						</split>
					</split>
				</split>
			</split>
		</tree>
		<tree id="6" weight="0.10000000149011612">
			<split>
				<feature>6</feature>
				<threshold>0.24832274</threshold>
				<split pos="left">
					<feature>3</feature>
					<threshold>0</threshold>
					<split pos="left">
						<output>0.16224879106925028</output>
					</split>
					<split pos="right">
						<output>-1.2304561498815056</output>
					</split>
				</split>
				<split pos="right">
					<feature>6</feature>
					<threshold>0.502154648</threshold>
					<split pos="left">
						<feature>5</feature>
						<threshold>0.823733747</threshold>
						<split pos="left">
							<feature>6</feature>
							<threshold>0.49979791</threshold>
							<split pos="left">
								<feature>3</feature>
								<threshold>0.0369723886</threshold>
								<split pos="left">
									<output>1.2787284116970767</output>
								</split>
								<split pos="right">
									<output>0.14360453859604952</output>
								</split>
							</split>
							<split pos="right">
								<output>1.2924499088913992</output>
							</split>
						</split>
						<split pos="right">
							<output>1.2768443127296265</output>
						</split>
					</split>
					<split pos="right">
						<feature>4</feature>
						<threshold>0.622551024</threshold>
						<split pos="left">
							<output>-0.90091926137154077</output>
						</split>
						<split pos="right">
							<feature>3</feature>
							<threshold>0.457930356</threshold>
							<split pos="left">
								<feature>4</feature>
								<threshold>0.846128166</threshold>
								<split pos="left">
									<output>1.2492847475582782</output>
								</split>
								<split pos="right">
									<output>0.63247608664759936</output>
								</split>
							</split>
							<split pos="right">
								<output>-1.2553856651672817</output>
							</split>
						</split>
					</split>
				</split>
			</split>
		</tree>
		<tree id="7" weight="0.10000000149011612">
			<split>
				<feature>6</feature>
				<threshold>0.24832274</threshold>
				<split pos="left">
					<feature>3</feature>
					<threshold>0</threshold>
					<split pos="left">
						<output>0.11955427597968543</output>
					</split>
					<split pos="right">
						<output>-1.1806019919125179</output>
					</split>
				</split>
				<split pos="right">
					<feature>6</feature>
					<threshold>0.502154648</threshold>
					<split pos="left">
						<feature>8</feature>
						<threshold>0.0698565245</threshold>
						<split pos="left">
							<output>1.2412795243725216</output>
						</split>
						<split pos="right">
							<feature>6</feature>
							<threshold>0.49979791</threshold>
							<split pos="left">
								<feature>3</feature>
								<threshold>0.0369723886</threshold>
								<split pos="left">
									<output>1.2324932726586908</output>
								</split>
								<split pos="right">
									<output>0.12321460590215817</output>
								</split>
							</split>
							<split pos="right">
								<output>1.2518768258493518</output>
							</split>
						</split>
					</split>
					<split pos="right">
						<feature>4</feature>
						<threshold>0.622551024</threshold>
						<split pos="left">
							<output>-0.83422407660080622</output>
						</split>
						<split pos="right">
							<feature>4</feature>
							<threshold>0.966602445</threshold>
							<split pos="left">
								<feature>3</feature>
								<threshold>0.457930356</threshold>
								<split pos="left">
									<output>1.1778639697605535</output>
								</split>
								<split pos="right">
									<output>-1.1961838231519282</output>
								</split>
							</split>
							<split pos="right">
								<output>0.21396590741089833</output>
							</split>
						</split>
					</split>
				</split>
			</split>
		</tree>
		<tree id="8" weight="0.10000000149011612">
			<split>
				<feature>6</feature>
				<threshold>0.24832274</threshold>
				<split pos="left">
					<feature>3</feature>
					<threshold>0</threshold>
					<split pos="left">
						<output>0.076690931546417276</output>
					</split>
					<split pos="right">
						<output>-1.1437672159267445</output>
					</split>
				</split>
				<split pos="right">
					<feature>6</feature>
					<threshold>0.502154648</threshold>
					<split pos="left">
						<feature>8</feature>
						<threshold>0.0698565245</threshold>
						<split pos="left">
							<output>1.2115609880280442</output>
						</split>
						<split pos="right">
							<feature>6</feature>
							<threshold>0.49979791</threshold>
							<split pos="left">
								<feature>3</feature>
								<threshold>0.0369723886</threshold>
								<split pos="left">
									<output>1.1965591724781479</output>
								</split>
								<split pos="right">
									<output>-0.007039233675661994</output>
								</split>
							</split>
							<split pos="right">
								<output>1.2191148764816191</output>
							</split>
						</split>
					</split>
					<split pos="right">
						<feature>4</feature>
						<threshold>0.622551024</threshold>
						<split pos="left">
							<output>-0.78728556858390453</output>
						</split>
						<split pos="right">
							<feature>4</feature>
							<threshold>0.966602445</threshold>
							<split pos="left">
								<feature>3</feature>
								<threshold>0.457930356</threshold>
								<split pos="left">
									<output>1.1579944368331707</output>
								</split>
								<split pos="right">
									<output>-1.1604991600830243</output>
								</split>
							</split>
							<split pos="right">
								<output>0.19007675399282314</output>
							</split>
						</split>
					</split>
				</split>
			</split>
		</tree>
		<tree id="9" weight="0.10000000149011612">
			<split>
				<feature>6</feature>
				<threshold>0.24832274</threshold>
				<split pos="left">
					<feature>5</feature>
					<threshold>0.923151672</threshold>
					<split pos="left">
						<output>-0.97415761397327327</output>
					</split>
					<split pos="right">
						<output>1.387669282883244</output>
					</split>
				</split>
				<split pos="right">
					<feature>6</feature>
					<threshold>0.502154648</threshold>
					<split pos="left">
						<feature>8</feature>
						<threshold>0.0698565245</threshold>
						<split pos="left">
							<output>1.1886752307812833</output>
						</split>
						<split pos="right">
							<feature>6</feature>
							<threshold>0.49979791</threshold>
							<split pos="left">
								<feature>4</feature>
								<threshold>0.4511123</threshold>
								<split pos="left">
									<output>0.99431264273674136</output>
								</split>
								<split pos="right">
									<output>-1.3088009230969238</output>
								</split>
							</split>
							<split pos="right">
								<output>1.1936229150309006</output>
							</split>
						</split>
					</split>
					<split pos="right">
						<feature>4</feature>
						<threshold>0.622551024</threshold>
						<split pos="left">
							<output>-0.73816870058500539</output>
						</split>
						<split pos="right">
							<feature>4</feature>
							<threshold>0.966602445</threshold>
							<split pos="left">
								<feature>3</feature>
								<threshold>0.457930356</threshold>
								<split pos="left">
									<output>1.1136165892511145</output>
								</split>
								<split pos="right">
									<output>-1.1342778902183026</output>
								</split>
							</split>
							<split pos="right">
								<output>0.17046497100835831</output>
							</split>
						</split>
					</split>
				</split>
			</split>
		</tree>
		<tree id="10" weight="0.10000000149011612">
			<split>
				<feature>6</feature>
				<threshold>0.24832274</threshold>
				<split pos="left">
					<feature>5</feature>
					<threshold>0.923151672</threshold>
					<split pos="left">
						<feature>5</feature>
						<threshold>0</threshold>
						<split pos="left">
							<output>-0.68065950359205529</output>
						</split>
						<split pos="right">
							<output>-1.0095974970582586</output>
						</split>
					</split>
					<split pos="right">
						<output>1.311673045427826</output>
					</split>
				</split>
				<split pos="right">
					<feature>6</feature>
					<threshold>0.502154648</threshold>
					<split pos="left">
						<feature>5</feature>
						<threshold>0.823733747</threshold>
						<split pos="left">
							<feature>6</feature>
							<threshold>0.49979791</threshold>
							<split pos="left">
								<output>0.41010057079916667</output>
							</split>
							<split pos="right">
								<output>1.1687060263908366</output>
							</split>
						</split>
						<split pos="right">
							<output>1.168392293515029</output>
						</split>
					</split>
					<split pos="right">
						<feature>4</feature>
						<threshold>0.622551024</threshold>
						<split pos="left">
							<output>-0.67879263629760633</output>
						</split>
						<split pos="right">
							<feature>4</feature>
							<threshold>0.966602445</threshold>
							<split pos="left">
								<feature>3</feature>
								<threshold>0.457930356</threshold>
								<split pos="left">
									<output>1.0547789911466694</output>
								</split>
								<split pos="right">
									<output>-1.1152303304783364</output>
								</split>
							</split>
							<split pos="right">
								<output>0.15722208767911394</output>
							</split>
						</split>
					</split>
				</split>
			</split>
		</tree>
		<tree id="11" weight="0.10000000149011612">
			<split>
				<feature>4</feature>
				<threshold>0.632014334</threshold>
				<split pos="left">
					<feature>3</feature>
					<threshold>0</threshold>
					<split pos="left">
						<output>0.56739383554546541</output>
					</split>
					<split pos="right">
						<feature>7</feature>
						<threshold>0.352439553</threshold>
						<split pos="left">
							<output>-1.0673344538573579</output>
						</split>
						<split pos="right">
							<feature>6</feature>
							<threshold>0.725774705</threshold>
							<split pos="left">
								<output>0.44836660285106383</output>
							</split>
							<split pos="right">
								<output>-1.0387956938044707</output>
							</split>
						</split>
					</split>
				</split>
				<split pos="right">
					<feature>4</feature>
					<threshold>0.684440851</threshold>
					<split pos="left">
						<output>1.1466393857655737</output>
					</split>
					<split pos="right">
						<feature>3</feature>
						<threshold>0.457930356</threshold>
						<split pos="left">
							<feature>3</feature>
							<threshold>0.340388</threshold>
							<split pos="left">
								<feature>5</feature>
								<threshold>0.976158381</threshold>
								<split pos="left">
									<output>-0.73342369105479088</output>
								</split>
								<split pos="right">
									<feature>4</feature>
									<threshold>0.956971228</threshold>
									<split pos="left">
										<output>1.2372211365353414</output>
									</split>
									<split pos="right">
										<output>0.59129103097105318</output>
									</split>
								</split>
							</split>
							<split pos="right">
								<output>1.1787282940026964</output>
							</split>
						</split>
						<split pos="right">
							<output>-1.1874692279561738</output>
						</split>
					</split>
				</split>
			</split>
		</tree>
		<tree id="12" weight="0.10000000149011612">
			<split>
				<feature>4</feature>
				<threshold>0.632014334</threshold>
				<split pos="left">
					<feature>3</feature>
					<threshold>0</threshold>
					<split pos="left">
						<output>0.51920555507426347</output>
					</split>
					<split pos="right">
						<feature>7</feature>
						<threshold>0.352439553</threshold>
						<split pos="left">
							<output>-1.0369268479090719</output>
						</split>
						<split pos="right">
							<feature>6</feature>
							<threshold>0.725774705</threshold>
							<split pos="left">
								<output>0.40868359801017157</output>
							</split>
							<split pos="right">
								<output>-0.98780915495853394</output>
							</split>
						</split>
					</split>
				</split>
				<split pos="right">
					<feature>4</feature>
					<threshold>0.684440851</threshold>
					<split pos="left">
						<output>1.1334073457879941</output>
					</split>
					<split pos="right">
						<feature>3</feature>
						<threshold>0.457930356</threshold>
						<split pos="left">
							<feature>3</feature>
							<threshold>0.340388</threshold>
							<split pos="left">
								<feature>5</feature>
								<threshold>0.976158381</threshold>
								<split pos="left">
									<output>-0.69741267063071255</output>
								</split>
								<split pos="right">
									<feature>4</feature>
									<threshold>0.956971228</threshold>
									<split pos="left">
										<output>1.2184241852498974</output>
									</split>
									<split pos="right">
										<output>0.57592495612794781</output>
									</split>
								</split>
							</split>
							<split pos="right">
								<output>1.1579884505739386</output>
							</split>
						</split>
						<split pos="right">
							<output>-1.1608180604637701</output>
						</split>
					</split>
				</split>
			</split>
		</tree>
		<tree id="13" weight="0.10000000149011612">
			<split>
				<feature>4</feature>
				<threshold>0.632014334</threshold>
				<split pos="left">
					<feature>3</feature>
					<threshold>0</threshold>
					<split pos="left">
						<output>0.4759372615207641</output>
					</split>
					<split pos="right">
						<feature>7</feature>
						<threshold>0.352439553</threshold>
						<split pos="left">
							<output>-1.008267371338597</output>
						</split>
						<split pos="right">
							<feature>4</feature>
							<threshold>0.4511123</threshold>
							<split pos="left">
								<feature>4</feature>
								<threshold>0.356238425</threshold>
								<split pos="left">
									<output>-0.16697797391179453</output>
								</split>
								<split pos="right">
									<output>1.9778603426760339</output>
								</split>
							</split>
							<split pos="right">
								<output>-1.1708137462816022</output>
							</split>
						</split>
					</split>
				</split>
				<split pos="right">
					<feature>4</feature>
					<threshold>0.684440851</threshold>
					<split pos="left">
						<output>1.1230763844947151</output>
					</split>
					<split pos="right">
						<feature>3</feature>
						<threshold>0.457930356</threshold>
						<split pos="left">
							<feature>3</feature>
							<threshold>0.340388</threshold>
							<split pos="left">
								<feature>5</feature>
								<threshold>0.976158381</threshold>
								<split pos="left">
									<output>-0.63795565570615032</output>
								</split>
								<split pos="right">
									<output>0.69868821768665845</output>
								</split>
							</split>
							<split pos="right">
								<output>1.1413883799607298</output>
							</split>
						</split>
						<split pos="right">
							<output>-1.140053409069121</output>
						</split>
					</split>
				</split>
			</split>
		</tree>
		<tree id="14" weight="0.10000000149011612">
			<split>
				<feature>4</feature>
				<threshold>0.632014334</threshold>
				<split pos="left">
					<feature>3</feature>
					<threshold>0</threshold>
					<split pos="left">
						<output>0.42705335412472667</output>
					</split>
					<split pos="right">
						<feature>7</feature>
						<threshold>0.352439553</threshold>
						<split pos="left">
							<output>-0.97511969067720494</output>
						</split>
						<split pos="right">
							<feature>6</feature>
							<threshold>0.725774705</threshold>
							<split pos="left">
								<output>0.39468874828986483</output>
							</split>
							<split pos="right">
								<output>-0.93554167459872672</output>
							</split>
						</split>
					</split>
				</split>
				<split pos="right">
					<feature>4</feature>
					<threshold>0.684440851</threshold>
					<split pos="left">
						<output>1.1117547847285156</output>
					</split>
					<split pos="right">
						<feature>3</feature>
						<threshold>0.457930356</threshold>
						<split pos="left">
							<feature>3</feature>
							<threshold>0.340388</threshold>
							<split pos="left">
								<feature>3</feature>
								<threshold>0.226305604</threshold>
								<split pos="left">
									<feature>3</feature>
									<threshold>0.226081654</threshold>
									<split pos="left">
										<output>0.19697801889516053</output>
									</split>
									<split pos="right">
										<output>1.3253369070999821</output>
									</split>
								</split>
								<split pos="right">
									<output>-2.5958574208417105</output>
								</split>
							</split>
							<split pos="right">
								<output>1.1286307016831432</output>
							</split>
						</split>
						<split pos="right">
							<output>-1.1205891650330075</output>
						</split>
					</split>
				</split>
			</split>
		</tree>
		<tree id="15" weight="0.10000000149011612">
			<split>
				<feature>4</feature>
				<threshold>0.632014334</threshold>
				<split pos="left">
					<feature>3</feature>
					<threshold>0</threshold>
					<split pos="left">
						<output>0.401433843506034</output>
					</split>
					<split pos="right">
						<feature>4</feature>
						<threshold>0.437390327</threshold>
						<split pos="left">
							<feature>4</feature>
							<threshold>0.420304</threshold>
							<split pos="left">
								<feature>4</feature>
								<threshold>0.263939232</threshold>
								<split pos="left">
									<output>-0.69688477199463672</output>
								</split>
								<split pos="right">
									<output>0.43865950249199959</output>
								</split>
							</split>
							<split pos="right">
								<output>2.9795142482959474</output>
							</split>
						</split>
						<split pos="right">
							<output>-1.1205947704569712</output>
						</split>
					</split>
				</split>
				<split pos="right">
					<feature>4</feature>
					<threshold>0.684440851</threshold>
					<split pos="left">
						<output>1.1060379841256305</output>
					</split>
					<split pos="right">
						<feature>3</feature>
						<threshold>0.457930356</threshold>
						<split pos="left">
							<feature>3</feature>
							<threshold>0.340388</threshold>
							<split pos="left">
								<feature>3</feature>
								<threshold>0.226305604</threshold>
								<split pos="left">
									<output>0.32203064021811545</output>
								</split>
								<split pos="right">
									<output>-2.5134800681119196</output>
								</split>
							</split>
							<split pos="right">
								<output>1.1143961636316111</output>
							</split>
						</split>
						<split pos="right">
							<output>-1.1029005500000351</output>
						</split>
					</split>
				</split>
			</split>
		</tree>
		<tree id="16" weight="0.10000000149011612">
			<split>
				<feature>4</feature>
				<threshold>0.632014334</threshold>
				<split pos="left">
					<feature>3</feature>
					<threshold>0</threshold>
					<split pos="left">
						<output>0.37501654279531144</output>
					</split>
					<split pos="right">
						<feature>5</feature>
						<threshold>0.0907350555</threshold>
						<split pos="left">
							<output>0.0074972109343163437</output>
						</split>
						<split pos="right">
							<feature>7</feature>
							<threshold>0.298092693</threshold>
							<split pos="left">
								<output>-1.0889025659250695</output>
							</split>
							<split pos="right">
								<feature>6</feature>
								<threshold>0.725774705</threshold>
								<split pos="left">
									<output>0.29810416005343959</output>
								</split>
								<split pos="right">
									<output>-1.2883674634066913</output>
								</split>
							</split>
						</split>
					</split>
				</split>
				<split pos="right">
					<feature>4</feature>
					<threshold>0.684440851</threshold>
					<split pos="left">
						<output>1.0992120316625089</output>
					</split>
					<split pos="right">
						<feature>3</feature>
						<threshold>0.457930356</threshold>
						<split pos="left">
							<feature>3</feature>
							<threshold>0.340388</threshold>
							<split pos="left">
								<feature>8</feature>
								<threshold>0.595173597</threshold>
								<split pos="left">
									<output>-0.18080655847155652</output>
								</split>
								<split pos="right">
									<output>1.120029915654567</output>
								</split>
							</split>
							<split pos="right">
								<output>1.1042398498568242</output>
							</split>
						</split>
						<split pos="right">
							<output>-1.0870114677597336</output>
						</split>
					</split>
				</split>
			</split>
		</tree>
		<tree id="17" weight="0.10000000149011612">
			<split>
				<feature>4</feature>
				<threshold>0.263939232</threshold>
				<split pos="left">
					<feature>5</feature>
					<threshold>0.571238577</threshold>
					<split pos="left">
						<feature>4</feature>
						<threshold>0.263869077</threshold>
						<split pos="left">
							<feature>7</feature>
							<threshold>0.352439553</threshold>
							<split pos="left">
								<output>-0.62221302768914588</output>
							</split>
							<split pos="right">
								<output>0.075669814160927343</output>
							</split>
						</split>
						<split pos="right">
							<output>-1.1593060009197313</output>
						</split>
					</split>
					<split pos="right">
						<output>-1.6200415879892998</output>
					</split>
				</split>
				<split pos="right">
					<feature>7</feature>
					<threshold>0.25300172</threshold>
					<split pos="left">
						<output>-0.75561001652847815</output>
					</split>
					<split pos="right">
						<feature>6</feature>
						<threshold>0.403026998</threshold>
						<split pos="left">
							<output>1.0249476250243896</output>
						</split>
						<split pos="right">
							<feature>3</feature>
							<threshold>0.340388</threshold>
							<split pos="left">
								<feature>3</feature>
								<threshold>0.28951171</threshold>
								<split pos="left">
									<feature>8</feature>
									<threshold>0.360215276</threshold>
									<split pos="left">
										<output>-1.3122963910881551</output>
									</split>
									<split pos="right">
										<output>0.47441363177519386</output>
									</split>
								</split>
								<split pos="right">
									<output>-1.3960760128649297</output>
								</split>
							</split>
							<split pos="right">
								<output>0.84513995207974557</output>
							</split>
						</split>
					</split>
				</split>
			</split>
		</tree>
		<tree id="18" weight="0.10000000149011612">
			<split>
				<feature>4</feature>
				<threshold>0.263939232</threshold>
				<split pos="left">
					<feature>5</feature>
					<threshold>0.64674741</threshold>
					<split pos="left">
						<feature>4</feature>
						<threshold>0.263869077</threshold>
						<split pos="left">
							<feature>8</feature>
							<threshold>0.791012883</threshold>
							<split pos="left">
								<output>-0.5310785176951448</output>
							</split>
							<split pos="right">
								<output>0.096589082435180176</output>
							</split>
						</split>
						<split pos="right">
							<output>-1.1373120516597963</output>
						</split>
					</split>
					<split pos="right">
						<output>-1.6809266454211678</output>
					</split>
				</split>
				<split pos="right">
					<feature>7</feature>
					<threshold>0.236064285</threshold>
					<split pos="left">
						<output>-0.71969794413617572</output>
					</split>
					<split pos="right">
						<feature>6</feature>
						<threshold>0.403026998</threshold>
						<split pos="left">
							<output>1.0100653086587217</output>
						</split>
						<split pos="right">
							<feature>8</feature>
							<threshold>0.360215276</threshold>
							<split pos="left">
								<output>-0.76251964458855026</output>
							</split>
							<split pos="right">
								<feature>7</feature>
								<threshold>0.489789993</threshold>
								<split pos="left">
									<output>1.0744878505620885</output>
								</split>
								<split pos="right">
									<feature>8</feature>
									<threshold>0.382609159</threshold>
									<split pos="left">
										<output>1.2889042111360594</output>
									</split>
									<split pos="right">
										<output>0.3241679594076522</output>
									</split>
								</split>
							</split>
						</split>
					</split>
				</split>
			</split>
		</tree>
		<tree id="19" weight="0.10000000149011612">
			<split>
				<feature>4</feature>
				<threshold>0.632014334</threshold>
				<split pos="left">
					<feature>4</feature>
					<threshold>0.4511123</threshold>
					<split pos="left">
						<feature>4</feature>
						<threshold>0.356238425</threshold>
						<split pos="left">
							<feature>6</feature>
							<threshold>0.713419139</threshold>
							<split pos="left">
								<feature>7</feature>
								<threshold>0.40878135</threshold>
								<split pos="left">
									<feature>7</feature>
									<threshold>0.12247166</threshold>
									<split pos="left">
										<output>-0.20090729453533876</output>
									</split>
									<split pos="right">
										<output>-0.85785119374341789</output>
									</split>
								</split>
								<split pos="right">
									<output>1.1752539193304954</output>
								</split>
							</split>
							<split pos="right">
								<output>-1.2771577590593963</output>
							</split>
						</split>
						<split pos="right">
							<output>0.92886471222383415</output>
						</split>
					</split>
					<split pos="right">
						<output>-1.1010587831920462</output>
					</split>
				</split>
				<split pos="right">
					<feature>4</feature>
					<threshold>0.684440851</threshold>
					<split pos="left">
						<output>1.0776553036369723</output>
					</split>
					<split pos="right">
						<feature>3</feature>
						<threshold>0.457930356</threshold>
						<split pos="left">
							<feature>3</feature>
							<threshold>0.340388</threshold>
							<split pos="left">
								<output>0.19465911722758153</output>
							</split>
							<split pos="right">
								<output>1.0854283708313748</output>
							</split>
						</split>
						<split pos="right">
							<output>-1.0737024587859663</output>
						</split>
					</split>
				</split>
			</split>
		</tree>
		<tree id="20" weight="0.10000000149011612">
			<split>
				<feature>4</feature>
				<threshold>0.263939232</threshold>
				<split pos="left">
					<feature>5</feature>
					<threshold>0.64674741</threshold>
					<split pos="left">
						<feature>4</feature>
						<threshold>0.263869077</threshold>
						<split pos="left">
							<feature>4</feature>
							<threshold>0.154061958</threshold>
							<split pos="left">
								<output>-0.63845776158332401</output>
							</split>
							<split pos="right">
								<output>0.044664268155671483</output>
							</split>
						</split>
						<split pos="right">
							<output>-1.1069848809421339</output>
						</split>
					</split>
					<split pos="right">
						<output>-1.5948272718401681</output>
					</split>
				</split>
				<split pos="right">
					<feature>7</feature>
					<threshold>0.236064285</threshold>
					<split pos="left">
						<output>-0.68597057926669958</output>
					</split>
					<split pos="right">
						<feature>6</feature>
						<threshold>0.403026998</threshold>
						<split pos="left">
							<output>0.97781647019035589</output>
						</split>
						<split pos="right">
							<feature>5</feature>
							<threshold>0.103005797</threshold>
							<split pos="left">
								<output>1.6965444136370607</output>
							</split>
							<split pos="right">
								<feature>8</feature>
								<threshold>0.360215276</threshold>
								<split pos="left">
									<output>-0.7232328514991414</output>
								</split>
								<split pos="right">
									<feature>7</feature>
									<threshold>0.489789993</threshold>
									<split pos="left">
										<output>1.0667468411841079</output>
									</split>
									<split pos="right">
										<output>0.33997151047979524</output>
									</split>
								</split>
							</split>
						</split>
					</split>
				</split>
			</split>
		</tree>
		<tree id="21" weight="0.10000000149011612">
			<split>
				<feature>4</feature>
				<threshold>0.154061958</threshold>
				<split pos="left">
					<feature>5</feature>
					<threshold>0.617782235</threshold>
					<split pos="left">
						<feature>7</feature>
						<threshold>0</threshold>
						<split pos="left">
							<output>0.078847373311308741</output>
						</split>
						<split pos="right">
							<output>-0.9565938264003272</output>
						</split>
					</split>
					<split pos="right">
						<output>-1.5555298323746773</output>
					</split>
				</split>
				<split pos="right">
					<feature>7</feature>
					<threshold>0.25300172</threshold>
					<split pos="left">
						<output>-0.45424064888776344</output>
					</split>
					<split pos="right">
						<feature>5</feature>
						<threshold>0.0907350555</threshold>
						<split pos="left">
							<output>1.3751295307072005</output>
						</split>
						<split pos="right">
							<feature>6</feature>
							<threshold>0.403026998</threshold>
							<split pos="left">
								<output>0.84483902092584462</output>
							</split>
							<split pos="right">
								<feature>4</feature>
								<threshold>0.632014334</threshold>
								<split pos="left">
									<output>-0.44271060416319946</output>
								</split>
								<split pos="right">
									<feature>6</feature>
									<threshold>0.500080884</threshold>
									<split pos="left">
										<output>1.0638002600476191</output>
									</split>
									<split pos="right">
										<feature>4</feature>
										<threshold>0.966602445</threshold>
										<split pos="left">
											<output>0.70827451092529325</output>
										</split>
										<split pos="right">
											<output>-0.05800764364637799</output>
										</split>
									</split>
								</split>
							</split>
						</split>
					</split>
				</split>
			</split>
		</tree>
		<tree id="22" weight="0.10000000149011612">
			<split>
				<feature>4</feature>
				<threshold>0.154061958</threshold>
				<split pos="left">
					<feature>5</feature>
					<threshold>0.55975014</threshold>
					<split pos="left">
						<feature>7</feature>
						<threshold>0</threshold>
						<split pos="left">
							<feature>9</feature>
							<threshold>0</threshold>
							<split pos="left">
								<output>-0.034231766540244929</output>
							</split>
							<split pos="right">
								<output>1.1306012452347309</output>
							</split>
						</split>
						<split pos="right">
							<output>-0.87784750093816633</output>
						</split>
					</split>
					<split pos="right">
						<output>-1.46904154225367</output>
					</split>
				</split>
				<split pos="right">
					<feature>7</feature>
					<threshold>0.25300172</threshold>
					<split pos="left">
						<output>-0.44486643074591192</output>
					</split>
					<split pos="right">
						<feature>5</feature>
						<threshold>0.0907350555</threshold>
						<split pos="left">
							<output>1.3385675647779471</output>
						</split>
						<split pos="right">
							<feature>6</feature>
							<threshold>0.403026998</threshold>
							<split pos="left">
								<output>0.81471859355097476</output>
							</split>
							<split pos="right">
								<feature>4</feature>
								<threshold>0.632014334</threshold>
								<split pos="left">
									<output>-0.4004953958712264</output>
								</split>
								<split pos="right">
									<feature>7</feature>
									<threshold>0.489789993</threshold>
									<split pos="left">
										<output>1.0591770618350618</output>
									</split>
									<split pos="right">
										<output>0.30486684552657078</output>
									</split>
								</split>
							</split>
						</split>
					</split>
				</split>
			</split>
		</tree>
		<tree id="23" weight="0.10000000149011612">
			<split>
				<feature>4</feature>
				<threshold>0.154061958</threshold>
				<split pos="left">
					<feature>5</feature>
					<threshold>0.55975014</threshold>
					<split pos="left">
						<feature>4</feature>
						<threshold>0.0823024288</threshold>
						<split pos="left">
							<feature>4</feature>
							<threshold>0.00690882187</threshold>
							<split pos="left">
								<output>-0.5216230453998657</output>
							</split>
							<split pos="right">
								<output>0.26786602040661689</output>
							</split>
						</split>
						<split pos="right">
							<output>-1.0678866152267827</output>
						</split>
					</split>
					<split pos="right">
						<output>-1.4134719261333453</output>
					</split>
				</split>
				<split pos="right">
					<feature>7</feature>
					<threshold>0.25300172</threshold>
					<split pos="left">
						<output>-0.41677782746885345</output>
					</split>
					<split pos="right">
						<feature>5</feature>
						<threshold>0.0907350555</threshold>
						<split pos="left">
							<output>1.3076582925421423</output>
						</split>
						<split pos="right">
							<feature>6</feature>
							<threshold>0.500080884</threshold>
							<split pos="left">
								<output>0.70163576115477599</output>
							</split>
							<split pos="right">
								<feature>7</feature>
								<threshold>0.685147703</threshold>
								<split pos="left">
									<output>-0.73896438997461011</output>
								</split>
								<split pos="right">
									<feature>6</feature>
									<threshold>0.725774705</threshold>
									<split pos="left">
										<output>1.1245983343839325</output>
									</split>
									<split pos="right">
										<output>0.12230877839453209</output>
									</split>
								</split>
							</split>
						</split>
					</split>
				</split>
			</split>
		</tree>
		<tree id="24" weight="0.10000000149011612">
			<split>
				<feature>4</feature>
				<threshold>0.263939232</threshold>
				<split pos="left">
					<feature>5</feature>
					<threshold>0.64674741</threshold>
					<split pos="left">
						<feature>4</feature>
						<threshold>0.263869077</threshold>
						<split pos="left">
							<feature>5</feature>
							<threshold>0.571238577</threshold>
							<split pos="left">
								<feature>5</feature>
								<threshold>0.337486535</threshold>
								<split pos="left">
									<feature>5</feature>
									<threshold>0.0376107506</threshold>
									<split pos="left">
										<output>-0.04715314092974867</output>
									</split>
									<split pos="right">
										<output>-0.80670492268378091</output>
									</split>
								</split>
								<split pos="right">
									<output>0.83194829236341417</output>
								</split>
							</split>
							<split pos="right">
								<output>-1.3497468989693515</output>
							</split>
						</split>
						<split pos="right">
							<output>-1.0847519719258947</output>
						</split>
					</split>
					<split pos="right">
						<output>-1.3779499015582641</output>
					</split>
				</split>
				<split pos="right">
					<feature>7</feature>
					<threshold>0.0446319953</threshold>
					<split pos="left">
						<output>-1.1479868313420434</output>
					</split>
					<split pos="right">
						<feature>5</feature>
						<threshold>0.0907350555</threshold>
						<split pos="left">
							<output>1.388672375852211</output>
						</split>
						<split pos="right">
							<feature>9</feature>
							<threshold>0</threshold>
							<split pos="left">
								<output>0.619952100027925</output>
							</split>
							<split pos="right">
								<output>0.027095782788899202</output>
							</split>
						</split>
					</split>
				</split>
			</split>
		</tree>
		<tree id="25" weight="0.10000000149011612">
			<split>
				<feature>4</feature>
				<threshold>0.154061958</threshold>
				<split pos="left">
					<feature>5</feature>
					<threshold>0.55975014</threshold>
					<split pos="left">
						<feature>7</feature>
						<threshold>0</threshold>
						<split pos="left">
							<feature>9</feature>
							<threshold>0</threshold>
							<split pos="left">
								<feature>4</feature>
								<threshold>0</threshold>
								<split pos="left">
									<output>-0.23394093919985737</output>
								</split>
								<split pos="right">
									<output>0.10559902899115126</output>
								</split>
							</split>
							<split pos="right">
								<output>1.1370956721199759</output>
							</split>
						</split>
						<split pos="right">
							<output>-0.80568453081750191</output>
						</split>
					</split>
					<split pos="right">
						<output>-1.331552052107452</output>
					</split>
				</split>
				<split pos="right">
					<feature>7</feature>
					<threshold>0.0779193118</threshold>
					<split pos="left">
						<output>-0.95006407461780262</output>
					</split>
					<split pos="right">
						<feature>5</feature>
						<threshold>0.0907350555</threshold>
						<split pos="left">
							<output>1.2490857374018822</output>
						</split>
						<split pos="right">
							<feature>3</feature>
							<threshold>0.0369723886</threshold>
							<split pos="left">
								<output>0.81480257586969906</output>
							</split>
							<split pos="right">
								<feature>4</feature>
								<threshold>0.632014334</threshold>
								<split pos="left">
									<output>-0.43023197996226031</output>
								</split>
								<split pos="right">
									<output>0.36133368947852862</output>
								</split>
							</split>
						</split>
					</split>
				</split>
			</split>
		</tree>
		<tree id="26" weight="0.10000000149011612">
			<split>
				<feature>4</feature>
				<threshold>0.154061958</threshold>
				<split pos="left">
					<feature>5</feature>
					<threshold>0.55975014</threshold>
					<split pos="left">
						<feature>4</feature>
						<threshold>0.0823024288</threshold>
						<split pos="left">
							<feature>9</feature>
							<threshold>0</threshold>
							<split pos="left">
								<feature>5</feature>
								<threshold>0.421066821</threshold>
								<split pos="left">
									<output>-0.44074682739540205</output>
								</split>
								<split pos="right">
									<output>1.1933337378209901</output>
								</split>
							</split>
							<split pos="right">
								<output>0.58019595960503145</output>
							</split>
						</split>
						<split pos="right">
							<output>-1.0475242150784632</output>
						</split>
					</split>
					<split pos="right">
						<output>-1.3115188005133029</output>
					</split>
				</split>
				<split pos="right">
					<feature>4</feature>
					<threshold>0.156317949</threshold>
					<split pos="left">
						<output>1.1171534705830404</output>
					</split>
					<split pos="right">
						<feature>7</feature>
						<threshold>0.25300172</threshold>
						<split pos="left">
							<output>-0.63252008395040571</output>
						</split>
						<split pos="right">
							<feature>5</feature>
							<threshold>0.103005797</threshold>
							<split pos="left">
								<output>1.224209813946656</output>
							</split>
							<split pos="right">
								<feature>6</feature>
								<threshold>0.500080884</threshold>
								<split pos="left">
									<output>0.65749093214236387</output>
								</split>
								<split pos="right">
									<output>0.032967413531020742</output>
								</split>
							</split>
						</split>
					</split>
				</split>
			</split>
		</tree>
		<tree id="27" weight="0.10000000149011612">
			<split>
				<feature>4</feature>
				<threshold>0.154061958</threshold>
				<split pos="left">
					<feature>5</feature>
					<threshold>0.55975014</threshold>
					<split pos="left">
						<feature>7</feature>
						<threshold>0</threshold>
						<split pos="left">
							<feature>9</feature>
							<threshold>0</threshold>
							<split pos="left">
								<feature>8</feature>
								<threshold>0</threshold>
								<split pos="left">
									<output>-0.20273080098704893</output>
								</split>
								<split pos="right">
									<output>0.059077385598610935</output>
								</split>
							</split>
							<split pos="right">
								<output>1.1201066338848289</output>
							</split>
						</split>
						<split pos="right">
							<output>-0.78794093129114406</output>
						</split>
					</split>
					<split pos="right">
						<output>-1.2904836364088932</output>
					</split>
				</split>
				<split pos="right">
					<feature>4</feature>
					<threshold>0.156317949</threshold>
					<split pos="left">
						<output>1.1089086525084373</output>
					</split>
					<split pos="right">
						<feature>7</feature>
						<threshold>0.25300172</threshold>
						<split pos="left">
							<output>-0.59648714927112012</output>
						</split>
						<split pos="right">
							<feature>5</feature>
							<threshold>0.0907350555</threshold>
							<split pos="left">
								<output>1.1992418119743746</output>
							</split>
							<split pos="right">
								<feature>6</feature>
								<threshold>0.500080884</threshold>
								<split pos="left">
									<output>0.62267831641637739</output>
								</split>
								<split pos="right">
									<output>0.041214965366802796</output>
								</split>
							</split>
						</split>
					</split>
				</split>
			</split>
		</tree>
		<tree id="28" weight="0.10000000149011612">
			<split>
				<feature>4</feature>
				<threshold>0.263939232</threshold>
				<split pos="left">
					<feature>5</feature>
					<threshold>0.64674741</threshold>
					<split pos="left">
						<feature>4</feature>
						<threshold>0.263869077</threshold>
						<split pos="left">
							<feature>8</feature>
							<threshold>0.572751045</threshold>
							<split pos="left">
								<feature>7</feature>
								<threshold>0.146607637</threshold>
								<split pos="left">
									<feature>3</feature>
									<threshold>0</threshold>
									<split pos="left">
										<feature>4</feature>
										<threshold>0</threshold>
										<split pos="left">
											<output>0</output>
										</split>
										<split pos="right">
											<output>1.1023746734919326</output>
										</split>
									</split>
									<split pos="right">
										<output>-0.34447180278720557</output>
									</split>
								</split>
								<split pos="right">
									<output>-0.72659114526345625</output>
								</split>
							</split>
							<split pos="right">
								<output>0.08363314260706374</output>
							</split>
						</split>
						<split pos="right">
							<output>-1.0656656453481772</output>
						</split>
					</split>
					<split pos="right">
						<output>-1.2502512297973942</output>
					</split>
				</split>
				<split pos="right">
					<feature>9</feature>
					<threshold>0</threshold>
					<split pos="left">
						<feature>4</feature>
						<threshold>0.4511123</threshold>
						<split pos="left">
							<output>1.1508883095257363</output>
						</split>
						<split pos="right">
							<output>0.30133960832449436</output>
						</split>
					</split>
					<split pos="right">
						<output>-0.077007903657800122</output>
					</split>
				</split>
			</split>
		</tree>
		<tree id="29" weight="0.10000000149011612">
			<split>
				<feature>4</feature>
				<threshold>0.632014334</threshold>
				<split pos="left">
					<feature>5</feature>
					<threshold>0.571238577</threshold>
					<split pos="left">
						<feature>6</feature>
						<threshold>0.24832274</threshold>
						<split pos="left">
							<feature>7</feature>
							<threshold>0.12247166</threshold>
							<split pos="left">
								<feature>3</feature>
								<threshold>0</threshold>
								<split pos="left">
									<feature>4</feature>
									<threshold>0</threshold>
									<split pos="left">
										<feature>8</feature>
										<threshold>0</threshold>
										<split pos="left">
											<output>0</output>
										</split>
										<split pos="right">
											<output>1.1101960929967629</output>
										</split>
									</split>
									<split pos="right">
										<output>1.0921386744520734</output>
									</split>
								</split>
								<split pos="right">
									<output>-0.48155625389728363</output>
								</split>
							</split>
							<split pos="right">
								<output>-1.0666179837131682</output>
							</split>
						</split>
						<split pos="right">
							<output>0.35827861373328984</output>
						</split>
					</split>
					<split pos="right">
						<output>-0.87864960692895033</output>
					</split>
				</split>
				<split pos="right">
					<feature>4</feature>
					<threshold>0.684440851</threshold>
					<split pos="left">
						<output>1.0595452345494398</output>
					</split>
					<split pos="right">
						<feature>3</feature>
						<threshold>0.457930356</threshold>
						<split pos="left">
							<output>0.32631021876966676</output>
						</split>
						<split pos="right">
							<output>-1.0521888758172295</output>
						</split>
					</split>
				</split>
			</split>
		</tree>
		<tree id="30" weight="0.10000000149011612">
			<split>
				<feature>4</feature>
				<threshold>0.263939232</threshold>
				<split pos="left">
					<feature>5</feature>
					<threshold>0.64674741</threshold>
					<split pos="left">
						<feature>6</feature>
						<threshold>0.713419139</threshold>
						<split pos="left">
							<feature>7</feature>
							<threshold>0.40878135</threshold>
							<split pos="left">
								<feature>7</feature>
								<threshold>0.146607637</threshold>
								<split pos="left">
									<feature>3</feature>
									<threshold>0</threshold>
									<split pos="left">
										<output>0.31975398577894665</output>
									</split>
									<split pos="right">
										<output>-0.37885645900433307</output>
									</split>
								</split>
								<split pos="right">
									<output>-0.71996673211383033</output>
								</split>
							</split>
							<split pos="right">
								<output>1.1157774446484003</output>
							</split>
						</split>
						<split pos="right">
							<output>-1.1154840323565891</output>
						</split>
					</split>
					<split pos="right">
						<output>-1.2285966802091695</output>
					</split>
				</split>
				<split pos="right">
					<feature>7</feature>
					<threshold>0.0779193118</threshold>
					<split pos="left">
						<output>-1.0670030290562038</output>
					</split>
					<split pos="right">
						<feature>5</feature>
						<threshold>0.0907350555</threshold>
						<split pos="left">
							<output>1.208873447830803</output>
						</split>
						<split pos="right">
							<feature>9</feature>
							<threshold>0</threshold>
							<split pos="left">
								<output>0.53634638560684778</output>
							</split>
							<split pos="right">
								<output>0.0093507998277971016</output>
							</split>
						</split>
					</split>
				</split>
			</split>
		</tree>
		<tree id="31" weight="0.10000000149011612">
			<split>
				<feature>4</feature>
				<threshold>0.632014334</threshold>
				<split pos="left">
					<feature>5</feature>
					<threshold>0.571238577</threshold>
					<split pos="left">
						<feature>6</feature>
						<threshold>0.24832274</threshold>
						<split pos="left">
							<feature>7</feature>
							<threshold>0.12247166</threshold>
							<split pos="left">
								<feature>3</feature>
								<threshold>0</threshold>
								<split pos="left">
									<feature>4</feature>
									<threshold>0</threshold>
									<split pos="left">
										<feature>8</feature>
										<threshold>0</threshold>
										<split pos="left">
											<output>0</output>
										</split>
										<split pos="right">
											<output>1.090711322372355</output>
										</split>
									</split>
									<split pos="right">
										<output>1.0786280667224926</output>
									</split>
								</split>
								<split pos="right">
									<output>-0.440887289239629</output>
								</split>
							</split>
							<split pos="right">
								<output>-1.0549210671719316</output>
							</split>
						</split>
						<split pos="right">
							<output>0.32865455127094073</output>
						</split>
					</split>
					<split pos="right">
						<output>-0.83584031877773135</output>
					</split>
				</split>
				<split pos="right">
					<feature>4</feature>
					<threshold>0.684440851</threshold>
					<split pos="left">
						<output>1.0568551250761771</output>
					</split>
					<split pos="right">
						<feature>4</feature>
						<threshold>0.966602445</threshold>
						<split pos="left">
							<output>0.47993138787998046</output>
						</split>
						<split pos="right">
							<output>-0.06036545896105211</output>
						</split>
					</split>
				</split>
			</split>
		</tree>
		<tree id="32" weight="0.10000000149011612">
			<split>
				<feature>4</feature>
				<threshold>0.632014334</threshold>
				<split pos="left">
					<feature>4</feature>
					<threshold>0.4511123</threshold>
					<split pos="left">
						<feature>4</feature>
						<threshold>0.356238425</threshold>
						<split pos="left">
							<feature>6</feature>
							<threshold>0.713419139</threshold>
							<split pos="left">
								<feature>7</feature>
								<threshold>0.40878135</threshold>
								<split pos="left">
									<feature>7</feature>
									<threshold>0.12247166</threshold>
									<split pos="left">
										<feature>3</feature>
										<threshold>0</threshold>
										<split pos="left">
											<feature>4</feature>
											<threshold>0</threshold>
											<split pos="left">
												<feature>8</feature>
												<threshold>0</threshold>
												<split pos="left">
													<output>0</output>
												</split>
												<split pos="right">
													<output>1.0808482954307927</output>
												</split>
											</split>
											<split pos="right">
												<output>1.0703366777520855</output>
											</split>
										</split>
										<split pos="right">
											<output>-0.34481571309305281</output>
										</split>
									</split>
									<split pos="right">
										<output>-0.70453203361826788</output>
									</split>
								</split>
								<split pos="right">
									<output>1.0929064567487368</output>
								</split>
							</split>
							<split pos="right">
								<output>-1.1282645832937486</output>
							</split>
						</split>
						<split pos="right">
							<output>0.86900580658733817</output>
						</split>
					</split>
					<split pos="right">
						<output>-1.057356217783985</output>
					</split>
				</split>
				<split pos="right">
					<output>0.29251966149307529</output>
				</split>
			</split>
		</tree>
		<tree id="33" weight="0.10000000149011612">
			<split>
				<feature>4</feature>
				<threshold>0.263939232</threshold>
				<split pos="left">
					<feature>5</feature>
					<threshold>0.64674741</threshold>
					<split pos="left">
						<feature>4</feature>
						<threshold>0.263869077</threshold>
						<split pos="left">
							<feature>5</feature>
							<threshold>0</threshold>
							<split pos="left">
								<feature>4</feature>
								<threshold>0.17606774</threshold>
								<split pos="left">
									<feature>4</feature>
									<threshold>0.0235137772</threshold>
									<split pos="left">
										<feature>7</feature>
										<threshold>0.0113404375</threshold>
										<split pos="left">
											<feature>8</feature>
											<threshold>0.338301122</threshold>
											<split pos="left">
												<feature>3</feature>
												<threshold>0.120401688</threshold>
												<split pos="left">
													<output>0</output>
												</split>
												<split pos="right">
													<output>-0.15818654809392141</output>
												</split>
											</split>
											<split pos="right">
												<output>1.0747195400403931</output>
											</split>
										</split>
										<split pos="right">
											<output>-1.0709200289390437</output>
										</split>
									</split>
									<split pos="right">
										<output>1.2338726015687032</output>
									</split>
								</split>
								<split pos="right">
									<output>1.0976153437439942</output>
								</split>
							</split>
							<split pos="right">
								<output>-0.5591917663106043</output>
							</split>
						</split>
						<split pos="right">
							<output>-1.0435189707826256</output>
						</split>
					</split>
					<split pos="right">
						<output>-1.1963983501194011</output>
					</split>
				</split>
				<split pos="right">
					<output>0.20241591827883681</output>
				</split>
			</split>
		</tree>
		<tree id="34" weight="0.10000000149011612">
			<split>
				<feature>4</feature>
				<threshold>0.632014334</threshold>
				<split pos="left">
					<feature>4</feature>
					<threshold>0.4511123</threshold>
					<split pos="left">
						<feature>4</feature>
						<threshold>0.356238425</threshold>
						<split pos="left">
							<feature>6</feature>
							<threshold>0.713419139</threshold>
							<split pos="left">
								<feature>7</feature>
								<threshold>0.40878135</threshold>
								<split pos="left">
									<feature>7</feature>
									<threshold>0.11941646</threshold>
									<split pos="left">
										<feature>3</feature>
										<threshold>0</threshold>
										<split pos="left">
											<feature>4</feature>
											<threshold>0</threshold>
											<split pos="left">
												<feature>8</feature>
												<threshold>0</threshold>
												<split pos="left">
													<output>0</output>
												</split>
												<split pos="right">
													<output>1.0684779143237906</output>
												</split>
											</split>
											<split pos="right">
												<output>1.0740999222181014</output>
											</split>
										</split>
										<split pos="right">
											<output>-0.3305387165219269</output>
										</split>
									</split>
									<split pos="right">
										<output>-0.66553642093172238</output>
									</split>
								</split>
								<split pos="right">
									<output>1.0785805070651728</output>
								</split>
							</split>
							<split pos="right">
								<output>-1.1086287455237254</output>
							</split>
						</split>
						<split pos="right">
							<output>0.85201497924640468</output>
						</split>
					</split>
					<split pos="right">
						<output>-1.0532350343685812</output>
					</split>
				</split>
				<split pos="right">
					<output>0.26172820834878452</output>
				</split>
			</split>
		</tree>
		<tree id="35" weight="0.10000000149011612">
			<split>
				<feature>4</feature>
				<threshold>0.154061958</threshold>
				<split pos="left">
					<feature>5</feature>
					<threshold>0.55975014</threshold>
					<split pos="left">
						<feature>4</feature>
						<threshold>0.0823024288</threshold>
						<split pos="left">
							<feature>9</feature>
							<threshold>0</threshold>
							<split pos="left">
								<feature>5</feature>
								<threshold>0.421066821</threshold>
								<split pos="left">
									<feature>7</feature>
									<threshold>0.11422804</threshold>
									<split pos="left">
										<feature>3</feature>
										<threshold>0</threshold>
										<split pos="left">
											<output>0</output>
										</split>
										<split pos="right">
											<output>-0.22711673961746456</output>
										</split>
									</split>
									<split pos="right">
										<output>-1.0545531143102336</output>
									</split>
								</split>
								<split pos="right">
									<output>1.0579494963545897</output>
								</split>
							</split>
							<split pos="right">
								<output>0.6638631300119171</output>
							</split>
						</split>
						<split pos="right">
							<output>-1.0231389865062959</output>
						</split>
					</split>
					<split pos="right">
						<output>-1.1827497938133751</output>
					</split>
				</split>
				<split pos="right">
					<feature>7</feature>
					<threshold>0.0779193118</threshold>
					<split pos="left">
						<output>-0.84828889740997804</output>
					</split>
					<split pos="right">
						<feature>5</feature>
						<threshold>0.0907350555</threshold>
						<split pos="left">
							<output>1.1329670048562068</output>
						</split>
						<split pos="right">
							<output>0.18712343359218955</output>
						</split>
					</split>
				</split>
			</split>
		</tree>
		<tree id="36" weight="0.10000000149011612">
			<split>
				<feature>4</feature>
				<threshold>0.632014334</threshold>
				<split pos="left">
					<feature>4</feature>
					<threshold>0.4511123</threshold>
					<split pos="left">
						<feature>4</feature>
						<threshold>0.420304</threshold>
						<split pos="left">
							<feature>6</feature>
							<threshold>0.725774705</threshold>
							<split pos="left">
								<feature>7</feature>
								<threshold>0.40878135</threshold>
								<split pos="left">
									<feature>7</feature>
									<threshold>0.11941646</threshold>
									<split pos="left">
										<feature>3</feature>
										<threshold>0</threshold>
										<split pos="left">
											<feature>4</feature>
											<threshold>0</threshold>
											<split pos="left">
												<feature>8</feature>
												<threshold>0</threshold>
												<split pos="left">
													<output>0</output>
												</split>
												<split pos="right">
													<output>1.0602295040345942</output>
												</split>
											</split>
											<split pos="right">
												<output>1.0646714124892556</output>
											</split>
										</split>
										<split pos="right">
											<output>-0.36253129258830813</output>
										</split>
									</split>
									<split pos="right">
										<output>-0.62275429468102439</output>
									</split>
								</split>
								<split pos="right">
									<output>1.0688244957645507</output>
								</split>
							</split>
							<split pos="right">
								<output>-1.0969804484268282</output>
							</split>
						</split>
						<split pos="right">
							<output>1.0482651663019369</output>
						</split>
					</split>
					<split pos="right">
						<output>-1.0473268347865994</output>
					</split>
				</split>
				<split pos="right">
					<output>0.24371977902287276</output>
				</split>
			</split>
		</tree>
		<tree id="37" weight="0.10000000149011612">
			<split>
				<feature>4</feature>
				<threshold>0.632014334</threshold>
				<split pos="left">
					<feature>5</feature>
					<threshold>0.571238577</threshold>
					<split pos="left">
						<feature>6</feature>
						<threshold>0.24832274</threshold>
						<split pos="left">
							<feature>7</feature>
							<threshold>0.12247166</threshold>
							<split pos="left">
								<feature>3</feature>
								<threshold>0</threshold>
								<split pos="left">
									<feature>4</feature>
									<threshold>0</threshold>
									<split pos="left">
										<feature>8</feature>
										<threshold>0</threshold>
										<split pos="left">
											<output>0</output>
										</split>
										<split pos="right">
											<output>1.0555071232175812</output>
										</split>
									</split>
									<split pos="right">
										<output>1.055876803398266</output>
									</split>
								</split>
								<split pos="right">
									<output>-0.38881212311072233</output>
								</split>
							</split>
							<split pos="right">
								<output>-1.0307544411087146</output>
							</split>
						</split>
						<split pos="right">
							<output>0.3250961874061557</output>
						</split>
					</split>
					<split pos="right">
						<output>-0.81211493797666312</output>
					</split>
				</split>
				<split pos="right">
					<feature>4</feature>
					<threshold>0.684440851</threshold>
					<split pos="left">
						<output>1.0536856931172109</output>
					</split>
					<split pos="right">
						<feature>4</feature>
						<threshold>0.966602445</threshold>
						<split pos="left">
							<output>0.40606239549835133</output>
						</split>
						<split pos="right">
							<output>-0.16397050473770924</output>
						</split>
					</split>
				</split>
			</split>
		</tree>
		<tree id="38" weight="0.10000000149011612">
			<split>
				<feature>4</feature>
				<threshold>0.154061958</threshold>
				<split pos="left">
					<feature>5</feature>
					<threshold>0.55975014</threshold>
					<split pos="left">
						<feature>4</feature>
						<threshold>0.0823024288</threshold>
						<split pos="left">
							<feature>9</feature>
							<threshold>0</threshold>
							<split pos="left">
								<feature>5</feature>
								<threshold>0.377631038</threshold>
								<split pos="left">
									<feature>7</feature>
									<threshold>0.11422804</threshold>
									<split pos="left">
										<feature>3</feature>
										<threshold>0</threshold>
										<split pos="left">
											<output>0</output>
										</split>
										<split pos="right">
											<output>-0.21806136540194709</output>
										</split>
									</split>
									<split pos="right">
										<output>-1.0391253298360155</output>
									</split>
								</split>
								<split pos="right">
									<output>1.0332881119410258</output>
								</split>
							</split>
							<split pos="right">
								<output>0.63648663727724264</output>
							</split>
						</split>
						<split pos="right">
							<output>-1.0191222001524274</output>
						</split>
					</split>
					<split pos="right">
						<output>-1.1620751931684203</output>
					</split>
				</split>
				<split pos="right">
					<feature>7</feature>
					<threshold>0.0779193118</threshold>
					<split pos="left">
						<output>-0.81336657274560309</output>
					</split>
					<split pos="right">
						<feature>5</feature>
						<threshold>0.0907350555</threshold>
						<split pos="left">
							<output>1.1121035107454857</output>
						</split>
						<split pos="right">
							<output>0.16993169385045429</output>
						</split>
					</split>
				</split>
			</split>
		</tree>
		<tree id="39" weight="0.10000000149011612">
			<split>
				<feature>4</feature>
				<threshold>0.632014334</threshold>
				<split pos="left">
					<feature>4</feature>
					<threshold>0.4511123</threshold>
					<split pos="left">
						<feature>4</feature>
						<threshold>0.420304</threshold>
						<split pos="left">
							<feature>6</feature>
							<threshold>0.725774705</threshold>
							<split pos="left">
								<feature>7</feature>
								<threshold>0.40878135</threshold>
								<split pos="left">
									<feature>5</feature>
									<threshold>0.337486535</threshold>
									<split pos="left">
										<feature>8</feature>
										<threshold>0.873183846</threshold>
										<split pos="left">
											<feature>9</feature>
											<threshold>0</threshold>
											<split pos="left">
												<feature>3</feature>
												<threshold>0.924512327</threshold>
												<split pos="left">
													<output>-0.31076400892075523</output>
												</split>
												<split pos="right">
													<output>-0.056363999347775445</output>
												</split>
											</split>
											<split pos="right">
												<output>-1.0224705365894375</output>
											</split>
										</split>
										<split pos="right">
											<output>1.0468948611519862</output>
										</split>
									</split>
									<split pos="right">
										<output>0.72710973560146908</output>
									</split>
								</split>
								<split pos="right">
									<output>1.0587097290345655</output>
								</split>
							</split>
							<split pos="right">
								<output>-1.0844362488689467</output>
							</split>
						</split>
						<split pos="right">
							<output>1.0339012218820498</output>
						</split>
					</split>
					<split pos="right">
						<output>-1.0382170966021254</output>
					</split>
				</split>
				<split pos="right">
					<output>0.22170557023518389</output>
				</split>
			</split>
		</tree>
		<tree id="40" weight="0.10000000149011612">
			<split>
				<feature>4</feature>
				<threshold>0.154061958</threshold>
				<split pos="left">
					<feature>5</feature>
					<threshold>0.55975014</threshold>
					<split pos="left">
						<feature>8</feature>
						<threshold>0.572751045</threshold>
						<split pos="left">
							<feature>7</feature>
							<threshold>0.40878135</threshold>
							<split pos="left">
								<feature>7</feature>
								<threshold>0.11422804</threshold>
								<split pos="left">
									<feature>4</feature>
									<threshold>0.0323364027</threshold>
									<split pos="left">
										<feature>3</feature>
										<threshold>0.120401688</threshold>
										<split pos="left">
											<feature>5</feature>
											<threshold>0</threshold>
											<split pos="left">
												<feature>3</feature>
												<threshold>0</threshold>
												<split pos="left">
													<output>0</output>
												</split>
												<split pos="right">
													<output>0</output>
												</split>
											</split>
											<split pos="right">
												<output>-1.0036092506449001</output>
											</split>
										</split>
										<split pos="right">
											<output>-0.23249243109666876</output>
										</split>
									</split>
									<split pos="right">
										<output>-1.0143917602765582</output>
									</split>
								</split>
								<split pos="right">
									<output>-1.0273401474682622</output>
								</split>
							</split>
							<split pos="right">
								<output>1.0215709909337196</output>
							</split>
						</split>
						<split pos="right">
							<output>0.043507855449386103</output>
						</split>
					</split>
					<split pos="right">
						<output>-1.1433327508550539</output>
					</split>
				</split>
				<split pos="right">
					<output>0.13440563691590204</output>
				</split>
			</split>
		</tree>
		<tree id="41" weight="0.10000000149011612">
			<split>
				<feature>4</feature>
				<threshold>0.632014334</threshold>
				<split pos="left">
					<feature>4</feature>
					<threshold>0.4511123</threshold>
					<split pos="left">
						<feature>4</feature>
						<threshold>0.420304</threshold>
						<split pos="left">
							<feature>6</feature>
							<threshold>0.725774705</threshold>
							<split pos="left">
								<feature>7</feature>
								<threshold>0.40878135</threshold>
								<split pos="left">
									<feature>5</feature>
									<threshold>0.337486535</threshold>
									<split pos="left">
										<feature>8</feature>
										<threshold>0.873183846</threshold>
										<split pos="left">
											<feature>4</feature>
											<threshold>0.263869077</threshold>
											<split pos="left">
												<feature>4</feature>
												<threshold>0.245639786</threshold>
												<split pos="left">
													<output>-0.30919695509830941</output>
												</split>
												<split pos="right">
													<output>0.092769303092257588</output>
												</split>
											</split>
											<split pos="right">
												<output>-1.0229942799822289</output>
											</split>
										</split>
										<split pos="right">
											<output>1.0435747976243808</output>
										</split>
									</split>
									<split pos="right">
										<output>0.69645869520155901</output>
									</split>
								</split>
								<split pos="right">
									<output>1.0531144403384776</output>
								</split>
							</split>
							<split pos="right">
								<output>-1.0704149798403468</output>
							</split>
						</split>
						<split pos="right">
							<output>1.0230718544087072</output>
						</split>
					</split>
					<split pos="right">
						<output>-1.0340423851485143</output>
					</split>
				</split>
				<split pos="right">
					<output>0.20080903735739938</output>
				</split>
			</split>
		</tree>
		<tree id="42" weight="0.10000000149011612">
			<split>
				<feature>4</feature>
				<threshold>0.632014334</threshold>
				<split pos="left">
					<feature>4</feature>
					<threshold>0.4511123</threshold>
					<split pos="left">
						<feature>4</feature>
						<threshold>0.420304</threshold>
						<split pos="left">
							<feature>6</feature>
							<threshold>0.725774705</threshold>
							<split pos="left">
								<feature>7</feature>
								<threshold>0.40878135</threshold>
								<split pos="left">
									<feature>5</feature>
									<threshold>0.337486535</threshold>
									<split pos="left">
										<feature>8</feature>
										<threshold>0.873183846</threshold>
										<split pos="left">
											<feature>9</feature>
											<threshold>0</threshold>
											<split pos="left">
												<feature>6</feature>
												<threshold>0.24832274</threshold>
												<split pos="left">
													<output>-0.26206238302240542</output>
												</split>
												<split pos="right">
													<output>0.069471292364114506</output>
												</split>
											</split>
											<split pos="right">
												<output>-1.0175277217681089</output>
											</split>
										</split>
										<split pos="right">
											<output>1.0400529516452859</output>
										</split>
									</split>
									<split pos="right">
										<output>0.66178641436732566</output>
									</split>
								</split>
								<split pos="right">
									<output>1.0489528533837458</output>
								</split>
							</split>
							<split pos="right">
								<output>-1.0671536052207835</output>
							</split>
						</split>
						<split pos="right">
							<output>1.0075448260533924</output>
						</split>
					</split>
					<split pos="right">
						<output>-1.0294716482074382</output>
					</split>
				</split>
				<split pos="right">
					<output>0.193241439617579</output>
				</split>
			</split>
		</tree>
		<tree id="43" weight="0.10000000149011612">
			<split>
				<feature>4</feature>
				<threshold>0.632014334</threshold>
				<split pos="left">
					<feature>4</feature>
					<threshold>0.4511123</threshold>
					<split pos="left">
						<feature>4</feature>
						<threshold>0.420304</threshold>
						<split pos="left">
							<feature>6</feature>
							<threshold>0.725774705</threshold>
							<split pos="left">
								<feature>7</feature>
								<threshold>0.40878135</threshold>
								<split pos="left">
									<feature>8</feature>
									<threshold>0.873183846</threshold>
									<split pos="left">
										<feature>5</feature>
										<threshold>0.337486535</threshold>
										<split pos="left">
											<feature>4</feature>
											<threshold>0.263869077</threshold>
											<split pos="left">
												<feature>7</feature>
												<threshold>0.11941646</threshold>
												<split pos="left">
													<output>-0.14466556722783144</output>
												</split>
												<split pos="right">
													<output>-0.52142241682909629</output>
												</split>
											</split>
											<split pos="right">
												<output>-1.0180593193798062</output>
											</split>
										</split>
										<split pos="right">
											<output>0.63557179165083844</output>
										</split>
									</split>
									<split pos="right">
										<output>1.0368008601058194</output>
									</split>
								</split>
								<split pos="right">
									<output>1.0453198821887781</output>
								</split>
							</split>
							<split pos="right">
								<output>-1.0637868924174467</output>
							</split>
						</split>
						<split pos="right">
							<output>0.99104197909278757</output>
						</split>
					</split>
					<split pos="right">
						<output>-1.0258840469965333</output>
					</split>
				</split>
				<split pos="right">
					<output>0.18524892536010723</output>
				</split>
			</split>
		</tree>
		<tree id="44" weight="0.10000000149011612">
			<split>
				<feature>4</feature>
				<threshold>0.154061958</threshold>
				<split pos="left">
					<feature>5</feature>
					<threshold>0.55975014</threshold>
					<split pos="left">
						<feature>8</feature>
						<threshold>0.572751045</threshold>
						<split pos="left">
							<feature>7</feature>
							<threshold>0.40878135</threshold>
							<split pos="left">
								<feature>6</feature>
								<threshold>0.247656897</threshold>
								<split pos="left">
									<feature>7</feature>
									<threshold>0.164286807</threshold>
									<split pos="left">
										<feature>3</feature>
										<threshold>0.120401688</threshold>
										<split pos="left">
											<feature>5</feature>
											<threshold>0</threshold>
											<split pos="left">
												<feature>3</feature>
												<threshold>0</threshold>
												<split pos="left">
													<output>0</output>
												</split>
												<split pos="right">
													<output>0</output>
												</split>
											</split>
											<split pos="right">
												<output>-1.0022465555398925</output>
											</split>
										</split>
										<split pos="right">
											<output>-0.25710902943637282</output>
										</split>
									</split>
									<split pos="right">
										<output>-1.0221529170683947</output>
									</split>
								</split>
								<split pos="right">
									<output>-1.0171846735936036</output>
								</split>
							</split>
							<split pos="right">
								<output>1.0092071904322206</output>
							</split>
						</split>
						<split pos="right">
							<output>0.030427682421561981</output>
						</split>
					</split>
					<split pos="right">
						<output>-1.1075199184173043</output>
					</split>
				</split>
				<split pos="right">
					<output>0.12427590644275992</output>
				</split>
			</split>
		</tree>
		<tree id="45" weight="0.10000000149011612">
			<split>
				<feature>6</feature>
				<threshold>0.191946536</threshold>
				<split pos="left">
					<feature>5</feature>
					<threshold>0.923151672</threshold>
					<split pos="left">
						<feature>5</feature>
						<threshold>0.912102342</threshold>
						<split pos="left">
							<feature>7</feature>
							<threshold>0.164286807</threshold>
							<split pos="left">
								<feature>3</feature>
								<threshold>0</threshold>
								<split pos="left">
									<feature>6</feature>
									<threshold>0</threshold>
									<split pos="left">
										<feature>8</feature>
										<threshold>0</threshold>
										<split pos="left">
											<feature>4</feature>
											<threshold>0</threshold>
											<split pos="left">
												<output>0</output>
											</split>
											<split pos="right">
												<output>0</output>
											</split>
										</split>
										<split pos="right">
											<output>1.0341154665215024</output>
										</split>
									</split>
									<split pos="right">
										<output>1.0558253465644691</output>
									</split>
								</split>
								<split pos="right">
									<output>-0.39403890650178564</output>
								</split>
							</split>
							<split pos="right">
								<output>-1.0228293164296718</output>
							</split>
						</split>
						<split pos="right">
							<output>-1.0360731324988532</output>
						</split>
					</split>
					<split pos="right">
						<output>1.0101744951171541</output>
					</split>
				</split>
				<split pos="right">
					<feature>6</feature>
					<threshold>0.502154648</threshold>
					<split pos="left">
						<output>0.474432714645178</output>
					</split>
					<split pos="right">
						<output>-0.10558264078926476</output>
					</split>
				</split>
			</split>
		</tree>
		<tree id="46" weight="0.10000000149011612">
			<split>
				<feature>7</feature>
				<threshold>0.352439553</threshold>
				<split pos="left">
					<feature>5</feature>
					<threshold>0.923151672</threshold>
					<split pos="left">
						<feature>6</feature>
						<threshold>0.275779963</threshold>
						<split pos="left">
							<feature>6</feature>
							<threshold>0.24832274</threshold>
							<split pos="left">
								<feature>5</feature>
								<threshold>0.912102342</threshold>
								<split pos="left">
									<feature>7</feature>
									<threshold>0.12247166</threshold>
									<split pos="left">
										<feature>3</feature>
										<threshold>0</threshold>
										<split pos="left">
											<feature>6</feature>
											<threshold>0</threshold>
											<split pos="left">
												<feature>8</feature>
												<threshold>0</threshold>
												<split pos="left">
													<output>0</output>
												</split>
												<split pos="right">
													<output>1.0304407153398252</output>
												</split>
											</split>
											<split pos="right">
												<output>1.0552193235201324</output>
											</split>
										</split>
										<split pos="right">
											<output>-0.33501257820850949</output>
										</split>
									</split>
									<split pos="right">
										<output>-1.0171508826547151</output>
									</split>
								</split>
								<split pos="right">
									<output>-1.0328973531607939</output>
								</split>
							</split>
							<split pos="right">
								<output>1.0508317439337549</output>
							</split>
						</split>
						<split pos="right">
							<output>-1.0557863866519852</output>
						</split>
					</split>
					<split pos="right">
						<output>1.037491320896861</output>
					</split>
				</split>
				<split pos="right">
					<output>0.15181246746638111</output>
				</split>
			</split>
		</tree>
		<tree id="47" weight="0.10000000149011612">
			<split>
				<feature>4</feature>
				<threshold>0.632014334</threshold>
				<split pos="left">
					<feature>5</feature>
					<threshold>0.723636448</threshold>
					<split pos="left">
						<feature>6</feature>
						<threshold>0.24832274</threshold>
						<split pos="left">
							<feature>8</feature>
							<threshold>0.760804832</threshold>
							<split pos="left">
								<feature>4</feature>
								<threshold>0.17606774</threshold>
								<split pos="left">
									<feature>4</feature>
									<threshold>0.154061958</threshold>
									<split pos="left">
										<feature>7</feature>
										<threshold>0.164286807</threshold>
										<split pos="left">
											<feature>3</feature>
											<threshold>0.120401688</threshold>
											<split pos="left">
												<feature>5</feature>
												<threshold>0.114038214</threshold>
												<split pos="left">
													<output>-0.0031188590413359436</output>
												</split>
												<split pos="right">
													<output>-1.0022392919832315</output>
												</split>
											</split>
											<split pos="right">
												<output>-0.19874622276871537</output>
											</split>
										</split>
										<split pos="right">
											<output>-1.015855998436817</output>
										</split>
									</split>
									<split pos="right">
										<output>0.66364138830041097</output>
									</split>
								</split>
								<split pos="right">
									<output>-1.0103619576820011</output>
								</split>
							</split>
							<split pos="right">
								<output>1.027880240346785</output>
							</split>
						</split>
						<split pos="right">
							<output>0.14726209559411407</output>
						</split>
					</split>
					<split pos="right">
						<output>-0.71722290476810457</output>
					</split>
				</split>
				<split pos="right">
					<output>0.16903849771645926</output>
				</split>
			</split>
		</tree>
		<tree id="48" weight="0.10000000149011612">
			<split>
				<feature>6</feature>
				<threshold>0.378299743</threshold>
				<split pos="left">
					<feature>5</feature>
					<threshold>0.923151672</threshold>
					<split pos="left">
						<feature>4</feature>
						<threshold>0.59714365</threshold>
						<split pos="left">
							<feature>3</feature>
							<threshold>0</threshold>
							<split pos="left">
								<feature>4</feature>
								<threshold>0</threshold>
								<split pos="left">
									<feature>8</feature>
									<threshold>0</threshold>
									<split pos="left">
										<feature>7</feature>
										<threshold>0</threshold>
										<split pos="left">
											<output>0</output>
										</split>
										<split pos="right">
											<output>-1.0233471385616726</output>
										</split>
									</split>
									<split pos="right">
										<output>1.0255857109867146</output>
									</split>
								</split>
								<split pos="right">
									<output>1.0493641337374455</output>
								</split>
							</split>
							<split pos="right">
								<output>-0.33498498063598381</output>
							</split>
						</split>
						<split pos="right">
							<output>-1.0424783891756821</output>
						</split>
					</split>
					<split pos="right">
						<output>1.0316354826621392</output>
					</split>
				</split>
				<split pos="right">
					<feature>6</feature>
					<threshold>0.390163541</threshold>
					<split pos="left">
						<output>1.0540214111941439</output>
					</split>
					<split pos="right">
						<feature>3</feature>
						<threshold>0.340388</threshold>
						<split pos="left">
							<output>-0.40110329247175192</output>
						</split>
						<split pos="right">
							<output>0.63504530289447325</output>
						</split>
					</split>
				</split>
			</split>
		</tree>
		<tree id="49" weight="0.10000000149011612">
			<split>
				<feature>4</feature>
				<threshold>0.632014334</threshold>
				<split pos="left">
					<feature>4</feature>
					<threshold>0.4511123</threshold>
					<split pos="left">
						<feature>4</feature>
						<threshold>0.420304</threshold>
						<split pos="left">
							<feature>6</feature>
							<threshold>0.725774705</threshold>
							<split pos="left">
								<feature>7</feature>
								<threshold>0.40878135</threshold>
								<split pos="left">
									<feature>8</feature>
									<threshold>0.873183846</threshold>
									<split pos="left">
										<feature>5</feature>
										<threshold>0.337486535</threshold>
										<split pos="left">
											<feature>9</feature>
											<threshold>0</threshold>
											<split pos="left">
												<feature>3</feature>
												<threshold>0.924512327</threshold>
												<split pos="left">
													<output>-0.21830898577880054</output>
												</split>
												<split pos="right">
													<output>-0.013156142585516169</output>
												</split>
											</split>
											<split pos="right">
												<output>-1.0118372471713368</output>
											</split>
										</split>
										<split pos="right">
											<output>0.58469073848875786</output>
										</split>
									</split>
									<split pos="right">
										<output>1.0246057459208153</output>
									</split>
								</split>
								<split pos="right">
									<output>1.0409633005999772</output>
								</split>
							</split>
							<split pos="right">
								<output>-1.0562929886710031</output>
							</split>
						</split>
						<split pos="right">
							<output>0.98329140938166126</output>
						</split>
					</split>
					<split pos="right">
						<output>-1.0213130809715605</output>
					</split>
				</split>
				<split pos="right">
					<output>0.17255617447336138</output>
				</split>
			</split>
		</tree>
		<tree id="50" weight="0.10000000149011612">
			<split>
				<feature>3</feature>
				<threshold>0</threshold>
				<split pos="left">
					<feature>6</feature>
					<threshold>0.161764383</threshold>
					<split pos="left">
						<feature>8</feature>
						<threshold>0</threshold>
						<split pos="left">
							<feature>6</feature>
							<threshold>0.144577697</threshold>
							<split pos="left">
								<feature>6</feature>
								<threshold>0.0144510986</threshold>
								<split pos="left">
									<feature>4</feature>
									<threshold>0.487444609</threshold>
									<split pos="left">
										<feature>7</feature>
										<threshold>0</threshold>
										<split pos="left">
											<output>0</output>
										</split>
										<split pos="right">
											<output>-1.0211116051381146</output>
										</split>
									</split>
									<split pos="right">
										<output>-1.0232775619509757</output>
									</split>
								</split>
								<split pos="right">
									<output>1.0253868096910599</output>
								</split>
							</split>
							<split pos="right">
								<output>-1.0191437235192953</output>
							</split>
						</split>
						<split pos="right">
							<output>1.0225960481702863</output>
						</split>
					</split>
					<split pos="right">
						<output>0.82143678086218597</output>
					</split>
				</split>
				<split pos="right">
					<feature>4</feature>
					<threshold>0.966602445</threshold>
					<split pos="left">
						<feature>4</feature>
						<threshold>0.956971228</threshold>
						<split pos="left">
							<output>-0.049377486207172028</output>
						</split>
						<split pos="right">
							<output>1.0571135257149815</output>
						</split>
					</split>
					<split pos="right">
						<output>-0.88512855604937513</output>
					</split>
				</split>
			</split>
		</tree>
		<tree id="51" weight="0.10000000149011612">
			<split>
				<feature>3</feature>
				<threshold>0.0369723886</threshold>
				<split pos="left">
					<feature>6</feature>
					<threshold>0.204219982</threshold>
					<split pos="left">
						<feature>8</feature>
						<threshold>0.304813474</threshold>
						<split pos="left">
							<feature>5</feature>
							<threshold>0.923151672</threshold>
							<split pos="left">
								<feature>5</feature>
								<threshold>0.377631038</threshold>
								<split pos="left">
									<feature>5</feature>
									<threshold>0.312989026</threshold>
									<split pos="left">
										<feature>7</feature>
										<threshold>0.164286807</threshold>
										<split pos="left">
											<feature>3</feature>
											<threshold>0.00621207757</threshold>
											<split pos="left">
												<feature>3</feature>
												<threshold>0</threshold>
												<split pos="left">
													<output>0</output>
												</split>
												<split pos="right">
													<output>-1.0005403579985319</output>
												</split>
											</split>
											<split pos="right">
												<output>-1.0020441994623417</output>
											</split>
										</split>
										<split pos="right">
											<output>-1.0191696385355355</output>
										</split>
									</split>
									<split pos="right">
										<output>0.78305073492372046</output>
									</split>
								</split>
								<split pos="right">
									<output>-1.0196085525689302</output>
								</split>
							</split>
							<split pos="right">
								<output>1.0057505131142539</output>
							</split>
						</split>
						<split pos="right">
							<output>1.0186715797439003</output>
						</split>
					</split>
					<split pos="right">
						<output>0.78639230143952998</output>
					</split>
				</split>
				<split pos="right">
					<output>-0.11839272283349353</output>
				</split>
			</split>
		</tree>
		<tree id="52" weight="0.10000000149011612">
			<split>
				<feature>3</feature>
				<threshold>0.0369723886</threshold>
				<split pos="left">
					<feature>6</feature>
					<threshold>0.204219982</threshold>
					<split pos="left">
						<feature>8</feature>
						<threshold>0.304813474</threshold>
						<split pos="left">
							<feature>5</feature>
							<threshold>0.923151672</threshold>
							<split pos="left">
								<feature>4</feature>
								<threshold>0.44774878</threshold>
								<split pos="left">
									<feature>5</feature>
									<threshold>0.312989026</threshold>
									<split pos="left">
										<feature>7</feature>
										<threshold>0.164286807</threshold>
										<split pos="left">
											<feature>9</feature>
											<threshold>0</threshold>
											<split pos="left">
												<feature>3</feature>
												<threshold>0</threshold>
												<split pos="left">
													<output>0</output>
												</split>
												<split pos="right">
													<output>-1.000494736051444</output>
												</split>
											</split>
											<split pos="right">
												<output>-1.001771329100136</output>
											</split>
										</split>
										<split pos="right">
											<output>-1.0175284436827616</output>
										</split>
									</split>
									<split pos="right">
										<output>0.73870831869307096</output>
									</split>
								</split>
								<split pos="right">
									<output>-1.0179273229731054</output>
								</split>
							</split>
							<split pos="right">
								<output>1.0051391228223499</output>
							</split>
						</split>
						<split pos="right">
							<output>1.0166647570975655</output>
						</split>
					</split>
					<split pos="right">
						<output>0.74496650356080829</output>
					</split>
				</split>
				<split pos="right">
					<output>-0.10583354334594666</output>
				</split>
			</split>
		</tree>
		<tree id="53" weight="0.10000000149011612">
			<split>
				<feature>3</feature>
				<threshold>0.340388</threshold>
				<split pos="left">
					<feature>3</feature>
					<threshold>0.328521013</threshold>
					<split pos="left">
						<feature>3</feature>
						<threshold>0.0369723886</threshold>
						<split pos="left">
							<feature>6</feature>
							<threshold>0.204219982</threshold>
							<split pos="left">
								<feature>8</feature>
								<threshold>0.304813474</threshold>
								<split pos="left">
									<feature>6</feature>
									<threshold>0</threshold>
									<split pos="left">
										<feature>5</feature>
										<threshold>0.912102342</threshold>
										<split pos="left">
											<feature>7</feature>
											<threshold>0</threshold>
											<split pos="left">
												<feature>3</feature>
												<threshold>0</threshold>
												<split pos="left">
													<output>0</output>
												</split>
												<split pos="right">
													<output>-1.0017646892579897</output>
												</split>
											</split>
											<split pos="right">
												<output>-1.0160096054943444</output>
											</split>
										</split>
										<split pos="right">
