<ranker>
	<info>
		<type>LAMBDAMART</type>
		<trees>1000</trees>
		<leaves>10</leaves>
		<shrinkage>0.10000000149011612</shrinkage>
		<leafsupport>1</leafsupport>
		<discretization>0</discretization>
		<estop>100</estop>
		<subsample>1</subsample>
		<max_features>1</max_features>
		<collapse_leaves_factor>0</collapse_leaves_factor>
	</info>
	<ensemble>
		<tree id="1" weight="0.10000000149011612">
			<split>
				<feature>4</feature>
				<threshold>0.375063598</threshold>
				<split pos="left">
					<feature>6</feature>
					<threshold>0.11587733</threshold>
					<split pos="left">
						<output>-1.8066182749252611</output>
					</split>
					<split pos="right">
						<feature>8</feature>
						<threshold>0</threshold>
						<split pos="left">
							<feature>7</feature>
							<threshold>0.182254553</threshold>
							<split pos="left">
								<output>1.8352324852941275</output>
							</split>
							<split pos="right">
								<output>-2</output>
							</split>
						</split>
						<split pos="right">
							<output>-0.53553191308029069</output>
						</split>
					</split>
				</split>
				<split pos="right">
					<feature>5</feature>
					<threshold>0.0661067516</threshold>
					<split pos="left">
						<output>1.8873315535274964</output>
					</split>
					<split pos="right">
						<feature>8</feature>
						<threshold>0.0298808068</threshold>
						<split pos="left">
							<output>-2</output>
						</split>
						<split pos="right">
							<feature>9</feature>
							<threshold>0</threshold>
							<split pos="left">
								<feature>5</feature>
								<threshold>0.373814672</threshold>
								<split pos="left">
									<output>-2</output>
								</split>
								<split pos="right">
									<feature>5</feature>
									<threshold>0.416966468</threshold>
									<split pos="left">
										<output>2</output>
									</split>
									<split pos="right">
										<output>1.1558173433320249</output>
									</split>
								</split>
							</split>
							<split pos="right">
								<output>0.37177248739103186</output>
							</split>
						</split>
					</split>
				</split>
			</split>
		</tree>
		<tree id="2" weight="0.10000000149011612">
			<split>
				<feature>5</feature>
				<threshold>0.0354566053</threshold>
				<split pos="left">
					<output>-1.6376076624724807</output>
				</split>
				<split pos="right">
					<feature>5</feature>
					<threshold>0.0362916999</threshold>
					<split pos="left">
						<output>1.7306762986547073</output>
					</split>
					<split pos="right">
						<feature>4</feature>
						<threshold>0.375063598</threshold>
						<split pos="left">
							<output>-1.0578461411207312</output>
						</split>
						<split pos="right">
							<feature>5</feature>
							<threshold>0.0661067516</threshold>
							<split pos="left">
								<output>1.7546967207275983</output>
							</split>
							<split pos="right">
								<feature>7</feature>
								<threshold>0.502280116</threshold>
								<split pos="left">
									<output>-0.51883996322266912</output>
								</split>
								<split pos="right">
									<feature>7</feature>
									<threshold>0.553816378</threshold>
									<split pos="left">
										<output>1.7346105621927148</output>
									</split>
									<split pos="right">
										<feature>9</feature>
										<threshold>0</threshold>
										<split pos="left">
											<feature>5</feature>
											<threshold>0.416966468</threshold>
											<split pos="left">
												<output>1.746587738703967</output>
											</split>
											<split pos="right">
												<feature>4</feature>
												<threshold>0.404295802</threshold>
												<split pos="left">
													<output>1.8082899494407696</output>
												</split>
												<split pos="right">
													<output>1.1677228866132787</output>
												</split>
											</split>
										</split>
										<split pos="right">
											<output>-0.17356743219883458</output>
										</split>
									</split>
								</split>
							</split>
						</split>
					</split>
				</split>
			</split>
		</tree>
		<tree id="3" weight="0.10000000149011612">
			<split>
				<feature>4</feature>
				<threshold>0.375063598</threshold>
				<split pos="left">
					<feature>6</feature>
					<threshold>0.177672714</threshold>
					<split pos="left">
						<output>-1.4485810807948938</output>
					</split>
					<split pos="right">
						<feature>6</feature>
						<threshold>0.178629115</threshold>
						<split pos="left">
							<output>1.5540769578207996</output>
						</split>
						<split pos="right">
							<output>-0.94541106539256314</output>
						</split>
					</split>
				</split>
				<split pos="right">
					<feature>9</feature>
					<threshold>0</threshold>
					<split pos="left">
						<feature>7</feature>
						<threshold>0.481805831</threshold>
						<split pos="left">
							<output>0.11955520622014282</output>
						</split>
						<split pos="right">
							<feature>5</feature>
							<threshold>0.416966468</threshold>
							<split pos="left">
								<output>1.5769076673039131</output>
							</split>
							<split pos="right">
								<feature>4</feature>
								<threshold>0.404295802</threshold>
								<split pos="left">
									<output>1.6042041945124015</output>
								</split>
								<split pos="right">
									<feature>3</feature>
									<threshold>0.341955721</threshold>
									<split pos="left">
										<feature>3</feature>
										<threshold>0.172479689</threshold>
										<split pos="left">
											<output>1.1052341284375489</output>
										</split>
										<split pos="right">
											<output>1.6036851272399149</output>
										</split>
									</split>
									<split pos="right">
										<output>0.26875453211861294</output>
									</split>
								</split>
							</split>
						</split>
					</split>
					<split pos="right">
						<output>-0.013507461879327666</output>
					</split>
				</split>
			</split>
		</tree>
		<tree id="4" weight="0.10000000149011612">
			<split>
				<feature>4</feature>
				<threshold>0.375063598</threshold>
				<split pos="left">
					<feature>6</feature>
					<threshold>0.177672714</threshold>
					<split pos="left">
						<output>-1.3286638459933415</output>
					</split>
					<split pos="right">
						<feature>6</feature>
						<threshold>0.178629115</threshold>
						<split pos="left">
							<output>1.4441844304103519</output>
						</split>
						<split pos="right">
							<output>-0.84928601170723816</output>
						</split>
					</split>
				</split>
				<split pos="right">
					<feature>9</feature>
					<threshold>0</threshold>
					<split pos="left">
						<feature>4</feature>
						<threshold>0.979840934</threshold>
						<split pos="left">
							<feature>7</feature>
							<threshold>0.481805831</threshold>
							<split pos="left">
								<output>0.52398118942146787</output>
							</split>
							<split pos="right">
								<feature>8</feature>
								<threshold>0.562030077</threshold>
								<split pos="left">
									<output>1.4242046750208206</output>
								</split>
								<split pos="right">
									<output>1.1064208251416308</output>
								</split>
							</split>
						</split>
						<split pos="right">
							<feature>8</feature>
							<threshold>0.863599956</threshold>
							<split pos="left">
								<output>-1.8711540601375856</output>
							</split>
							<split pos="right">
								<feature>3</feature>
								<threshold>0</threshold>
								<split pos="left">
									<output>-2.8162180720362056</output>
								</split>
								<split pos="right">
									<output>1.5093132368058877</output>
								</split>
							</split>
						</split>
					</split>
					<split pos="right">
						<output>-0.047862418102887938</output>
					</split>
				</split>
			</split>
		</tree>
		<tree id="5" weight="0.10000000149011612">
			<split>
				<feature>4</feature>
				<threshold>0.375063598</threshold>
				<split pos="left">
					<feature>4</feature>
					<threshold>0.0971237943</threshold>
					<split pos="left">
						<output>-1.263333104666535</output>
					</split>
					<split pos="right">
						<feature>4</feature>
						<threshold>0.103771903</threshold>
						<split pos="left">
							<output>1.3608015468254246</output>
						</split>
						<split pos="right">
							<output>-0.77926120546486732</output>
						</split>
					</split>
				</split>
				<split pos="right">
					<feature>9</feature>
					<threshold>0</threshold>
					<split pos="left">
						<feature>7</feature>
						<threshold>0.481805831</threshold>
						<split pos="left">
							<output>0.062450972249970531</output>
						</split>
						<split pos="right">
							<feature>5</feature>
							<threshold>0.416966468</threshold>
							<split pos="left">
								<output>1.3893456376502091</output>
							</split>
							<split pos="right">
								<feature>4</feature>
								<threshold>0.404295802</threshold>
								<split pos="left">
									<output>1.3688781118413176</output>
								</split>
								<split pos="right">
									<feature>3</feature>
									<threshold>0.341171861</threshold>
									<split pos="left">
										<feature>3</feature>
										<threshold>0.145083651</threshold>
										<split pos="left">
											<output>0.85240374733773849</output>
										</split>
										<split pos="right">
											<output>1.3838826074371904</output>
										</split>
									</split>
									<split pos="right">
										<output>0.086102547161315629</output>
									</split>
								</split>
							</split>
						</split>
					</split>
					<split pos="right">
						<output>-0.059669423136061113</output>
					</split>
				</split>
			</split>
		</tree>
		<tree id="6" weight="0.10000000149011612">
			<split>
				<feature>4</feature>
				<threshold>0.375063598</threshold>
				<split pos="left">
					<feature>4</feature>
					<threshold>0.0971237943</threshold>
					<split pos="left">
						<output>-1.1936677682663199</output>
					</split>
					<split pos="right">
						<feature>4</feature>
						<threshold>0.103771903</threshold>
						<split pos="left">
							<output>1.3013553565403035</output>
						</split>
						<split pos="right">
							<output>-0.69547952024868442</output>
						</split>
					</split>
				</split>
				<split pos="right">
					<feature>9</feature>
					<threshold>0</threshold>
					<split pos="left">
						<feature>7</feature>
						<threshold>0.481805831</threshold>
						<split pos="left">
							<output>0.052816224827999282</output>
						</split>
						<split pos="right">
							<feature>5</feature>
							<threshold>0.416966468</threshold>
							<split pos="left">
								<output>1.332379225309587</output>
							</split>
							<split pos="right">
								<feature>4</feature>
								<threshold>0.404295802</threshold>
								<split pos="left">
									<output>1.2982416090134397</output>
								</split>
								<split pos="right">
									<feature>3</feature>
									<threshold>0.341171861</threshold>
									<split pos="left">
										<feature>3</feature>
										<threshold>0.145083651</threshold>
										<split pos="left">
											<output>0.76826117339939393</output>
										</split>
										<split pos="right">
											<output>1.3122023378365166</output>
										</split>
									</split>
									<split pos="right">
										<output>0.075193745934497194</output>
									</split>
								</split>
							</split>
						</split>
					</split>
					<split pos="right">
						<output>-0.06506325166920264</output>
					</split>
				</split>
			</split>
		</tree>
		<tree id="7" weight="0.10000000149011612">
			<split>
				<feature>4</feature>
				<threshold>0.375063598</threshold>
				<split pos="left">
					<feature>5</feature>
					<threshold>0.79035759</threshold>
					<split pos="left">
						<feature>4</feature>
						<threshold>0.0971237943</threshold>
						<split pos="left">
							<output>-1.1359660624555659</output>
						</split>
						<split pos="right">
							<feature>4</feature>
							<threshold>0.103771903</threshold>
							<split pos="left">
								<output>1.2570973639715028</output>
							</split>
							<split pos="right">
								<output>-0.735863044172266</output>
							</split>
						</split>
					</split>
					<split pos="right">
						<output>2.0426426030694302</output>
					</split>
				</split>
				<split pos="right">
					<feature>9</feature>
					<threshold>0</threshold>
					<split pos="left">
						<feature>7</feature>
						<threshold>0.481805831</threshold>
						<split pos="left">
							<output>0.045618140574055478</output>
						</split>
						<split pos="right">
							<feature>5</feature>
							<threshold>0.416966468</threshold>
							<split pos="left">
								<output>1.2884627629551051</output>
							</split>
							<split pos="right">
								<feature>4</feature>
								<threshold>0.404295802</threshold>
								<split pos="left">
									<output>1.2455978728729487</output>
								</split>
								<split pos="right">
									<feature>3</feature>
									<threshold>0.341171861</threshold>
									<split pos="left">
										<output>0.92170342039849285</output>
									</split>
									<split pos="right">
										<output>0.066596577038687335</output>
									</split>
								</split>
							</split>
						</split>
					</split>
					<split pos="right">
						<output>-0.06842096148762368</output>
					</split>
				</split>
			</split>
		</tree>
		<tree id="8" weight="0.10000000149011612">
			<split>
				<feature>4</feature>
				<threshold>0.375063598</threshold>
				<split pos="left">
					<feature>5</feature>
					<threshold>0.79035759</threshold>
					<split pos="left">
						<feature>4</feature>
						<threshold>0.0971237943</threshold>
						<split pos="left">
							<output>-1.0852133224884206</output>
						</split>
						<split pos="right">
							<feature>4</feature>
							<threshold>0.103771903</threshold>
							<split pos="left">
								<output>1.2236747538302537</output>
							</split>
							<split pos="right">
								<output>-0.66638535874956772</output>
							</split>
						</split>
					</split>
					<split pos="right">
						<output>1.8310138068958248</output>
					</split>
				</split>
				<split pos="right">
					<feature>9</feature>
					<threshold>0</threshold>
					<split pos="left">
						<feature>7</feature>
						<threshold>0.481805831</threshold>
						<split pos="left">
							<output>0.042736266875368287</output>
						</split>
						<split pos="right">
							<feature>5</feature>
							<threshold>0.416966468</threshold>
							<split pos="left">
								<output>1.2538215645521802</output>
							</split>
							<split pos="right">
								<feature>4</feature>
								<threshold>0.404295802</threshold>
								<split pos="left">
									<output>1.2042766499062694</output>
								</split>
								<split pos="right">
									<feature>3</feature>
									<threshold>0.341955721</threshold>
									<split pos="left">
										<output>0.85407202976725061</output>
									</split>
									<split pos="right">
										<output>0.062930769914926465</output>
									</split>
								</split>
							</split>
						</split>
					</split>
					<split pos="right">
						<output>-0.073894511555052222</output>
					</split>
				</split>
			</split>
		</tree>
		<tree id="9" weight="0.10000000149011612">
			<split>
				<feature>4</feature>
				<threshold>0.375063598</threshold>
				<split pos="left">
					<feature>5</feature>
					<threshold>0.79035759</threshold>
					<split pos="left">
						<feature>4</feature>
						<threshold>0.0971237943</threshold>
						<split pos="left">
							<output>-1.0406659572642103</output>
						</split>
						<split pos="right">
							<feature>4</feature>
							<threshold>0.103771903</threshold>
							<split pos="left">
								<output>1.1977712101355986</output>
							</split>
							<split pos="right">
								<output>-0.60382177726581165</output>
							</split>
						</split>
					</split>
					<split pos="right">
						<output>1.6846730142875852</output>
					</split>
				</split>
				<split pos="right">
					<feature>4</feature>
					<threshold>0.387561679</threshold>
					<split pos="left">
						<output>1.4018921735461674</output>
					</split>
					<split pos="right">
						<feature>9</feature>
						<threshold>0</threshold>
						<split pos="left">
							<feature>7</feature>
							<threshold>0.481805831</threshold>
							<split pos="left">
								<output>0.040739451501604775</output>
							</split>
							<split pos="right">
								<feature>5</feature>
								<threshold>0.416966468</threshold>
								<split pos="left">
									<output>1.2259447466060311</output>
								</split>
								<split pos="right">
									<feature>4</feature>
									<threshold>0.404295802</threshold>
									<split pos="left">
										<output>1.1722413902416307</output>
									</split>
									<split pos="right">
										<output>0.62826983576166229</output>
									</split>
								</split>
							</split>
						</split>
						<split pos="right">
							<output>-0.36658102682327243</output>
						</split>
					</split>
				</split>
			</split>
		</tree>
		<tree id="10" weight="0.10000000149011612">
			<split>
				<feature>6</feature>
				<threshold>0.350632548</threshold>
				<split pos="left">
					<feature>8</feature>
					<threshold>0.757729292</threshold>
					<split pos="left">
						<feature>5</feature>
						<threshold>0.598115921</threshold>
						<split pos="left">
							<feature>8</feature>
							<threshold>0</threshold>
							<split pos="left">
								<output>-0.41807703182549644</output>
							</split>
							<split pos="right">
								<output>-1.226318603735852</output>
							</split>
						</split>
						<split pos="right">
							<output>0.54951702491541987</output>
						</split>
					</split>
					<split pos="right">
						<output>1.1795552009374666</output>
					</split>
				</split>
				<split pos="right">
					<feature>3</feature>
					<threshold>0.502214551</threshold>
					<split pos="left">
						<feature>3</feature>
						<threshold>0.46002537</threshold>
						<split pos="left">
							<feature>6</feature>
							<threshold>0.367210746</threshold>
							<split pos="left">
								<output>1.339207274507807</output>
							</split>
							<split pos="right">
								<feature>3</feature>
								<threshold>0.342151672</threshold>
								<split pos="left">
									<feature>4</feature>
									<threshold>0.587859452</threshold>
									<split pos="left">
										<output>0.18750383394822745</output>
									</split>
									<split pos="right">
										<output>0.72726679136453487</output>
									</split>
								</split>
								<split pos="right">
									<output>-1.1115489317166851</output>
								</split>
							</split>
						</split>
						<split pos="right">
							<output>1.3788212379958591</output>
						</split>
					</split>
					<split pos="right">
						<output>-1.1157070212655913</output>
					</split>
				</split>
			</split>
		</tree>
		<tree id="11" weight="0.10000000149011612">
			<split>
				<feature>6</feature>
				<threshold>0.350632548</threshold>
				<split pos="left">
					<feature>8</feature>
					<threshold>0.757729292</threshold>
					<split pos="left">
						<feature>5</feature>
						<threshold>0.598115921</threshold>
						<split pos="left">
							<feature>8</feature>
							<threshold>0</threshold>
							<split pos="left">
								<feature>6</feature>
								<threshold>0.163729638</threshold>
								<split pos="left">
									<output>-1.1203618157969277</output>
								</split>
								<split pos="right">
									<output>0.97281357489038178</output>
								</split>
							</split>
							<split pos="right">
								<output>-1.1764346528837624</output>
							</split>
						</split>
						<split pos="right">
							<output>0.56517161835564667</output>
						</split>
					</split>
					<split pos="right">
						<output>1.0661767769075359</output>
					</split>
				</split>
				<split pos="right">
					<feature>3</feature>
					<threshold>0.502214551</threshold>
					<split pos="left">
						<feature>3</feature>
						<threshold>0.46002537</threshold>
						<split pos="left">
							<feature>7</feature>
							<threshold>0.602319658</threshold>
							<split pos="left">
								<output>1.0145780196420475</output>
							</split>
							<split pos="right">
								<feature>4</feature>
								<threshold>0.627543509</threshold>
								<split pos="left">
									<output>-0.97727683795581399</output>
								</split>
								<split pos="right">
									<output>0.59403423751866491</output>
								</split>
							</split>
						</split>
						<split pos="right">
							<output>1.3131065561399682</output>
						</split>
					</split>
					<split pos="right">
						<output>-1.00183888569613</output>
					</split>
				</split>
			</split>
		</tree>
		<tree id="12" weight="0.10000000149011612">
			<split>
				<feature>4</feature>
				<threshold>0.0971237943</threshold>
				<split pos="left">
					<output>-0.92589623094670404</output>
				</split>
				<split pos="right">
					<feature>4</feature>
					<threshold>0.103771903</threshold>
					<split pos="left">
						<output>1.1588266160604299</output>
					</split>
					<split pos="right">
						<feature>6</feature>
						<threshold>0.350632548</threshold>
						<split pos="left">
							<output>-0.47867603499512323</output>
						</split>
						<split pos="right">
							<feature>5</feature>
							<threshold>0.123269767</threshold>
							<split pos="left">
								<output>1.4571742858608094</output>
							</split>
							<split pos="right">
								<feature>3</feature>
								<threshold>0.502214551</threshold>
								<split pos="left">
									<feature>8</feature>
									<threshold>0.0242524054</threshold>
									<split pos="left">
										<output>-2.3912553512220396</output>
									</split>
									<split pos="right">
										<feature>7</feature>
										<threshold>0.898475409</threshold>
										<split pos="left">
											<feature>3</feature>
											<threshold>0.0566263609</threshold>
											<split pos="left">
												<output>1.1358201867683142</output>
											</split>
											<split pos="right">
												<output>-0.39111357006190861</output>
											</split>
										</split>
										<split pos="right">
											<feature>7</feature>
											<threshold>0.913660526</threshold>
											<split pos="left">
												<output>1.3140897448664122</output>
											</split>
											<split pos="right">
												<output>0.60502174426574129</output>
											</split>
										</split>
									</split>
								</split>
								<split pos="right">
									<output>-0.70705920778878573</output>
								</split>
							</split>
						</split>
					</split>
				</split>
			</split>
		</tree>
		<tree id="13" weight="0.10000000149011612">
			<split>
				<feature>6</feature>
				<threshold>0.350632548</threshold>
				<split pos="left">
					<feature>8</feature>
					<threshold>0.757729292</threshold>
					<split pos="left">
						<feature>5</feature>
						<threshold>0.598115921</threshold>
						<split pos="left">
							<output>-0.76064552290350551</output>
						</split>
						<split pos="right">
							<output>0.54822316021123041</output>
						</split>
					</split>
					<split pos="right">
						<output>0.99018571384130705</output>
					</split>
				</split>
				<split pos="right">
					<feature>3</feature>
					<threshold>0.502214551</threshold>
					<split pos="left">
						<feature>3</feature>
						<threshold>0.46002537</threshold>
						<split pos="left">
							<feature>6</feature>
							<threshold>0.392178655</threshold>
							<split pos="left">
								<output>1.3476160027447421</output>
							</split>
							<split pos="right">
								<feature>4</feature>
								<threshold>0.587859452</threshold>
								<split pos="left">
									<output>-0.19203400498561943</output>
								</split>
								<split pos="right">
									<feature>5</feature>
									<threshold>0.416966468</threshold>
									<split pos="left">
										<output>1.0260794462925695</output>
									</split>
									<split pos="right">
										<feature>7</feature>
										<threshold>0.898475409</threshold>
										<split pos="left">
											<output>-0.1945483435863363</output>
										</split>
										<split pos="right">
											<output>0.74982682305458781</output>
										</split>
									</split>
								</split>
							</split>
						</split>
						<split pos="right">
							<output>1.2189561414388697</output>
						</split>
					</split>
					<split pos="right">
						<output>-0.86900635668135773</output>
					</split>
				</split>
			</split>
		</tree>
		<tree id="14" weight="0.10000000149011612">
			<split>
				<feature>8</feature>
				<threshold>0.490417629</threshold>
				<split pos="left">
					<feature>6</feature>
					<threshold>0.166200936</threshold>
					<split pos="left">
						<output>-1.0791320503036856</output>
					</split>
					<split pos="right">
						<feature>6</feature>
						<threshold>0.178629115</threshold>
						<split pos="left">
							<output>1.0954100091060164</output>
						</split>
						<split pos="right">
							<feature>8</feature>
							<threshold>0.449742258</threshold>
							<split pos="left">
								<output>0.00018902957721698407</output>
							</split>
							<split pos="right">
								<output>-1.7395403583739679</output>
							</split>
						</split>
					</split>
				</split>
				<split pos="right">
					<feature>8</feature>
					<threshold>0.562030077</threshold>
					<split pos="left">
						<output>1.1867351138749382</output>
					</split>
					<split pos="right">
						<feature>6</feature>
						<threshold>0</threshold>
						<split pos="left">
							<output>2.7254271343152534</output>
						</split>
						<split pos="right">
							<feature>5</feature>
							<threshold>0.598115921</threshold>
							<split pos="left">
								<output>-0.69928626150624895</output>
							</split>
							<split pos="right">
								<feature>8</feature>
								<threshold>0.73278904</threshold>
								<split pos="left">
									<output>-0.73701591713334647</output>
								</split>
								<split pos="right">
									<feature>6</feature>
									<threshold>0.919015825</threshold>
									<split pos="left">
										<output>1.1630806040095734</output>
									</split>
									<split pos="right">
										<output>0.47552364211977105</output>
									</split>
								</split>
							</split>
						</split>
					</split>
				</split>
			</split>
		</tree>
		<tree id="15" weight="0.10000000149011612">
			<split>
				<feature>8</feature>
				<threshold>0.365283817</threshold>
				<split pos="left">
					<feature>6</feature>
					<threshold>0.177672714</threshold>
					<split pos="left">
						<output>-1.0537695431230911</output>
					</split>
					<split pos="right">
						<feature>6</feature>
						<threshold>0.178629115</threshold>
						<split pos="left">
							<output>1.1337801641871841</output>
						</split>
						<split pos="right">
							<output>-0.18774969220602672</output>
						</split>
					</split>
				</split>
				<split pos="right">
					<feature>8</feature>
					<threshold>0.380411863</threshold>
					<split pos="left">
						<output>1.2429050832467443</output>
					</split>
					<split pos="right">
						<feature>6</feature>
						<threshold>0</threshold>
						<split pos="left">
							<output>2.3465005078039365</output>
						</split>
						<split pos="right">
							<feature>7</feature>
							<threshold>0.803233564</threshold>
							<split pos="left">
								<feature>3</feature>
								<threshold>0.0566263609</threshold>
								<split pos="left">
									<output>0.85282071174639373</output>
								</split>
								<split pos="right">
									<output>-0.71044878238479625</output>
								</split>
							</split>
							<split pos="right">
								<feature>7</feature>
								<threshold>0.970198691</threshold>
								<split pos="left">
									<feature>4</feature>
									<threshold>0.747155368</threshold>
									<split pos="left">
										<output>0.47561592363826771</output>
									</split>
									<split pos="right">
										<output>1.3423842117858913</output>
									</split>
								</split>
								<split pos="right">
									<output>-0.063804099010358425</output>
								</split>
							</split>
						</split>
					</split>
				</split>
			</split>
		</tree>
		<tree id="16" weight="0.10000000149011612">
			<split>
				<feature>6</feature>
				<threshold>0.350632548</threshold>
				<split pos="left">
					<feature>5</feature>
					<threshold>0.598115921</threshold>
					<split pos="left">
						<feature>6</feature>
						<threshold>0.21925585</threshold>
						<split pos="left">
							<feature>8</feature>
							<threshold>0.757729292</threshold>
							<split pos="left">
								<output>-0.56663285565595378</output>
							</split>
							<split pos="right">
								<output>1.5067651917757621</output>
							</split>
						</split>
						<split pos="right">
							<output>-1.2708204838115904</output>
						</split>
					</split>
					<split pos="right">
						<output>0.59152556440491377</output>
					</split>
				</split>
				<split pos="right">
					<feature>3</feature>
					<threshold>0.502214551</threshold>
					<split pos="left">
						<feature>3</feature>
						<threshold>0.46002537</threshold>
						<split pos="left">
							<feature>6</feature>
							<threshold>0.392178655</threshold>
							<split pos="left">
								<output>1.241651530565401</output>
							</split>
							<split pos="right">
								<feature>4</feature>
								<threshold>0.587859452</threshold>
								<split pos="left">
									<output>-0.1894460459183237</output>
								</split>
								<split pos="right">
									<feature>5</feature>
									<threshold>0.416966468</threshold>
									<split pos="left">
										<output>0.97552383306416379</output>
									</split>
									<split pos="right">
										<output>0.30275419735915154</output>
									</split>
								</split>
							</split>
						</split>
						<split pos="right">
							<output>1.1483350871976956</output>
						</split>
					</split>
					<split pos="right">
						<output>-0.73404834890446657</output>
					</split>
				</split>
			</split>
		</tree>
		<tree id="17" weight="0.10000000149011612">
			<split>
				<feature>8</feature>
				<threshold>0.22761175</threshold>
				<split pos="left">
					<feature>6</feature>
					<threshold>0.163729638</threshold>
					<split pos="left">
						<output>-1.0134687349127318</output>
					</split>
					<split pos="right">
						<feature>6</feature>
						<threshold>0.178629115</threshold>
						<split pos="left">
							<output>1.0670244490412351</output>
						</split>
						<split pos="right">
							<output>-0.3763658789069857</output>
						</split>
					</split>
				</split>
				<split pos="right">
					<feature>6</feature>
					<threshold>0</threshold>
					<split pos="left">
						<output>1.8158158799632771</output>
					</split>
					<split pos="right">
						<feature>8</feature>
						<threshold>0.26595965</threshold>
						<split pos="left">
							<output>1.171486072861017</output>
						</split>
						<split pos="right">
							<feature>7</feature>
							<threshold>0.803233564</threshold>
							<split pos="left">
								<feature>3</feature>
								<threshold>0.0566263609</threshold>
								<split pos="left">
									<output>0.80034600207067974</output>
								</split>
								<split pos="right">
									<output>-0.65698965571919965</output>
								</split>
							</split>
							<split pos="right">
								<feature>4</feature>
								<threshold>0.780463934</threshold>
								<split pos="left">
									<output>-0.014047274359655321</output>
								</split>
								<split pos="right">
									<feature>7</feature>
									<threshold>0.924299657</threshold>
									<split pos="left">
										<output>1.3546440545568019</output>
									</split>
									<split pos="right">
										<output>0.58433377879243442</output>
									</split>
								</split>
							</split>
						</split>
					</split>
				</split>
			</split>
		</tree>
		<tree id="18" weight="0.10000000149011612">
			<split>
				<feature>8</feature>
				<threshold>0.22761175</threshold>
				<split pos="left">
					<feature>6</feature>
					<threshold>0.177672714</threshold>
					<split pos="left">
						<output>-0.98893320447328481</output>
					</split>
					<split pos="right">
						<feature>7</feature>
						<threshold>0.190830648</threshold>
						<split pos="left">
							<output>1.1097383403754262</output>
						</split>
						<split pos="right">
							<output>-0.36226539591014212</output>
						</split>
					</split>
				</split>
				<split pos="right">
					<feature>6</feature>
					<threshold>0</threshold>
					<split pos="left">
						<output>1.6594030278487508</output>
					</split>
					<split pos="right">
						<feature>8</feature>
						<threshold>0.26595965</threshold>
						<split pos="left">
							<output>1.1511291222055178</output>
						</split>
						<split pos="right">
							<feature>7</feature>
							<threshold>0.803233564</threshold>
							<split pos="left">
								<feature>3</feature>
								<threshold>0.0566263609</threshold>
								<split pos="left">
									<output>0.73274377904267307</output>
								</split>
								<split pos="right">
									<output>-0.60101637278461273</output>
								</split>
							</split>
							<split pos="right">
								<feature>7</feature>
								<threshold>0.970198691</threshold>
								<split pos="left">
									<feature>5</feature>
									<threshold>0.724102736</threshold>
									<split pos="left">
										<output>0.5358774350000608</output>
									</split>
									<split pos="right">
										<output>1.3626379301835607</output>
									</split>
								</split>
								<split pos="right">
									<output>0.07011031581165722</output>
								</split>
							</split>
						</split>
					</split>
				</split>
			</split>
		</tree>
		<tree id="19" weight="0.10000000149011612">
			<split>
				<feature>8</feature>
				<threshold>0.22761175</threshold>
				<split pos="left">
					<feature>6</feature>
					<threshold>0.121007793</threshold>
					<split pos="left">
						<output>-0.99998199685822431</output>
					</split>
					<split pos="right">
						<feature>7</feature>
						<threshold>0.182254553</threshold>
						<split pos="left">
							<output>0.88352459704823805</output>
						</split>
						<split pos="right">
							<output>-0.37404808630288305</output>
						</split>
					</split>
				</split>
				<split pos="right">
					<feature>6</feature>
					<threshold>0</threshold>
					<split pos="left">
						<output>1.5436547476809444</output>
					</split>
					<split pos="right">
						<feature>8</feature>
						<threshold>0.27719596</threshold>
						<split pos="left">
							<output>1.3319179265553058</output>
						</split>
						<split pos="right">
							<feature>7</feature>
							<threshold>0.803233564</threshold>
							<split pos="left">
								<output>-0.21085313817210996</output>
							</split>
							<split pos="right">
								<feature>5</feature>
								<threshold>0.119309805</threshold>
								<split pos="left">
									<output>1.8172479689020815</output>
								</split>
								<split pos="right">
									<feature>4</feature>
									<threshold>0.780463934</threshold>
									<split pos="left">
										<output>-0.24793141547476671</output>
									</split>
									<split pos="right">
										<feature>7</feature>
										<threshold>0.963485539</threshold>
										<split pos="left">
											<output>1.2693666543634159</output>
										</split>
										<split pos="right">
											<output>0.46444230695240668</output>
										</split>
									</split>
								</split>
							</split>
						</split>
					</split>
				</split>
			</split>
		</tree>
		<tree id="20" weight="0.10000000149011612">
			<split>
				<feature>8</feature>
				<threshold>0.22761175</threshold>
				<split pos="left">
					<feature>8</feature>
					<threshold>0.0947995037</threshold>
					<split pos="left">
						<feature>6</feature>
						<threshold>0.177672714</threshold>
						<split pos="left">
							<output>-0.94559258675384927</output>
						</split>
						<split pos="right">
							<feature>6</feature>
							<threshold>0.178629115</threshold>
							<split pos="left">
								<output>1.0878289327420656</output>
							</split>
							<split pos="right">
								<output>-0.14584343307738193</output>
							</split>
						</split>
					</split>
					<split pos="right">
						<output>-1.0208188571800703</output>
					</split>
				</split>
				<split pos="right">
					<feature>6</feature>
					<threshold>0</threshold>
					<split pos="left">
						<output>1.4533709101025609</output>
					</split>
					<split pos="right">
						<feature>8</feature>
						<threshold>0.27719596</threshold>
						<split pos="left">
							<output>1.2746900435658264</output>
						</split>
						<split pos="right">
							<feature>7</feature>
							<threshold>0.803233564</threshold>
							<split pos="left">
								<feature>3</feature>
								<threshold>0.0566263609</threshold>
								<split pos="left">
									<output>0.67060825433766735</output>
								</split>
								<split pos="right">
									<output>-0.61041715253981788</output>
								</split>
							</split>
							<split pos="right">
								<feature>7</feature>
								<threshold>0.970198691</threshold>
								<split pos="left">
									<output>0.79492243388554817</output>
								</split>
								<split pos="right">
									<output>0.060926284153018831</output>
								</split>
							</split>
						</split>
					</split>
				</split>
			</split>
		</tree>
		<tree id="21" weight="0.10000000149011612">
			<split>
				<feature>6</feature>
				<threshold>0.350632548</threshold>
				<split pos="left">
					<feature>5</feature>
					<threshold>0.598115921</threshold>
					<split pos="left">
						<feature>8</feature>
						<threshold>0.757729292</threshold>
						<split pos="left">
							<feature>5</feature>
							<threshold>0.380200267</threshold>
							<split pos="left">
								<output>-0.67712159027007679</output>
							</split>
							<split pos="right">
								<output>-1.2979536177643327</output>
							</split>
						</split>
						<split pos="right">
							<output>0.68832040732747257</output>
						</split>
					</split>
					<split pos="right">
						<output>0.69331796923688471</output>
					</split>
				</split>
				<split pos="right">
					<feature>6</feature>
					<threshold>0.367210746</threshold>
					<split pos="left">
						<output>1.1916148993506419</output>
					</split>
					<split pos="right">
						<feature>8</feature>
						<threshold>0.562030077</threshold>
						<split pos="left">
							<feature>8</feature>
							<threshold>0.490417629</threshold>
							<split pos="left">
								<feature>7</feature>
								<threshold>0.602319658</threshold>
								<split pos="left">
									<output>0.84009772613104217</output>
								</split>
								<split pos="right">
									<output>-0.28752236015231591</output>
								</split>
							</split>
							<split pos="right">
								<output>1.0479111521287581</output>
							</split>
						</split>
						<split pos="right">
							<feature>5</feature>
							<threshold>0.993677855</threshold>
							<split pos="left">
								<output>-0.4828822177351686</output>
							</split>
							<split pos="right">
								<output>0.54273909691021971</output>
							</split>
						</split>
					</split>
				</split>
			</split>
		</tree>
		<tree id="22" weight="0.10000000149011612">
			<split>
				<feature>6</feature>
				<threshold>0.350632548</threshold>
				<split pos="left">
					<feature>5</feature>
					<threshold>0.598115921</threshold>
					<split pos="left">
						<feature>6</feature>
						<threshold>0.21925585</threshold>
						<split pos="left">
							<feature>8</feature>
							<threshold>0.757729292</threshold>
							<split pos="left">
								<output>-0.53757708432503271</output>
							</split>
							<split pos="right">
								<output>1.264599242027723</output>
							</split>
						</split>
						<split pos="right">
							<output>-1.2234692447481772</output>
						</split>
					</split>
					<split pos="right">
						<output>0.61173578150006258</output>
					</split>
				</split>
				<split pos="right">
					<feature>6</feature>
					<threshold>0.367210746</threshold>
					<split pos="left">
						<output>1.1653456574539831</output>
					</split>
					<split pos="right">
						<feature>8</feature>
						<threshold>0.569279611</threshold>
						<split pos="left">
							<feature>8</feature>
							<threshold>0.490417629</threshold>
							<split pos="left">
								<feature>8</feature>
								<threshold>0.406122625</threshold>
								<split pos="left">
									<output>0.44882053064725114</output>
								</split>
								<split pos="right">
									<output>-0.78711187540686911</output>
								</split>
							</split>
							<split pos="right">
								<output>0.9991313298896255</output>
							</split>
						</split>
						<split pos="right">
							<feature>5</feature>
							<threshold>0.993677855</threshold>
							<split pos="left">
								<output>-0.41118980965715879</output>
							</split>
							<split pos="right">
								<output>0.47134206264721679</output>
							</split>
						</split>
					</split>
				</split>
			</split>
		</tree>
		<tree id="23" weight="0.10000000149011612">
			<split>
				<feature>6</feature>
				<threshold>0.350632548</threshold>
				<split pos="left">
					<feature>8</feature>
					<threshold>0.757729292</threshold>
					<split pos="left">
						<feature>5</feature>
						<threshold>0.598115921</threshold>
						<split pos="left">
							<feature>5</feature>
							<threshold>0.380200267</threshold>
							<split pos="left">
								<feature>7</feature>
								<threshold>0.191157922</threshold>
								<split pos="left">
									<output>-0.35882112136813782</output>
								</split>
								<split pos="right">
									<output>-1.1076324426984501</output>
								</split>
							</split>
							<split pos="right">
								<output>-1.2229270826158134</output>
							</split>
						</split>
						<split pos="right">
							<output>0.53385985315570605</output>
						</split>
					</split>
					<split pos="right">
						<output>0.57615706164221714</output>
					</split>
				</split>
				<split pos="right">
					<feature>7</feature>
					<threshold>0.602319658</threshold>
					<split pos="left">
						<output>0.74710863968101215</output>
					</split>
					<split pos="right">
						<feature>6</feature>
						<threshold>0.67390734</threshold>
						<split pos="left">
							<output>-1.508273063682581</output>
						</split>
						<split pos="right">
							<feature>5</feature>
							<threshold>0.123269767</threshold>
							<split pos="left">
								<output>1.7054858917511124</output>
							</split>
							<split pos="right">
								<feature>4</feature>
								<threshold>0.780463934</threshold>
								<split pos="left">
									<output>-0.25466778471054297</output>
								</split>
								<split pos="right">
									<output>0.45749436874484573</output>
								</split>
							</split>
						</split>
					</split>
				</split>
			</split>
		</tree>
		<tree id="24" weight="0.10000000149011612">
			<split>
				<feature>7</feature>
				<threshold>0.481805831</threshold>
				<split pos="left">
					<feature>8</feature>
					<threshold>0.774009109</threshold>
					<split pos="left">
						<feature>8</feature>
						<threshold>0.569279611</threshold>
						<split pos="left">
							<feature>5</feature>
							<threshold>0.564523697</threshold>
							<split pos="left">
								<feature>5</feature>
								<threshold>0.380200267</threshold>
								<split pos="left">
									<output>-0.44401008760993005</output>
								</split>
								<split pos="right">
									<output>-1.2265214239812041</output>
								</split>
							</split>
							<split pos="right">
								<output>0.51400834980955312</output>
							</split>
						</split>
						<split pos="right">
							<output>-1.2783820207460754</output>
						</split>
					</split>
					<split pos="right">
						<output>0.45188622643727638</output>
					</split>
				</split>
				<split pos="right">
					<feature>7</feature>
					<threshold>0.602319658</threshold>
					<split pos="left">
						<output>1.0393999768748827</output>
					</split>
					<split pos="right">
						<feature>6</feature>
						<threshold>0.67390734</threshold>
						<split pos="left">
							<output>-1.4605458440388839</output>
						</split>
						<split pos="right">
							<feature>5</feature>
							<threshold>0.119309805</threshold>
							<split pos="left">
								<output>1.6596389904547764</output>
							</split>
							<split pos="right">
								<feature>4</feature>
								<threshold>0.780463934</threshold>
								<split pos="left">
									<output>-0.25915351541187609</output>
								</split>
								<split pos="right">
									<output>0.45116382083136441</output>
								</split>
							</split>
						</split>
					</split>
				</split>
			</split>
		</tree>
		<tree id="25" weight="0.10000000149011612">
			<split>
				<feature>7</feature>
				<threshold>0.481805831</threshold>
				<split pos="left">
					<feature>5</feature>
					<threshold>0.094184652</threshold>
					<split pos="left">
						<feature>5</feature>
						<threshold>0.0354566053</threshold>
						<split pos="left">
							<output>-0.69183953416330413</output>
						</split>
						<split pos="right">
							<feature>5</feature>
							<threshold>0.0362916999</threshold>
							<split pos="left">
								<output>1.1129416886217616</output>
							</split>
							<split pos="right">
								<output>0.60827170301131428</output>
							</split>
						</split>
					</split>
					<split pos="right">
						<output>-0.58300166548651944</output>
					</split>
				</split>
				<split pos="right">
					<feature>7</feature>
					<threshold>0.602319658</threshold>
					<split pos="left">
						<output>0.98149726883065935</output>
					</split>
					<split pos="right">
						<feature>6</feature>
						<threshold>0.67390734</threshold>
						<split pos="left">
							<output>-1.409908975798053</output>
						</split>
						<split pos="right">
							<feature>5</feature>
							<threshold>0.119309805</threshold>
							<split pos="left">
								<output>1.6163003668312728</output>
							</split>
							<split pos="right">
								<feature>4</feature>
								<threshold>0.780463934</threshold>
								<split pos="left">
									<output>-0.23811738668501145</output>
								</split>
								<split pos="right">
									<feature>4</feature>
									<threshold>0.956211507</threshold>
									<split pos="left">
										<output>0.9188336587397834</output>
									</split>
									<split pos="right">
										<output>0.053795844804925469</output>
									</split>
								</split>
							</split>
						</split>
					</split>
				</split>
			</split>
		</tree>
		<tree id="26" weight="0.10000000149011612">
			<split>
				<feature>7</feature>
				<threshold>0.481805831</threshold>
				<split pos="left">
					<feature>8</feature>
					<threshold>0.774009109</threshold>
					<split pos="left">
						<feature>8</feature>
						<threshold>0.569279611</threshold>
						<split pos="left">
							<feature>6</feature>
							<threshold>0.177672714</threshold>
							<split pos="left">
								<output>-0.91424969780900023</output>
							</split>
							<split pos="right">
								<output>0.14405477212485715</output>
							</split>
						</split>
						<split pos="right">
							<output>-1.2389327630117151</output>
						</split>
					</split>
					<split pos="right">
						<output>0.43120764936830913</output>
					</split>
				</split>
				<split pos="right">
					<feature>7</feature>
					<threshold>0.541821122</threshold>
					<split pos="left">
						<output>0.97754765204609018</output>
					</split>
					<split pos="right">
						<feature>7</feature>
						<threshold>0.803233564</threshold>
						<split pos="left">
							<output>-0.3860345590886583</output>
						</split>
						<split pos="right">
							<feature>5</feature>
							<threshold>0.123269767</threshold>
							<split pos="left">
								<output>1.3568780400456604</output>
							</split>
							<split pos="right">
								<feature>4</feature>
								<threshold>0.371801823</threshold>
								<split pos="left">
									<output>-1.271764703605655</output>
								</split>
								<split pos="right">
									<feature>5</feature>
									<threshold>0.416966468</threshold>
									<split pos="left">
										<output>1.3961485301472294</output>
									</split>
									<split pos="right">
										<output>0.24930417391022486</output>
									</split>
								</split>
							</split>
						</split>
					</split>
				</split>
			</split>
		</tree>
		<tree id="27" weight="0.10000000149011612">
			<split>
				<feature>7</feature>
				<threshold>0.481805831</threshold>
				<split pos="left">
					<feature>6</feature>
					<threshold>0.242614344</threshold>
					<split pos="left">
						<feature>8</feature>
						<threshold>0.757729292</threshold>
						<split pos="left">
							<feature>6</feature>
							<threshold>0.177672714</threshold>
							<split pos="left">
								<output>-0.89011148749166302</output>
							</split>
							<split pos="right">
								<feature>6</feature>
								<threshold>0.178629115</threshold>
								<split pos="left">
									<output>1.1004541902689309</output>
								</split>
								<split pos="right">
									<output>-0.0086471115874664096</output>
								</split>
							</split>
						</split>
						<split pos="right">
							<output>1.1807573970946024</output>
						</split>
					</split>
					<split pos="right">
						<output>-0.60534749432283308</output>
					</split>
				</split>
				<split pos="right">
					<feature>7</feature>
					<threshold>0.602319658</threshold>
					<split pos="left">
						<output>0.85509563195979676</output>
					</split>
					<split pos="right">
						<feature>7</feature>
						<threshold>0.803233564</threshold>
						<split pos="left">
							<output>-0.86195697518862346</output>
						</split>
						<split pos="right">
							<feature>5</feature>
							<threshold>0.119309805</threshold>
							<split pos="left">
								<output>1.3407510772155837</output>
							</split>
							<split pos="right">
								<feature>4</feature>
								<threshold>0.780463934</threshold>
								<split pos="left">
									<output>-0.33821617385191616</output>
								</split>
								<split pos="right">
									<output>0.61034996956745735</output>
								</split>
							</split>
						</split>
					</split>
				</split>
			</split>
		</tree>
		<tree id="28" weight="0.10000000149011612">
			<split>
				<feature>8</feature>
				<threshold>0.0298808068</threshold>
				<split pos="left">
					<feature>5</feature>
					<threshold>0.193782076</threshold>
					<split pos="left">
						<output>-0.2438207700931109</output>
					</split>
					<split pos="right">
						<output>-1.2106068893905253</output>
					</split>
				</split>
				<split pos="right">
					<feature>8</feature>
					<threshold>0.0318919569</threshold>
					<split pos="left">
						<output>1.1970159754494443</output>
					</split>
					<split pos="right">
						<feature>6</feature>
						<threshold>0</threshold>
						<split pos="left">
							<output>1.1795229078002569</output>
						</split>
						<split pos="right">
							<feature>6</feature>
							<threshold>0.315531015</threshold>
							<split pos="left">
								<output>-0.46490847247350076</output>
							</split>
							<split pos="right">
								<feature>8</feature>
								<threshold>0.562030077</threshold>
								<split pos="left">
									<feature>5</feature>
									<threshold>0.119309805</threshold>
									<split pos="left">
										<output>1.2396288309106986</output>
									</split>
									<split pos="right">
										<feature>8</feature>
										<threshold>0.543681383</threshold>
										<split pos="left">
											<output>0.26742646679410109</output>
										</split>
										<split pos="right">
											<output>1.1226253761444844</output>
										</split>
									</split>
								</split>
								<split pos="right">
									<feature>8</feature>
									<threshold>0.951598585</threshold>
									<split pos="left">
										<output>-0.57390656284021513</output>
									</split>
									<split pos="right">
										<output>0.28453814466752819</output>
									</split>
								</split>
							</split>
						</split>
					</split>
				</split>
			</split>
		</tree>
		<tree id="29" weight="0.10000000149011612">
			<split>
				<feature>4</feature>
				<threshold>0.0971237943</threshold>
				<split pos="left">
					<output>-0.67764648382276327</output>
				</split>
				<split pos="right">
					<feature>4</feature>
					<threshold>0.103771903</threshold>
					<split pos="left">
						<output>1.088680364160165</output>
					</split>
					<split pos="right">
						<feature>8</feature>
						<threshold>0.0298808068</threshold>
						<split pos="left">
							<output>-1.1863601667793855</output>
						</split>
						<split pos="right">
							<feature>4</feature>
							<threshold>0.150464341</threshold>
							<split pos="left">
								<output>0.95278516237867039</output>
							</split>
							<split pos="right">
								<feature>8</feature>
								<threshold>0.0498574972</threshold>
								<split pos="left">
									<output>1.1471220540830576</output>
								</split>
								<split pos="right">
									<feature>7</feature>
									<threshold>0.898475409</threshold>
									<split pos="left">
										<feature>7</feature>
										<threshold>0.602319658</threshold>
										<split pos="left">
											<feature>7</feature>
											<threshold>0.481805831</threshold>
											<split pos="left">
												<output>-0.31868547882993775</output>
											</split>
											<split pos="right">
												<output>0.86284869954121513</output>
											</split>
										</split>
										<split pos="right">
											<output>-0.83246298724559764</output>
										</split>
									</split>
									<split pos="right">
										<feature>7</feature>
										<threshold>0.970198691</threshold>
										<split pos="left">
											<output>1.0313072873530205</output>
										</split>
										<split pos="right">
											<output>-0.085726329682933394</output>
										</split>
									</split>
								</split>
							</split>
						</split>
					</split>
				</split>
			</split>
		</tree>
		<tree id="30" weight="0.10000000149011612">
			<split>
				<feature>7</feature>
				<threshold>0.803233564</threshold>
				<split pos="left">
					<feature>7</feature>
					<threshold>0.602319658</threshold>
					<split pos="left">
						<feature>7</feature>
						<threshold>0.481805831</threshold>
						<split pos="left">
							<feature>7</feature>
							<threshold>0.435281962</threshold>
							<split pos="left">
								<feature>5</feature>
								<threshold>0.598115921</threshold>
								<split pos="left">
									<feature>5</feature>
									<threshold>0.380200267</threshold>
									<split pos="left">
										<feature>4</feature>
										<threshold>0.935095787</threshold>
										<split pos="left">
											<feature>8</feature>
											<threshold>0.774009109</threshold>
											<split pos="left">
												<output>-0.37192639024346708</output>
											</split>
											<split pos="right">
												<output>1.0468256280954873</output>
											</split>
										</split>
										<split pos="right">
											<output>-1.2793263232390903</output>
										</split>
									</split>
									<split pos="right">
										<output>-1.1220601831853581</output>
									</split>
								</split>
								<split pos="right">
									<output>0.57983302971431572</output>
								</split>
							</split>
							<split pos="right">
								<output>-1.1976105157881325</output>
							</split>
						</split>
						<split pos="right">
							<output>0.79475487109377907</output>
						</split>
					</split>
					<split pos="right">
						<output>-0.84635111884972714</output>
					</split>
				</split>
				<split pos="right">
					<feature>7</feature>
					<threshold>0.970198691</threshold>
					<split pos="left">
						<output>0.6679833353408019</output>
					</split>
					<split pos="right">
						<output>-0.10269981244079335</output>
					</split>
				</split>
			</split>
		</tree>
		<tree id="31" weight="0.10000000149011612">
			<split>
				<feature>4</feature>
				<threshold>0.0971237943</threshold>
				<split pos="left">
					<output>-0.64768787843371922</output>
				</split>
				<split pos="right">
					<feature>4</feature>
					<threshold>0.103771903</threshold>
					<split pos="left">
						<output>1.0739291168744456</output>
					</split>
					<split pos="right">
						<feature>8</feature>
						<threshold>0.0298808068</threshold>
						<split pos="left">
							<output>-1.1791342008289354</output>
						</split>
						<split pos="right">
							<feature>4</feature>
							<threshold>0.150464341</threshold>
							<split pos="left">
								<output>0.90635849051992556</output>
							</split>
							<split pos="right">
								<feature>8</feature>
								<threshold>0.0498574972</threshold>
								<split pos="left">
									<output>1.1144955801563134</output>
								</split>
								<split pos="right">
									<feature>7</feature>
									<threshold>0.898475409</threshold>
									<split pos="left">
										<feature>7</feature>
										<threshold>0.602319658</threshold>
										<split pos="left">
											<output>0.15126853881402605</output>
										</split>
										<split pos="right">
											<output>-0.7569971536947675</output>
										</split>
									</split>
									<split pos="right">
										<feature>7</feature>
										<threshold>0.970198691</threshold>
										<split pos="left">
											<output>0.98747391714899535</output>
										</split>
										<split pos="right">
											<feature>3</feature>
											<threshold>0.135451511</threshold>
											<split pos="left">
												<output>-0.81931707610181681</output>
											</split>
											<split pos="right">
												<output>0.25420814713084228</output>
											</split>
										</split>
									</split>
								</split>
							</split>
						</split>
					</split>
				</split>
			</split>
		</tree>
		<tree id="32" weight="0.10000000149011612">
			<split>
				<feature>6</feature>
				<threshold>0.350632548</threshold>
				<split pos="left">
					<feature>6</feature>
					<threshold>0.242614344</threshold>
					<split pos="left">
						<feature>8</feature>
						<threshold>0.757729292</threshold>
						<split pos="left">
							<feature>6</feature>
							<threshold>0.177672714</threshold>
							<split pos="left">
								<output>-0.80362769373119236</output>
							</split>
							<split pos="right">
								<output>0.38833196452143037</output>
							</split>
						</split>
						<split pos="right">
							<output>1.1398517360493783</output>
						</split>
					</split>
					<split pos="right">
						<output>-0.8228270379919943</output>
					</split>
				</split>
				<split pos="right">
					<feature>6</feature>
					<threshold>0.520548284</threshold>
					<split pos="left">
						<output>0.59855993450215972</output>
					</split>
					<split pos="right">
						<feature>6</feature>
						<threshold>0.538210988</threshold>
						<split pos="left">
							<output>-1.7537932125593676</output>
						</split>
						<split pos="right">
							<feature>4</feature>
							<threshold>0.823274076</threshold>
							<split pos="left">
								<feature>5</feature>
								<threshold>0.416966468</threshold>
								<split pos="left">
									<output>0.34938490563297758</output>
								</split>
								<split pos="right">
									<output>-0.6887405482069362</output>
								</split>
							</split>
							<split pos="right">
								<feature>4</feature>
								<threshold>0.956211507</threshold>
								<split pos="left">
									<output>0.84594510131707301</output>
								</split>
								<split pos="right">
									<output>-0.026023365315543102</output>
								</split>
							</split>
						</split>
					</split>
				</split>
			</split>
		</tree>
		<tree id="33" weight="0.10000000149011612">
			<split>
				<feature>4</feature>
				<threshold>0.0971237943</threshold>
				<split pos="left">
					<output>-0.59922696722905</output>
				</split>
				<split pos="right">
					<feature>4</feature>
					<threshold>0.103771903</threshold>
					<split pos="left">
						<output>1.0615307558139553</output>
					</split>
					<split pos="right">
						<feature>8</feature>
						<threshold>0.0298808068</threshold>
						<split pos="left">
							<output>-1.1694476229627517</output>
						</split>
						<split pos="right">
							<feature>4</feature>
							<threshold>0.150464341</threshold>
							<split pos="left">
								<output>0.85671624219865439</output>
							</split>
							<split pos="right">
								<feature>8</feature>
								<threshold>0.0498574972</threshold>
								<split pos="left">
									<output>1.1030629810961272</output>
								</split>
								<split pos="right">
									<feature>7</feature>
									<threshold>0.898475409</threshold>
									<split pos="left">
										<feature>7</feature>
										<threshold>0.602319658</threshold>
										<split pos="left">
											<output>0.1286504046774832</output>
										</split>
										<split pos="right">
											<output>-0.70033625156181678</output>
										</split>
									</split>
									<split pos="right">
										<feature>7</feature>
										<threshold>0.970198691</threshold>
										<split pos="left">
											<output>0.95271868376861679</output>
										</split>
										<split pos="right">
											<feature>7</feature>
											<threshold>0.999913275</threshold>
											<split pos="left">
												<output>-1.3287302848839615</output>
											</split>
											<split pos="right">
												<output>0.12417146591149851</output>
											</split>
										</split>
									</split>
								</split>
							</split>
						</split>
					</split>
				</split>
			</split>
		</tree>
		<tree id="34" weight="0.10000000149011612">
			<split>
				<feature>6</feature>
				<threshold>0.350632548</threshold>
				<split pos="left">
					<feature>6</feature>
					<threshold>0.274987608</threshold>
					<split pos="left">
						<feature>8</feature>
						<threshold>0.757729292</threshold>
						<split pos="left">
							<output>-0.27296030093625318</output>
						</split>
						<split pos="right">
							<output>0.79420006174024393</output>
						</split>
					</split>
					<split pos="right">
						<output>-1.1054909443154075</output>
					</split>
				</split>
				<split pos="right">
					<feature>6</feature>
					<threshold>0.367210746</threshold>
					<split pos="left">
						<output>1.0856977619604966</output>
					</split>
					<split pos="right">
						<feature>4</feature>
						<threshold>0.162052438</threshold>
						<split pos="left">
							<output>0.88473598901040129</output>
						</split>
						<split pos="right">
							<feature>4</feature>
							<threshold>0.229446322</threshold>
							<split pos="left">
								<output>-1.2426149547866074</output>
							</split>
							<split pos="right">
								<feature>8</feature>
								<threshold>0.380411863</threshold>
								<split pos="left">
									<output>0.54371131044974863</output>
								</split>
								<split pos="right">
									<feature>6</feature>
									<threshold>0.672725439</threshold>
									<split pos="left">
										<output>-0.95827872654776847</output>
									</split>
									<split pos="right">
										<feature>8</feature>
										<threshold>0.490417629</threshold>
										<split pos="left">
											<output>-0.45453433852955832</output>
										</split>
										<split pos="right">
											<output>0.24690197335388822</output>
										</split>
									</split>
								</split>
							</split>
						</split>
					</split>
				</split>
			</split>
		</tree>
		<tree id="35" weight="0.10000000149011612">
			<split>
				<feature>7</feature>
				<threshold>0.803233564</threshold>
				<split pos="left">
					<feature>7</feature>
					<threshold>0.602319658</threshold>
					<split pos="left">
						<feature>7</feature>
						<threshold>0.481805831</threshold>
						<split pos="left">
							<feature>7</feature>
							<threshold>0.435281962</threshold>
							<split pos="left">
								<feature>5</feature>
								<threshold>0.598115921</threshold>
								<split pos="left">
									<feature>5</feature>
									<threshold>0.094184652</threshold>
									<split pos="left">
										<feature>5</feature>
										<threshold>0.0354566053</threshold>
										<split pos="left">
											<output>-0.50394781767048002</output>
										</split>
										<split pos="right">
											<output>0.85640291258005186</output>
										</split>
									</split>
									<split pos="right">
										<output>-0.90705078369337067</output>
									</split>
								</split>
								<split pos="right">
									<output>0.55893295822169176</output>
								</split>
							</split>
							<split pos="right">
								<output>-1.1428595048441306</output>
							</split>
						</split>
						<split pos="right">
							<output>0.73042501087291012</output>
						</split>
					</split>
					<split pos="right">
						<output>-0.74360958314335734</output>
					</split>
				</split>
				<split pos="right">
					<feature>7</feature>
					<threshold>0.841612399</threshold>
					<split pos="left">
						<output>1.0557264496856009</output>
					</split>
					<split pos="right">
						<feature>5</feature>
						<threshold>0.854916453</threshold>
						<split pos="left">
							<output>-0.38476386404772062</output>
						</split>
						<split pos="right">
							<output>0.455477010053356</output>
						</split>
					</split>
				</split>
			</split>
		</tree>
		<tree id="36" weight="0.10000000149011612">
			<split>
				<feature>8</feature>
				<threshold>0.0298808068</threshold>
				<split pos="left">
					<feature>5</feature>
					<threshold>0.223167941</threshold>
					<split pos="left">
						<feature>6</feature>
						<threshold>0.177672714</threshold>
						<split pos="left">
							<output>-0.71172796971087871</output>
						</split>
						<split pos="right">
							<output>0.85397419018365117</output>
						</split>
					</split>
					<split pos="right">
						<output>-1.1625817043713631</output>
					</split>
				</split>
				<split pos="right">
					<feature>6</feature>
					<threshold>0</threshold>
					<split pos="left">
						<output>1.1314608338655356</output>
					</split>
					<split pos="right">
						<feature>8</feature>
						<threshold>0.0318919569</threshold>
						<split pos="left">
							<output>1.0952517672966982</output>
						</split>
						<split pos="right">
							<feature>6</feature>
							<threshold>0.315531015</threshold>
							<split pos="left">
								<output>-0.40368498408608172</output>
							</split>
							<split pos="right">
								<feature>8</feature>
								<threshold>0.562030077</threshold>
								<split pos="left">
									<feature>5</feature>
									<threshold>0.119309805</threshold>
									<split pos="left">
										<output>1.1510679711882741</output>
									</split>
									<split pos="right">
										<output>0.29515403480024999</output>
									</split>
								</split>
								<split pos="right">
									<feature>5</feature>
									<threshold>0.993677855</threshold>
									<split pos="left">
										<output>-0.35148747167106564</output>
									</split>
									<split pos="right">
										<output>0.33701386338501887</output>
									</split>
								</split>
							</split>
						</split>
					</split>
				</split>
			</split>
		</tree>
		<tree id="37" weight="0.10000000149011612">
			<split>
				<feature>7</feature>
				<threshold>0.803233564</threshold>
				<split pos="left">
					<feature>7</feature>
					<threshold>0.602319658</threshold>
					<split pos="left">
						<feature>7</feature>
						<threshold>0.481805831</threshold>
						<split pos="left">
							<feature>7</feature>
							<threshold>0.435281962</threshold>
							<split pos="left">
								<feature>5</feature>
								<threshold>0.598115921</threshold>
								<split pos="left">
									<feature>5</feature>
									<threshold>0.380200267</threshold>
									<split pos="left">
										<feature>4</feature>
										<threshold>0.935095787</threshold>
										<split pos="left">
											<feature>8</feature>
											<threshold>0.774009109</threshold>
											<split pos="left">
												<output>-0.30982863607294581</output>
											</split>
											<split pos="right">
												<output>1.0060336246578563</output>
											</split>
										</split>
										<split pos="right">
											<output>-1.1542565551246078</output>
										</split>
									</split>
									<split pos="right">
										<output>-1.0724141603840061</output>
									</split>
								</split>
								<split pos="right">
									<output>0.52357419275309824</output>
								</split>
							</split>
							<split pos="right">
								<output>-1.105412841438141</output>
							</split>
						</split>
						<split pos="right">
							<output>0.67983784533528258</output>
						</split>
					</split>
					<split pos="right">
						<output>-0.73767639295253928</output>
					</split>
				</split>
				<split pos="right">
					<feature>7</feature>
					<threshold>0.970198691</threshold>
					<split pos="left">
						<output>0.63123778031481337</output>
					</split>
					<split pos="right">
						<output>-0.13298567274915729</output>
					</split>
				</split>
			</split>
		</tree>
		<tree id="38" weight="0.10000000149011612">
			<split>
				<feature>8</feature>
				<threshold>0.490417629</threshold>
				<split pos="left">
					<feature>8</feature>
					<threshold>0.459376752</threshold>
					<split pos="left">
						<feature>6</feature>
						<threshold>0.177672714</threshold>
						<split pos="left">
							<output>-0.70392099278076525</output>
						</split>
						<split pos="right">
							<feature>6</feature>
							<threshold>0.178629115</threshold>
							<split pos="left">
								<output>1.0437304532800959</output>
							</split>
							<split pos="right">
								<feature>8</feature>
								<threshold>0.0298808068</threshold>
								<split pos="left">
									<output>-1.169256143500033</output>
								</split>
								<split pos="right">
									<output>0.20829223827680182</output>
								</split>
							</split>
						</split>
					</split>
					<split pos="right">
						<output>-1.1403553830245383</output>
					</split>
				</split>
				<split pos="right">
					<feature>8</feature>
					<threshold>0.501618683</threshold>
					<split pos="left">
						<output>1.1590214198120652</output>
					</split>
					<split pos="right">
						<feature>6</feature>
						<threshold>0</threshold>
						<split pos="left">
							<output>1.1015446548513443</output>
						</split>
						<split pos="right">
							<feature>7</feature>
							<threshold>0.803233564</threshold>
							<split pos="left">
								<output>-0.39060521148486926</output>
							</split>
							<split pos="right">
								<feature>7</feature>
								<threshold>0.970198691</threshold>
								<split pos="left">
									<output>0.65310634257858236</output>
								</split>
								<split pos="right">
									<output>-0.038864366825342854</output>
								</split>
							</split>
						</split>
					</split>
				</split>
			</split>
		</tree>
		<tree id="39" weight="0.10000000149011612">
			<split>
				<feature>8</feature>
				<threshold>0.490417629</threshold>
				<split pos="left">
					<feature>8</feature>
					<threshold>0.459376752</threshold>
					<split pos="left">
						<feature>6</feature>
						<threshold>0.177672714</threshold>
						<split pos="left">
							<output>-0.68405610116000914</output>
						</split>
						<split pos="right">
							<feature>6</feature>
							<threshold>0.178629115</threshold>
							<split pos="left">
								<output>1.0377761557102931</output>
							</split>
							<split pos="right">
								<output>0.029877182547286371</output>
							</split>
						</split>
					</split>
					<split pos="right">
						<output>-1.1146848480803271</output>
					</split>
				</split>
				<split pos="right">
					<feature>8</feature>
					<threshold>0.562030077</threshold>
					<split pos="left">
						<output>0.81928117252542676</output>
					</split>
					<split pos="right">
						<feature>6</feature>
						<threshold>0</threshold>
						<split pos="left">
							<output>1.091044841994945</output>
						</split>
						<split pos="right">
							<feature>8</feature>
							<threshold>0.951598585</threshold>
							<split pos="left">
								<output>-0.45089429188952862</output>
							</split>
							<split pos="right">
								<feature>8</feature>
								<threshold>0.995755553</threshold>
								<split pos="left">
									<output>1.309483766736429</output>
								</split>
								<split pos="right">
									<feature>3</feature>
									<threshold>0.0853801146</threshold>
									<split pos="left">
										<output>0.65061460984241437</output>
									</split>
									<split pos="right">
										<output>-0.24395409323076353</output>
									</split>
								</split>
							</split>
						</split>
					</split>
				</split>
			</split>
		</tree>
		<tree id="40" weight="0.10000000149011612">
			<split>
				<feature>8</feature>
				<threshold>0.0298808068</threshold>
				<split pos="left">
					<feature>8</feature>
					<threshold>0.0217851084</threshold>
					<split pos="left">
						<feature>6</feature>
						<threshold>0.177672714</threshold>
						<split pos="left">
							<output>-0.6787759783076267</output>
						</split>
						<split pos="right">
							<output>0.226131147477901</output>
						</split>
					</split>
					<split pos="right">
						<output>-1.3944446973283036</output>
					</split>
				</split>
				<split pos="right">
					<feature>8</feature>
					<threshold>0.0318919569</threshold>
					<split pos="left">
						<output>1.0667793926105915</output>
					</split>
					<split pos="right">
						<feature>4</feature>
						<threshold>0.979840934</threshold>
						<split pos="left">
							<feature>5</feature>
							<threshold>0.993677855</threshold>
							<split pos="left">
								<feature>5</feature>
								<threshold>0.908614755</threshold>
								<split pos="left">
									<feature>5</feature>
									<threshold>0.854916453</threshold>
									<split pos="left">
										<feature>6</feature>
										<threshold>0.770967841</threshold>
										<split pos="left">
											<output>0.27632985246597824</output>
										</split>
										<split pos="right">
											<output>-0.26802499862510965</output>
										</split>
									</split>
									<split pos="right">
										<output>1.0953878883103165</output>
									</split>
								</split>
								<split pos="right">
									<output>-1.1683101430103509</output>
								</split>
							</split>
							<split pos="right">
								<output>1.1618857727028582</output>
							</split>
						</split>
						<split pos="right">
							<output>-0.31587679955859804</output>
						</split>
					</split>
				</split>
			</split>
		</tree>
		<tree id="41" weight="0.10000000149011612">
			<split>
				<feature>8</feature>
				<threshold>0.490417629</threshold>
				<split pos="left">
					<feature>8</feature>
					<threshold>0.459376752</threshold>
					<split pos="left">
						<feature>5</feature>
						<threshold>0.515892804</threshold>
						<split pos="left">
							<feature>5</feature>
							<threshold>0.404241621</threshold>
							<split pos="left">
								<feature>7</feature>
								<threshold>0.504380524</threshold>
								<split pos="left">
									<feature>7</feature>
									<threshold>0.191157922</threshold>
									<split pos="left">
										<output>-0.16006411268766596</output>
									</split>
									<split pos="right">
										<output>-0.66896242959339514</output>
									</split>
								</split>
								<split pos="right">
									<output>0.80722865987782721</output>
								</split>
							</split>
							<split pos="right">
								<output>-1.0610099155574093</output>
							</split>
						</split>
						<split pos="right">
							<output>0.24505406774657895</output>
						</split>
					</split>
					<split pos="right">
						<output>-1.0843454423961647</output>
					</split>
				</split>
				<split pos="right">
					<feature>8</feature>
					<threshold>0.562030077</threshold>
					<split pos="left">
						<output>0.78223153309825444</output>
					</split>
					<split pos="right">
						<feature>6</feature>
						<threshold>0.00230733957</threshold>
						<split pos="left">
							<output>1.0759967647340622</output>
						</split>
						<split pos="right">
							<feature>8</feature>
							<threshold>0.951598585</threshold>
							<split pos="left">
								<output>-0.39583235702757391</output>
							</split>
							<split pos="right">
								<output>0.1931911890295451</output>
							</split>
						</split>
					</split>
				</split>
			</split>
		</tree>
		<tree id="42" weight="0.10000000149011612">
			<split>
				<feature>8</feature>
				<threshold>0.22761175</threshold>
				<split pos="left">
					<feature>8</feature>
					<threshold>0.1595622</threshold>
					<split pos="left">
						<feature>4</feature>
						<threshold>0.0971237943</threshold>
						<split pos="left">
							<feature>7</feature>
							<threshold>0.0249726996</threshold>
							<split pos="left">
								<output>-0.46562435031985527</output>
							</split>
							<split pos="right">
								<output>-1.0266103608683992</output>
							</split>
						</split>
						<split pos="right">
							<output>0.11752026457878592</output>
						</split>
					</split>
					<split pos="right">
						<output>-1.1173463132856492</output>
					</split>
				</split>
				<split pos="right">
					<feature>6</feature>
					<threshold>0</threshold>
					<split pos="left">
						<output>1.0698027378565975</output>
					</split>
					<split pos="right">
						<feature>8</feature>
						<threshold>0.285289615</threshold>
						<split pos="left">
							<output>1.0597667252975276</output>
						</split>
						<split pos="right">
							<feature>7</feature>
							<threshold>0.803233564</threshold>
							<split pos="left">
								<output>-0.26619981715126922</output>
							</split>
							<split pos="right">
								<feature>7</feature>
								<threshold>0.841612399</threshold>
								<split pos="left">
									<output>1.0331952010317489</output>
								</split>
								<split pos="right">
									<feature>5</feature>
									<threshold>0.993677855</threshold>
									<split pos="left">
										<output>-0.13089780037913912</output>
									</split>
									<split pos="right">
										<output>0.66910198589709058</output>
									</split>
								</split>
							</split>
						</split>
					</split>
				</split>
			</split>
		</tree>
		<tree id="43" weight="0.10000000149011612">
			<split>
				<feature>8</feature>
				<threshold>0.490417629</threshold>
				<split pos="left">
					<feature>8</feature>
					<threshold>0.459376752</threshold>
					<split pos="left">
						<feature>5</feature>
						<threshold>0.515892804</threshold>
						<split pos="left">
							<feature>5</feature>
							<threshold>0.404241621</threshold>
							<split pos="left">
								<feature>6</feature>
								<threshold>0.472328901</threshold>
								<split pos="left">
									<feature>7</feature>
									<threshold>0.191157922</threshold>
									<split pos="left">
										<feature>6</feature>
										<threshold>0.177672714</threshold>
										<split pos="left">
											<output>-0.52959339599384825</output>
										</split>
										<split pos="right">
											<output>0.76213047136448731</output>
										</split>
									</split>
									<split pos="right">
										<output>-0.67942717296041355</output>
									</split>
								</split>
								<split pos="right">
									<output>0.88847070112460302</output>
								</split>
							</split>
							<split pos="right">
								<output>-1.0526905828515913</output>
							</split>
						</split>
						<split pos="right">
							<output>0.22749315393481462</output>
						</split>
					</split>
					<split pos="right">
						<output>-1.0762573494631573</output>
					</split>
				</split>
				<split pos="right">
					<feature>8</feature>
					<threshold>0.562030077</threshold>
					<split pos="left">
						<output>0.74746659408029836</output>
					</split>
					<split pos="right">
						<feature>6</feature>
						<threshold>0</threshold>
						<split pos="left">
							<output>1.0621635976049693</output>
						</split>
						<split pos="right">
							<output>-0.055664536589608189</output>
						</split>
					</split>
				</split>
			</split>
		</tree>
		<tree id="44" weight="0.10000000149011612">
			<split>
				<feature>8</feature>
				<threshold>0.0298808068</threshold>
				<split pos="left">
					<feature>8</feature>
					<threshold>0.0217851084</threshold>
					<split pos="left">
						<feature>6</feature>
						<threshold>0.177672714</threshold>
						<split pos="left">
							<output>-0.61048070178112024</output>
						</split>
						<split pos="right">
							<output>0.25150119994439918</output>
						</split>
					</split>
					<split pos="right">
						<output>-1.3861694120044947</output>
					</split>
				</split>
				<split pos="right">
					<feature>8</feature>
					<threshold>0.0318919569</threshold>
					<split pos="left">
						<output>1.0504215974790259</output>
					</split>
					<split pos="right">
						<feature>4</feature>
						<threshold>0.979840934</threshold>
						<split pos="left">
							<feature>5</feature>
							<threshold>0.993677855</threshold>
							<split pos="left">
								<feature>5</feature>
								<threshold>0.908614755</threshold>
								<split pos="left">
									<feature>5</feature>
									<threshold>0.854916453</threshold>
									<split pos="left">
										<feature>6</feature>
										<threshold>0.770967841</threshold>
										<split pos="left">
											<output>0.26729492585231202</output>
										</split>
										<split pos="right">
											<output>-0.24948589008632993</output>
										</split>
									</split>
									<split pos="right">
										<output>1.0712480526852532</output>
									</split>
								</split>
								<split pos="right">
									<output>-1.1290649043478056</output>
								</split>
							</split>
							<split pos="right">
								<output>1.1255905616805042</output>
							</split>
						</split>
						<split pos="right">
							<output>-0.29329135768404868</output>
						</split>
					</split>
				</split>
			</split>
		</tree>
		<tree id="45" weight="0.10000000149011612">
			<split>
				<feature>8</feature>
				<threshold>0.490417629</threshold>
				<split pos="left">
					<feature>8</feature>
					<threshold>0.459376752</threshold>
					<split pos="left">
						<feature>5</feature>
						<threshold>0.515892804</threshold>
						<split pos="left">
							<feature>5</feature>
							<threshold>0.404241621</threshold>
							<split pos="left">
								<feature>6</feature>
								<threshold>0.472328901</threshold>
								<split pos="left">
									<feature>7</feature>
									<threshold>0.191157922</threshold>
									<split pos="left">
										<output>-0.12628876684799623</output>
									</split>
									<split pos="right">
										<output>-0.65705997615783163</output>
									</split>
								</split>
								<split pos="right">
									<output>0.87060150567366146</output>
								</split>
							</split>
							<split pos="right">
								<output>-1.046841068917542</output>
							</split>
						</split>
						<split pos="right">
							<output>0.20307777876561559</output>
						</split>
					</split>
					<split pos="right">
						<output>-1.056109881623654</output>
					</split>
				</split>
				<split pos="right">
					<feature>8</feature>
					<threshold>0.501618683</threshold>
					<split pos="left">
						<output>1.0957465907346027</output>
					</split>
					<split pos="right">
						<feature>6</feature>
						<threshold>0</threshold>
						<split pos="left">
							<output>1.0530592443243052</output>
						</split>
						<split pos="right">
							<feature>7</feature>
							<threshold>0.803233564</threshold>
							<split pos="left">
								<output>-0.3331605699606261</output>
							</split>
							<split pos="right">
								<output>0.25290211935334406</output>
							</split>
						</split>
					</split>
				</split>
			</split>
		</tree>
		<tree id="46" weight="0.10000000149011612">
			<split>
				<feature>8</feature>
				<threshold>0.490417629</threshold>
				<split pos="left">
					<feature>8</feature>
					<threshold>0.406122625</threshold>
					<split pos="left">
						<feature>8</feature>
						<threshold>0.398991674</threshold>
						<split pos="left">
							<feature>8</feature>
							<threshold>0.388886541</threshold>
							<split pos="left">
								<feature>8</feature>
								<threshold>0.365283817</threshold>
								<split pos="left">
									<feature>6</feature>
									<threshold>0.753816724</threshold>
									<split pos="left">
										<feature>5</feature>
										<threshold>0.515892804</threshold>
										<split pos="left">
											<feature>5</feature>
											<threshold>0.404241621</threshold>
											<split pos="left">
												<output>-0.24882382175133175</output>
											</split>
											<split pos="right">
												<output>-1.0474914310636581</output>
											</split>
										</split>
										<split pos="right">
											<output>0.55617038109402217</output>
										</split>
									</split>
									<split pos="right">
										<output>-0.90351648592481981</output>
									</split>
								</split>
								<split pos="right">
									<output>0.67769364221017581</output>
								</split>
							</split>
							<split pos="right">
								<output>-1.0705046389572221</output>
							</split>
						</split>
						<split pos="right">
							<output>1.1489779942940659</output>
						</split>
					</split>
					<split pos="right">
						<output>-0.73828985498617805</output>
					</split>
				</split>
				<split pos="right">
					<feature>8</feature>
					<threshold>0.562030077</threshold>
					<split pos="left">
						<output>0.68704473846912295</output>
					</split>
					<split pos="right">
						<output>0.0058935704183568872</output>
					</split>
				</split>
			</split>
		</tree>
		<tree id="47" weight="0.10000000149011612">
			<split>
				<feature>8</feature>
				<threshold>0.0298808068</threshold>
				<split pos="left">
					<feature>8</feature>
					<threshold>0.0217851084</threshold>
					<split pos="left">
						<feature>6</feature>
						<threshold>0.177672714</threshold>
						<split pos="left">
							<feature>7</feature>
							<threshold>0.0249726996</threshold>
							<split pos="left">
								<feature>4</feature>
								<threshold>0.0612003766</threshold>
								<split pos="left">
									<feature>3</feature>
									<threshold>0.00635368889</threshold>
									<split pos="left">
										<feature>3</feature>
										<threshold>0</threshold>
										<split pos="left">
											<output>-0.17780416455202586</output>
										</split>
										<split pos="right">
											<output>-1.0136737879089988</output>
										</split>
									</split>
									<split pos="right">
										<output>-1.0201687883477852</output>
									</split>
								</split>
								<split pos="right">
									<output>-1.0014310206453414</output>
								</split>
							</split>
							<split pos="right">
								<output>-1.0301981538117027</output>
							</split>
						</split>
						<split pos="right">
							<output>0.27146834766761013</output>
						</split>
					</split>
					<split pos="right">
						<output>-1.3095580586665854</output>
					</split>
				</split>
				<split pos="right">
					<feature>7</feature>
					<threshold>0.803233564</threshold>
					<split pos="left">
						<output>-0.02945312274779719</output>
					</split>
					<split pos="right">
						<feature>7</feature>
						<threshold>0.970198691</threshold>
						<split pos="left">
							<output>0.59585950430867662</output>
						</split>
						<split pos="right">
							<output>-0.04943416226923622</output>
						</split>
					</split>
				</split>
			</split>
		</tree>
		<tree id="48" weight="0.10000000149011612">
			<split>
				<feature>8</feature>
				<threshold>0.490417629</threshold>
				<split pos="left">
					<feature>8</feature>
					<threshold>0.406122625</threshold>
					<split pos="left">
						<feature>8</feature>
						<threshold>0.398991674</threshold>
						<split pos="left">
							<feature>4</feature>
							<threshold>0.217764944</threshold>
							<split pos="left">
								<feature>5</feature>
								<threshold>0.55975014</threshold>
								<split pos="left">
									<feature>9</feature>
									<threshold>0</threshold>
									<split pos="left">
										<feature>5</feature>
										<threshold>0.094184652</threshold>
										<split pos="left">
											<feature>6</feature>
											<threshold>0.177672714</threshold>
											<split pos="left">
												<output>-0.56886486376254919</output>
											</split>
											<split pos="right">
												<output>0.92220169964196919</output>
											</split>
										</split>
										<split pos="right">
											<output>-1.0445201976600216</output>
										</split>
									</split>
									<split pos="right">
										<output>1.1345791113117447</output>
									</split>
								</split>
								<split pos="right">
									<output>-1.2985555265059232</output>
								</split>
							</split>
							<split pos="right">
								<output>0.15368212085463984</output>
							</split>
						</split>
						<split pos="right">
							<output>1.1410955511706757</output>
						</split>
					</split>
					<split pos="right">
						<output>-0.79823193408593118</output>
					</split>
				</split>
				<split pos="right">
					<feature>8</feature>
					<threshold>0.562030077</threshold>
					<split pos="left">
						<output>0.65397378572101172</output>
					</split>
					<split pos="right">
						<output>0.0068569728914273176</output>
					</split>
				</split>
			</split>
		</tree>
		<tree id="49" weight="0.10000000149011612">
			<split>
				<feature>7</feature>
				<threshold>0.803233564</threshold>
				<split pos="left">
					<feature>7</feature>
					<threshold>0.602319658</threshold>
					<split pos="left">
						<feature>7</feature>
						<threshold>0.504380524</threshold>
						<split pos="left">
							<feature>8</feature>
							<threshold>0.774009109</threshold>
							<split pos="left">
								<feature>9</feature>
								<threshold>0</threshold>
								<split pos="left">
									<feature>5</feature>
									<threshold>0.950723767</threshold>
									<split pos="left">
										<feature>6</feature>
										<threshold>0.274987608</threshold>
										<split pos="left">
											<feature>6</feature>
											<threshold>0.177672714</threshold>
											<split pos="left">
												<output>-0.60486594475382038</output>
											</split>
											<split pos="right">
												<output>0.32170934408618618</output>
											</split>
										</split>
										<split pos="right">
											<output>-0.54017432898569462</output>
										</split>
									</split>
									<split pos="right">
										<output>-1.0867728093472557</output>
									</split>
								</split>
								<split pos="right">
									<output>0.33165420115632688</output>
								</split>
							</split>
							<split pos="right">
								<output>0.41456489650841283</output>
							</split>
						</split>
						<split pos="right">
							<output>0.83036963024566923</output>
						</split>
					</split>
					<split pos="right">
						<output>-0.66921544434692937</output>
					</split>
				</split>
				<split pos="right">
					<feature>7</feature>
					<threshold>0.970198691</threshold>
					<split pos="left">
						<output>0.54949462572761387</output>
					</split>
					<split pos="right">
						<output>-0.12525360773039815</output>
					</split>
				</split>
			</split>
		</tree>
		<tree id="50" weight="0.10000000149011612">
			<split>
				<feature>7</feature>
				<threshold>0.803233564</threshold>
				<split pos="left">
					<feature>4</feature>
					<threshold>0.74793911</threshold>
					<split pos="left">
						<feature>5</feature>
						<threshold>0.515892804</threshold>
						<split pos="left">
							<feature>3</feature>
							<threshold>0.920784295</threshold>
							<split pos="left">
								<feature>7</feature>
								<threshold>0.744261742</threshold>
								<split pos="left">
									<feature>6</feature>
									<threshold>0.350632548</threshold>
									<split pos="left">
										<feature>7</feature>
										<threshold>0.191157922</threshold>
										<split pos="left">
											<feature>6</feature>
											<threshold>0.172668353</threshold>
											<split pos="left">
												<output>-0.52678988265953286</output>
											</split>
											<split pos="right">
												<output>0.6230759441457443</output>
											</split>
										</split>
										<split pos="right">
											<output>-1.0273676293532501</output>
										</split>
									</split>
									<split pos="right">
										<output>0.36090838424669924</output>
									</split>
								</split>
								<split pos="right">
									<output>-1.1283408603352483</output>
								</split>
							</split>
							<split pos="right">
								<output>0.6732310786279323</output>
							</split>
						</split>
						<split pos="right">
							<output>0.69317326061648166</output>
						</split>
					</split>
					<split pos="right">
						<output>-0.5885456964305279</output>
					</split>
				</split>
				<split pos="right">
					<feature>7</feature>
					<threshold>0.970198691</threshold>
					<split pos="left">
						<output>0.5520146709655851</output>
					</split>
					<split pos="right">
						<output>-0.12409881150941812</output>
					</split>
				</split>
			</split>
		</tree>
		<tree id="51" weight="0.10000000149011612">
			<split>
				<feature>4</feature>
				<threshold>0.283595473</threshold>
				<split pos="left">
					<feature>6</feature>
					<threshold>0.753816724</threshold>
					<split pos="left">
						<feature>6</feature>
						<threshold>0.67390734</threshold>
						<split pos="left">
							<feature>5</feature>
							<threshold>0.79035759</threshold>
							<split pos="left">
								<feature>8</feature>
								<threshold>0.693543553</threshold>
								<split pos="left">
									<feature>9</feature>
									<threshold>0</threshold>
									<split pos="left">
										<feature>8</feature>
										<threshold>0.0071299863</threshold>
										<split pos="left">
											<feature>6</feature>
											<threshold>0.163729638</threshold>
											<split pos="left">
												<output>-0.4421160392736127</output>
											</split>
											<split pos="right">
												<output>0.97226895909161182</output>
											</split>
										</split>
										<split pos="right">
											<output>-0.78923944645761235</output>
										</split>
									</split>
									<split pos="right">
										<output>1.0395778890474943</output>
									</split>
								</split>
								<split pos="right">
									<output>0.54261990184859277</output>
								</split>
							</split>
							<split pos="right">
								<output>1.0429212730494761</output>
							</split>
						</split>
						<split pos="right">
							<output>0.91306818413287083</output>
						</split>
					</split>
					<split pos="right">
						<output>-1.2479648722499586</output>
					</split>
				</split>
				<split pos="right">
					<feature>4</feature>
					<threshold>0.512044609</threshold>
					<split pos="left">
						<output>0.43277323546541208</output>
					</split>
					<split pos="right">
						<output>-0.052072232522594485</output>
					</split>
				</split>
			</split>
		</tree>
		<tree id="52" weight="0.10000000149011612">
			<split>
				<feature>4</feature>
				<threshold>0.375063598</threshold>
				<split pos="left">
					<feature>6</feature>
					<threshold>0.753816724</threshold>
					<split pos="left">
						<feature>5</feature>
						<threshold>0.508135021</threshold>
						<split pos="left">
							<feature>6</feature>
							<threshold>0.705229759</threshold>
							<split pos="left">
								<feature>5</feature>
								<threshold>0.404241621</threshold>
								<split pos="left">
									<feature>9</feature>
									<threshold>0</threshold>
									<split pos="left">
										<feature>3</feature>
										<threshold>0.156253681</threshold>
										<split pos="left">
											<feature>5</feature>
											<threshold>0.193782076</threshold>
											<split pos="left">
												<output>-0.37173866181534193</output>
											</split>
											<split pos="right">
												<output>-1.0252297019690815</output>
											</split>
										</split>
										<split pos="right">
											<output>0.028760234342924313</output>
										</split>
									</split>
									<split pos="right">
										<output>0.95504461409083907</output>
									</split>
								</split>
								<split pos="right">
									<output>-1.0355394241056224</output>
								</split>
							</split>
							<split pos="right">
								<output>0.82776108378572855</output>
							</split>
						</split>
						<split pos="right">
							<output>1.0553464180328513</output>
						</split>
					</split>
					<split pos="right">
						<output>-1.186517120054718</output>
					</split>
				</split>
				<split pos="right">
					<feature>4</feature>
					<threshold>0.391751409</threshold>
					<split pos="left">
						<output>1.0103740479094439</output>
					</split>
					<split pos="right">
						<output>0.059537660223007972</output>
					</split>
				</split>
			</split>
		</tree>
		<tree id="53" weight="0.10000000149011612">
			<split>
				<feature>7</feature>
				<threshold>0.803233564</threshold>
				<split pos="left">
					<feature>7</feature>
					<threshold>0.602319658</threshold>
					<split pos="left">
						<feature>7</feature>
						<threshold>0.504380524</threshold>
						<split pos="left">
							<feature>4</feature>
							<threshold>0.512044609</threshold>
							<split pos="left">
								<feature>4</feature>
								<threshold>0.46293804</threshold>
								<split pos="left">
									<feature>8</feature>
									<threshold>0.774009109</threshold>
									<split pos="left">
										<feature>5</feature>
										<threshold>0.508135021</threshold>
										<split pos="left">
