<ranker>
	<info>
		<type>LAMBDAMART</type>
		<trees>1000</trees>
		<leaves>10</leaves>
		<shrinkage>0.10000000149011612</shrinkage>
		<leafsupport>1</leafsupport>
		<discretization>0</discretization>
		<estop>100</estop>
		<subsample>1</subsample>
		<max_features>1</max_features>
		<collapse_leaves_factor>0</collapse_leaves_factor>
	</info>
	<ensemble>
		<tree id="1" weight="0.10000000149011612">
			<split>
				<feature>5</feature>
				<threshold>0.778518975</threshold>
				<split pos="left">
					<feature>6</feature>
					<threshold>0.45156917</threshold>
					<split pos="left">
						<feature>8</feature>
						<threshold>0.807892859</threshold>
						<split pos="left">
							<output>-1.4237521574055705</output>
						</split>
						<split pos="right">
							<output>1.3615285433542557</output>
						</split>
					</split>
					<split pos="right">
						<feature>6</feature>
						<threshold>0.480958462</threshold>
						<split pos="left">
							<output>1.6822928571596318</output>
						</split>
						<split pos="right">
							<feature>3</feature>
							<threshold>0.193664581</threshold>
							<split pos="left">
								<output>1.3474742885063424</output>
							</split>
							<split pos="right">
								<output>-0.35186206519052454</output>
							</split>
						</split>
					</split>
				</split>
				<split pos="right">
					<feature>5</feature>
					<threshold>0.841857135</threshold>
					<split pos="left">
						<output>1.8067774416558913</output>
					</split>
					<split pos="right">
						<feature>3</feature>
						<threshold>0.136013687</threshold>
						<split pos="left">
							<output>-0.7068332465990651</output>
						</split>
						<split pos="right">
							<feature>3</feature>
							<threshold>0.37224853</threshold>
							<split pos="left">
								<feature>3</feature>
								<threshold>0.341171861</threshold>
								<split pos="left">
									<output>1.5374409935546216</output>
								</split>
								<split pos="right">
									<output>2</output>
								</split>
							</split>
							<split pos="right">
								<output>1.7233197541041962</output>
							</split>
						</split>
					</split>
				</split>
			</split>
		</tree>
		<tree id="2" weight="0.10000000149011612">
			<split>
				<feature>6</feature>
				<threshold>0.39689213</threshold>
				<split pos="left">
					<feature>8</feature>
					<threshold>0.820274651</threshold>
					<split pos="left">
						<output>-1.2528103986918011</output>
					</split>
					<split pos="right">
						<output>1.2318407305104335</output>
					</split>
				</split>
				<split pos="right">
					<feature>6</feature>
					<threshold>0.400771052</threshold>
					<split pos="left">
						<output>1.7320565380330679</output>
					</split>
					<split pos="right">
						<feature>4</feature>
						<threshold>0.650534511</threshold>
						<split pos="left">
							<feature>3</feature>
							<threshold>0.0868299007</threshold>
							<split pos="left">
								<output>1.5482798078586113</output>
							</split>
							<split pos="right">
								<output>-0.20232559632747255</output>
							</split>
						</split>
						<split pos="right">
							<feature>3</feature>
							<threshold>0.151852891</threshold>
							<split pos="left">
								<output>-0.06556496946441516</output>
							</split>
							<split pos="right">
								<feature>9</feature>
								<threshold>0</threshold>
								<split pos="left">
									<feature>8</feature>
									<threshold>0.880881667</threshold>
									<split pos="left">
										<feature>3</feature>
										<threshold>0.35720256</threshold>
										<split pos="left">
											<output>1.5278621268916892</output>
										</split>
										<split pos="right">
											<output>1.7374223538753013</output>
										</split>
									</split>
									<split pos="right">
										<output>1.11533031146748</output>
									</split>
								</split>
								<split pos="right">
									<output>0.87312863733661583</output>
								</split>
							</split>
						</split>
					</split>
				</split>
			</split>
		</tree>
		<tree id="3" weight="0.10000000149011612">
			<split>
				<feature>6</feature>
				<threshold>0.39689213</threshold>
				<split pos="left">
					<feature>8</feature>
					<threshold>0.820274651</threshold>
					<split pos="left">
						<output>-1.2449503380349687</output>
					</split>
					<split pos="right">
						<output>1.2232347224935238</output>
					</split>
				</split>
				<split pos="right">
					<feature>6</feature>
					<threshold>0.400771052</threshold>
					<split pos="left">
						<output>1.5595866390301052</output>
					</split>
					<split pos="right">
						<feature>4</feature>
						<threshold>0.647550762</threshold>
						<split pos="left">
							<feature>3</feature>
							<threshold>0.0868299007</threshold>
							<split pos="left">
								<output>1.4262294420721575</output>
							</split>
							<split pos="right">
								<output>-0.21138657017687029</output>
							</split>
						</split>
						<split pos="right">
							<feature>3</feature>
							<threshold>0.151852891</threshold>
							<split pos="left">
								<output>-0.093104123193343782</output>
							</split>
							<split pos="right">
								<feature>9</feature>
								<threshold>0</threshold>
								<split pos="left">
									<feature>8</feature>
									<threshold>0.896953106</threshold>
									<split pos="left">
										<feature>6</feature>
										<threshold>0.563560009</threshold>
										<split pos="left">
											<output>1.2285780242519588</output>
										</split>
										<split pos="right">
											<output>1.5834004549882386</output>
										</split>
									</split>
									<split pos="right">
										<output>0.98112693791435868</output>
									</split>
								</split>
								<split pos="right">
									<output>0.76916374065085191</output>
								</split>
							</split>
						</split>
					</split>
				</split>
			</split>
		</tree>
		<tree id="4" weight="0.10000000149011612">
			<split>
				<feature>6</feature>
				<threshold>0.39689213</threshold>
				<split pos="left">
					<feature>8</feature>
					<threshold>0.820274651</threshold>
					<split pos="left">
						<feature>3</feature>
						<threshold>0.141288638</threshold>
						<split pos="left">
							<output>-0.60863491212060783</output>
						</split>
						<split pos="right">
							<output>-1.4140905256129055</output>
						</split>
					</split>
					<split pos="right">
						<output>1.0125880493177726</output>
					</split>
				</split>
				<split pos="right">
					<feature>4</feature>
					<threshold>0.647550762</threshold>
					<split pos="left">
						<feature>3</feature>
						<threshold>0.0868299007</threshold>
						<split pos="left">
							<output>1.2940183612713674</output>
						</split>
						<split pos="right">
							<output>-0.33891136309392073</output>
						</split>
					</split>
					<split pos="right">
						<feature>6</feature>
						<threshold>0.477156639</threshold>
						<split pos="left">
							<output>1.4670478817744137</output>
						</split>
						<split pos="right">
							<feature>3</feature>
							<threshold>0.151852891</threshold>
							<split pos="left">
								<output>-0.26599096821610047</output>
							</split>
							<split pos="right">
								<feature>8</feature>
								<threshold>0.361832678</threshold>
								<split pos="left">
									<feature>5</feature>
									<threshold>0.798136413</threshold>
									<split pos="left">
										<output>1.1405926227519747</output>
									</split>
									<split pos="right">
										<output>1.4991127149920707</output>
									</split>
								</split>
								<split pos="right">
									<output>1.0336699787523795</output>
								</split>
							</split>
						</split>
					</split>
				</split>
			</split>
		</tree>
		<tree id="5" weight="0.10000000149011612">
			<split>
				<feature>6</feature>
				<threshold>0.39689213</threshold>
				<split pos="left">
					<feature>8</feature>
					<threshold>0.820274651</threshold>
					<split pos="left">
						<feature>3</feature>
						<threshold>0.141288638</threshold>
						<split pos="left">
							<output>-0.45978497197033424</output>
						</split>
						<split pos="right">
							<output>-1.3297594853756598</output>
						</split>
					</split>
					<split pos="right">
						<output>0.90356775137679313</output>
					</split>
				</split>
				<split pos="right">
					<feature>4</feature>
					<threshold>0.647550762</threshold>
					<split pos="left">
						<feature>3</feature>
						<threshold>0.0868299007</threshold>
						<split pos="left">
							<output>1.1909086109019773</output>
						</split>
						<split pos="right">
							<output>-0.27235803218918297</output>
						</split>
					</split>
					<split pos="right">
						<feature>6</feature>
						<threshold>0.477156639</threshold>
						<split pos="left">
							<output>1.3783673457232817</output>
						</split>
						<split pos="right">
							<feature>3</feature>
							<threshold>0.151852891</threshold>
							<split pos="left">
								<output>-0.21538692333343534</output>
							</split>
							<split pos="right">
								<feature>8</feature>
								<threshold>0.361832678</threshold>
								<split pos="left">
									<feature>5</feature>
									<threshold>0.798136413</threshold>
									<split pos="left">
										<output>1.0198958239362781</output>
									</split>
									<split pos="right">
										<output>1.4175605934486062</output>
									</split>
								</split>
								<split pos="right">
									<output>0.93649061097884889</output>
								</split>
							</split>
						</split>
					</split>
				</split>
			</split>
		</tree>
		<tree id="6" weight="0.10000000149011612">
			<split>
				<feature>6</feature>
				<threshold>0.39689213</threshold>
				<split pos="left">
					<feature>8</feature>
					<threshold>0.820274651</threshold>
					<split pos="left">
						<feature>3</feature>
						<threshold>0.141288638</threshold>
						<split pos="left">
							<output>-0.38267843213635994</output>
						</split>
						<split pos="right">
							<output>-1.2823343460039849</output>
						</split>
					</split>
					<split pos="right">
						<output>0.80956574381508783</output>
					</split>
				</split>
				<split pos="right">
					<feature>4</feature>
					<threshold>0.647550762</threshold>
					<split pos="left">
						<feature>3</feature>
						<threshold>0.0868299007</threshold>
						<split pos="left">
							<output>1.1247888581246825</output>
						</split>
						<split pos="right">
							<output>-0.32566138257524818</output>
						</split>
					</split>
					<split pos="right">
						<feature>6</feature>
						<threshold>0.477156639</threshold>
						<split pos="left">
							<output>1.3145381192772161</output>
						</split>
						<split pos="right">
							<feature>3</feature>
							<threshold>0.151852891</threshold>
							<split pos="left">
								<output>0.097541217730017213</output>
							</split>
							<split pos="right">
								<feature>8</feature>
								<threshold>0.361832678</threshold>
								<split pos="left">
									<feature>5</feature>
									<threshold>0.798136413</threshold>
									<split pos="left">
										<output>0.91807732111831453</output>
									</split>
									<split pos="right">
										<output>1.3595524744756589</output>
									</split>
								</split>
								<split pos="right">
									<output>0.83170355877879421</output>
								</split>
							</split>
						</split>
					</split>
				</split>
			</split>
		</tree>
		<tree id="7" weight="0.10000000149011612">
			<split>
				<feature>6</feature>
				<threshold>0.39689213</threshold>
				<split pos="left">
					<feature>8</feature>
					<threshold>0.820274651</threshold>
					<split pos="left">
						<feature>3</feature>
						<threshold>0.141288638</threshold>
						<split pos="left">
							<output>-0.30989990118699201</output>
						</split>
						<split pos="right">
							<output>-1.2242790937752781</output>
						</split>
					</split>
					<split pos="right">
						<output>0.72807160045947972</output>
					</split>
				</split>
				<split pos="right">
					<feature>4</feature>
					<threshold>0.647550762</threshold>
					<split pos="left">
						<feature>3</feature>
						<threshold>0.193664581</threshold>
						<split pos="left">
							<output>0.82722494085859299</output>
						</split>
						<split pos="right">
							<output>-0.49731132295876562</output>
						</split>
					</split>
					<split pos="right">
						<feature>6</feature>
						<threshold>0.477156639</threshold>
						<split pos="left">
							<output>1.2674433724096097</output>
						</split>
						<split pos="right">
							<feature>3</feature>
							<threshold>0.151852891</threshold>
							<split pos="left">
								<output>0.085790487862099876</output>
							</split>
							<split pos="right">
								<feature>8</feature>
								<threshold>0.361832678</threshold>
								<split pos="left">
									<feature>8</feature>
									<threshold>0.240727887</threshold>
									<split pos="left">
										<output>1.0767145097093946</output>
									</split>
									<split pos="right">
										<output>1.3499610864518559</output>
									</split>
								</split>
								<split pos="right">
									<output>0.73227588733748117</output>
								</split>
							</split>
						</split>
					</split>
				</split>
			</split>
		</tree>
		<tree id="8" weight="0.10000000149011612">
			<split>
				<feature>5</feature>
				<threshold>0.307415217</threshold>
				<split pos="left">
					<feature>8</feature>
					<threshold>0.831242144</threshold>
					<split pos="left">
						<output>-1.0150655849443888</output>
					</split>
					<split pos="right">
						<output>0.39739015504762243</output>
					</split>
				</split>
				<split pos="right">
					<feature>6</feature>
					<threshold>0.388769895</threshold>
					<split pos="left">
						<output>-0.43702782474565605</output>
					</split>
					<split pos="right">
						<feature>6</feature>
						<threshold>0.400771052</threshold>
						<split pos="left">
							<output>1.2023178555861076</output>
						</split>
						<split pos="right">
							<feature>5</feature>
							<threshold>0.314704567</threshold>
							<split pos="left">
								<output>1.2956655837394622</output>
							</split>
							<split pos="right">
								<feature>4</feature>
								<threshold>0.647550762</threshold>
								<split pos="left">
									<output>0.26202922082072549</output>
								</split>
								<split pos="right">
									<feature>5</feature>
									<threshold>0.570310116</threshold>
									<split pos="left">
										<output>1.0858455917324605</output>
									</split>
									<split pos="right">
										<feature>3</feature>
										<threshold>0.151852891</threshold>
										<split pos="left">
											<output>-0.41970902331467047</output>
										</split>
										<split pos="right">
											<feature>5</feature>
											<threshold>0.798136413</threshold>
											<split pos="left">
												<output>-0.56556124547466124</output>
											</split>
											<split pos="right">
												<output>1.1440012424180068</output>
											</split>
										</split>
									</split>
								</split>
							</split>
						</split>
					</split>
				</split>
			</split>
		</tree>
		<tree id="9" weight="0.10000000149011612">
			<split>
				<feature>5</feature>
				<threshold>0.479335278</threshold>
				<split pos="left">
					<feature>3</feature>
					<threshold>0.141288638</threshold>
					<split pos="left">
						<output>0.02898884796017559</output>
					</split>
					<split pos="right">
						<feature>5</feature>
						<threshold>0.461564273</threshold>
						<split pos="left">
							<feature>4</feature>
							<threshold>0.0189184565</threshold>
							<split pos="left">
								<output>-1.241903966550002</output>
							</split>
							<split pos="right">
								<output>-0.47760301041752362</output>
							</split>
						</split>
						<split pos="right">
							<output>-3.0782001763196027</output>
						</split>
					</split>
				</split>
				<split pos="right">
					<feature>7</feature>
					<threshold>0.360084295</threshold>
					<split pos="left">
						<output>-0.53198745765273481</output>
					</split>
					<split pos="right">
						<feature>5</feature>
						<threshold>0.570310116</threshold>
						<split pos="left">
							<output>1.1277284155802276</output>
						</split>
						<split pos="right">
							<feature>9</feature>
							<threshold>0</threshold>
							<split pos="left">
								<feature>8</feature>
								<threshold>0.100449234</threshold>
								<split pos="left">
									<output>1.0560952766186789</output>
								</split>
								<split pos="right">
									<feature>3</feature>
									<threshold>0.251105607</threshold>
									<split pos="left">
										<output>-0.026631003310773296</output>
									</split>
									<split pos="right">
										<output>1.0011813497839055</output>
									</split>
								</split>
							</split>
							<split pos="right">
								<output>-0.39207232942995945</output>
							</split>
						</split>
					</split>
				</split>
			</split>
		</tree>
		<tree id="10" weight="0.10000000149011612">
			<split>
				<feature>5</feature>
				<threshold>0.307415217</threshold>
				<split pos="left">
					<feature>8</feature>
					<threshold>0.831242144</threshold>
					<split pos="left">
						<output>-0.93262948444069738</output>
					</split>
					<split pos="right">
						<output>0.37065692437943121</output>
					</split>
				</split>
				<split pos="right">
					<feature>5</feature>
					<threshold>0.314704567</threshold>
					<split pos="left">
						<output>1.275516517752687</output>
					</split>
					<split pos="right">
						<feature>7</feature>
						<threshold>0.205529973</threshold>
						<split pos="left">
							<output>-0.88570909290077848</output>
						</split>
						<split pos="right">
							<feature>7</feature>
							<threshold>0.235423565</threshold>
							<split pos="left">
								<output>1.6873380853436977</output>
							</split>
							<split pos="right">
								<feature>9</feature>
								<threshold>0</threshold>
								<split pos="left">
									<feature>5</feature>
									<threshold>0.773475766</threshold>
									<split pos="left">
										<output>0.16447468144431082</output>
									</split>
									<split pos="right">
										<feature>5</feature>
										<threshold>0.815449178</threshold>
										<split pos="left">
											<output>1.2440048247439184</output>
										</split>
										<split pos="right">
											<feature>8</feature>
											<threshold>0.369051129</threshold>
											<split pos="left">
												<output>1.0840293133070271</output>
											</split>
											<split pos="right">
												<output>0.78794155746405681</output>
											</split>
										</split>
									</split>
								</split>
								<split pos="right">
									<output>0.12004957504775095</output>
								</split>
							</split>
						</split>
					</split>
				</split>
			</split>
		</tree>
		<tree id="11" weight="0.10000000149011612">
			<split>
				<feature>5</feature>
				<threshold>0.479335278</threshold>
				<split pos="left">
					<feature>3</feature>
					<threshold>0.141288638</threshold>
					<split pos="left">
						<output>0.10234757228440906</output>
					</split>
					<split pos="right">
						<feature>5</feature>
						<threshold>0.461564273</threshold>
						<split pos="left">
							<feature>4</feature>
							<threshold>0.893015027</threshold>
							<split pos="left">
								<feature>8</feature>
								<threshold>0.550815463</threshold>
								<split pos="left">
									<output>-0.838177711616369</output>
								</split>
								<split pos="right">
									<output>-0.035785154533348663</output>
								</split>
							</split>
							<split pos="right">
								<output>-2.3721892612263433</output>
							</split>
						</split>
						<split pos="right">
							<output>-2.8089802818888288</output>
						</split>
					</split>
				</split>
				<split pos="right">
					<feature>5</feature>
					<threshold>0.570310116</threshold>
					<split pos="left">
						<output>1.0146650306587643</output>
					</split>
					<split pos="right">
						<feature>5</feature>
						<threshold>0.778518975</threshold>
						<split pos="left">
							<output>-0.72966162033403925</output>
						</split>
						<split pos="right">
							<feature>5</feature>
							<threshold>0.842206538</threshold>
							<split pos="left">
								<output>1.0504391328950395</output>
							</split>
							<split pos="right">
								<feature>3</feature>
								<threshold>0.136013687</threshold>
								<split pos="left">
									<output>-0.23938937595074708</output>
								</split>
								<split pos="right">
									<output>0.89345675922438184</output>
								</split>
							</split>
						</split>
					</split>
				</split>
			</split>
		</tree>
		<tree id="12" weight="0.10000000149011612">
			<split>
				<feature>5</feature>
				<threshold>0.479335278</threshold>
				<split pos="left">
					<feature>3</feature>
					<threshold>0.141288638</threshold>
					<split pos="left">
						<output>0.11193800635379299</output>
					</split>
					<split pos="right">
						<feature>3</feature>
						<threshold>0.14743641</threshold>
						<split pos="left">
							<output>-2.4276966587441096</output>
						</split>
						<split pos="right">
							<feature>4</feature>
							<threshold>0.893015027</threshold>
							<split pos="left">
								<feature>8</feature>
								<threshold>0.550815463</threshold>
								<split pos="left">
									<output>-0.85228442939379567</output>
								</split>
								<split pos="right">
									<output>0.002499886107797381</output>
								</split>
							</split>
							<split pos="right">
								<output>-2.1080981301183237</output>
							</split>
						</split>
					</split>
				</split>
				<split pos="right">
					<feature>5</feature>
					<threshold>0.570310116</threshold>
					<split pos="left">
						<output>0.96877268632696723</output>
					</split>
					<split pos="right">
						<feature>5</feature>
						<threshold>0.778518975</threshold>
						<split pos="left">
							<output>-0.64553113429454001</output>
						</split>
						<split pos="right">
							<feature>5</feature>
							<threshold>0.842206538</threshold>
							<split pos="left">
								<output>1.0044839485216177</output>
							</split>
							<split pos="right">
								<feature>3</feature>
								<threshold>0.141288638</threshold>
								<split pos="left">
									<output>-0.1971209633393281</output>
								</split>
								<split pos="right">
									<output>0.86475421342147596</output>
								</split>
							</split>
						</split>
					</split>
				</split>
			</split>
		</tree>
		<tree id="13" weight="0.10000000149011612">
			<split>
				<feature>5</feature>
				<threshold>0.307415217</threshold>
				<split pos="left">
					<feature>8</feature>
					<threshold>0.831242144</threshold>
					<split pos="left">
						<feature>5</feature>
						<threshold>0.0524115041</threshold>
						<split pos="left">
							<output>-0.54631802024312348</output>
						</split>
						<split pos="right">
							<output>-1.1457514579632759</output>
						</split>
					</split>
					<split pos="right">
						<output>0.35187653993044787</output>
					</split>
				</split>
				<split pos="right">
					<feature>5</feature>
					<threshold>0.314704567</threshold>
					<split pos="left">
						<output>1.2973176541341103</output>
					</split>
					<split pos="right">
						<feature>7</feature>
						<threshold>0.205529973</threshold>
						<split pos="left">
							<output>-0.74740304602359298</output>
						</split>
						<split pos="right">
							<feature>7</feature>
							<threshold>0.235423565</threshold>
							<split pos="left">
								<output>1.4267397017846948</output>
							</split>
							<split pos="right">
								<feature>9</feature>
								<threshold>0</threshold>
								<split pos="left">
									<feature>4</feature>
									<threshold>0.647238255</threshold>
									<split pos="left">
										<output>0.1889744529104915</output>
									</split>
									<split pos="right">
										<feature>3</feature>
										<threshold>0.35720256</threshold>
										<split pos="left">
											<output>0.46547068252303869</output>
										</split>
										<split pos="right">
											<output>1.0067740213676057</output>
										</split>
									</split>
								</split>
								<split pos="right">
									<output>0.028672748720978199</output>
								</split>
							</split>
						</split>
					</split>
				</split>
			</split>
		</tree>
		<tree id="14" weight="0.10000000149011612">
			<split>
				<feature>5</feature>
				<threshold>0.307415217</threshold>
				<split pos="left">
					<feature>5</feature>
					<threshold>0.052934438</threshold>
					<split pos="left">
						<output>-0.20579118543156857</output>
					</split>
					<split pos="right">
						<output>-0.98631846818258984</output>
					</split>
				</split>
				<split pos="right">
					<feature>5</feature>
					<threshold>0.314704567</threshold>
					<split pos="left">
						<output>1.2863801243936308</output>
					</split>
					<split pos="right">
						<feature>7</feature>
						<threshold>0.205529973</threshold>
						<split pos="left">
							<output>-0.69699145231298543</output>
						</split>
						<split pos="right">
							<feature>7</feature>
							<threshold>0.235423565</threshold>
							<split pos="left">
								<output>1.3318563048254515</output>
							</split>
							<split pos="right">
								<feature>4</feature>
								<threshold>0.143871441</threshold>
								<split pos="left">
									<output>-0.87056532934336683</output>
								</split>
								<split pos="right">
									<feature>5</feature>
									<threshold>0.356401801</threshold>
									<split pos="left">
										<output>1.2417924073943032</output>
									</split>
									<split pos="right">
										<feature>9</feature>
										<threshold>0</threshold>
										<split pos="left">
											<feature>3</feature>
											<threshold>0.0776805282</threshold>
											<split pos="left">
												<output>-0.42262132471270808</output>
											</split>
											<split pos="right">
												<output>0.65568241800686711</output>
											</split>
										</split>
										<split pos="right">
											<output>-0.096913763526943794</output>
										</split>
									</split>
								</split>
							</split>
						</split>
					</split>
				</split>
			</split>
		</tree>
		<tree id="15" weight="0.10000000149011612">
			<split>
				<feature>5</feature>
				<threshold>0.479335278</threshold>
				<split pos="left">
					<feature>5</feature>
					<threshold>0.461564273</threshold>
					<split pos="left">
						<feature>3</feature>
						<threshold>0.193664581</threshold>
						<split pos="left">
							<feature>3</feature>
							<threshold>0.189789221</threshold>
							<split pos="left">
								<output>-0.19595683292006766</output>
							</split>
							<split pos="right">
								<output>1.5284459863818618</output>
							</split>
						</split>
						<split pos="right">
							<feature>5</feature>
							<threshold>0.0771799982</threshold>
							<split pos="left">
								<output>-0.20356193521034543</output>
							</split>
							<split pos="right">
								<output>-0.91073537780142044</output>
							</split>
						</split>
					</split>
					<split pos="right">
						<output>-2.2820601501761444</output>
					</split>
				</split>
				<split pos="right">
					<feature>5</feature>
					<threshold>0.570310116</threshold>
					<split pos="left">
						<output>0.88193420054457239</output>
					</split>
					<split pos="right">
						<feature>5</feature>
						<threshold>0.778518975</threshold>
						<split pos="left">
							<output>-0.53888456684461761</output>
						</split>
						<split pos="right">
							<feature>5</feature>
							<threshold>0.842206538</threshold>
							<split pos="left">
								<output>0.93592303636870577</output>
							</split>
							<split pos="right">
								<feature>3</feature>
								<threshold>0.136013687</threshold>
								<split pos="left">
									<output>-0.12861708893409149</output>
								</split>
								<split pos="right">
									<output>0.79309310106334008</output>
								</split>
							</split>
						</split>
					</split>
				</split>
			</split>
		</tree>
		<tree id="16" weight="0.10000000149011612">
			<split>
				<feature>5</feature>
				<threshold>0.434519172</threshold>
				<split pos="left">
					<feature>6</feature>
					<threshold>0.714763224</threshold>
					<split pos="left">
						<feature>8</feature>
						<threshold>0.807892859</threshold>
						<split pos="left">
							<feature>7</feature>
							<threshold>0.684007764</threshold>
							<split pos="left">
								<feature>5</feature>
								<threshold>0.315759152</threshold>
								<split pos="left">
									<output>-0.81175103534115134</output>
								</split>
								<split pos="right">
									<output>0.23390774335074752</output>
								</split>
							</split>
							<split pos="right">
								<output>1.7039468724230302</output>
							</split>
						</split>
						<split pos="right">
							<output>0.88926593831133316</output>
						</split>
					</split>
					<split pos="right">
						<output>-1.1850559332164905</output>
					</split>
				</split>
				<split pos="right">
					<feature>7</feature>
					<threshold>0.452092469</threshold>
					<split pos="left">
						<output>-0.20371680195983255</output>
					</split>
					<split pos="right">
						<feature>5</feature>
						<threshold>0.615568638</threshold>
						<split pos="left">
							<output>0.89640324053091747</output>
						</split>
						<split pos="right">
							<feature>5</feature>
							<threshold>0.798136413</threshold>
							<split pos="left">
								<output>-0.79530164459018937</output>
							</split>
							<split pos="right">
								<feature>5</feature>
								<threshold>0.839834511</threshold>
								<split pos="left">
									<output>1.1549705017984628</output>
								</split>
								<split pos="right">
									<output>0.57848641039147553</output>
								</split>
							</split>
						</split>
					</split>
				</split>
			</split>
		</tree>
		<tree id="17" weight="0.10000000149011612">
			<split>
				<feature>7</feature>
				<threshold>0.139522359</threshold>
				<split pos="left">
					<output>-0.65758103875131757</output>
				</split>
				<split pos="right">
					<feature>7</feature>
					<threshold>0.141556516</threshold>
					<split pos="left">
						<output>2.7115364586622519</output>
					</split>
					<split pos="right">
						<feature>5</feature>
						<threshold>0.307415217</threshold>
						<split pos="left">
							<output>-0.43429372127352522</output>
						</split>
						<split pos="right">
							<feature>5</feature>
							<threshold>0.314704567</threshold>
							<split pos="left">
								<output>1.2957977240520604</output>
							</split>
							<split pos="right">
								<feature>4</feature>
								<threshold>0.143204227</threshold>
								<split pos="left">
									<output>-0.7710700508418008</output>
								</split>
								<split pos="right">
									<feature>4</feature>
									<threshold>0.242140248</threshold>
									<split pos="left">
										<output>1.2165540482144053</output>
									</split>
									<split pos="right">
										<feature>9</feature>
										<threshold>0</threshold>
										<split pos="left">
											<feature>3</feature>
											<threshold>0.315393567</threshold>
											<split pos="left">
												<output>0.24934433777140505</output>
											</split>
											<split pos="right">
												<feature>3</feature>
												<threshold>0.37224853</threshold>
												<split pos="left">
													<output>1.1929404321536288</output>
												</split>
												<split pos="right">
													<output>0.49188966630181996</output>
												</split>
											</split>
										</split>
										<split pos="right">
											<output>-0.023704010755532218</output>
										</split>
									</split>
								</split>
							</split>
						</split>
					</split>
				</split>
			</split>
		</tree>
		<tree id="18" weight="0.10000000149011612">
			<split>
				<feature>5</feature>
				<threshold>0.307415217</threshold>
				<split pos="left">
					<feature>8</feature>
					<threshold>0.550815463</threshold>
					<split pos="left">
						<output>-0.77475395576415107</output>
					</split>
					<split pos="right">
						<output>0.2570656072561241</output>
					</split>
				</split>
				<split pos="right">
					<feature>5</feature>
					<threshold>0.314704567</threshold>
					<split pos="left">
						<output>1.2832161800909385</output>
					</split>
					<split pos="right">
						<feature>4</feature>
						<threshold>0.143204227</threshold>
						<split pos="left">
							<output>-0.79691738572807147</output>
						</split>
						<split pos="right">
							<feature>4</feature>
							<threshold>0.218633547</threshold>
							<split pos="left">
								<output>1.1914271339780809</output>
							</split>
							<split pos="right">
								<feature>5</feature>
								<threshold>0.356401801</threshold>
								<split pos="left">
									<output>0.97064195958773003</output>
								</split>
								<split pos="right">
									<feature>4</feature>
									<threshold>0.647550762</threshold>
									<split pos="left">
										<output>-0.24524171503875913</output>
									</split>
									<split pos="right">
										<feature>5</feature>
										<threshold>0.570310116</threshold>
										<split pos="left">
											<output>1.08713405880674</output>
										</split>
										<split pos="right">
											<feature>4</feature>
											<threshold>0.747792721</threshold>
											<split pos="left">
												<output>0.81208207835945057</output>
											</split>
											<split pos="right">
												<output>0.060721701478952159</output>
											</split>
										</split>
									</split>
								</split>
							</split>
						</split>
					</split>
				</split>
			</split>
		</tree>
		<tree id="19" weight="0.10000000149011612">
			<split>
				<feature>5</feature>
				<threshold>0.417152822</threshold>
				<split pos="left">
					<feature>4</feature>
					<threshold>0.893015027</threshold>
					<split pos="left">
						<feature>6</feature>
						<threshold>0.714763224</threshold>
						<split pos="left">
							<feature>8</feature>
							<threshold>0.807892859</threshold>
							<split pos="left">
								<feature>7</feature>
								<threshold>0.660306871</threshold>
								<split pos="left">
									<feature>3</feature>
									<threshold>0</threshold>
									<split pos="left">
										<output>0.30884918862374949</output>
									</split>
									<split pos="right">
										<output>-0.72717544562690684</output>
									</split>
								</split>
								<split pos="right">
									<output>1.8000555568031289</output>
								</split>
							</split>
							<split pos="right">
								<output>1.1521005484099143</output>
							</split>
						</split>
						<split pos="right">
							<output>-0.97865226007951611</output>
						</split>
					</split>
					<split pos="right">
						<output>-1.8979468067357688</output>
					</split>
				</split>
				<split pos="right">
					<feature>7</feature>
					<threshold>0.542275488</threshold>
					<split pos="left">
						<output>-0.07140726595436922</output>
					</split>
					<split pos="right">
						<feature>3</feature>
						<threshold>0.340058476</threshold>
						<split pos="left">
							<output>0.076256065732899198</output>
						</split>
						<split pos="right">
							<feature>9</feature>
							<threshold>0</threshold>
							<split pos="left">
								<output>1.098045204136133</output>
							</split>
							<split pos="right">
								<output>0.18681197030150568</output>
							</split>
						</split>
					</split>
				</split>
			</split>
		</tree>
		<tree id="20" weight="0.10000000149011612">
			<split>
				<feature>5</feature>
				<threshold>0.307415217</threshold>
				<split pos="left">
					<feature>5</feature>
					<threshold>0.052934438</threshold>
					<split pos="left">
						<output>-0.10096704701728038</output>
					</split>
					<split pos="right">
						<output>-0.85682891907812175</output>
					</split>
				</split>
				<split pos="right">
					<feature>5</feature>
					<threshold>0.314704567</threshold>
					<split pos="left">
						<output>1.242757196358641</output>
					</split>
					<split pos="right">
						<feature>4</feature>
						<threshold>0.143204227</threshold>
						<split pos="left">
							<output>-0.7514417075504729</output>
						</split>
						<split pos="right">
							<feature>4</feature>
							<threshold>0.268198669</threshold>
							<split pos="left">
								<output>0.97747676035219866</output>
							</split>
							<split pos="right">
								<feature>5</feature>
								<threshold>0.356401801</threshold>
								<split pos="left">
									<output>0.9027801458958099</output>
								</split>
								<split pos="right">
									<feature>4</feature>
									<threshold>0.647550762</threshold>
									<split pos="left">
										<output>-0.49775081388997128</output>
									</split>
									<split pos="right">
										<feature>5</feature>
										<threshold>0.571238577</threshold>
										<split pos="left">
											<output>1.0481505243312581</output>
										</split>
										<split pos="right">
											<feature>4</feature>
											<threshold>0.747792721</threshold>
											<split pos="left">
												<output>0.72554290934471388</output>
											</split>
											<split pos="right">
												<output>0.061986716879225814</output>
											</split>
										</split>
									</split>
								</split>
							</split>
						</split>
					</split>
				</split>
			</split>
		</tree>
		<tree id="21" weight="0.10000000149011612">
			<split>
				<feature>7</feature>
				<threshold>0.205529973</threshold>
				<split pos="left">
					<feature>6</feature>
					<threshold>0.380185992</threshold>
					<split pos="left">
						<feature>5</feature>
						<threshold>0.923151672</threshold>
						<split pos="left">
							<output>-0.59685944204996122</output>
						</split>
						<split pos="right">
							<output>1.711320248349647</output>
						</split>
					</split>
					<split pos="right">
						<output>-4.8644311475157158</output>
					</split>
				</split>
				<split pos="right">
					<feature>7</feature>
					<threshold>0.208698809</threshold>
					<split pos="left">
						<output>2.6954339568098895</output>
					</split>
					<split pos="right">
						<feature>3</feature>
						<threshold>0.396211267</threshold>
						<split pos="left">
							<feature>4</feature>
							<threshold>0.819249988</threshold>
							<split pos="left">
								<feature>4</feature>
								<threshold>0.74187994</threshold>
								<split pos="left">
									<feature>3</feature>
									<threshold>0.0868299007</threshold>
									<split pos="left">
										<output>0.92451667545692506</output>
									</split>
									<split pos="right">
										<output>0.093248251519495493</output>
									</split>
								</split>
								<split pos="right">
									<output>0.95681647594152575</output>
								</split>
							</split>
							<split pos="right">
								<output>-0.17466019752731324</output>
							</split>
						</split>
						<split pos="right">
							<feature>4</feature>
							<threshold>0.884655952</threshold>
							<split pos="left">
								<output>-0.64481739835243979</output>
							</split>
							<split pos="right">
								<output>0.96226437137735965</output>
							</split>
						</split>
					</split>
				</split>
			</split>
		</tree>
		<tree id="22" weight="0.10000000149011612">
			<split>
				<feature>5</feature>
				<threshold>0.307415217</threshold>
				<split pos="left">
					<feature>4</feature>
					<threshold>0.893015027</threshold>
					<split pos="left">
						<feature>8</feature>
						<threshold>0.831242144</threshold>
						<split pos="left">
							<output>-0.6860163457631564</output>
						</split>
						<split pos="right">
							<output>0.53643584848920123</output>
						</split>
					</split>
					<split pos="right">
						<output>-1.6234753435754903</output>
					</split>
				</split>
				<split pos="right">
					<feature>5</feature>
					<threshold>0.331829756</threshold>
					<split pos="left">
						<output>0.97086460697478227</output>
					</split>
					<split pos="right">
						<feature>5</feature>
						<threshold>0.333522648</threshold>
						<split pos="left">
							<output>-1.931895477602942</output>
						</split>
						<split pos="right">
							<feature>7</feature>
							<threshold>0.69372052</threshold>
							<split pos="left">
								<output>-0.08837606670351468</output>
							</split>
							<split pos="right">
								<feature>7</feature>
								<threshold>0.702142</threshold>
								<split pos="left">
									<output>1.1022088951511326</output>
								</split>
								<split pos="right">
									<feature>9</feature>
									<threshold>0</threshold>
									<split pos="left">
										<feature>7</feature>
										<threshold>0.883892119</threshold>
										<split pos="left">
											<output>1.0604946872378489</output>
										</split>
										<split pos="right">
											<output>0.30008451869520125</output>
										</split>
									</split>
									<split pos="right">
										<output>-0.21208399781149792</output>
									</split>
								</split>
							</split>
						</split>
					</split>
				</split>
			</split>
		</tree>
		<tree id="23" weight="0.10000000149011612">
			<split>
				<feature>5</feature>
				<threshold>0.307415217</threshold>
				<split pos="left">
					<feature>4</feature>
					<threshold>0.893015027</threshold>
					<split pos="left">
						<output>-0.42606781443553626</output>
					</split>
					<split pos="right">
						<output>-1.5245350617364919</output>
					</split>
				</split>
				<split pos="right">
					<feature>5</feature>
					<threshold>0.331829756</threshold>
					<split pos="left">
						<output>0.90696444614953708</output>
					</split>
					<split pos="right">
						<feature>7</feature>
						<threshold>0.452092469</threshold>
						<split pos="left">
							<output>-0.32944160575440762</output>
						</split>
						<split pos="right">
							<feature>5</feature>
							<threshold>0.333522648</threshold>
							<split pos="left">
								<output>-1.7937510651154454</output>
							</split>
							<split pos="right">
								<feature>5</feature>
								<threshold>0.356401801</threshold>
								<split pos="left">
									<output>1.1903284192532093</output>
								</split>
								<split pos="right">
									<feature>5</feature>
									<threshold>0.366388708</threshold>
									<split pos="left">
										<output>-1.4716191850555103</output>
									</split>
									<split pos="right">
										<feature>5</feature>
										<threshold>0.375676423</threshold>
										<split pos="left">
											<output>1.1298189453569127</output>
										</split>
										<split pos="right">
											<feature>9</feature>
											<threshold>0</threshold>
											<split pos="left">
												<output>0.51484204852886106</output>
											</split>
											<split pos="right">
												<output>-0.08692288662606934</output>
											</split>
										</split>
									</split>
								</split>
							</split>
						</split>
					</split>
				</split>
			</split>
		</tree>
		<tree id="24" weight="0.10000000149011612">
			<split>
				<feature>5</feature>
				<threshold>0.317686826</threshold>
				<split pos="left">
					<feature>4</feature>
					<threshold>0.893015027</threshold>
					<split pos="left">
						<feature>5</feature>
						<threshold>0.142019287</threshold>
						<split pos="left">
							<feature>5</feature>
							<threshold>0.141148001</threshold>
							<split pos="left">
								<output>-0.27849937290874688</output>
							</split>
							<split pos="right">
								<output>1.5503650057612919</output>
							</split>
						</split>
						<split pos="right">
							<output>-0.87509878113237327</output>
						</split>
					</split>
					<split pos="right">
						<output>-1.4382033781828762</output>
					</split>
				</split>
				<split pos="right">
					<feature>5</feature>
					<threshold>0.331103116</threshold>
					<split pos="left">
						<output>1.5570609924964254</output>
					</split>
					<split pos="right">
						<feature>7</feature>
						<threshold>0.69372052</threshold>
						<split pos="left">
							<output>-0.019663528105541627</output>
						</split>
						<split pos="right">
							<feature>7</feature>
							<threshold>0.702142</threshold>
							<split pos="left">
								<output>1.1002521213410137</output>
							</split>
							<split pos="right">
								<feature>5</feature>
								<threshold>0.364918977</threshold>
								<split pos="left">
									<output>-1.5762462509176647</output>
								</split>
								<split pos="right">
									<feature>5</feature>
									<threshold>0.375676423</threshold>
									<split pos="left">
										<output>1.1139852604160063</output>
									</split>
									<split pos="right">
										<output>0.38809334533741779</output>
									</split>
								</split>
							</split>
						</split>
					</split>
				</split>
			</split>
		</tree>
		<tree id="25" weight="0.10000000149011612">
			<split>
				<feature>5</feature>
				<threshold>0.307415217</threshold>
				<split pos="left">
					<feature>4</feature>
					<threshold>0.893015027</threshold>
					<split pos="left">
						<feature>8</feature>
						<threshold>0.831242144</threshold>
						<split pos="left">
							<output>-0.63150985690600547</output>
						</split>
						<split pos="right">
							<output>0.48270853365055655</output>
						</split>
					</split>
					<split pos="right">
						<output>-1.3714542737034132</output>
					</split>
				</split>
				<split pos="right">
					<feature>5</feature>
					<threshold>0.331829756</threshold>
					<split pos="left">
						<output>0.84636442659492273</output>
					</split>
					<split pos="right">
						<feature>5</feature>
						<threshold>0.333522648</threshold>
						<split pos="left">
							<output>-1.5809785652555659</output>
						</split>
						<split pos="right">
							<feature>5</feature>
							<threshold>0.336090863</threshold>
							<split pos="left">
								<output>1.1182578259900475</output>
							</split>
							<split pos="right">
								<feature>7</feature>
								<threshold>0.452092469</threshold>
								<split pos="left">
									<output>-0.27139599301519196</output>
								</split>
								<split pos="right">
									<feature>3</feature>
									<threshold>0.151852891</threshold>
									<split pos="left">
										<output>-0.11226660139732014</output>
									</split>
									<split pos="right">
										<feature>5</feature>
										<threshold>0.798136413</threshold>
										<split pos="left">
											<output>0.025649886193711901</output>
										</split>
										<split pos="right">
											<output>0.86992726991045144</output>
										</split>
									</split>
								</split>
							</split>
						</split>
					</split>
				</split>
			</split>
		</tree>
		<tree id="26" weight="0.10000000149011612">
			<split>
				<feature>5</feature>
				<threshold>0.317686826</threshold>
				<split pos="left">
					<feature>6</feature>
					<threshold>0.714763224</threshold>
					<split pos="left">
						<feature>7</feature>
						<threshold>0.660306871</threshold>
						<split pos="left">
							<output>-0.37967435893984186</output>
						</split>
						<split pos="right">
							<output>1.9954894073131526</output>
						</split>
					</split>
					<split pos="right">
						<output>-1.8098196351897087</output>
					</split>
				</split>
				<split pos="right">
					<feature>5</feature>
					<threshold>0.331103116</threshold>
					<split pos="left">
						<output>1.4339719813846721</output>
					</split>
					<split pos="right">
						<feature>5</feature>
						<threshold>0.331829756</threshold>
						<split pos="left">
							<output>1.0092343261140664</output>
						</split>
						<split pos="right">
							<feature>5</feature>
							<threshold>0.333522648</threshold>
							<split pos="left">
								<output>-1.517406218366631</output>
							</split>
							<split pos="right">
								<feature>5</feature>
								<threshold>0.336090863</threshold>
								<split pos="left">
									<output>1.1158240992484694</output>
								</split>
								<split pos="right">
									<feature>7</feature>
									<threshold>0.69372052</threshold>
									<split pos="left">
										<output>-0.080779392196043284</output>
									</split>
									<split pos="right">
										<feature>7</feature>
										<threshold>0.883892119</threshold>
										<split pos="left">
											<output>0.60470077143173617</output>
										</split>
										<split pos="right">
											<output>0.16445977688630911</output>
										</split>
									</split>
								</split>
							</split>
						</split>
					</split>
				</split>
			</split>
		</tree>
		<tree id="27" weight="0.10000000149011612">
			<split>
				<feature>5</feature>
				<threshold>0.317686826</threshold>
				<split pos="left">
					<output>-0.34218462746773604</output>
				</split>
				<split pos="right">
					<feature>5</feature>
					<threshold>0.331103116</threshold>
					<split pos="left">
						<output>1.3829257167996214</output>
					</split>
					<split pos="right">
						<feature>7</feature>
						<threshold>0.205529973</threshold>
						<split pos="left">
							<output>-0.44488550592010662</output>
						</split>
						<split pos="right">
							<feature>7</feature>
							<threshold>0.235423565</threshold>
							<split pos="left">
								<output>1.1463982430398396</output>
							</split>
							<split pos="right">
								<feature>5</feature>
								<threshold>0.331829756</threshold>
								<split pos="left">
									<output>1.2258389559568355</output>
								</split>
								<split pos="right">
									<feature>5</feature>
									<threshold>0.333522648</threshold>
									<split pos="left">
										<output>-1.454651848329364</output>
									</split>
									<split pos="right">
										<feature>5</feature>
										<threshold>0.336090863</threshold>
										<split pos="left">
											<output>1.111899427523614</output>
										</split>
										<split pos="right">
											<feature>9</feature>
											<threshold>0</threshold>
											<split pos="left">
												<feature>8</feature>
												<threshold>0.100449234</threshold>
												<split pos="left">
													<output>0.66296589524588967</output>
												</split>
												<split pos="right">
													<output>0.21438111475835978</output>
												</split>
											</split>
											<split pos="right">
												<output>-0.21694782365513549</output>
											</split>
										</split>
									</split>
								</split>
							</split>
						</split>
					</split>
				</split>
			</split>
		</tree>
		<tree id="28" weight="0.10000000149011612">
			<split>
				<feature>5</feature>
				<threshold>0.798136413</threshold>
				<split pos="left">
					<feature>3</feature>
					<threshold>0.193664581</threshold>
					<split pos="left">
						<feature>3</feature>
						<threshold>0.193266839</threshold>
						<split pos="left">
							<feature>7</feature>
							<threshold>0.69372052</threshold>
							<split pos="left">
								<output>-0.15229121710513607</output>
							</split>
							<split pos="right">
								<output>0.99519600685166221</output>
							</split>
						</split>
						<split pos="right">
							<output>1.5715357258594007</output>
						</split>
					</split>
					<split pos="right">
						<feature>6</feature>
						<threshold>0.98438549</threshold>
						<split pos="left">
							<feature>7</feature>
							<threshold>0.678564489</threshold>
							<split pos="left">
								<feature>8</feature>
								<threshold>0.496479213</threshold>
								<split pos="left">
									<output>-0.76876290274158188</output>
								</split>
								<split pos="right">
									<output>0.29000411302210838</output>
								</split>
							</split>
							<split pos="right">
								<output>0.47611291584370424</output>
							</split>
						</split>
						<split pos="right">
							<output>-1.469837374828235</output>
						</split>
					</split>
				</split>
				<split pos="right">
					<feature>5</feature>
					<threshold>0.842206538</threshold>
					<split pos="left">
						<output>0.95667562306498366</output>
					</split>
					<split pos="right">
						<feature>3</feature>
						<threshold>0.136013687</threshold>
						<split pos="left">
							<output>-0.31235211578102823</output>
						</split>
						<split pos="right">
							<output>0.5367952880079645</output>
						</split>
					</split>
				</split>
			</split>
		</tree>
		<tree id="29" weight="0.10000000149011612">
			<split>
				<feature>7</feature>
				<threshold>0.139522359</threshold>
				<split pos="left">
					<output>-0.4350937896702825</output>
				</split>
				<split pos="right">
					<feature>7</feature>
					<threshold>0.141556516</threshold>
					<split pos="left">
						<output>2.0404749996937381</output>
					</split>
					<split pos="right">
						<feature>5</feature>
						<threshold>0.317686826</threshold>
						<split pos="left">
							<output>-0.35603438574293933</output>
						</split>
						<split pos="right">
							<feature>5</feature>
							<threshold>0.331829756</threshold>
							<split pos="left">
								<output>1.2708513604546545</output>
							</split>
							<split pos="right">
								<feature>5</feature>
								<threshold>0.333522648</threshold>
								<split pos="left">
									<output>-1.3583278240021721</output>
								</split>
								<split pos="right">
									<feature>5</feature>
									<threshold>0.356401801</threshold>
									<split pos="left">
										<output>1.1604307412597816</output>
									</split>
									<split pos="right">
										<feature>5</feature>
										<threshold>0.366388708</threshold>
										<split pos="left">
											<output>-1.2911527427817528</output>
										</split>
										<split pos="right">
											<feature>5</feature>
											<threshold>0.375676423</threshold>
											<split pos="left">
												<output>1.0884698258487961</output>
											</split>
											<split pos="right">
												<feature>9</feature>
												<threshold>0</threshold>
												<split pos="left">
													<output>0.32426407639177485</output>
												</split>
												<split pos="right">
													<output>-0.19358261303744539</output>
												</split>
											</split>
										</split>
									</split>
								</split>
							</split>
						</split>
					</split>
				</split>
			</split>
		</tree>
		<tree id="30" weight="0.10000000149011612">
			<split>
				<feature>7</feature>
				<threshold>0.367354929</threshold>
				<split pos="left">
					<feature>6</feature>
					<threshold>0.416744828</threshold>
					<split pos="left">
						<output>-0.23229737836268319</output>
					</split>
					<split pos="right">
						<output>-2.8824955885725783</output>
					</split>
				</split>
				<split pos="right">
					<feature>7</feature>
					<threshold>0.369478285</threshold>
					<split pos="left">
						<output>1.170623685585807</output>
					</split>
					<split pos="right">
						<feature>6</feature>
						<threshold>0.129423201</threshold>
						<split pos="left">
							<output>2.8824955885725783</output>
						</split>
						<split pos="right">
							<feature>4</feature>
							<threshold>0.161217168</threshold>
							<split pos="left">
								<output>-0.7823180839160141</output>
							</split>
							<split pos="right">
								<feature>6</feature>
								<threshold>0.5869295</threshold>
								<split pos="left">
									<output>-0.22778600385299749</output>
								</split>
								<split pos="right">
									<feature>7</feature>
									<threshold>0.470354646</threshold>
									<split pos="left">
										<output>1.552080518219922</output>
									</split>
									<split pos="right">
										<feature>6</feature>
										<threshold>0.593627512</threshold>
										<split pos="left">
											<output>1.2191378069256724</output>
										</split>
										<split pos="right">
											<feature>9</feature>
											<threshold>0</threshold>
											<split pos="left">
												<output>0.42009076270530182</output>
											</split>
											<split pos="right">
												<output>-0.23045328128375428</output>
											</split>
										</split>
									</split>
								</split>
							</split>
						</split>
					</split>
				</split>
			</split>
		</tree>
		<tree id="31" weight="0.10000000149011612">
			<split>
				<feature>5</feature>
				<threshold>0.307415217</threshold>
				<split pos="left">
					<output>-0.2954211471269293</output>
				</split>
				<split pos="right">
					<feature>5</feature>
					<threshold>0.331829756</threshold>
					<split pos="left">
						<output>0.71811923892838225</output>
					</split>
					<split pos="right">
						<feature>5</feature>
						<threshold>0.333522648</threshold>
						<split pos="left">
							<output>-1.3091163404054404</output>
						</split>
						<split pos="right">
							<feature>5</feature>
							<threshold>0.336090863</threshold>
							<split pos="left">
								<output>1.0875053664420677</output>
							</split>
							<split pos="right">
								<feature>7</feature>
								<threshold>0.452092469</threshold>
								<split pos="left">
									<output>-0.24985833968293406</output>
								</split>
								<split pos="right">
									<feature>6</feature>
									<threshold>0.480958462</threshold>
									<split pos="left">
										<output>1.0187716557543154</output>
									</split>
									<split pos="right">
										<feature>7</feature>
										<threshold>0.544723213</threshold>
										<split pos="left">
											<output>-1.3991450828283243</output>
										</split>
										<split pos="right">
											<feature>7</feature>
											<threshold>0.597000718</threshold>
											<split pos="left">
												<output>1.4292715574312751</output>
											</split>
											<split pos="right">
												<feature>3</feature>
												<threshold>0.318349659</threshold>
												<split pos="left">
													<output>-0.25442693499342156</output>
												</split>
												<split pos="right">
													<output>0.52798063992147837</output>
												</split>
											</split>
										</split>
									</split>
								</split>
							</split>
						</split>
					</split>
				</split>
			</split>
		</tree>
		<tree id="32" weight="0.10000000149011612">
			<split>
				<feature>5</feature>
				<threshold>0.798136413</threshold>
				<split pos="left">
					<feature>3</feature>
					<threshold>0.15336673</threshold>
					<split pos="left">
						<feature>7</feature>
						<threshold>0.133157864</threshold>
						<split pos="left">
							<output>-0.45669739435655815</output>
						</split>
						<split pos="right">
							<feature>7</feature>
							<threshold>0.141556516</threshold>
							<split pos="left">
								<output>1.8596086881868843</output>
							</split>
							<split pos="right">
								<output>0.51957917521222396</output>
							</split>
						</split>
					</split>
					<split pos="right">
						<feature>6</feature>
						<threshold>0.98438549</threshold>
						<split pos="left">
							<feature>8</feature>
							<threshold>0.807892859</threshold>
							<split pos="left">
								<feature>7</feature>
								<threshold>0.64676553</threshold>
								<split pos="left">
									<output>-0.66214297874722206</output>
								</split>
								<split pos="right">
									<output>0.60608588570586142</output>
								</split>
							</split>
							<split pos="right">
								<output>0.55006087871479459</output>
							</split>
						</split>
						<split pos="right">
							<output>-1.3965763975100456</output>
						</split>
					</split>
				</split>
				<split pos="right">
					<feature>5</feature>
					<threshold>0.842206538</threshold>
					<split pos="left">
						<output>0.92479555462035767</output>
					</split>
					<split pos="right">
						<feature>3</feature>
						<threshold>0.251105607</threshold>
						<split pos="left">
							<output>-0.2386572303752672</output>
						</split>
						<split pos="right">
							<output>0.61358937874499564</output>
						</split>
					</split>
				</split>
			</split>
		</tree>
		<tree id="33" weight="0.10000000149011612">
			<split>
				<feature>5</feature>
				<threshold>0.798136413</threshold>
				<split pos="left">
					<feature>5</feature>
					<threshold>0.79244256</threshold>
					<split pos="left">
						<feature>6</feature>
						<threshold>0.926069021</threshold>
						<split pos="left">
							<feature>7</feature>
							<threshold>0.69372052</threshold>
							<split pos="left">
								<feature>8</feature>
								<threshold>0.496479213</threshold>
								<split pos="left">
									<feature>7</feature>
									<threshold>0.522016466</threshold>
									<split pos="left">
										<output>-0.54859658493170316</output>
									</split>
									<split pos="right">
										<output>0.50272281937893681</output>
									</split>
								</split>
								<split pos="right">
									<feature>4</feature>
									<threshold>0.846128166</threshold>
									<split pos="left">
										<output>0.57903110417059722</output>
									</split>
									<split pos="right">
										<output>-1.3253592162564258</output>
									</split>
								</split>
							</split>
							<split pos="right">
								<output>0.66259148489654163</output>
							</split>
						</split>
						<split pos="right">
							<output>-0.70713358334315612</output>
						</split>
					</split>
					<split pos="right">
						<output>-2.0128993008629572</output>
					</split>
				</split>
				<split pos="right">
					<feature>5</feature>
					<threshold>0.842206538</threshold>
					<split pos="left">
						<output>0.89987303152503317</output>
					</split>
					<split pos="right">
						<feature>8</feature>
						<threshold>0.665172577</threshold>
						<split pos="left">
							<output>-0.37993133409911373</output>
						</split>
						<split pos="right">
							<output>0.44071030832986957</output>
						</split>
					</split>
				</split>
			</split>
		</tree>
		<tree id="34" weight="0.10000000149011612">
			<split>
				<feature>5</feature>
				<threshold>0.798136413</threshold>
				<split pos="left">
					<feature>3</feature>
					<threshold>0.141288638</threshold>
					<split pos="left">
						<feature>3</feature>
						<threshold>0.13852343</threshold>
						<split pos="left">
							<feature>7</feature>
							<threshold>0.69372052</threshold>
							<split pos="left">
								<output>-0.12632404893079446</output>
							</split>
							<split pos="right">
								<output>1.1042220214546405</output>
							</split>
						</split>
						<split pos="right">
							<output>1.7733866739098105</output>
						</split>
					</split>
					<split pos="right">
						<feature>6</feature>
						<threshold>0.98438549</threshold>
						<split pos="left">
							<feature>8</feature>
							<threshold>0.807892859</threshold>
							<split pos="left">
								<feature>7</feature>
								<threshold>0.64676553</threshold>
								<split pos="left">
									<output>-0.55675434458984674</output>
								</split>
								<split pos="right">
									<output>0.48393679774762471</output>
								</split>
							</split>
							<split pos="right">
								<output>0.48655817004524654</output>
							</split>
						</split>
						<split pos="right">
							<output>-1.3283866368742858</output>
						</split>
					</split>
				</split>
				<split pos="right">
					<feature>5</feature>
					<threshold>0.842206538</threshold>
					<split pos="left">
						<output>0.87215839066887046</output>
					</split>
					<split pos="right">
						<feature>3</feature>
						<threshold>0.136013687</threshold>
						<split pos="left">
							<output>-0.30970836098818882</output>
						</split>
						<split pos="right">
							<output>0.47255113865707665</output>
						</split>
					</split>
				</split>
			</split>
		</tree>
		<tree id="35" weight="0.10000000149011612">
			<split>
				<feature>3</feature>
				<threshold>0.443802357</threshold>
				<split pos="left">
					<feature>3</feature>
					<threshold>0.431479543</threshold>
					<split pos="left">
						<feature>4</feature>
						<threshold>0.242354199</threshold>
						<split pos="left">
							<feature>5</feature>
							<threshold>0.775141954</threshold>
							<split pos="left">
								<output>-0.27744560697321891</output>
							</split>
							<split pos="right">
								<output>1.2036462012646445</output>
							</split>
						</split>
						<split pos="right">
							<feature>5</feature>
							<threshold>0.356401801</threshold>
							<split pos="left">
								<output>0.94020790348103189</output>
							</split>
							<split pos="right">
								<feature>4</feature>
								<threshold>0.268198669</threshold>
								<split pos="left">
									<output>1.0930751105997336</output>
								</split>
								<split pos="right">
									<feature>4</feature>
									<threshold>0.647238255</threshold>
									<split pos="left">
										<output>-0.7236107185048305</output>
									</split>
									<split pos="right">
										<output>0.28715597086455674</output>
									</split>
								</split>
							</split>
						</split>
					</split>
					<split pos="right">
						<output>1.1110145296706087</output>
					</split>
				</split>
				<split pos="right">
					<feature>3</feature>
					<threshold>0.536082447</threshold>
					<split pos="left">
						<output>-1.1680682117786361</output>
					</split>
					<split pos="right">
						<feature>7</feature>
						<threshold>0.661463618</threshold>
						<split pos="left">
							<output>-0.50989634648704396</output>
						</split>
						<split pos="right">
							<output>0.43721113338304185</output>
						</split>
					</split>
				</split>
			</split>
		</tree>
		<tree id="36" weight="0.10000000149011612">
			<split>
				<feature>3</feature>
				<threshold>0.443802357</threshold>
				<split pos="left">
					<feature>3</feature>
					<threshold>0.431479543</threshold>
					<split pos="left">
						<feature>4</feature>
						<threshold>0.242354199</threshold>
						<split pos="left">
							<feature>5</feature>
							<threshold>0.775141954</threshold>
							<split pos="left">
								<output>-0.27812983872924885</output>
							</split>
							<split pos="right">
								<output>1.1775903824200271</output>
							</split>
						</split>
						<split pos="right">
							<feature>5</feature>
							<threshold>0.356401801</threshold>
							<split pos="left">
								<output>0.89544206026277218</output>
							</split>
							<split pos="right">
								<feature>4</feature>
								<threshold>0.268198669</threshold>
								<split pos="left">
									<output>1.0841909667905791</output>
								</split>
								<split pos="right">
									<feature>4</feature>
									<threshold>0.647238255</threshold>
									<split pos="left">
										<output>-0.67349323355749047</output>
									</split>
									<split pos="right">
										<feature>4</feature>
										<threshold>0.819249988</threshold>
										<split pos="left">
											<output>0.79782062717470104</output>
										</split>
										<split pos="right">
											<output>-0.12028527835744265</output>
										</split>
									</split>
								</split>
							</split>
						</split>
					</split>
					<split pos="right">
						<output>1.0965569339934986</output>
					</split>
				</split>
				<split pos="right">
					<feature>7</feature>
					<threshold>0.661463618</threshold>
					<split pos="left">
						<output>-0.58030919790137603</output>
					</split>
					<split pos="right">
						<output>0.23222634463097747</output>
					</split>
				</split>
			</split>
		</tree>
		<tree id="37" weight="0.10000000149011612">
			<split>
				<feature>3</feature>
				<threshold>0.443802357</threshold>
				<split pos="left">
					<feature>3</feature>
					<threshold>0.431479543</threshold>
					<split pos="left">
						<feature>7</feature>
						<threshold>0.139522359</threshold>
						<split pos="left">
							<output>-0.27701998856506554</output>
						</split>
						<split pos="right">
							<feature>7</feature>
							<threshold>0.141556516</threshold>
							<split pos="left">
								<output>1.5692463580422036</output>
							</split>
							<split pos="right">
								<feature>4</feature>
								<threshold>0.819249988</threshold>
								<split pos="left">
									<feature>4</feature>
									<threshold>0.74187994</threshold>
									<split pos="left">
										<feature>3</feature>
										<threshold>0.0868299007</threshold>
										<split pos="left">
											<output>0.58806006032599945</output>
										</split>
										<split pos="right">
											<output>-0.015186264023939348</output>
										</split>
									</split>
									<split pos="right">
										<output>0.88943660376229783</output>
									</split>
								</split>
								<split pos="right">
									<output>-0.33354364066688713</output>
								</split>
							</split>
						</split>
					</split>
					<split pos="right">
						<output>1.0842476766328522</output>
					</split>
				</split>
				<split pos="right">
					<feature>3</feature>
					<threshold>0.474600494</threshold>
					<split pos="left">
						<output>-1.4583346978778973</output>
					</split>
					<split pos="right">
						<feature>5</feature>
						<threshold>0.958824039</threshold>
						<split pos="left">
							<output>-0.3348341902957242</output>
						</split>
						<split pos="right">
							<output>0.61269586220202243</output>
						</split>
					</split>
				</split>
			</split>
		</tree>
		<tree id="38" weight="0.10000000149011612">
			<split>
				<feature>3</feature>
				<threshold>0.39821884</threshold>
				<split pos="left">
					<feature>3</feature>
					<threshold>0.318349659</threshold>
					<split pos="left">
						<feature>3</feature>
						<threshold>0.313832968</threshold>
						<split pos="left">
							<feature>4</feature>
							<threshold>0.764970183</threshold>
							<split pos="left">
								<feature>7</feature>
								<threshold>0.133157864</threshold>
								<split pos="left">
									<output>-0.57710453841573939</output>
								</split>
								<split pos="right">
									<feature>7</feature>
									<threshold>0.141556516</threshold>
									<split pos="left">
										<output>1.5094845854672718</output>
									</split>
									<split pos="right">
										<feature>7</feature>
										<threshold>0.217520267</threshold>
										<split pos="left">
											<output>-1.0926709777529715</output>
										</split>
										<split pos="right">
											<feature>4</feature>
											<threshold>0.528430641</threshold>
											<split pos="left">
												<output>0.68149134415075474</output>
											</split>
											<split pos="right">
												<output>0.066626838074032427</output>
											</split>
										</split>
									</split>
								</split>
							</split>
							<split pos="right">
								<output>-0.26153089712763211</output>
							</split>
						</split>
						<split pos="right">
							<output>-1.5828907903634533</output>
						</split>
					</split>
					<split pos="right">
						<output>0.58226833239574172</output>
					</split>
				</split>
				<split pos="right">
					<feature>7</feature>
					<threshold>0.542275488</threshold>
					<split pos="left">
						<output>-0.65919749501426828</output>
					</split>
					<split pos="right">
						<output>0.14905309838425507</output>
					</split>
				</split>
			</split>
		</tree>
		<tree id="39" weight="0.10000000149011612">
			<split>
				<feature>6</feature>
				<threshold>0.98438549</threshold>
				<split pos="left">
					<feature>7</feature>
					<threshold>0.856135011</threshold>
					<split pos="left">
						<feature>8</feature>
						<threshold>0.807892859</threshold>
						<split pos="left">
							<feature>5</feature>
							<threshold>0.292528689</threshold>
							<split pos="left">
								<output>-0.47358853893310959</output>
							</split>
							<split pos="right">
								<feature>5</feature>
								<threshold>0.336090863</threshold>
								<split pos="left">
									<output>0.91757559539517641</output>
								</split>
								<split pos="right">
									<feature>8</feature>
									<threshold>0.737570167</threshold>
									<split pos="left">
										<feature>8</feature>
										<threshold>0.716783881</threshold>
										<split pos="left">
											<feature>8</feature>
											<threshold>0.693510056</threshold>
											<split pos="left">
												<output>0.046874334977960549</output>
											</split>
											<split pos="right">
												<output>-1.9370944266284695</output>
											</split>
										</split>
										<split pos="right">
											<output>1.0708755498151104</output>
										</split>
									</split>
									<split pos="right">
										<output>-1.1650864086227051</output>
									</split>
								</split>
							</split>
						</split>
						<split pos="right">
							<output>0.4830617273854157</output>
						</split>
					</split>
					<split pos="right">
						<output>0.81730030548094734</output>
					</split>
				</split>
				<split pos="right">
					<feature>7</feature>
					<threshold>0</threshold>
					<split pos="left">
						<output>-1.8184303248051312</output>
					</split>
					<split pos="right">
						<output>-0.25080150076858848</output>
					</split>
				</split>
			</split>
		</tree>
		<tree id="40" weight="0.10000000149011612">
			<split>
				<feature>3</feature>
				<threshold>0.443802357</threshold>
				<split pos="left">
					<feature>3</feature>
					<threshold>0.431479543</threshold>
					<split pos="left">
						<feature>4</feature>
						<threshold>0.242354199</threshold>
						<split pos="left">
							<output>-0.11877925860253169</output>
						</split>
						<split pos="right">
							<feature>5</feature>
							<threshold>0.356401801</threshold>
							<split pos="left">
								<output>0.81979831784500934</output>
							</split>
							<split pos="right">
								<feature>5</feature>
								<threshold>0.361128837</threshold>
								<split pos="left">
									<output>-1.3649289035600314</output>
								</split>
								<split pos="right">
									<feature>4</feature>
									<threshold>0.268198669</threshold>
									<split pos="left">
										<output>1.0691435450104927</output>
									</split>
									<split pos="right">
										<feature>4</feature>
										<threshold>0.647238255</threshold>
										<split pos="left">
											<output>-0.56345404338220484</output>
										</split>
										<split pos="right">
											<output>0.25021423394108694</output>
										</split>
									</split>
								</split>
							</split>
						</split>
					</split>
					<split pos="right">
						<output>1.0745628080154559</output>
					</split>
				</split>
				<split pos="right">
					<feature>3</feature>
					<threshold>0.517151356</threshold>
					<split pos="left">
						<output>-1.2999239443775021</output>
					</split>
					<split pos="right">
						<feature>7</feature>
						<threshold>0.661463618</threshold>
						<split pos="left">
							<output>-0.47457976346193054</output>
						</split>
						<split pos="right">
							<output>0.36518378613342867</output>
						</split>
					</split>
				</split>
			</split>
		</tree>
		<tree id="41" weight="0.10000000149011612">
			<split>
				<feature>6</feature>
				<threshold>0.98438549</threshold>
				<split pos="left">
					<feature>7</feature>
					<threshold>0.75788641</threshold>
					<split pos="left">
						<feature>8</feature>
						<threshold>0.820274651</threshold>
						<split pos="left">
							<feature>6</feature>
							<threshold>0.843045831</threshold>
							<split pos="left">
								<feature>5</feature>
								<threshold>0.315759152</threshold>
								<split pos="left">
									<feature>7</feature>
									<threshold>0.660306871</threshold>
									<split pos="left">
										<output>-0.47773701026852117</output>
									</split>
									<split pos="right">
										<output>1.5090115792250665</output>
									</split>
								</split>
								<split pos="right">
									<feature>5</feature>
									<threshold>0.336090863</threshold>
									<split pos="left">
										<output>1.0284069715006572</output>
									</split>
									<split pos="right">
										<feature>3</feature>
										<threshold>0.443802357</threshold>
										<split pos="left">
											<output>0.19435749521365614</output>
										</split>
										<split pos="right">
											<output>-0.44148447008594133</output>
										</split>
									</split>
								</split>
							</split>
							<split pos="right">
								<output>-1.3933181596373898</output>
							</split>
						</split>
						<split pos="right">
							<output>0.49295265600685251</output>
						</split>
					</split>
					<split pos="right">
						<output>0.6440514503858924</output>
					</split>
				</split>
				<split pos="right">
					<feature>5</feature>
					<threshold>0.364918977</threshold>
					<split pos="left">
						<output>-1.4766439902618289</output>
					</split>
					<split pos="right">
						<output>-0.034867335325746811</output>
					</split>
				</split>
			</split>
		</tree>
		<tree id="42" weight="0.10000000149011612">
			<split>
				<feature>6</feature>
				<threshold>0.98438549</threshold>
				<split pos="left">
					<feature>6</feature>
					<threshold>0.777177334</threshold>
					<split pos="left">
						<feature>7</feature>
						<threshold>0.856135011</threshold>
						<split pos="left">
							<feature>6</feature>
							<threshold>0.730804384</threshold>
							<split pos="left">
								<feature>6</feature>
								<threshold>0.5869295</threshold>
								<split pos="left">
									<feature>6</feature>
									<threshold>0.560512066</threshold>
									<split pos="left">
										<feature>8</feature>
										<threshold>0.820274651</threshold>
										<split pos="left">
											<feature>3</feature>
											<threshold>0.15336673</threshold>
											<split pos="left">
												<feature>3</feature>
												<threshold>0.13852343</threshold>
												<split pos="left">
													<output>0.1199952990728078</output>
												</split>
												<split pos="right">
													<output>0.99521117320811647</output>
												</split>
											</split>
											<split pos="right">
												<output>-0.51147916555822559</output>
											</split>
										</split>
										<split pos="right">
											<output>0.6243693375169459</output>
										</split>
									</split>
									<split pos="right">
										<output>-1.2847520767403031</output>
									</split>
								</split>
								<split pos="right">
									<output>0.50042911279886071</output>
								</split>
							</split>
							<split pos="right">
								<output>-1.3604358467225481</output>
							</split>
						</split>
						<split pos="right">
							<output>1.5669909090431091</output>
						</split>
					</split>
					<split pos="right">
						<output>0.57426630005312629</output>
					</split>
				</split>
				<split pos="right">
					<output>-0.28741498301830049</output>
				</split>
			</split>
		</tree>
		<tree id="43" weight="0.10000000149011612">
			<split>
				<feature>5</feature>
				<threshold>0.778518975</threshold>
				<split pos="left">
					<feature>6</feature>
					<threshold>0.909171462</threshold>
					<split pos="left">
						<feature>7</feature>
						<threshold>0.926491082</threshold>
						<split pos="left">
							<feature>8</feature>
							<threshold>0.807892859</threshold>
							<split pos="left">
								<feature>7</feature>
								<threshold>0.64676553</threshold>
								<split pos="left">
									<feature>6</feature>
									<threshold>0.843045831</threshold>
									<split pos="left">
										<feature>3</feature>
										<threshold>0</threshold>
										<split pos="left">
											<output>0.43085539604857415</output>
										</split>
										<split pos="right">
											<output>-0.37252939829560938</output>
										</split>
									</split>
									<split pos="right">
										<output>-1.251190847584619</output>
									</split>
								</split>
								<split pos="right">
									<output>0.51752308893369181</output>
								</split>
							</split>
							<split pos="right">
								<output>0.38404054157871187</output>
							</split>
						</split>
						<split pos="right">
							<output>1.3659392356729632</output>
						</split>
					</split>
					<split pos="right">
						<output>-0.7108742831367878</output>
					</split>
				</split>
				<split pos="right">
					<feature>5</feature>
					<threshold>0.842206538</threshold>
					<split pos="left">
						<output>0.72153023675487371</output>
					</split>
					<split pos="right">
						<feature>3</feature>
						<threshold>0.136013687</threshold>
						<split pos="left">
							<output>-0.31606115921690359</output>
						</split>
						<split pos="right">
							<output>0.47845025967228183</output>
						</split>
					</split>
				</split>
			</split>
		</tree>
		<tree id="44" weight="0.10000000149011612">
			<split>
				<feature>3</feature>
				<threshold>0.39821884</threshold>
				<split pos="left">
					<feature>3</feature>
					<threshold>0.318349659</threshold>
					<split pos="left">
						<feature>3</feature>
						<threshold>0.313832968</threshold>
						<split pos="left">
							<feature>4</feature>
							<threshold>0.528430641</threshold>
							<split pos="left">
								<feature>4</feature>
								<threshold>0.242354199</threshold>
								<split pos="left">
									<feature>5</feature>
									<threshold>0.775141954</threshold>
									<split pos="left">
										<feature>5</feature>
										<threshold>0.0661105365</threshold>
										<split pos="left">
											<feature>7</feature>
											<threshold>0.125662744</threshold>
											<split pos="left">
												<output>-0.35724056336145799</output>
											</split>
											<split pos="right">
												<output>1.0004422592836049</output>
											</split>
										</split>
										<split pos="right">
											<output>-0.78645866471074355</output>
										</split>
									</split>
									<split pos="right">
										<output>1.1455498585781634</output>
									</split>
								</split>
								<split pos="right">
									<output>0.93082746486256884</output>
								</split>
							</split>
							<split pos="right">
								<output>-0.1820492419405263</output>
							</split>
						</split>
						<split pos="right">
							<output>-1.5787469082115704</output>
						</split>
					</split>
					<split pos="right">
						<output>0.50534330699964503</output>
					</split>
				</split>
				<split pos="right">
					<feature>5</feature>
					<threshold>0.81823349</threshold>
					<split pos="left">
						<output>-0.39525771173046814</output>
					</split>
					<split pos="right">
						<output>0.3783792021817271</output>
					</split>
				</split>
			</split>
		</tree>
		<tree id="45" weight="0.10000000149011612">
			<split>
				<feature>3</feature>
				<threshold>0.39821884</threshold>
				<split pos="left">
					<feature>8</feature>
					<threshold>0.837020397</threshold>
					<split pos="left">
						<feature>8</feature>
						<threshold>0.737570167</threshold>
						<split pos="left">
							<feature>3</feature>
							<threshold>0.367729634</threshold>
							<split pos="left">
								<feature>8</feature>
								<threshold>0.662741244</threshold>
								<split pos="left">
									<feature>8</feature>
									<threshold>0.604139388</threshold>
									<split pos="left">
										<feature>3</feature>
										<threshold>0</threshold>
										<split pos="left">
											<output>0.48284403249109292</output>
										</split>
										<split pos="right">
											<feature>6</feature>
											<threshold>0.98438549</threshold>
											<split pos="left">
												<output>-0.096089783138148657</output>
											</split>
											<split pos="right">
												<output>-1.0741004782138575</output>
											</split>
										</split>
									</split>
									<split pos="right">
										<output>-1.3255173728858554</output>
									</split>
								</split>
								<split pos="right">
									<output>1.1140677283210791</output>
								</split>
							</split>
							<split pos="right">
								<output>1.0422744944888422</output>
							</split>
						</split>
						<split pos="right">
							<output>-0.96356983668655349</output>
						</split>
					</split>
					<split pos="right">
						<output>0.46954424342238482</output>
					</split>
				</split>
				<split pos="right">
					<feature>5</feature>
					<threshold>0.958824039</threshold>
					<split pos="left">
						<output>-0.33373206093006241</output>
					</split>
					<split pos="right">
						<output>0.45821229032065514</output>
					</split>
				</split>
			</split>
		</tree>
		<tree id="46" weight="0.10000000149011612">
			<split>
				<feature>6</feature>
				<threshold>0.98438549</threshold>
				<split pos="left">
					<feature>6</feature>
					<threshold>0.777177334</threshold>
					<split pos="left">
						<feature>4</feature>
						<threshold>0.462298095</threshold>
						<split pos="left">
							<feature>8</feature>
							<threshold>0.807892859</threshold>
							<split pos="left">
								<feature>7</feature>
								<threshold>0.660306871</threshold>
								<split pos="left">
									<feature>4</feature>
									<threshold>0.448984534</threshold>
									<split pos="left">
										<feature>5</feature>
										<threshold>0.683922291</threshold>
										<split pos="left">
											<feature>5</feature>
											<threshold>0.0840310976</threshold>
											<split pos="left">
												<feature>4</feature>
												<threshold>0.085411571</threshold>
												<split pos="left">
													<output>-0.40005445388661137</output>
												</split>
												<split pos="right">
													<output>1.1278379686763187</output>
												</split>
											</split>
											<split pos="right">
												<output>-0.82909155966790493</output>
											</split>
										</split>
										<split pos="right">
											<output>1.0979520721169291</output>
										</split>
									</split>
									<split pos="right">
										<output>1.1070276576638329</output>
									</split>
								</split>
								<split pos="right">
									<output>1.0962635345815079</output>
								</split>
							</split>
							<split pos="right">
								<output>1.1084895863507618</output>
							</split>
						</split>
						<split pos="right">
							<output>-0.28992836211486872</output>
						</split>
					</split>
					<split pos="right">
						<output>0.53383889435874221</output>
					</split>
				</split>
				<split pos="right">
					<output>-0.24604592941183864</output>
				</split>
			</split>
		</tree>
		<tree id="47" weight="0.10000000149011612">
			<split>
				<feature>5</feature>
				<threshold>0.798136413</threshold>
				<split pos="left">
					<feature>6</feature>
					<threshold>0.684519351</threshold>
					<split pos="left">
						<feature>7</feature>
						<threshold>0.661463618</threshold>
						<split pos="left">
							<feature>6</feature>
							<threshold>0.596133649</threshold>
							<split pos="left">
								<feature>6</feature>
								<threshold>0.491971403</threshold>
								<split pos="left">
									<feature>6</feature>
									<threshold>0.45156917</threshold>
									<split pos="left">
										<feature>8</feature>
										<threshold>0.807892859</threshold>
										<split pos="left">
											<feature>3</feature>
											<threshold>0.141288638</threshold>
											<split pos="left">
												<output>0.16558918352544141</output>
											</split>
											<split pos="right">
												<output>-0.62425808405358196</output>
											</split>
										</split>
										<split pos="right">
											<output>0.47818938164281422</output>
										</split>
									</split>
									<split pos="right">
										<output>0.86481736131938491</output>
									</split>
								</split>
								<split pos="right">
									<output>-0.82100549532153044</output>
								</split>
							</split>
							<split pos="right">
								<output>0.77258442791962934</output>
							</split>
						</split>
						<split pos="right">
							<output>1.1942671427904457</output>
						</split>
					</split>
					<split pos="right">
						<output>-0.48956685393554467</output>
					</split>
				</split>
				<split pos="right">
					<feature>5</feature>
					<threshold>0.842206538</threshold>
					<split pos="left">
						<output>0.84111595070005851</output>
					</split>
					<split pos="right">
						<output>0.068509570549001655</output>
					</split>
				</split>
			</split>
		</tree>
		<tree id="48" weight="0.10000000149011612">
			<split>
				<feature>5</feature>
				<threshold>0.479335278</threshold>
				<split pos="left">
					<feature>6</feature>
					<threshold>0.730804384</threshold>
					<split pos="left">
						<feature>7</feature>
						<threshold>0.660306871</threshold>
						<split pos="left">
							<feature>8</feature>
							<threshold>0.807892859</threshold>
							<split pos="left">
								<feature>5</feature>
								<threshold>0.461564273</threshold>
								<split pos="left">
									<output>-0.21871426294392854</output>
								</split>
								<split pos="right">
									<output>-1.9041703561700301</output>
								</split>
							</split>
							<split pos="right">
								<output>0.57547572028111682</output>
							</split>
						</split>
						<split pos="right">
							<output>1.2184242817762181</output>
						</split>
					</split>
					<split pos="right">
						<output>-0.93832607708002935</output>
					</split>
				</split>
				<split pos="right">
					<feature>5</feature>
					<threshold>0.495555222</threshold>
					<split pos="left">
						<output>1.2443192275617512</output>
					</split>
					<split pos="right">
						<feature>5</feature>
						<threshold>0.499357253</threshold>
						<split pos="left">
							<output>-1.5796822872600109</output>
						</split>
						<split pos="right">
							<feature>5</feature>
							<threshold>0.570310116</threshold>
							<split pos="left">
								<output>0.86392947419661237</output>
							</split>
							<split pos="right">
								<feature>5</feature>
								<threshold>0.737485349</threshold>
								<split pos="left">
									<output>-0.56135271901488504</output>
								</split>
								<split pos="right">
									<output>0.1607891687409862</output>
								</split>
							</split>
						</split>
					</split>
				</split>
			</split>
		</tree>
		<tree id="49" weight="0.10000000149011612">
			<split>
				<feature>5</feature>
				<threshold>0.778518975</threshold>
				<split pos="left">
					<feature>6</feature>
					<threshold>0.926069021</threshold>
					<split pos="left">
						<feature>4</feature>
						<threshold>0.4904854</threshold>
						<split pos="left">
							<feature>8</feature>
							<threshold>0.807892859</threshold>
							<split pos="left">
								<feature>7</feature>
								<threshold>0.660306871</threshold>
								<split pos="left">
									<feature>4</feature>
									<threshold>0.448984534</threshold>
									<split pos="left">
										<feature>5</feature>
										<threshold>0.683922291</threshold>
										<split pos="left">
											<feature>6</feature>
											<threshold>0.681019723</threshold>
											<split pos="left">
												<feature>5</feature>
												<threshold>0.0840310976</threshold>
												<split pos="left">
													<output>-0.060163613819740586</output>
												</split>
												<split pos="right">
													<output>-0.82084759524865791</output>
												</split>
											</split>
											<split pos="right">
												<output>-1.1944931976133408</output>
											</split>
										</split>
										<split pos="right">
											<output>1.090718132493707</output>
										</split>
									</split>
									<split pos="right">
										<output>0.98742361616323493</output>
									</split>
								</split>
								<split pos="right">
									<output>0.70926232768965281</output>
								</split>
							</split>
							<split pos="right">
								<output>0.95346087258590906</output>
							</split>
						</split>
						<split pos="right">
							<output>-0.30237039220475126</output>
						</split>
					</split>
					<split pos="right">
						<output>-0.66215083420228882</output>
					</split>
				</split>
				<split pos="right">
					<output>0.16583149724249943</output>
				</split>
			</split>
		</tree>
		<tree id="50" weight="0.10000000149011612">
			<split>
				<feature>3</feature>
				<threshold>0.39821884</threshold>
				<split pos="left">
					<feature>3</feature>
					<threshold>0.318349659</threshold>
					<split pos="left">
						<feature>3</feature>
						<threshold>0.313832968</threshold>
						<split pos="left">
							<feature>4</feature>
							<threshold>0.764970183</threshold>
							<split pos="left">
								<feature>4</feature>
								<threshold>0.647550762</threshold>
								<split pos="left">
									<feature>4</feature>
									<threshold>0.528430641</threshold>
									<split pos="left">
										<feature>4</feature>
										<threshold>0.242354199</threshold>
										<split pos="left">
											<feature>5</feature>
											<threshold>0.775141954</threshold>
											<split pos="left">
												<feature>8</feature>
												<threshold>0</threshold>
												<split pos="left">
													<output>0.28856632563767404</output>
												</split>
												<split pos="right">
													<output>-0.63269768508437918</output>
												</split>
											</split>
											<split pos="right">
												<output>1.1420657109793855</output>
											</split>
										</split>
										<split pos="right">
											<output>0.81847692266874361</output>
										</split>
									</split>
									<split pos="right">
										<output>-1.2514021264529227</output>
									</split>
								</split>
								<split pos="right">
									<output>0.93607418959465838</output>
								</split>
							</split>
							<split pos="right">
								<output>-0.29094078517249033</output>
							</split>
						</split>
						<split pos="right">
							<output>-1.6187803060687627</output>
						</split>
					</split>
					<split pos="right">
						<output>0.45625841447235205</output>
					</split>
				</split>
				<split pos="right">
					<output>-0.18227898725334435</output>
				</split>
			</split>
		</tree>
		<tree id="51" weight="0.10000000149011612">
			<split>
				<feature>5</feature>
				<threshold>0.479335278</threshold>
				<split pos="left">
					<feature>6</feature>
					<threshold>0.730804384</threshold>
					<split pos="left">
						<feature>7</feature>
						<threshold>0.660306871</threshold>
						<split pos="left">
							<feature>8</feature>
							<threshold>0.807892859</threshold>
							<split pos="left">
								<feature>5</feature>
								<threshold>0.461564273</threshold>
								<split pos="left">
									<output>-0.19506221081466762</output>
								</split>
								<split pos="right">
									<output>-1.8237252223991152</output>
								</split>
							</split>
							<split pos="right">
								<output>0.50612737432430321</output>
							</split>
						</split>
						<split pos="right">
							<output>1.1880222245057357</output>
						</split>
					</split>
					<split pos="right">
						<output>-0.88177707389289506</output>
					</split>
				</split>
				<split pos="right">
					<feature>5</feature>
					<threshold>0.495555222</threshold>
					<split pos="left">
						<output>1.210695550170144</output>
					</split>
					<split pos="right">
						<feature>5</feature>
						<threshold>0.499357253</threshold>
						<split pos="left">
							<output>-1.3387414577486829</output>
						</split>
						<split pos="right">
							<feature>5</feature>
							<threshold>0.570310116</threshold>
							<split pos="left">
								<output>0.7632615820490648</output>
							</split>
							<split pos="right">
								<feature>6</feature>
								<threshold>0.777177334</threshold>
								<split pos="left">
									<output>-0.23163959469733</output>
								</split>
								<split pos="right">
									<output>0.26460901268395448</output>
								</split>
							</split>
						</split>
					</split>
				</split>
			</split>
		</tree>
		<tree id="52" weight="0.10000000149011612">
			<split>
				<feature>5</feature>
				<threshold>0.417152822</threshold>
				<split pos="left">
					<feature>4</feature>
					<threshold>0.893015027</threshold>
					<split pos="left">
						<feature>6</feature>
						<threshold>0.714763224</threshold>
						<split pos="left">
							<feature>8</feature>
							<threshold>0.807892859</threshold>
							<split pos="left">
								<feature>7</feature>
								<threshold>0.660306871</threshold>
								<split pos="left">
									<feature>3</feature>
									<threshold>0</threshold>
									<split pos="left">
										<output>0.43217094026559894</output>
									</split>
									<split pos="right">
										<output>-0.41533813282060078</output>
									</split>
								</split>
								<split pos="right">
									<output>1.1732790799760449</output>
								</split>
							</split>
							<split pos="right">
								<output>0.85014796272528625</output>
							</split>
						</split>
						<split pos="right">
							<output>-0.83927983532944761</output>
						</split>
					</split>
					<split pos="right">
						<output>-1.2177293043711179</output>
					</split>
				</split>
				<split pos="right">
					<feature>5</feature>
					<threshold>0.570310116</threshold>
					<split pos="left">
						<output>0.501387064853558</output>
					</split>
					<split pos="right">
						<feature>6</feature>
						<threshold>0.777177334</threshold>
						<split pos="left">
							<output>-0.21765565402106329</output>
						</split>
						<split pos="right">
							<feature>6</feature>
							<threshold>0.971269011</threshold>
							<split pos="left">
								<output>0.90346027036571808</output>
							</split>
							<split pos="right">
								<output>-0.043064483422071163</output>
							</split>
						</split>
					</split>
				</split>
			</split>
		</tree>
		<tree id="53" weight="0.10000000149011612">
			<split>
				<feature>5</feature>
				<threshold>0.798136413</threshold>
