<ranker>
	<info>
		<type>LAMBDAMART</type>
		<trees>1000</trees>
		<leaves>10</leaves>
		<shrinkage>0.10000000149011612</shrinkage>
		<leafsupport>1</leafsupport>
		<discretization>0</discretization>
		<estop>100</estop>
		<subsample>1</subsample>
		<max_features>1</max_features>
		<collapse_leaves_factor>0</collapse_leaves_factor>
	</info>
	<ensemble>
		<tree id="1" weight="0.10000000149011612">
			<split>
				<feature>7</feature>
				<threshold>0.299834311</threshold>
				<split pos="left">
					<output>-1.4091895511844703</output>
				</split>
				<split pos="right">
					<feature>7</feature>
					<threshold>0.300418109</threshold>
					<split pos="left">
						<output>2</output>
					</split>
					<split pos="right">
						<feature>5</feature>
						<threshold>0.306289852</threshold>
						<split pos="left">
							<output>-0.35220135984128409</output>
						</split>
						<split pos="right">
							<feature>5</feature>
							<threshold>0.31025371</threshold>
							<split pos="left">
								<output>2</output>
							</split>
							<split pos="right">
								<feature>6</feature>
								<threshold>0.304708809</threshold>
								<split pos="left">
									<feature>5</feature>
									<threshold>0.613813102</threshold>
									<split pos="left">
										<output>0.3041143934820329</output>
									</split>
									<split pos="right">
										<output>2</output>
									</split>
								</split>
								<split pos="right">
									<feature>9</feature>
									<threshold>0</threshold>
									<split pos="left">
										<feature>5</feature>
										<threshold>0.374421865</threshold>
										<split pos="left">
											<output>1.5973073728456175</output>
										</split>
										<split pos="right">
											<feature>6</feature>
											<threshold>0.368748993</threshold>
											<split pos="left">
												<output>1.9190106569671856</output>
											</split>
											<split pos="right">
												<output>1.0106838081676199</output>
											</split>
										</split>
									</split>
									<split pos="right">
										<output>0.66730823516195881</output>
									</split>
								</split>
							</split>
						</split>
					</split>
				</split>
			</split>
		</tree>
		<tree id="2" weight="0.10000000149011612">
			<split>
				<feature>6</feature>
				<threshold>0.357975543</threshold>
				<split pos="left">
					<feature>8</feature>
					<threshold>0.67547816</threshold>
					<split pos="left">
						<output>-1.5011991842841566</output>
					</split>
					<split pos="right">
						<output>0.99845470011416781</output>
					</split>
				</split>
				<split pos="right">
					<feature>7</feature>
					<threshold>0.358231544</threshold>
					<split pos="left">
						<feature>7</feature>
						<threshold>0.353336453</threshold>
						<split pos="left">
							<output>1.431708446183148</output>
						</split>
						<split pos="right">
							<output>1.7516963434286286</output>
						</split>
					</split>
					<split pos="right">
						<feature>5</feature>
						<threshold>0.306289852</threshold>
						<split pos="left">
							<output>-0.38850569645360722</output>
						</split>
						<split pos="right">
							<feature>5</feature>
							<threshold>0.31025371</threshold>
							<split pos="left">
								<output>1.7916859595369694</output>
							</split>
							<split pos="right">
								<feature>9</feature>
								<threshold>0</threshold>
								<split pos="left">
									<feature>5</feature>
									<threshold>0.374421865</threshold>
									<split pos="left">
										<output>1.2771595386033396</output>
									</split>
									<split pos="right">
										<feature>7</feature>
										<threshold>0.52344507</threshold>
										<split pos="left">
											<output>-0.54393124821959682</output>
										</split>
										<split pos="right">
											<output>1.3331400480601674</output>
										</split>
									</split>
								</split>
								<split pos="right">
									<output>0.60771041882197674</output>
								</split>
							</split>
						</split>
					</split>
				</split>
			</split>
		</tree>
		<tree id="3" weight="0.10000000149011612">
			<split>
				<feature>6</feature>
				<threshold>0.363782763</threshold>
				<split pos="left">
					<feature>8</feature>
					<threshold>0.677033901</threshold>
					<split pos="left">
						<output>-1.3505780813942352</output>
					</split>
					<split pos="right">
						<output>0.93869528810965186</output>
					</split>
				</split>
				<split pos="right">
					<feature>7</feature>
					<threshold>0.358231544</threshold>
					<split pos="left">
						<feature>7</feature>
						<threshold>0.353336453</threshold>
						<split pos="left">
							<output>1.2856855392028903</output>
						</split>
						<split pos="right">
							<output>1.5626332149413582</output>
						</split>
					</split>
					<split pos="right">
						<feature>7</feature>
						<threshold>0.506616771</threshold>
						<split pos="left">
							<output>-0.5582733034296844</output>
						</split>
						<split pos="right">
							<feature>3</feature>
							<threshold>0.306255549</threshold>
							<split pos="left">
								<feature>8</feature>
								<threshold>0.380411863</threshold>
								<split pos="left">
									<feature>4</feature>
									<threshold>0.66924417</threshold>
									<split pos="left">
										<output>1.6556362510780467</output>
									</split>
									<split pos="right">
										<output>0.74877001376509644</output>
									</split>
								</split>
								<split pos="right">
									<output>1.0043830100911268</output>
								</split>
							</split>
							<split pos="right">
								<feature>5</feature>
								<threshold>0.993677855</threshold>
								<split pos="left">
									<output>-0.12556423105491973</output>
								</split>
								<split pos="right">
									<output>1.4521263654172611</output>
								</split>
							</split>
						</split>
					</split>
				</split>
			</split>
		</tree>
		<tree id="4" weight="0.10000000149011612">
			<split>
				<feature>6</feature>
				<threshold>0.363782763</threshold>
				<split pos="left">
					<feature>8</feature>
					<threshold>0.677033901</threshold>
					<split pos="left">
						<output>-1.220084780050829</output>
					</split>
					<split pos="right">
						<output>0.82346229327900067</output>
					</split>
				</split>
				<split pos="right">
					<feature>7</feature>
					<threshold>0.358231544</threshold>
					<split pos="left">
						<feature>6</feature>
						<threshold>0.368748993</threshold>
						<split pos="left">
							<output>1.4574318135585607</output>
						</split>
						<split pos="right">
							<output>1.0775404142025262</output>
						</split>
					</split>
					<split pos="right">
						<feature>7</feature>
						<threshold>0.506616771</threshold>
						<split pos="left">
							<output>-0.77779779538805993</output>
						</split>
						<split pos="right">
							<feature>3</feature>
							<threshold>0.306255549</threshold>
							<split pos="left">
								<feature>8</feature>
								<threshold>0.193627492</threshold>
								<split pos="left">
									<feature>3</feature>
									<threshold>0.0801408142</threshold>
									<split pos="left">
										<output>-1.0035733051057527</output>
									</split>
									<split pos="right">
										<output>1.5490363770495512</output>
									</split>
								</split>
								<split pos="right">
									<feature>7</feature>
									<threshold>0.55224967</threshold>
									<split pos="left">
										<output>1.5071722944516444</output>
									</split>
									<split pos="right">
										<output>0.86727162058469054</output>
									</split>
								</split>
							</split>
							<split pos="right">
								<output>0.43909489654198425</output>
							</split>
						</split>
					</split>
				</split>
			</split>
		</tree>
		<tree id="5" weight="0.10000000149011612">
			<split>
				<feature>6</feature>
				<threshold>0.363782763</threshold>
				<split pos="left">
					<feature>8</feature>
					<threshold>0.677033901</threshold>
					<split pos="left">
						<output>-1.1285960759803191</output>
					</split>
					<split pos="right">
						<output>0.73785193651825687</output>
					</split>
				</split>
				<split pos="right">
					<feature>7</feature>
					<threshold>0.358231544</threshold>
					<split pos="left">
						<feature>6</feature>
						<threshold>0.368748993</threshold>
						<split pos="left">
							<output>1.3692058803951546</output>
						</split>
						<split pos="right">
							<output>0.97876803997498341</output>
						</split>
					</split>
					<split pos="right">
						<feature>7</feature>
						<threshold>0.506616771</threshold>
						<split pos="left">
							<output>-0.67529978817300684</output>
						</split>
						<split pos="right">
							<feature>3</feature>
							<threshold>0.306255549</threshold>
							<split pos="left">
								<feature>8</feature>
								<threshold>0.193627492</threshold>
								<split pos="left">
									<feature>3</feature>
									<threshold>0.0801408142</threshold>
									<split pos="left">
										<output>-1.2481700665855617</output>
									</split>
									<split pos="right">
										<output>1.4418491618309299</output>
									</split>
								</split>
								<split pos="right">
									<feature>7</feature>
									<threshold>0.55224967</threshold>
									<split pos="left">
										<output>1.4189463734437127</output>
									</split>
									<split pos="right">
										<output>0.70706435201798234</output>
									</split>
								</split>
							</split>
							<split pos="right">
								<output>0.36201836650459657</output>
							</split>
						</split>
					</split>
				</split>
			</split>
		</tree>
		<tree id="6" weight="0.10000000149011612">
			<split>
				<feature>6</feature>
				<threshold>0.363782763</threshold>
				<split pos="left">
					<feature>8</feature>
					<threshold>0.677033901</threshold>
					<split pos="left">
						<output>-1.0423784878902629</output>
					</split>
					<split pos="right">
						<output>0.70398541556768035</output>
					</split>
				</split>
				<split pos="right">
					<feature>7</feature>
					<threshold>0.358231544</threshold>
					<split pos="left">
						<output>1.0631060711496638</output>
					</split>
					<split pos="right">
						<feature>7</feature>
						<threshold>0.506616771</threshold>
						<split pos="left">
							<output>-0.58153317507169089</output>
						</split>
						<split pos="right">
							<feature>3</feature>
							<threshold>0.306255549</threshold>
							<split pos="left">
								<feature>8</feature>
								<threshold>0.193627492</threshold>
								<split pos="left">
									<feature>3</feature>
									<threshold>0.0801408142</threshold>
									<split pos="left">
										<output>-1.2102329802064562</output>
									</split>
									<split pos="right">
										<output>1.3608453501000577</output>
									</split>
								</split>
								<split pos="right">
									<feature>7</feature>
									<threshold>0.55224967</threshold>
									<split pos="left">
										<output>1.3532510694054842</output>
									</split>
									<split pos="right">
										<output>0.63714023432959255</output>
									</split>
								</split>
							</split>
							<split pos="right">
								<feature>5</feature>
								<threshold>0.993677855</threshold>
								<split pos="left">
									<output>-0.49227894335811639</output>
								</split>
								<split pos="right">
									<output>1.1268247246866834</output>
								</split>
							</split>
						</split>
					</split>
				</split>
			</split>
		</tree>
		<tree id="7" weight="0.10000000149011612">
			<split>
				<feature>6</feature>
				<threshold>0.363782763</threshold>
				<split pos="left">
					<feature>8</feature>
					<threshold>0.677033901</threshold>
					<split pos="left">
						<output>-0.9671279556582647</output>
					</split>
					<split pos="right">
						<output>0.42337929450723993</output>
					</split>
				</split>
				<split pos="right">
					<feature>7</feature>
					<threshold>0.358231544</threshold>
					<split pos="left">
						<feature>6</feature>
						<threshold>0.383587658</threshold>
						<split pos="left">
							<output>1.3018571796711478</output>
						</split>
						<split pos="right">
							<output>-0.060153215458983292</output>
						</split>
					</split>
					<split pos="right">
						<feature>3</feature>
						<threshold>0.306255549</threshold>
						<split pos="left">
							<feature>7</feature>
							<threshold>0.506616771</threshold>
							<split pos="left">
								<output>-0.50490294559232041</output>
							</split>
							<split pos="right">
								<feature>8</feature>
								<threshold>0.193627492</threshold>
								<split pos="left">
									<output>1.2016441143343715</output>
								</split>
								<split pos="right">
									<feature>7</feature>
									<threshold>0.55224967</threshold>
									<split pos="left">
										<output>1.3041624193614514</output>
									</split>
									<split pos="right">
										<output>0.54118022823838441</output>
									</split>
								</split>
							</split>
						</split>
						<split pos="right">
							<feature>5</feature>
							<threshold>0.993677855</threshold>
							<split pos="left">
								<output>-0.45246401712566081</output>
							</split>
							<split pos="right">
								<output>1.0687265039105474</output>
							</split>
						</split>
					</split>
				</split>
			</split>
		</tree>
		<tree id="8" weight="0.10000000149011612">
			<split>
				<feature>6</feature>
				<threshold>0.363782763</threshold>
				<split pos="left">
					<feature>7</feature>
					<threshold>0.33058688</threshold>
					<split pos="left">
						<output>-0.9225697513971346</output>
					</split>
					<split pos="right">
						<output>0.32640753424028035</output>
					</split>
				</split>
				<split pos="right">
					<feature>7</feature>
					<threshold>0.358231544</threshold>
					<split pos="left">
						<output>0.95807917793857134</output>
					</split>
					<split pos="right">
						<feature>4</feature>
						<threshold>0.381840497</threshold>
						<split pos="left">
							<output>-0.34038035448099929</output>
						</split>
						<split pos="right">
							<feature>8</feature>
							<threshold>0.193627492</threshold>
							<split pos="left">
								<feature>6</feature>
								<threshold>0.505963206</threshold>
								<split pos="left">
									<output>-1.1081863562085759</output>
								</split>
								<split pos="right">
									<output>1.1237420724305272</output>
								</split>
							</split>
							<split pos="right">
								<feature>9</feature>
								<threshold>0</threshold>
								<split pos="left">
									<feature>7</feature>
									<threshold>0.48182857</threshold>
									<split pos="left">
										<output>-1.2915285312398028</output>
									</split>
									<split pos="right">
										<feature>5</feature>
										<threshold>0.374421865</threshold>
										<split pos="left">
											<output>1.2369083439318498</output>
										</split>
										<split pos="right">
											<output>0.84231610108760935</output>
										</split>
									</split>
								</split>
								<split pos="right">
									<output>-0.051334358870223099</output>
								</split>
							</split>
						</split>
					</split>
				</split>
			</split>
		</tree>
		<tree id="9" weight="0.10000000149011612">
			<split>
				<feature>6</feature>
				<threshold>0.363782763</threshold>
				<split pos="left">
					<feature>8</feature>
					<threshold>0.677033901</threshold>
					<split pos="left">
						<feature>6</feature>
						<threshold>0.166200936</threshold>
						<split pos="left">
							<output>-1.1317801246389758</output>
						</split>
						<split pos="right">
							<output>-0.39727740615794649</output>
						</split>
					</split>
					<split pos="right">
						<output>0.40584107654463797</output>
					</split>
				</split>
				<split pos="right">
					<feature>7</feature>
					<threshold>0.358231544</threshold>
					<split pos="left">
						<output>0.89836852387023458</output>
					</split>
					<split pos="right">
						<feature>3</feature>
						<threshold>0.306255549</threshold>
						<split pos="left">
							<feature>7</feature>
							<threshold>0.506616771</threshold>
							<split pos="left">
								<output>-0.40212908780723461</output>
							</split>
							<split pos="right">
								<feature>8</feature>
								<threshold>0.193627492</threshold>
								<split pos="left">
									<output>1.1030317527051945</output>
								</split>
								<split pos="right">
									<feature>7</feature>
									<threshold>0.55224967</threshold>
									<split pos="left">
										<output>1.2504502311420094</output>
									</split>
									<split pos="right">
										<output>0.51698197483157027</output>
									</split>
								</split>
							</split>
						</split>
						<split pos="right">
							<feature>5</feature>
							<threshold>0.993677855</threshold>
							<split pos="left">
								<output>-0.44079195608432181</output>
							</split>
							<split pos="right">
								<output>0.93670095215137616</output>
							</split>
						</split>
					</split>
				</split>
			</split>
		</tree>
		<tree id="10" weight="0.10000000149011612">
			<split>
				<feature>6</feature>
				<threshold>0.363782763</threshold>
				<split pos="left">
					<feature>6</feature>
					<threshold>0.140452415</threshold>
					<split pos="left">
						<output>-1.0598166313781439</output>
					</split>
					<split pos="right">
						<feature>5</feature>
						<threshold>0.0362916999</threshold>
						<split pos="left">
							<output>1.0061358617330058</output>
						</split>
						<split pos="right">
							<output>-0.5303146520421631</output>
						</split>
					</split>
				</split>
				<split pos="right">
					<feature>3</feature>
					<threshold>0.306255549</threshold>
					<split pos="left">
						<feature>7</feature>
						<threshold>0.358231544</threshold>
						<split pos="left">
							<output>0.98176765927471754</output>
						</split>
						<split pos="right">
							<feature>3</feature>
							<threshold>0.20636636</threshold>
							<split pos="left">
								<feature>3</feature>
								<threshold>0.106835201</threshold>
								<split pos="left">
									<feature>3</feature>
									<threshold>0.0783461034</threshold>
									<split pos="left">
										<output>0.33245038865163329</output>
									</split>
									<split pos="right">
										<output>1.1755860132614129</output>
									</split>
								</split>
								<split pos="right">
									<output>0.0060519023998000642</output>
								</split>
							</split>
							<split pos="right">
								<output>0.93787912634230619</output>
							</split>
						</split>
					</split>
					<split pos="right">
						<feature>5</feature>
						<threshold>0.993677855</threshold>
						<split pos="left">
							<output>-0.31203996797957045</output>
						</split>
						<split pos="right">
							<output>0.88582573577129764</output>
						</split>
					</split>
				</split>
			</split>
		</tree>
		<tree id="11" weight="0.10000000149011612">
			<split>
				<feature>6</feature>
				<threshold>0.363782763</threshold>
				<split pos="left">
					<feature>6</feature>
					<threshold>0.140452415</threshold>
					<split pos="left">
						<output>-1.0633702098046347</output>
					</split>
					<split pos="right">
						<feature>5</feature>
						<threshold>0.0519594662</threshold>
						<split pos="left">
							<output>0.85287124857134844</output>
						</split>
						<split pos="right">
							<output>-0.49676559648672841</output>
						</split>
					</split>
				</split>
				<split pos="right">
					<feature>3</feature>
					<threshold>0.306255549</threshold>
					<split pos="left">
						<feature>7</feature>
						<threshold>0.358231544</threshold>
						<split pos="left">
							<output>0.92414394343814721</output>
						</split>
						<split pos="right">
							<feature>7</feature>
							<threshold>0.506616771</threshold>
							<split pos="left">
								<output>-0.32498186064284512</output>
							</split>
							<split pos="right">
								<feature>8</feature>
								<threshold>0.193627492</threshold>
								<split pos="left">
									<output>1.0388116318066061</output>
								</split>
								<split pos="right">
									<feature>7</feature>
									<threshold>0.55224967</threshold>
									<split pos="left">
										<output>1.2307078727048786</output>
									</split>
									<split pos="right">
										<output>0.4162382525819206</output>
									</split>
								</split>
							</split>
						</split>
					</split>
					<split pos="right">
						<feature>6</feature>
						<threshold>0.368748993</threshold>
						<split pos="left">
							<output>1.6746174501610556</output>
						</split>
						<split pos="right">
							<output>-0.001759269533757854</output>
						</split>
					</split>
				</split>
			</split>
		</tree>
		<tree id="12" weight="0.10000000149011612">
			<split>
				<feature>5</feature>
				<threshold>0.401859999</threshold>
				<split pos="left">
					<feature>7</feature>
					<threshold>0.436700195</threshold>
					<split pos="left">
						<feature>8</feature>
						<threshold>0.979849517</threshold>
						<split pos="left">
							<output>-0.85466516095597034</output>
						</split>
						<split pos="right">
							<output>0.39203901134647984</output>
						</split>
					</split>
					<split pos="right">
						<feature>3</feature>
						<threshold>0.0878218934</threshold>
						<split pos="left">
							<output>0.99676472999720966</output>
						</split>
						<split pos="right">
							<output>-0.26514458256248125</output>
						</split>
					</split>
				</split>
				<split pos="right">
					<feature>5</feature>
					<threshold>0.417744547</threshold>
					<split pos="left">
						<output>0.94337339618984728</output>
					</split>
					<split pos="right">
						<feature>5</feature>
						<threshold>0.522677898</threshold>
						<split pos="left">
							<output>-0.41658787377176959</output>
						</split>
						<split pos="right">
							<feature>5</feature>
							<threshold>0.55953145</threshold>
							<split pos="left">
								<output>1.0481039345329677</output>
							</split>
							<split pos="right">
								<feature>9</feature>
								<threshold>0</threshold>
								<split pos="left">
									<feature>3</feature>
									<threshold>0.157501608</threshold>
									<split pos="left">
										<output>0.28098262299096366</output>
									</split>
									<split pos="right">
										<output>0.92770629375855451</output>
									</split>
								</split>
								<split pos="right">
									<output>-0.047919195656628805</output>
								</split>
							</split>
						</split>
					</split>
				</split>
			</split>
		</tree>
		<tree id="13" weight="0.10000000149011612">
			<split>
				<feature>5</feature>
				<threshold>0.406814635</threshold>
				<split pos="left">
					<feature>8</feature>
					<threshold>0.369481504</threshold>
					<split pos="left">
						<feature>6</feature>
						<threshold>0.611014783</threshold>
						<split pos="left">
							<output>-0.81989051929735735</output>
						</split>
						<split pos="right">
							<output>0.66477004976711795</output>
						</split>
					</split>
					<split pos="right">
						<feature>3</feature>
						<threshold>0.11141023</threshold>
						<split pos="left">
							<output>0.69479140938755513</output>
						</split>
						<split pos="right">
							<output>-0.36285408438186251</output>
						</split>
					</split>
				</split>
				<split pos="right">
					<feature>5</feature>
					<threshold>0.417744547</threshold>
					<split pos="left">
						<output>1.1582509164899608</output>
					</split>
					<split pos="right">
						<feature>5</feature>
						<threshold>0.522677898</threshold>
						<split pos="left">
							<output>-0.39779767767603491</output>
						</split>
						<split pos="right">
							<feature>5</feature>
							<threshold>0.55953145</threshold>
							<split pos="left">
								<output>1.0186729011967823</output>
							</split>
							<split pos="right">
								<feature>9</feature>
								<threshold>0</threshold>
								<split pos="left">
									<feature>3</feature>
									<threshold>0.17585586</threshold>
									<split pos="left">
										<output>0.24660535498673428</output>
									</split>
									<split pos="right">
										<output>0.89895983807582713</output>
									</split>
								</split>
								<split pos="right">
									<output>-0.00895658837456903</output>
								</split>
							</split>
						</split>
					</split>
				</split>
			</split>
		</tree>
		<tree id="14" weight="0.10000000149011612">
			<split>
				<feature>5</feature>
				<threshold>0.406814635</threshold>
				<split pos="left">
					<feature>6</feature>
					<threshold>0.134208232</threshold>
					<split pos="left">
						<output>-0.96971216494431933</output>
					</split>
					<split pos="right">
						<feature>4</feature>
						<threshold>0.136338696</threshold>
						<split pos="left">
							<feature>4</feature>
							<threshold>0.129001886</threshold>
							<split pos="left">
								<output>0.42928514300559611</output>
							</split>
							<split pos="right">
								<output>1.7846123520282535</output>
							</split>
						</split>
						<split pos="right">
							<output>-0.31985395781350656</output>
						</split>
					</split>
				</split>
				<split pos="right">
					<feature>5</feature>
					<threshold>0.417744547</threshold>
					<split pos="left">
						<output>1.1438423846713293</output>
					</split>
					<split pos="right">
						<feature>5</feature>
						<threshold>0.522677898</threshold>
						<split pos="left">
							<output>-0.35873950654974152</output>
						</split>
						<split pos="right">
							<feature>5</feature>
							<threshold>0.55953145</threshold>
							<split pos="left">
								<output>0.97915382962902997</output>
							</split>
							<split pos="right">
								<feature>9</feature>
								<threshold>0</threshold>
								<split pos="left">
									<feature>3</feature>
									<threshold>0.17585586</threshold>
									<split pos="left">
										<output>0.22265212657997596</output>
									</split>
									<split pos="right">
										<output>0.83481577358647807</output>
									</split>
								</split>
								<split pos="right">
									<output>-0.036840662227065619</output>
								</split>
							</split>
						</split>
					</split>
				</split>
			</split>
		</tree>
		<tree id="15" weight="0.10000000149011612">
			<split>
				<feature>5</feature>
				<threshold>0.406814635</threshold>
				<split pos="left">
					<feature>8</feature>
					<threshold>0.369481504</threshold>
					<split pos="left">
						<feature>3</feature>
						<threshold>0.306503534</threshold>
						<split pos="left">
							<feature>6</feature>
							<threshold>0.611014783</threshold>
							<split pos="left">
								<output>-0.58074009216342792</output>
							</split>
							<split pos="right">
								<output>1.1774000065412253</output>
							</split>
						</split>
						<split pos="right">
							<output>-1.1402616813457758</output>
						</split>
					</split>
					<split pos="right">
						<output>0.113697201337328</output>
					</split>
				</split>
				<split pos="right">
					<feature>5</feature>
					<threshold>0.417744547</threshold>
					<split pos="left">
						<output>1.101254794502444</output>
					</split>
					<split pos="right">
						<feature>5</feature>
						<threshold>0.522677898</threshold>
						<split pos="left">
							<output>-0.33988493692349986</output>
						</split>
						<split pos="right">
							<feature>5</feature>
							<threshold>0.55953145</threshold>
							<split pos="left">
								<output>0.96594254271002988</output>
							</split>
							<split pos="right">
								<feature>9</feature>
								<threshold>0</threshold>
								<split pos="left">
									<feature>3</feature>
									<threshold>0.151842609</threshold>
									<split pos="left">
										<output>0.086689539507892432</output>
									</split>
									<split pos="right">
										<output>0.77019466296401173</output>
									</split>
								</split>
								<split pos="right">
									<output>-0.00692939702358677</output>
								</split>
							</split>
						</split>
					</split>
				</split>
			</split>
		</tree>
		<tree id="16" weight="0.10000000149011612">
			<split>
				<feature>5</feature>
				<threshold>0.406814635</threshold>
				<split pos="left">
					<feature>8</feature>
					<threshold>0.369481504</threshold>
					<split pos="left">
						<output>-0.66545786833627685</output>
					</split>
					<split pos="right">
						<output>0.09893501856986886</output>
					</split>
				</split>
				<split pos="right">
					<feature>5</feature>
					<threshold>0.417744547</threshold>
					<split pos="left">
						<output>1.072662424947098</output>
					</split>
					<split pos="right">
						<feature>5</feature>
						<threshold>0.456904888</threshold>
						<split pos="left">
							<output>-0.97081003459414494</output>
						</split>
						<split pos="right">
							<feature>7</feature>
							<threshold>0.226645932</threshold>
							<split pos="left">
								<output>-0.8323571022761751</output>
							</split>
							<split pos="right">
								<feature>7</feature>
								<threshold>0.358231544</threshold>
								<split pos="left">
									<output>0.94578982168102954</output>
								</split>
								<split pos="right">
									<feature>7</feature>
									<threshold>0.52344507</threshold>
									<split pos="left">
										<output>-1.2455852290951068</output>
									</split>
									<split pos="right">
										<feature>7</feature>
										<threshold>0.555728972</threshold>
										<split pos="left">
											<output>1.1969982988101615</output>
										</split>
										<split pos="right">
											<feature>9</feature>
											<threshold>0</threshold>
											<split pos="left">
												<output>0.5632208801971893</output>
											</split>
											<split pos="right">
												<output>0.023477203295730175</output>
											</split>
										</split>
									</split>
								</split>
							</split>
						</split>
					</split>
				</split>
			</split>
		</tree>
		<tree id="17" weight="0.10000000149011612">
			<split>
				<feature>5</feature>
				<threshold>0.364530355</threshold>
				<split pos="left">
					<feature>7</feature>
					<threshold>0.124491267</threshold>
					<split pos="left">
						<output>-0.94495224620150597</output>
					</split>
					<split pos="right">
						<feature>4</feature>
						<threshold>0.136338696</threshold>
						<split pos="left">
							<feature>4</feature>
							<threshold>0.134411618</threshold>
							<split pos="left">
								<output>0.33657394474125102</output>
							</split>
							<split pos="right">
								<output>1.6813525266806078</output>
							</split>
						</split>
						<split pos="right">
							<output>-0.46156541099616805</output>
						</split>
					</split>
				</split>
				<split pos="right">
					<feature>5</feature>
					<threshold>0.368044019</threshold>
					<split pos="left">
						<output>1.3806716837466708</output>
					</split>
					<split pos="right">
						<feature>4</feature>
						<threshold>0.375063598</threshold>
						<split pos="left">
							<output>-0.93119032298929194</output>
						</split>
						<split pos="right">
							<feature>4</feature>
							<threshold>0.793728232</threshold>
							<split pos="left">
								<feature>4</feature>
								<threshold>0.789757192</threshold>
								<split pos="left">
									<feature>7</feature>
									<threshold>0.343975127</threshold>
									<split pos="left">
										<output>-0.34117433064859815</output>
									</split>
									<split pos="right">
										<output>0.65946576152869052</output>
									</split>
								</split>
								<split pos="right">
									<output>1.172957545826232</output>
								</split>
							</split>
							<split pos="right">
								<output>0.19222217411668499</output>
							</split>
						</split>
					</split>
				</split>
			</split>
		</tree>
		<tree id="18" weight="0.10000000149011612">
			<split>
				<feature>5</feature>
				<threshold>0.406814635</threshold>
				<split pos="left">
					<feature>8</feature>
					<threshold>0.369481504</threshold>
					<split pos="left">
						<feature>8</feature>
						<threshold>0.00335076521</threshold>
						<split pos="left">
							<feature>8</feature>
							<threshold>0.00165932544</threshold>
							<split pos="left">
								<feature>7</feature>
								<threshold>0.139434919</threshold>
								<split pos="left">
									<output>-0.91359999206370179</output>
								</split>
								<split pos="right">
									<output>0.86819044746546281</output>
								</split>
							</split>
							<split pos="right">
								<output>1.4932218800750576</output>
							</split>
						</split>
						<split pos="right">
							<output>-0.82225130006384572</output>
						</split>
					</split>
					<split pos="right">
						<output>0.11881945036711042</output>
					</split>
				</split>
				<split pos="right">
					<feature>5</feature>
					<threshold>0.417744547</threshold>
					<split pos="left">
						<output>1.0350945634978526</output>
					</split>
					<split pos="right">
						<feature>5</feature>
						<threshold>0.522677898</threshold>
						<split pos="left">
							<output>-0.39657741292416732</output>
						</split>
						<split pos="right">
							<feature>5</feature>
							<threshold>0.613813102</threshold>
							<split pos="left">
								<output>0.85938285916705059</output>
							</split>
							<split pos="right">
								<feature>8</feature>
								<threshold>0.665172577</threshold>
								<split pos="left">
									<output>-0.14907595285573869</output>
								</split>
								<split pos="right">
									<output>0.61956971327579868</output>
								</split>
							</split>
						</split>
					</split>
				</split>
			</split>
		</tree>
		<tree id="19" weight="0.10000000149011612">
			<split>
				<feature>5</feature>
				<threshold>0.397120982</threshold>
				<split pos="left">
					<feature>5</feature>
					<threshold>0.375573218</threshold>
					<split pos="left">
						<feature>5</feature>
						<threshold>0.364530355</threshold>
						<split pos="left">
							<feature>7</feature>
							<threshold>0.124491267</threshold>
							<split pos="left">
								<output>-0.92721542937626444</output>
							</split>
							<split pos="right">
								<feature>8</feature>
								<threshold>0.00335076521</threshold>
								<split pos="left">
									<output>0.84035020110930603</output>
								</split>
								<split pos="right">
									<output>-0.27507098303642957</output>
								</split>
							</split>
						</split>
						<split pos="right">
							<output>0.95613822682225824</output>
						</split>
					</split>
					<split pos="right">
						<output>-2.1694027736275525</output>
					</split>
				</split>
				<split pos="right">
					<feature>5</feature>
					<threshold>0.417744547</threshold>
					<split pos="left">
						<output>0.71716809417399208</output>
					</split>
					<split pos="right">
						<feature>5</feature>
						<threshold>0.522677898</threshold>
						<split pos="left">
							<output>-0.36132261867024434</output>
						</split>
						<split pos="right">
							<feature>5</feature>
							<threshold>0.532530189</threshold>
							<split pos="left">
								<output>1.0576630122117943</output>
							</split>
							<split pos="right">
								<feature>9</feature>
								<threshold>0</threshold>
								<split pos="left">
									<output>0.47911396299485864</output>
								</split>
								<split pos="right">
									<output>0.033269833712993843</output>
								</split>
							</split>
						</split>
					</split>
				</split>
			</split>
		</tree>
		<tree id="20" weight="0.10000000149011612">
			<split>
				<feature>5</feature>
				<threshold>0.364530355</threshold>
				<split pos="left">
					<feature>8</feature>
					<threshold>0.387106091</threshold>
					<split pos="left">
						<feature>8</feature>
						<threshold>0.00335076521</threshold>
						<split pos="left">
							<feature>8</feature>
							<threshold>0.00165932544</threshold>
							<split pos="left">
								<feature>7</feature>
								<threshold>0.139434919</threshold>
								<split pos="left">
									<output>-0.87802645822094227</output>
								</split>
								<split pos="right">
									<output>0.71783039161205775</output>
								</split>
							</split>
							<split pos="right">
								<output>1.3748904800578101</output>
							</split>
						</split>
						<split pos="right">
							<output>-0.8282985284361194</output>
						</split>
					</split>
					<split pos="right">
						<output>0.12732483809110387</output>
					</split>
				</split>
				<split pos="right">
					<feature>5</feature>
					<threshold>0.368044019</threshold>
					<split pos="left">
						<output>1.309514969847716</output>
					</split>
					<split pos="right">
						<feature>4</feature>
						<threshold>0.375063598</threshold>
						<split pos="left">
							<output>-0.60669685181046495</output>
						</split>
						<split pos="right">
							<feature>4</feature>
							<threshold>0.66924417</threshold>
							<split pos="left">
								<output>0.6313925370412784</output>
							</split>
							<split pos="right">
								<feature>7</feature>
								<threshold>0.803233564</threshold>
								<split pos="left">
									<output>-0.17771585588765659</output>
								</split>
								<split pos="right">
									<output>0.52446225690442105</output>
								</split>
							</split>
						</split>
					</split>
				</split>
			</split>
		</tree>
		<tree id="21" weight="0.10000000149011612">
			<split>
				<feature>5</feature>
				<threshold>0.364530355</threshold>
				<split pos="left">
					<feature>8</feature>
					<threshold>0.387106091</threshold>
					<split pos="left">
						<feature>3</feature>
						<threshold>0.317256331</threshold>
						<split pos="left">
							<feature>6</feature>
							<threshold>0.586815655</threshold>
							<split pos="left">
								<feature>8</feature>
								<threshold>0.00335076521</threshold>
								<split pos="left">
									<output>0.031289563363616997</output>
								</split>
								<split pos="right">
									<output>-0.87834223837224734</output>
								</split>
							</split>
							<split pos="right">
								<output>0.82299216608618253</output>
							</split>
						</split>
						<split pos="right">
							<output>-1.1243835338426924</output>
						</split>
					</split>
					<split pos="right">
						<output>0.10123814857251796</output>
					</split>
				</split>
				<split pos="right">
					<feature>5</feature>
					<threshold>0.368044019</threshold>
					<split pos="left">
						<output>1.2974442329037212</output>
					</split>
					<split pos="right">
						<feature>4</feature>
						<threshold>0.375063598</threshold>
						<split pos="left">
							<output>-0.55776972404750702</output>
						</split>
						<split pos="right">
							<feature>4</feature>
							<threshold>0.66924417</threshold>
							<split pos="left">
								<output>0.58763469980013394</output>
							</split>
							<split pos="right">
								<feature>7</feature>
								<threshold>0.803233564</threshold>
								<split pos="left">
									<output>-0.19431314903900881</output>
								</split>
								<split pos="right">
									<output>0.49922041765906444</output>
								</split>
							</split>
						</split>
					</split>
				</split>
			</split>
		</tree>
		<tree id="22" weight="0.10000000149011612">
			<split>
				<feature>7</feature>
				<threshold>0.182113677</threshold>
				<split pos="left">
					<output>-0.71395393603437207</output>
				</split>
				<split pos="right">
					<feature>7</feature>
					<threshold>0.182254553</threshold>
					<split pos="left">
						<output>2.3012507237131712</output>
					</split>
					<split pos="right">
						<feature>4</feature>
						<threshold>0.381840497</threshold>
						<split pos="left">
							<output>-0.2638622331997203</output>
						</split>
						<split pos="right">
							<feature>4</feature>
							<threshold>0.387561679</threshold>
							<split pos="left">
								<output>2.2451908702350463</output>
							</split>
							<split pos="right">
								<feature>5</feature>
								<threshold>0.359967202</threshold>
								<split pos="left">
									<output>-0.43052610842443317</output>
								</split>
								<split pos="right">
									<feature>5</feature>
									<threshold>0.417744547</threshold>
									<split pos="left">
										<output>0.76109728897546669</output>
									</split>
									<split pos="right">
										<feature>6</feature>
										<threshold>0.386977404</threshold>
										<split pos="left">
											<output>0.78046571867665515</output>
										</split>
										<split pos="right">
											<feature>7</feature>
											<threshold>0.52344507</threshold>
											<split pos="left">
												<output>-1.7953467469841031</output>
											</split>
											<split pos="right">
												<feature>7</feature>
												<threshold>0.55224967</threshold>
												<split pos="left">
													<output>1.2254476213197703</output>
												</split>
												<split pos="right">
													<output>0.24267395553428331</output>
												</split>
											</split>
										</split>
									</split>
								</split>
							</split>
						</split>
					</split>
				</split>
			</split>
		</tree>
		<tree id="23" weight="0.10000000149011612">
			<split>
				<feature>6</feature>
				<threshold>0.363782763</threshold>
				<split pos="left">
					<output>-0.39477351333799032</output>
				</split>
				<split pos="right">
					<feature>6</feature>
					<threshold>0.369478405</threshold>
					<split pos="left">
						<output>1.0420147917382456</output>
					</split>
					<split pos="right">
						<feature>5</feature>
						<threshold>0.00301941391</threshold>
						<split pos="left">
							<output>-2.546106993317045</output>
						</split>
						<split pos="right">
							<feature>4</feature>
							<threshold>0.136338696</threshold>
							<split pos="left">
								<output>1.2348910452023369</output>
							</split>
							<split pos="right">
								<feature>7</feature>
								<threshold>0.326365054</threshold>
								<split pos="left">
									<output>1.1820647971345857</output>
								</split>
								<split pos="right">
									<feature>6</feature>
									<threshold>0.484494269</threshold>
									<split pos="left">
										<output>-0.62747932276950424</output>
									</split>
									<split pos="right">
										<feature>6</feature>
										<threshold>0.48747167</threshold>
										<split pos="left">
											<output>2.0345226816830269</output>
										</split>
										<split pos="right">
											<feature>4</feature>
											<threshold>0.381840497</threshold>
											<split pos="left">
												<output>-0.61926826813673896</output>
											</split>
											<split pos="right">
												<feature>9</feature>
												<threshold>0</threshold>
												<split pos="left">
													<output>0.48847285590858058</output>
												</split>
												<split pos="right">
													<output>-0.2009719531215341</output>
												</split>
											</split>
										</split>
									</split>
								</split>
							</split>
						</split>
					</split>
				</split>
			</split>
		</tree>
		<tree id="24" weight="0.10000000149011612">
			<split>
				<feature>6</feature>
				<threshold>0.363782763</threshold>
				<split pos="left">
					<feature>8</feature>
					<threshold>0.677033901</threshold>
					<split pos="left">
						<feature>3</feature>
						<threshold>0.171128616</threshold>
						<split pos="left">
							<feature>3</feature>
							<threshold>0.170195639</threshold>
							<split pos="left">
								<output>-0.41545682292465952</output>
							</split>
							<split pos="right">
								<output>2.1710222404164425</output>
							</split>
						</split>
						<split pos="right">
							<output>-0.91621084070269221</output>
						</split>
					</split>
					<split pos="right">
						<output>0.40058781783091552</output>
					</split>
				</split>
				<split pos="right">
					<feature>6</feature>
					<threshold>0.369478405</threshold>
					<split pos="left">
						<output>1.0831570502311112</output>
					</split>
					<split pos="right">
						<feature>3</feature>
						<threshold>0.306255549</threshold>
						<split pos="left">
							<feature>3</feature>
							<threshold>0.292132139</threshold>
							<split pos="left">
								<feature>5</feature>
								<threshold>0.165892825</threshold>
								<split pos="left">
									<output>0.99763251433665801</output>
								</split>
								<split pos="right">
									<feature>8</feature>
									<threshold>0.417486012</threshold>
									<split pos="left">
										<output>0.49102573206803174</output>
									</split>
									<split pos="right">
										<output>-0.15999504625278621</output>
									</split>
								</split>
							</split>
							<split pos="right">
								<output>1.1087547250312682</output>
							</split>
						</split>
						<split pos="right">
							<output>-0.062877558933754449</output>
						</split>
					</split>
				</split>
			</split>
		</tree>
		<tree id="25" weight="0.10000000149011612">
			<split>
				<feature>7</feature>
				<threshold>0.26408121</threshold>
				<split pos="left">
					<feature>6</feature>
					<threshold>0.178629115</threshold>
					<split pos="left">
						<feature>6</feature>
						<threshold>0.177672714</threshold>
						<split pos="left">
							<output>-0.59800668028408255</output>
						</split>
						<split pos="right">
							<output>1.9858720279661057</output>
						</split>
					</split>
					<split pos="right">
						<output>-0.77391837247888906</output>
					</split>
				</split>
				<split pos="right">
					<feature>4</feature>
					<threshold>0.381840497</threshold>
					<split pos="left">
						<output>-0.11662683418097108</output>
					</split>
					<split pos="right">
						<feature>4</feature>
						<threshold>0.387561679</threshold>
						<split pos="left">
							<output>1.5175320964390704</output>
						</split>
						<split pos="right">
							<feature>9</feature>
							<threshold>0</threshold>
							<split pos="left">
								<feature>5</feature>
								<threshold>0.301278532</threshold>
								<split pos="left">
									<output>-1.212292041103294</output>
								</split>
								<split pos="right">
									<feature>4</feature>
									<threshold>0.979840934</threshold>
									<split pos="left">
										<feature>7</feature>
										<threshold>0.650200605</threshold>
										<split pos="left">
											<output>0.24816750085431685</output>
										</split>
										<split pos="right">
											<output>0.83258092827715025</output>
										</split>
									</split>
									<split pos="right">
										<output>-0.040611026625511346</output>
									</split>
								</split>
							</split>
							<split pos="right">
								<output>-0.039335096881174834</output>
							</split>
						</split>
					</split>
				</split>
			</split>
		</tree>
		<tree id="26" weight="0.10000000149011612">
			<split>
				<feature>7</feature>
				<threshold>0.26408121</threshold>
				<split pos="left">
					<feature>8</feature>
					<threshold>0.816054881</threshold>
					<split pos="left">
						<output>-0.52424785956196529</output>
					</split>
					<split pos="right">
						<output>0.35050343978733539</output>
					</split>
				</split>
				<split pos="right">
					<feature>4</feature>
					<threshold>0.381840497</threshold>
					<split pos="left">
						<output>-0.1108931611449476</output>
					</split>
					<split pos="right">
						<feature>4</feature>
						<threshold>0.387561679</threshold>
						<split pos="left">
							<output>1.4471601352942942</output>
						</split>
						<split pos="right">
							<feature>5</feature>
							<threshold>0.908614755</threshold>
							<split pos="left">
								<feature>3</feature>
								<threshold>0.0542709716</threshold>
								<split pos="left">
									<output>1.3903498085515085</output>
								</split>
								<split pos="right">
									<feature>8</feature>
									<threshold>0.193627492</threshold>
									<split pos="left">
										<output>0.65022910064074968</output>
									</split>
									<split pos="right">
										<feature>6</feature>
										<threshold>0.383587658</threshold>
										<split pos="left">
											<output>0.86385297559033336</output>
										</split>
										<split pos="right">
											<output>-0.1020214683178563</output>
										</split>
									</split>
								</split>
							</split>
							<split pos="right">
								<feature>8</feature>
								<threshold>0.665172577</threshold>
								<split pos="left">
									<output>-0.72876808135691973</output>
								</split>
								<split pos="right">
									<output>0.36289016029526305</output>
								</split>
							</split>
						</split>
					</split>
				</split>
			</split>
		</tree>
		<tree id="27" weight="0.10000000149011612">
			<split>
				<feature>7</feature>
				<threshold>0.803233564</threshold>
				<split pos="left">
					<feature>7</feature>
					<threshold>0.715601444</threshold>
					<split pos="left">
						<feature>7</feature>
						<threshold>0.706157088</threshold>
						<split pos="left">
							<feature>6</feature>
							<threshold>0.363782763</threshold>
							<split pos="left">
								<feature>5</feature>
								<threshold>0.508135021</threshold>
								<split pos="left">
									<feature>5</feature>
									<threshold>0.0562575571</threshold>
									<split pos="left">
										<output>-0.21805605199351016</output>
									</split>
									<split pos="right">
										<output>-0.83512304283239924</output>
									</split>
								</split>
								<split pos="right">
									<output>0.37524471844376339</output>
								</split>
							</split>
							<split pos="right">
								<feature>6</feature>
								<threshold>0.369478405</threshold>
								<split pos="left">
									<output>1.0008509317610201</output>
								</split>
								<split pos="right">
									<feature>3</feature>
									<threshold>0.161960229</threshold>
									<split pos="left">
										<output>0.53296159153223244</output>
									</split>
									<split pos="right">
										<output>-0.20161508067575734</output>
									</split>
								</split>
							</split>
						</split>
						<split pos="right">
							<output>1.1643246119800119</output>
						</split>
					</split>
					<split pos="right">
						<output>-1.1626120169589784</output>
					</split>
				</split>
				<split pos="right">
					<feature>7</feature>
					<threshold>0.931008518</threshold>
					<split pos="left">
						<output>1.087983160755855</output>
					</split>
					<split pos="right">
						<output>0.11063823763528981</output>
					</split>
				</split>
			</split>
		</tree>
		<tree id="28" weight="0.10000000149011612">
			<split>
				<feature>7</feature>
				<threshold>0.12485376</threshold>
				<split pos="left">
					<output>-0.69411518420126972</output>
				</split>
				<split pos="right">
					<feature>4</feature>
					<threshold>0.381840497</threshold>
					<split pos="left">
						<feature>8</feature>
						<threshold>0.00335076521</threshold>
						<split pos="left">
							<output>0.76684639763869278</output>
						</split>
						<split pos="right">
							<output>-0.33300306756382192</output>
						</split>
					</split>
					<split pos="right">
						<feature>4</feature>
						<threshold>0.387561679</threshold>
						<split pos="left">
							<output>1.3311903605750155</output>
						</split>
						<split pos="right">
							<feature>7</feature>
							<threshold>0.898475409</threshold>
							<split pos="left">
								<feature>7</feature>
								<threshold>0.74719584</threshold>
								<split pos="left">
									<feature>7</feature>
									<threshold>0.744261742</threshold>
									<split pos="left">
										<feature>8</feature>
										<threshold>0.838177443</threshold>
										<split pos="left">
											<feature>8</feature>
											<threshold>0.817578316</threshold>
											<split pos="left">
												<output>0.14892079037124933</output>
											</split>
											<split pos="right">
												<output>1.6692475653977226</output>
											</split>
										</split>
										<split pos="right">
											<output>-0.73447385924548703</output>
										</split>
									</split>
									<split pos="right">
										<output>1.1043663346050199</output>
									</split>
								</split>
								<split pos="right">
									<output>-1.2634793266693725</output>
								</split>
							</split>
							<split pos="right">
								<output>0.45282677438136859</output>
							</split>
						</split>
					</split>
				</split>
			</split>
		</tree>
		<tree id="29" weight="0.10000000149011612">
			<split>
				<feature>6</feature>
				<threshold>0.134208232</threshold>
				<split pos="left">
					<output>-0.60031319857876042</output>
				</split>
				<split pos="right">
					<feature>8</feature>
					<threshold>0.562030077</threshold>
					<split pos="left">
						<feature>8</feature>
						<threshold>0.490417629</threshold>
						<split pos="left">
							<feature>3</feature>
							<threshold>0.306255549</threshold>
							<split pos="left">
								<feature>5</feature>
								<threshold>0.0362916999</threshold>
								<split pos="left">
									<output>1.4624551178295218</output>
								</split>
								<split pos="right">
									<feature>6</feature>
									<threshold>0.620482981</threshold>
									<split pos="left">
										<output>0.13315627603887026</output>
									</split>
									<split pos="right">
										<output>0.62167703975373312</output>
									</split>
								</split>
							</split>
							<split pos="right">
								<output>-0.43577588230241504</output>
							</split>
						</split>
						<split pos="right">
							<output>0.84734195590052408</output>
						</split>
					</split>
					<split pos="right">
						<feature>6</feature>
						<threshold>0.675102174</threshold>
						<split pos="left">
							<output>-0.46187307155261598</output>
						</split>
						<split pos="right">
							<feature>9</feature>
							<threshold>0</threshold>
							<split pos="left">
								<feature>6</feature>
								<threshold>0.68683219</threshold>
								<split pos="left">
									<output>1.163103549621076</output>
								</split>
								<split pos="right">
									<output>0.40762674693697537</output>
								</split>
							</split>
							<split pos="right">
								<output>-0.80396299026403328</output>
							</split>
						</split>
					</split>
				</split>
			</split>
		</tree>
		<tree id="30" weight="0.10000000149011612">
			<split>
				<feature>7</feature>
				<threshold>0.12485376</threshold>
				<split pos="left">
					<output>-0.62888414420860916</output>
				</split>
				<split pos="right">
					<feature>7</feature>
					<threshold>0.125682935</threshold>
					<split pos="left">
						<output>1.4969414799699832</output>
					</split>
					<split pos="right">
						<feature>3</feature>
						<threshold>0.856003642</threshold>
						<split pos="left">
							<feature>3</feature>
							<threshold>0.832425237</threshold>
							<split pos="left">
								<feature>4</feature>
								<threshold>0.136338696</threshold>
								<split pos="left">
									<output>0.5754349824422611</output>
								</split>
								<split pos="right">
									<feature>4</feature>
									<threshold>0.381840497</threshold>
									<split pos="left">
										<output>-0.4509782072609359</output>
									</split>
									<split pos="right">
										<feature>5</feature>
										<threshold>0.0704432353</threshold>
										<split pos="left">
											<output>1.2618734764639219</output>
										</split>
										<split pos="right">
											<feature>5</feature>
											<threshold>0.27541995</threshold>
											<split pos="left">
												<output>-1.4665406821790783</output>
											</split>
											<split pos="right">
												<feature>4</feature>
												<threshold>0.979840934</threshold>
												<split pos="left">
													<output>0.32341645693602178</output>
												</split>
												<split pos="right">
													<output>-0.15228953243789106</output>
												</split>
											</split>
										</split>
									</split>
								</split>
							</split>
							<split pos="right">
								<output>1.6608830011138074</output>
							</split>
						</split>
						<split pos="right">
							<output>-0.56733188194133433</output>
						</split>
					</split>
				</split>
			</split>
		</tree>
		<tree id="31" weight="0.10000000149011612">
			<split>
				<feature>7</feature>
				<threshold>0.12485376</threshold>
				<split pos="left">
					<output>-0.59804106928844936</output>
				</split>
				<split pos="right">
					<feature>7</feature>
					<threshold>0.125682935</threshold>
					<split pos="left">
						<output>1.4974097433898497</output>
					</split>
					<split pos="right">
						<feature>8</feature>
						<threshold>0.562030077</threshold>
						<split pos="left">
							<feature>8</feature>
							<threshold>0.490417629</threshold>
							<split pos="left">
								<feature>8</feature>
								<threshold>0.461182535</threshold>
								<split pos="left">
									<feature>3</feature>
									<threshold>0.306255549</threshold>
									<split pos="left">
										<feature>3</feature>
										<threshold>0.16854924</threshold>
										<split pos="left">
											<output>0.20473805235855222</output>
										</split>
										<split pos="right">
											<output>0.6089955698705265</output>
										</split>
									</split>
									<split pos="right">
										<output>-0.36403902516471914</output>
									</split>
								</split>
								<split pos="right">
									<output>-1.9108069877138887</output>
								</split>
							</split>
							<split pos="right">
								<output>0.77999238441015117</output>
							</split>
						</split>
						<split pos="right">
							<feature>6</feature>
							<threshold>0.675102174</threshold>
							<split pos="left">
								<output>-0.50640867139366696</output>
							</split>
							<split pos="right">
								<feature>4</feature>
								<threshold>0.827519238</threshold>
								<split pos="left">
									<output>-0.39537716151741864</output>
								</split>
								<split pos="right">
									<output>0.62011001579855363</output>
								</split>
							</split>
						</split>
					</split>
				</split>
			</split>
		</tree>
		<tree id="32" weight="0.10000000149011612">
			<split>
				<feature>6</feature>
				<threshold>0.134208232</threshold>
				<split pos="left">
					<output>-0.53111731723084166</output>
				</split>
				<split pos="right">
					<feature>3</feature>
					<threshold>0.306255549</threshold>
					<split pos="left">
						<feature>5</feature>
						<threshold>0.0362916999</threshold>
						<split pos="left">
							<output>1.3101872926692109</output>
						</split>
						<split pos="right">
							<feature>3</feature>
							<threshold>0.292132139</threshold>
							<split pos="left">
								<feature>5</feature>
								<threshold>0.522677898</threshold>
								<split pos="left">
									<output>-0.14315797194049393</output>
								</split>
								<split pos="right">
									<feature>5</feature>
									<threshold>0.908614755</threshold>
									<split pos="left">
										<output>0.58088849721023139</output>
									</split>
									<split pos="right">
										<output>-0.080248203784592118</output>
									</split>
								</split>
							</split>
							<split pos="right">
								<output>0.77483763046438403</output>
							</split>
						</split>
					</split>
					<split pos="right">
						<feature>3</feature>
						<threshold>0.383856803</threshold>
						<split pos="left">
							<output>-0.65711026255035421</output>
						</split>
						<split pos="right">
							<feature>3</feature>
							<threshold>0.433162391</threshold>
							<split pos="left">
								<output>0.81809718941127529</output>
							</split>
							<split pos="right">
								<feature>3</feature>
								<threshold>0.46002537</threshold>
								<split pos="left">
									<output>-1.5012236743105714</output>
								</split>
								<split pos="right">
									<output>0.0039362155396597855</output>
								</split>
							</split>
						</split>
					</split>
				</split>
			</split>
		</tree>
		<tree id="33" weight="0.10000000149011612">
			<split>
				<feature>7</feature>
				<threshold>0.803233564</threshold>
				<split pos="left">
					<feature>7</feature>
					<threshold>0.74719584</threshold>
					<split pos="left">
						<feature>7</feature>
						<threshold>0.744261742</threshold>
						<split pos="left">
							<feature>5</feature>
							<threshold>0.959452271</threshold>
							<split pos="left">
								<feature>5</feature>
								<threshold>0.861952066</threshold>
								<split pos="left">
									<feature>3</feature>
									<threshold>0.171128616</threshold>
									<split pos="left">
										<feature>3</feature>
										<threshold>0.170294762</threshold>
										<split pos="left">
											<output>0.082430089969632026</output>
										</split>
										<split pos="right">
											<output>1.4349522741780663</output>
										</split>
									</split>
									<split pos="right">
										<feature>3</feature>
										<threshold>0.17585586</threshold>
										<split pos="left">
											<output>-2.276727323977493</output>
										</split>
										<split pos="right">
											<output>-0.21466956403949758</output>
										</split>
									</split>
								</split>
								<split pos="right">
									<output>-1.867445794706347</output>
								</split>
							</split>
							<split pos="right">
								<output>0.6703267592573301</output>
							</split>
						</split>
						<split pos="right">
							<output>1.0897229055723903</output>
						</split>
					</split>
					<split pos="right">
						<output>-1.3229214624074583</output>
					</split>
				</split>
				<split pos="right">
					<feature>7</feature>
					<threshold>0.931008518</threshold>
					<split pos="left">
						<output>0.963884491631122</output>
					</split>
					<split pos="right">
						<output>0.0064884096536968533</output>
					</split>
				</split>
			</split>
		</tree>
		<tree id="34" weight="0.10000000149011612">
			<split>
				<feature>7</feature>
				<threshold>0.803233564</threshold>
				<split pos="left">
					<feature>7</feature>
					<threshold>0.715601444</threshold>
					<split pos="left">
						<feature>7</feature>
						<threshold>0.706157088</threshold>
						<split pos="left">
							<feature>5</feature>
							<threshold>0.959452271</threshold>
							<split pos="left">
								<feature>5</feature>
								<threshold>0.861952066</threshold>
								<split pos="left">
									<feature>7</feature>
									<threshold>0.652505219</threshold>
									<split pos="left">
										<feature>7</feature>
										<threshold>0.614831865</threshold>
										<split pos="left">
											<feature>6</feature>
											<threshold>0.363782763</threshold>
											<split pos="left">
												<feature>8</feature>
												<threshold>0.677033901</threshold>
												<split pos="left">
													<output>-0.35198117366899234</output>
												</split>
												<split pos="right">
													<output>0.55226369392742425</output>
												</split>
											</split>
											<split pos="right">
												<output>0.30546705698012222</output>
											</split>
										</split>
										<split pos="right">
											<output>-1.8731355335794451</output>
										</split>
									</split>
									<split pos="right">
										<output>0.74107632603791018</output>
									</split>
								</split>
								<split pos="right">
									<output>-1.6494043650415069</output>
								</split>
							</split>
							<split pos="right">
								<output>0.64276175089434595</output>
							</split>
						</split>
						<split pos="right">
							<output>1.1435184180569022</output>
						</split>
					</split>
					<split pos="right">
						<output>-1.0251849297893276</output>
					</split>
				</split>
				<split pos="right">
					<output>0.2628692044258647</output>
				</split>
			</split>
		</tree>
		<tree id="35" weight="0.10000000149011612">
			<split>
				<feature>5</feature>
				<threshold>0.522677898</threshold>
				<split pos="left">
					<feature>5</feature>
					<threshold>0.521540165</threshold>
					<split pos="left">
						<feature>4</feature>
						<threshold>0.660404205</threshold>
						<split pos="left">
							<feature>4</feature>
							<threshold>0.559177041</threshold>
							<split pos="left">
								<feature>4</feature>
								<threshold>0.518400311</threshold>
								<split pos="left">
									<feature>4</feature>
									<threshold>0.51515013</threshold>
									<split pos="left">
										<feature>9</feature>
										<threshold>0</threshold>
										<split pos="left">
											<feature>4</feature>
											<threshold>0.389895856</threshold>
											<split pos="left">
												<output>-0.3133000821577776</output>
											</split>
											<split pos="right">
												<output>0.46577695942220781</output>
											</split>
										</split>
										<split pos="right">
											<output>0.51478726748838899</output>
										</split>
									</split>
									<split pos="right">
										<output>1.110772199945542</output>
									</split>
								</split>
								<split pos="right">
									<output>-1.6484380010649238</output>
								</split>
							</split>
							<split pos="right">
								<output>0.5340604050519886</output>
							</split>
						</split>
						<split pos="right">
							<output>-0.94433095698738212</output>
						</split>
					</split>
					<split pos="right">
						<output>-5.5031142251790586</output>
					</split>
				</split>
				<split pos="right">
					<feature>9</feature>
					<threshold>0</threshold>
					<split pos="left">
						<output>0.35930965985322222</output>
					</split>
					<split pos="right">
						<output>-0.1629705386297523</output>
					</split>
				</split>
			</split>
		</tree>
		<tree id="36" weight="0.10000000149011612">
			<split>
				<feature>7</feature>
				<threshold>0.803233564</threshold>
				<split pos="left">
					<feature>7</feature>
					<threshold>0.623630047</threshold>
					<split pos="left">
						<feature>7</feature>
						<threshold>0.602376521</threshold>
						<split pos="left">
							<feature>7</feature>
							<threshold>0.602319658</threshold>
							<split pos="left">
								<feature>7</feature>
								<threshold>0.462429017</threshold>
								<split pos="left">
									<feature>6</feature>
									<threshold>0.410731554</threshold>
									<split pos="left">
										<feature>6</feature>
										<threshold>0.366395026</threshold>
										<split pos="left">
											<feature>8</feature>
											<threshold>0.677033901</threshold>
											<split pos="left">
												<output>-0.29062234760789118</output>
											</split>
											<split pos="right">
												<output>0.46325014797273867</output>
											</split>
										</split>
										<split pos="right">
											<output>0.54240122802870827</output>
										</split>
									</split>
									<split pos="right">
										<output>-1.063500073074549</output>
									</split>
								</split>
								<split pos="right">
									<output>0.42552767249051893</output>
								</split>
							</split>
							<split pos="right">
								<output>-3.9626281173738671</output>
							</split>
						</split>
						<split pos="right">
							<output>0.9947882893339558</output>
						</split>
					</split>
					<split pos="right">
						<output>-0.5184408746120005</output>
					</split>
				</split>
				<split pos="right">
					<feature>7</feature>
					<threshold>0.931008518</threshold>
					<split pos="left">
						<output>0.81594055594426229</output>
					</split>
					<split pos="right">
						<output>-0.054392418917572426</output>
					</split>
				</split>
			</split>
		</tree>
		<tree id="37" weight="0.10000000149011612">
			<split>
				<feature>6</feature>
				<threshold>0.134208232</threshold>
				<split pos="left">
					<output>-0.47601368147230733</output>
				</split>
				<split pos="right">
					<feature>3</feature>
					<threshold>0.306255549</threshold>
					<split pos="left">
						<feature>5</feature>
						<threshold>0.0362916999</threshold>
						<split pos="left">
							<output>1.2207942314147964</output>
						</split>
						<split pos="right">
							<feature>3</feature>
							<threshold>0.304447591</threshold>
							<split pos="left">
								<feature>4</feature>
								<threshold>0.592784882</threshold>
								<split pos="left">
									<output>-0.13266056499013504</output>
								</split>
								<split pos="right">
									<feature>4</feature>
									<threshold>0.649765432</threshold>
									<split pos="left">
										<output>0.97333650638738922</output>
									</split>
									<split pos="right">
										<feature>3</feature>
										<threshold>0.20636636</threshold>
										<split pos="left">
											<feature>4</feature>
											<threshold>0.70445472</threshold>
											<split pos="left">
												<output>-1.8666454018533372</output>
											</split>
											<split pos="right">
												<output>0.078709291654742788</output>
											</split>
										</split>
										<split pos="right">
											<output>0.75138594282142868</output>
										</split>
									</split>
								</split>
							</split>
							<split pos="right">
								<output>1.1239547773209235</output>
							</split>
						</split>
					</split>
					<split pos="right">
						<feature>9</feature>
						<threshold>0</threshold>
						<split pos="left">
							<output>0.10329879640935474</output>
						</split>
						<split pos="right">
							<output>-0.5940569048582176</output>
						</split>
					</split>
				</split>
			</split>
		</tree>
		<tree id="38" weight="0.10000000149011612">
			<split>
				<feature>7</feature>
				<threshold>0.803233564</threshold>
				<split pos="left">
					<feature>7</feature>
					<threshold>0.623630047</threshold>
					<split pos="left">
						<feature>7</feature>
						<threshold>0.602376521</threshold>
						<split pos="left">
							<feature>7</feature>
							<threshold>0.462429017</threshold>
							<split pos="left">
								<feature>6</feature>
								<threshold>0.383587658</threshold>
								<split pos="left">
									<feature>6</feature>
									<threshold>0.382183731</threshold>
									<split pos="left">
										<feature>6</feature>
										<threshold>0.366395026</threshold>
										<split pos="left">
											<feature>8</feature>
											<threshold>0.677033901</threshold>
											<split pos="left">
												<output>-0.26613841714728337</output>
											</split>
											<split pos="right">
												<output>0.47771900418642949</output>
											</split>
										</split>
										<split pos="right">
											<output>0.76130383177611249</output>
										</split>
									</split>
									<split pos="right">
										<output>1.1524010160284819</output>
									</split>
								</split>
								<split pos="right">
									<output>-0.68156496770579911</output>
								</split>
							</split>
							<split pos="right">
								<output>0.35104795673622846</output>
							</split>
						</split>
						<split pos="right">
							<output>0.94481814004357989</output>
						</split>
					</split>
					<split pos="right">
						<output>-0.497538695916104</output>
					</split>
				</split>
				<split pos="right">
					<feature>7</feature>
					<threshold>0.931008518</threshold>
					<split pos="left">
						<output>0.77970372954713174</output>
					</split>
					<split pos="right">
						<output>-0.063989364462716705</output>
					</split>
				</split>
			</split>
		</tree>
		<tree id="39" weight="0.10000000149011612">
			<split>
				<feature>6</feature>
				<threshold>0.682215631</threshold>
				<split pos="left">
					<feature>7</feature>
					<threshold>0.623630047</threshold>
					<split pos="left">
						<feature>7</feature>
						<threshold>0.602376521</threshold>
						<split pos="left">
							<feature>7</feature>
							<threshold>0.602319658</threshold>
							<split pos="left">
								<feature>7</feature>
								<threshold>0.58757627</threshold>
								<split pos="left">
									<feature>8</feature>
									<threshold>0.817578316</threshold>
									<split pos="left">
										<feature>3</feature>
										<threshold>0.197323263</threshold>
										<split pos="left">
											<feature>6</feature>
											<threshold>0.498917073</threshold>
											<split pos="left">
												<output>0.10093695546805008</output>
											</split>
											<split pos="right">
												<output>1.1365140505401048</output>
											</split>
										</split>
										<split pos="right">
											<output>-0.54747828938057852</output>
										</split>
									</split>
									<split pos="right">
										<output>0.55127405870716095</output>
									</split>
								</split>
								<split pos="right">
									<output>0.88348963632363764</output>
								</split>
							</split>
							<split pos="right">
								<output>-3.9212360025197661</output>
							</split>
						</split>
						<split pos="right">
							<output>1.1019888094917207</output>
						</split>
					</split>
					<split pos="right">
						<output>-0.92267645005880561</output>
					</split>
				</split>
				<split pos="right">
					<feature>6</feature>
					<threshold>0.714916229</threshold>
					<split pos="left">
						<output>1.0568305649754368</output>
					</split>
					<split pos="right">
						<output>0.055599048474228349</output>
					</split>
				</split>
			</split>
		</tree>
		<tree id="40" weight="0.10000000149011612">
			<split>
				<feature>8</feature>
				<threshold>0.0898184851</threshold>
				<split pos="left">
					<feature>3</feature>
					<threshold>0.306503534</threshold>
					<split pos="left">
						<output>-0.023413253548069647</output>
					</split>
					<split pos="right">
						<output>-0.96110536607990471</output>
					</split>
				</split>
				<split pos="right">
					<feature>6</feature>
					<threshold>0</threshold>
					<split pos="left">
						<output>1.9888086268128684</output>
					</split>
					<split pos="right">
						<feature>3</feature>
						<threshold>0.127555892</threshold>
						<split pos="left">
							<output>0.33352692624651803</output>
						</split>
						<split pos="right">
							<feature>3</feature>
							<threshold>0.154898956</threshold>
							<split pos="left">
								<output>-1.1964228978828464</output>
							</split>
							<split pos="right">
								<feature>3</feature>
								<threshold>0.157117113</threshold>
								<split pos="left">
									<output>1.3387942485394881</output>
								</split>
								<split pos="right">
									<feature>5</feature>
									<threshold>0.993677855</threshold>
									<split pos="left">
										<feature>5</feature>
										<threshold>0.927011132</threshold>
										<split pos="left">
											<feature>5</feature>
											<threshold>0.917291641</threshold>
											<split pos="left">
												<output>-0.091088735286656342</output>
											</split>
											<split pos="right">
												<output>1.2987954483459123</output>
											</split>
										</split>
										<split pos="right">
											<output>-0.9601198939110317</output>
										</split>
									</split>
									<split pos="right">
										<output>0.55365543554046937</output>
									</split>
								</split>
							</split>
						</split>
					</split>
				</split>
			</split>
		</tree>
		<tree id="41" weight="0.10000000149011612">
			<split>
				<feature>7</feature>
				<threshold>0.803233564</threshold>
				<split pos="left">
					<feature>7</feature>
					<threshold>0.74719584</threshold>
					<split pos="left">
						<feature>7</feature>
						<threshold>0.744261742</threshold>
						<split pos="left">
							<feature>5</feature>
							<threshold>0.959452271</threshold>
							<split pos="left">
								<feature>5</feature>
								<threshold>0.861952066</threshold>
								<split pos="left">
									<feature>5</feature>
									<threshold>0.530718148</threshold>
									<split pos="left">
										<feature>4</feature>
										<threshold>0.62754339</threshold>
										<split pos="left">
											<feature>8</feature>
											<threshold>0.817578316</threshold>
											<split pos="left">
												<feature>7</feature>
												<threshold>0.33058688</threshold>
												<split pos="left">
													<output>-0.42126251856800889</output>
												</split>
												<split pos="right">
													<output>0.28180570531073423</output>
												</split>
											</split>
											<split pos="right">
												<output>0.56077631487839008</output>
											</split>
										</split>
										<split pos="right">
											<output>-0.95331725466480588</output>
										</split>
									</split>
									<split pos="right">
										<output>0.26131550584967911</output>
									</split>
								</split>
								<split pos="right">
									<output>-1.4779855375057225</output>
								</split>
							</split>
							<split pos="right">
								<output>0.52310320540924438</output>
							</split>
						</split>
						<split pos="right">
							<output>1.0718368646365579</output>
						</split>
					</split>
					<split pos="right">
						<output>-1.015749517651358</output>
					</split>
				</split>
				<split pos="right">
					<output>0.20352915847668798</output>
				</split>
			</split>
		</tree>
		<tree id="42" weight="0.10000000149011612">
			<split>
				<feature>7</feature>
				<threshold>0.803233564</threshold>
				<split pos="left">
					<feature>7</feature>
					<threshold>0.74719584</threshold>
					<split pos="left">
						<feature>7</feature>
						<threshold>0.744261742</threshold>
						<split pos="left">
							<feature>5</feature>
							<threshold>0.959452271</threshold>
							<split pos="left">
								<feature>5</feature>
								<threshold>0.861952066</threshold>
								<split pos="left">
									<feature>6</feature>
									<threshold>0.656006217</threshold>
									<split pos="left">
										<feature>6</feature>
										<threshold>0.651124775</threshold>
										<split pos="left">
											<feature>7</feature>
											<threshold>0.652505219</threshold>
											<split pos="left">
												<feature>7</feature>
												<threshold>0.602319658</threshold>
												<split pos="left">
													<output>-0.010175810848484609</output>
												</split>
												<split pos="right">
													<output>-1.4545081298834872</output>
												</split>
											</split>
											<split pos="right">
												<output>1.0813421212335432</output>
											</split>
										</split>
										<split pos="right">
											<output>1.0609784221702958</output>
										</split>
									</split>
									<split pos="right">
										<output>-0.55902334927213737</output>
									</split>
								</split>
								<split pos="right">
									<output>-1.4415160214646747</output>
								</split>
							</split>
							<split pos="right">
								<output>0.49176538753809612</output>
							</split>
						</split>
						<split pos="right">
							<output>1.0669194503350159</output>
						</split>
					</split>
					<split pos="right">
						<output>-0.95453827811239866</output>
					</split>
				</split>
				<split pos="right">
					<output>0.18647691704058938</output>
				</split>
			</split>
		</tree>
		<tree id="43" weight="0.10000000149011612">
			<split>
				<feature>4</feature>
				<threshold>0.863143563</threshold>
				<split pos="left">
					<feature>6</feature>
					<threshold>0.996853769</threshold>
					<split pos="left">
						<feature>6</feature>
						<threshold>0.954593241</threshold>
						<split pos="left">
							<feature>6</feature>
							<threshold>0.830313385</threshold>
							<split pos="left">
								<feature>6</feature>
								<threshold>0.695479572</threshold>
								<split pos="left">
									<feature>4</feature>
									<threshold>0.800995588</threshold>
									<split pos="left">
										<feature>5</feature>
										<threshold>0.508135021</threshold>
										<split pos="left">
											<feature>9</feature>
											<threshold>0</threshold>
											<split pos="left">
												<feature>6</feature>
												<threshold>0.644660115</threshold>
												<split pos="left">
													<output>-0.21620299602247212</output>
												</split>
												<split pos="right">
													<output>-1.5450288446973159</output>
												</split>
											</split>
											<split pos="right">
												<output>0.60403440203441949</output>
											</split>
										</split>
										<split pos="right">
											<output>0.37324116734389562</output>
										</split>
									</split>
									<split pos="right">
										<output>-1.3078658528265803</output>
									</split>
								</split>
								<split pos="right">
									<output>0.83350774653248461</output>
								</split>
							</split>
							<split pos="right">
								<output>-0.78871062045612594</output>
							</split>
						</split>
						<split pos="right">
							<output>1.334128848005804</output>
						</split>
					</split>
					<split pos="right">
						<output>-0.69823687063531958</output>
					</split>
				</split>
				<split pos="right">
					<output>0.2073999476273346</output>
				</split>
			</split>
		</tree>
		<tree id="44" weight="0.10000000149011612">
			<split>
				<feature>7</feature>
				<threshold>0.12485376</threshold>
				<split pos="left">
					<output>-0.46464731593287584</output>
				</split>
				<split pos="right">
					<feature>6</feature>
					<threshold>0.075318791</threshold>
					<split pos="left">
						<output>0.99123089768171446</output>
					</split>
					<split pos="right">
						<feature>5</feature>
						<threshold>0.0295938291</threshold>
						<split pos="left">
							<output>-1.3255081166721541</output>
						</split>
						<split pos="right">
							<feature>5</feature>
							<threshold>0.0362916999</threshold>
							<split pos="left">
								<output>1.0803151589501339</output>
							</split>
							<split pos="right">
								<feature>8</feature>
								<threshold>0.0298808068</threshold>
								<split pos="left">
									<output>-0.61829405427404682</output>
								</split>
								<split pos="right">
									<feature>8</feature>
									<threshold>0.0318919569</threshold>
									<split pos="left">
										<output>1.4986047761030745</output>
									</split>
									<split pos="right">
										<feature>4</feature>
										<threshold>0.150464341</threshold>
										<split pos="left">
											<output>0.581089086854228</output>
										</split>
										<split pos="right">
											<feature>5</feature>
											<threshold>0.0661067516</threshold>
											<split pos="left">
												<output>1.0359320101715686</output>
											</split>
											<split pos="right">
												<feature>4</feature>
												<threshold>0.389895856</threshold>
												<split pos="left">
													<output>-0.38250139961242219</output>
												</split>
												<split pos="right">
													<output>0.1161551205022671</output>
												</split>
											</split>
										</split>
									</split>
								</split>
							</split>
						</split>
					</split>
				</split>
			</split>
		</tree>
		<tree id="45" weight="0.10000000149011612">
			<split>
				<feature>8</feature>
				<threshold>0.0898184851</threshold>
				<split pos="left">
					<feature>3</feature>
					<threshold>0.306503534</threshold>
					<split pos="left">
						<feature>6</feature>
						<threshold>0.605827808</threshold>
						<split pos="left">
							<feature>4</feature>
							<threshold>0.103771903</threshold>
							<split pos="left">
								<output>0.3489319078247175</output>
							</split>
							<split pos="right">
								<output>-0.68644651501094389</output>
							</split>
						</split>
						<split pos="right">
							<output>0.86722043206096977</output>
						</split>
					</split>
					<split pos="right">
						<output>-0.91822277118525308</output>
					</split>
				</split>
				<split pos="right">
					<feature>6</feature>
					<threshold>0</threshold>
					<split pos="left">
						<output>1.7250197335506199</output>
					</split>
					<split pos="right">
						<feature>3</feature>
						<threshold>0.127555892</threshold>
						<split pos="left">
							<output>0.27561736603035492</output>
						</split>
						<split pos="right">
							<feature>3</feature>
							<threshold>0.154271856</threshold>
							<split pos="left">
								<output>-1.1290967756341996</output>
							</split>
							<split pos="right">
								<feature>3</feature>
								<threshold>0.161960229</threshold>
								<split pos="left">
									<output>1.2801065421324951</output>
								</split>
								<split pos="right">
									<feature>7</feature>
									<threshold>0.803233564</threshold>
									<split pos="left">
										<output>-0.20288824682373685</output>
									</split>
									<split pos="right">
										<output>0.28112519066508079</output>
									</split>
								</split>
							</split>
						</split>
					</split>
				</split>
			</split>
		</tree>
		<tree id="46" weight="0.10000000149011612">
			<split>
				<feature>7</feature>
				<threshold>0.803233564</threshold>
				<split pos="left">
					<feature>7</feature>
					<threshold>0.623630047</threshold>
					<split pos="left">
						<feature>7</feature>
						<threshold>0.586175799</threshold>
						<split pos="left">
							<feature>8</feature>
							<threshold>0.264465749</threshold>
							<split pos="left">
								<feature>8</feature>
								<threshold>0.261134982</threshold>
								<split pos="left">
									<feature>3</feature>
									<threshold>0.181261256</threshold>
									<split pos="left">
										<feature>3</feature>
										<threshold>0.169502005</threshold>
										<split pos="left">
											<output>-0.20649485313043114</output>
										</split>
										<split pos="right">
											<output>1.076653205767385</output>
										</split>
									</split>
									<split pos="right">
										<output>-0.74696324520069546</output>
									</split>
								</split>
								<split pos="right">
									<output>-3.7713157858881323</output>
								</split>
							</split>
							<split pos="right">
								<feature>8</feature>
								<threshold>0.26595965</threshold>
								<split pos="left">
									<output>1.2466032610853939</output>
								</split>
								<split pos="right">
									<output>0.21447738110311934</output>
								</split>
							</split>
						</split>
						<split pos="right">
							<output>0.74365698064798147</output>
						</split>
					</split>
					<split pos="right">
						<output>-0.44952576773083969</output>
					</split>
				</split>
				<split pos="right">
					<feature>7</feature>
					<threshold>0.931008518</threshold>
					<split pos="left">
						<output>0.74526601335134357</output>
					</split>
					<split pos="right">
						<output>-0.1029106134698496</output>
					</split>
				</split>
			</split>
		</tree>
		<tree id="47" weight="0.10000000149011612">
			<split>
				<feature>8</feature>
				<threshold>0.838177443</threshold>
				<split pos="left">
					<feature>8</feature>
					<threshold>0.817578316</threshold>
					<split pos="left">
						<feature>3</feature>
						<threshold>0.271860927</threshold>
						<split pos="left">
							<feature>6</feature>
							<threshold>0.166200936</threshold>
							<split pos="left">
								<output>-0.39146600020669992</output>
							</split>
							<split pos="right">
								<feature>6</feature>
								<threshold>0.178629115</threshold>
								<split pos="left">
									<feature>3</feature>
									<threshold>0.15256311</threshold>
									<split pos="left">
										<output>1.4975942384686622</output>
									</split>
									<split pos="right">
										<output>1.2856068488058141</output>
									</split>
								</split>
								<split pos="right">
									<feature>6</feature>
									<threshold>0.873855174</threshold>
									<split pos="left">
										<feature>7</feature>
										<threshold>0.922105908</threshold>
										<split pos="left">
											<output>0.11702202565189834</output>
										</split>
										<split pos="right">
											<output>-3.8786770136353841</output>
										</split>
									</split>
									<split pos="right">
										<output>0.6434395037441839</output>
									</split>
								</split>
							</split>
						</split>
						<split pos="right">
							<output>-0.27825175135200708</output>
						</split>
					</split>
					<split pos="right">
						<output>1.5937504842528725</output>
					</split>
				</split>
				<split pos="right">
					<feature>8</feature>
					<threshold>0.982553661</threshold>
					<split pos="left">
						<output>-1.1584967361374916</output>
					</split>
					<split pos="right">
						<output>0.08968782327407572</output>
					</split>
				</split>
			</split>
		</tree>
		<tree id="48" weight="0.10000000149011612">
			<split>
				<feature>7</feature>
				<threshold>0.12485376</threshold>
				<split pos="left">
					<output>-0.46514604050543706</output>
				</split>
				<split pos="right">
					<feature>7</feature>
					<threshold>0.182254553</threshold>
					<split pos="left">
						<feature>7</feature>
						<threshold>0.182113677</threshold>
						<split pos="left">
							<output>0.041646302105133225</output>
						</split>
						<split pos="right">
							<output>1.257361785795263</output>
						</split>
					</split>
					<split pos="right">
						<feature>4</feature>
						<threshold>0.381840497</threshold>
						<split pos="left">
							<output>-0.26132036690204374</output>
						</split>
						<split pos="right">
							<feature>4</feature>
							<threshold>0.387561679</threshold>
							<split pos="left">
								<output>1.0973717304741128</output>
							</split>
							<split pos="right">
								<feature>9</feature>
								<threshold>0</threshold>
								<split pos="left">
									<feature>5</feature>
									<threshold>0.265236259</threshold>
									<split pos="left">
										<output>-1.7238467486110012</output>
									</split>
									<split pos="right">
										<feature>4</feature>
										<threshold>0.39367798</threshold>
										<split pos="left">
											<output>2.383733720895223</output>
										</split>
										<split pos="right">
											<feature>3</feature>
											<threshold>0.194834828</threshold>
											<split pos="left">
												<output>0.013799817637828548</output>
											</split>
											<split pos="right">
												<output>0.4734732486691815</output>
											</split>
										</split>
									</split>
								</split>
								<split pos="right">
									<output>-0.1896363304551055</output>
								</split>
							</split>
						</split>
					</split>
				</split>
			</split>
		</tree>
		<tree id="49" weight="0.10000000149011612">
			<split>
				<feature>6</feature>
				<threshold>0.134208232</threshold>
				<split pos="left">
					<output>-0.37503635259881324</output>
				</split>
				<split pos="right">
					<feature>6</feature>
					<threshold>0.178629115</threshold>
					<split pos="left">
						<feature>6</feature>
						<threshold>0.177672714</threshold>
						<split pos="left">
							<output>0.29834500096947991</output>
						</split>
						<split pos="right">
							<output>1.2334132329575918</output>
						</split>
					</split>
					<split pos="right">
						<feature>3</feature>
						<threshold>0.127555892</threshold>
						<split pos="left">
							<feature>8</feature>
							<threshold>0.982553661</threshold>
							<split pos="left">
								<output>0.067146989302845142</output>
							</split>
							<split pos="right">
								<output>0.84113843779894948</output>
							</split>
						</split>
						<split pos="right">
							<feature>3</feature>
							<threshold>0.154271856</threshold>
							<split pos="left">
								<output>-1.1935040922432949</output>
							</split>
							<split pos="right">
								<feature>3</feature>
								<threshold>0.157117113</threshold>
								<split pos="left">
									<output>1.3708597224938643</output>
								</split>
								<split pos="right">
									<feature>7</feature>
									<threshold>0.351281166</threshold>
									<split pos="left">
										<output>-0.65649647174479397</output>
									</split>
									<split pos="right">
										<feature>9</feature>
										<threshold>0</threshold>
										<split pos="left">
											<output>0.23382792751460629</output>
										</split>
										<split pos="right">
											<output>-0.24858228457111481</output>
										</split>
									</split>
								</split>
							</split>
						</split>
					</split>
				</split>
			</split>
		</tree>
		<tree id="50" weight="0.10000000149011612">
			<split>
				<feature>8</feature>
				<threshold>0.838177443</threshold>
				<split pos="left">
					<feature>8</feature>
					<threshold>0.817578316</threshold>
					<split pos="left">
						<feature>6</feature>
						<threshold>0.166200936</threshold>
						<split pos="left">
							<output>-0.44777839596434377</output>
						</split>
						<split pos="right">
							<feature>6</feature>
							<threshold>0.178629115</threshold>
							<split pos="left">
								<output>1.1645629298775932</output>
							</split>
							<split pos="right">
								<feature>3</feature>
								<threshold>0.604861796</threshold>
								<split pos="left">
									<feature>8</feature>
									<threshold>0.736542583</threshold>
									<split pos="left">
										<feature>8</feature>
										<threshold>0.574677885</threshold>
										<split pos="left">
											<feature>8</feature>
											<threshold>0.490417629</threshold>
											<split pos="left">
												<output>0.095897368210194969</output>
											</split>
											<split pos="right">
												<output>0.80176346218765693</output>
											</split>
										</split>
										<split pos="right">
											<output>-0.45641160894517752</output>
										</split>
									</split>
									<split pos="right">
										<output>1.228474108922375</output>
									</split>
								</split>
								<split pos="right">
									<output>-0.72454610371915551</output>
								</split>
							</split>
						</split>
					</split>
					<split pos="right">
						<output>1.4923875879293156</output>
					</split>
				</split>
				<split pos="right">
					<feature>5</feature>
					<threshold>0.737485349</threshold>
					<split pos="left">
						<output>-0.63993113885457997</output>
					</split>
					<split pos="right">
						<output>0.21142875184824786</output>
					</split>
				</split>
			</split>
		</tree>
		<tree id="51" weight="0.10000000149011612">
			<split>
				<feature>8</feature>
				<threshold>0.838177443</threshold>
				<split pos="left">
					<feature>8</feature>
					<threshold>0.817578316</threshold>
					<split pos="left">
						<feature>8</feature>
						<threshold>0.736542583</threshold>
						<split pos="left">
							<feature>8</feature>
							<threshold>0.562030077</threshold>
							<split pos="left">
								<feature>8</feature>
								<threshold>0.490417629</threshold>
								<split pos="left">
									<feature>8</feature>
									<threshold>0.464161456</threshold>
									<split pos="left">
										<feature>8</feature>
										<threshold>0.444817573</threshold>
										<split pos="left">
											<feature>8</feature>
											<threshold>0.417410195</threshold>
											<split pos="left">
												<feature>8</feature>
												<threshold>0.408745527</threshold>
												<split pos="left">
													<output>-0.046935893439439179</output>
												</split>
												<split pos="right">
													<output>1.2724989024089994</output>
												</split>
											</split>
											<split pos="right">
												<output>-1.2893779239748162</output>
											</split>
										</split>
										<split pos="right">
											<output>0.77653262099943121</output>
										</split>
									</split>
									<split pos="right">
										<output>-1.3070208080259478</output>
									</split>
								</split>
								<split pos="right">
									<output>0.7053719252204772</output>
								</split>
							</split>
							<split pos="right">
								<output>-0.47287671140955317</output>
							</split>
						</split>
						<split pos="right">
							<output>0.7818175827838022</output>
						</split>
					</split>
					<split pos="right">
						<output>1.3731863460694238</output>
					</split>
				</split>
				<split pos="right">
					<output>-0.19109368070972257</output>
				</split>
			</split>
		</tree>
		<tree id="52" weight="0.10000000149011612">
			<split>
				<feature>8</feature>
				<threshold>0.369481504</threshold>
				<split pos="left">
					<feature>3</feature>
					<threshold>0.317256331</threshold>
					<split pos="left">
						<feature>3</feature>
						<threshold>0.169502005</threshold>
						<split pos="left">
							<feature>5</feature>
							<threshold>0.726305366</threshold>
							<split pos="left">
								<output>-0.0010373159656875425</output>
							</split>
							<split pos="right">
								<output>-0.8896943987130812</output>
							</split>
						</split>
						<split pos="right">
							<output>0.35581337221431902</output>
						</split>
					</split>
					<split pos="right">
						<output>-0.70379516389381869</output>
					</split>
				</split>
				<split pos="right">
					<feature>6</feature>
					<threshold>0</threshold>
					<split pos="left">
						<output>1.4930202465355089</output>
					</split>
					<split pos="right">
						<feature>8</feature>
						<threshold>0.380411863</threshold>
						<split pos="left">
							<output>1.1550111000244947</output>
						</split>
						<split pos="right">
							<feature>9</feature>
							<threshold>0</threshold>
							<split pos="left">
								<feature>3</feature>
								<threshold>0.334849745</threshold>
								<split pos="left">
									<feature>8</feature>
									<threshold>0.417410195</threshold>
									<split pos="left">
										<output>0.67056758481960876</output>
									</split>
									<split pos="right">
										<output>-0.24434581367476457</output>
									</split>
								</split>
								<split pos="right">
