<ranker>
	<info>
		<type>LAMBDAMART</type>
		<trees>1000</trees>
		<leaves>10</leaves>
		<shrinkage>0.10000000149011612</shrinkage>
		<leafsupport>1</leafsupport>
		<discretization>0</discretization>
		<estop>100</estop>
		<subsample>1</subsample>
		<max_features>1</max_features>
		<collapse_leaves_factor>0</collapse_leaves_factor>
	</info>
	<ensemble>
		<tree id="1" weight="0.10000000149011612">
			<split>
				<feature>7</feature>
				<threshold>0.451349914</threshold>
				<split pos="left">
					<feature>8</feature>
					<threshold>0.680496871</threshold>
					<split pos="left">
						<feature>6</feature>
						<threshold>0.390271366</threshold>
						<split pos="left">
							<feature>6</feature>
							<threshold>0.363782763</threshold>
							<split pos="left">
								<output>-1.3808276441180849</output>
							</split>
							<split pos="right">
								<output>1.1994992207487096</output>
							</split>
						</split>
						<split pos="right">
							<output>-1.9091618493774074</output>
						</split>
					</split>
					<split pos="right">
						<feature>8</feature>
						<threshold>0.708411217</threshold>
						<split pos="left">
							<output>2</output>
						</split>
						<split pos="right">
							<output>0.58978116183855811</output>
						</split>
					</split>
				</split>
				<split pos="right">
					<feature>7</feature>
					<threshold>0.454947025</threshold>
					<split pos="left">
						<output>1.8942547380419037</output>
					</split>
					<split pos="right">
						<feature>4</feature>
						<threshold>0.366436601</threshold>
						<split pos="left">
							<output>0.33961292895904299</output>
						</split>
						<split pos="right">
							<feature>4</feature>
							<threshold>0.66924417</threshold>
							<split pos="left">
								<feature>3</feature>
								<threshold>0.299283653</threshold>
								<split pos="left">
									<output>1.7155947828353031</output>
								</split>
								<split pos="right">
									<output>0.94447962836996713</output>
								</split>
							</split>
							<split pos="right">
								<output>0.84053366421903342</output>
							</split>
						</split>
					</split>
				</split>
			</split>
		</tree>
		<tree id="2" weight="0.10000000149011612">
			<split>
				<feature>6</feature>
				<threshold>0.363782763</threshold>
				<split pos="left">
					<output>-1.3034792438539367</output>
				</split>
				<split pos="right">
					<feature>6</feature>
					<threshold>0.369478405</threshold>
					<split pos="left">
						<output>1.6028616605577817</output>
					</split>
					<split pos="right">
						<feature>5</feature>
						<threshold>0.306344539</threshold>
						<split pos="left">
							<output>-0.56554392994032321</output>
						</split>
						<split pos="right">
							<feature>4</feature>
							<threshold>0.66924417</threshold>
							<split pos="left">
								<feature>4</feature>
								<threshold>0.668306172</threshold>
								<split pos="left">
									<feature>3</feature>
									<threshold>0.367447436</threshold>
									<split pos="left">
										<feature>3</feature>
										<threshold>0.364613175</threshold>
										<split pos="left">
											<feature>5</feature>
											<threshold>0.337999821</threshold>
											<split pos="left">
												<output>1.7278105161296806</output>
											</split>
											<split pos="right">
												<feature>7</feature>
												<threshold>0.48182857</threshold>
												<split pos="left">
													<output>-1.1271695631448211</output>
												</split>
												<split pos="right">
													<output>1.5111375534471023</output>
												</split>
											</split>
										</split>
										<split pos="right">
											<output>1.7769978963566826</output>
										</split>
									</split>
									<split pos="right">
										<output>0.95524182975448468</output>
									</split>
								</split>
								<split pos="right">
									<output>1.7478039402674452</output>
								</split>
							</split>
							<split pos="right">
								<output>0.61776158194042541</output>
							</split>
						</split>
					</split>
				</split>
			</split>
		</tree>
		<tree id="3" weight="0.10000000149011612">
			<split>
				<feature>7</feature>
				<threshold>0.445405781</threshold>
				<split pos="left">
					<feature>8</feature>
					<threshold>0.301496565</threshold>
					<split pos="left">
						<output>-1.3453392574981538</output>
					</split>
					<split pos="right">
						<feature>8</feature>
						<threshold>0.30426532</threshold>
						<split pos="left">
							<output>1.6038094209728619</output>
						</split>
						<split pos="right">
							<output>-0.38405737698096809</output>
						</split>
					</split>
				</split>
				<split pos="right">
					<feature>7</feature>
					<threshold>0.454947025</threshold>
					<split pos="left">
						<output>1.2835862414518204</output>
					</split>
					<split pos="right">
						<feature>3</feature>
						<threshold>0.306255549</threshold>
						<split pos="left">
							<feature>4</feature>
							<threshold>0.66924417</threshold>
							<split pos="left">
								<feature>4</feature>
								<threshold>0.592184842</threshold>
								<split pos="left">
									<feature>3</feature>
									<threshold>0.241516441</threshold>
									<split pos="left">
										<output>0.50113550756295222</output>
									</split>
									<split pos="right">
										<output>1.4857070257029084</output>
									</split>
								</split>
								<split pos="right">
									<output>1.605813271601259</output>
								</split>
							</split>
							<split pos="right">
								<output>0.66184924940050704</output>
							</split>
						</split>
						<split pos="right">
							<feature>6</feature>
							<threshold>0.672545731</threshold>
							<split pos="left">
								<output>-0.9871859020738637</output>
							</split>
							<split pos="right">
								<output>0.95182692789388035</output>
							</split>
						</split>
					</split>
				</split>
			</split>
		</tree>
		<tree id="4" weight="0.10000000149011612">
			<split>
				<feature>7</feature>
				<threshold>0.445405781</threshold>
				<split pos="left">
					<feature>8</feature>
					<threshold>0.301496565</threshold>
					<split pos="left">
						<output>-1.2398012854820324</output>
					</split>
					<split pos="right">
						<output>0.048001097571804333</output>
					</split>
				</split>
				<split pos="right">
					<feature>5</feature>
					<threshold>0.306344539</threshold>
					<split pos="left">
						<output>-0.044067508596517584</output>
					</split>
					<split pos="right">
						<feature>5</feature>
						<threshold>0.31025371</threshold>
						<split pos="left">
							<output>1.4999480592777383</output>
						</split>
						<split pos="right">
							<feature>4</feature>
							<threshold>0.66924417</threshold>
							<split pos="left">
								<feature>7</feature>
								<threshold>0.454947025</threshold>
								<split pos="left">
									<output>1.4942255495371899</output>
								</split>
								<split pos="right">
									<feature>4</feature>
									<threshold>0.668306172</threshold>
									<split pos="left">
										<feature>3</feature>
										<threshold>0.299283653</threshold>
										<split pos="left">
											<feature>4</feature>
											<threshold>0.587859452</threshold>
											<split pos="left">
												<output>0.821007923679269</output>
											</split>
											<split pos="right">
												<output>1.4848863697555093</output>
											</split>
										</split>
										<split pos="right">
											<output>0.46887635596550953</output>
										</split>
									</split>
									<split pos="right">
										<output>1.4332137596941565</output>
									</split>
								</split>
							</split>
							<split pos="right">
								<output>0.69972933810005378</output>
							</split>
						</split>
					</split>
				</split>
			</split>
		</tree>
		<tree id="5" weight="0.10000000149011612">
			<split>
				<feature>7</feature>
				<threshold>0.445405781</threshold>
				<split pos="left">
					<feature>5</feature>
					<threshold>0.530718148</threshold>
					<split pos="left">
						<output>-1.0982000812118669</output>
					</split>
					<split pos="right">
						<output>0.33373675194628372</output>
					</split>
				</split>
				<split pos="right">
					<feature>3</feature>
					<threshold>0.528418005</threshold>
					<split pos="left">
						<feature>7</feature>
						<threshold>0.454947025</threshold>
						<split pos="left">
							<output>1.1396459151812488</output>
						</split>
						<split pos="right">
							<feature>7</feature>
							<threshold>0.499950975</threshold>
							<split pos="left">
								<output>-0.64857216587649547</output>
							</split>
							<split pos="right">
								<feature>8</feature>
								<threshold>0.458299786</threshold>
								<split pos="left">
									<feature>8</feature>
									<threshold>0.453581065</threshold>
									<split pos="left">
										<feature>4</feature>
										<threshold>0.66924417</threshold>
										<split pos="left">
											<feature>4</feature>
											<threshold>0.393333346</threshold>
											<split pos="left">
												<output>0.54180663775327886</output>
											</split>
											<split pos="right">
												<output>1.2912532377427004</output>
											</split>
										</split>
										<split pos="right">
											<output>0.6219094626245526</output>
										</split>
									</split>
									<split pos="right">
										<output>1.4044870979563799</output>
									</split>
								</split>
								<split pos="right">
									<output>0.71920665226007585</output>
								</split>
							</split>
						</split>
					</split>
					<split pos="right">
						<output>0.30597898911518434</output>
					</split>
				</split>
			</split>
		</tree>
		<tree id="6" weight="0.10000000149011612">
			<split>
				<feature>7</feature>
				<threshold>0.500416815</threshold>
				<split pos="left">
					<feature>8</feature>
					<threshold>0.301496565</threshold>
					<split pos="left">
						<output>-1.0282470851461523</output>
					</split>
					<split pos="right">
						<feature>8</feature>
						<threshold>0.30426532</threshold>
						<split pos="left">
							<output>1.4080216031967276</output>
						</split>
						<split pos="right">
							<output>-0.10989362798933709</output>
						</split>
					</split>
				</split>
				<split pos="right">
					<feature>3</feature>
					<threshold>0.306255549</threshold>
					<split pos="left">
						<feature>4</feature>
						<threshold>0.66924417</threshold>
						<split pos="left">
							<feature>4</feature>
							<threshold>0.592184842</threshold>
							<split pos="left">
								<feature>3</feature>
								<threshold>0.241516441</threshold>
								<split pos="left">
									<output>0.46521433552648706</output>
								</split>
								<split pos="right">
									<output>1.2389109278315862</output>
								</split>
							</split>
							<split pos="right">
								<output>1.3360282313996297</output>
							</split>
						</split>
						<split pos="right">
							<output>0.61509763461607203</output>
						</split>
					</split>
					<split pos="right">
						<feature>6</feature>
						<threshold>0.672545731</threshold>
						<split pos="left">
							<output>-1.3888416317722461</output>
						</split>
						<split pos="right">
							<feature>9</feature>
							<threshold>0</threshold>
							<split pos="left">
								<output>1.087680228733839</output>
							</split>
							<split pos="right">
								<output>-0.52864422127703392</output>
							</split>
						</split>
					</split>
				</split>
			</split>
		</tree>
		<tree id="7" weight="0.10000000149011612">
			<split>
				<feature>7</feature>
				<threshold>0.500416815</threshold>
				<split pos="left">
					<feature>8</feature>
					<threshold>0.301496565</threshold>
					<split pos="left">
						<output>-0.980473112218047</output>
					</split>
					<split pos="right">
						<feature>8</feature>
						<threshold>0.30426532</threshold>
						<split pos="left">
							<output>1.3341842392493166</output>
						</split>
						<split pos="right">
							<output>-0.093519728569014665</output>
						</split>
					</split>
				</split>
				<split pos="right">
					<feature>3</feature>
					<threshold>0.306255549</threshold>
					<split pos="left">
						<feature>3</feature>
						<threshold>0.206420437</threshold>
						<split pos="left">
							<feature>4</feature>
							<threshold>0.668112814</threshold>
							<split pos="left">
								<output>0.97933272826075546</output>
							</split>
							<split pos="right">
								<output>0.10661063158420933</output>
							</split>
						</split>
						<split pos="right">
							<feature>3</feature>
							<threshold>0.243843839</threshold>
							<split pos="left">
								<output>1.2609559568186162</output>
							</split>
							<split pos="right">
								<output>0.83790528502465844</output>
							</split>
						</split>
					</split>
					<split pos="right">
						<feature>6</feature>
						<threshold>0.670862734</threshold>
						<split pos="left">
							<output>-1.3089942118133069</output>
						</split>
						<split pos="right">
							<feature>9</feature>
							<threshold>0</threshold>
							<split pos="left">
								<output>0.99688471662207045</output>
							</split>
							<split pos="right">
								<output>-0.51300987034305068</output>
							</split>
						</split>
					</split>
				</split>
			</split>
		</tree>
		<tree id="8" weight="0.10000000149011612">
			<split>
				<feature>7</feature>
				<threshold>0.500416815</threshold>
				<split pos="left">
					<feature>8</feature>
					<threshold>0.680496871</threshold>
					<split pos="left">
						<feature>5</feature>
						<threshold>0.530718148</threshold>
						<split pos="left">
							<feature>8</feature>
							<threshold>0.315021992</threshold>
							<split pos="left">
								<output>-1.0210219980088802</output>
							</split>
							<split pos="right">
								<output>-0.46475257259746705</output>
							</split>
						</split>
						<split pos="right">
							<output>0.20326004613617171</output>
						</split>
					</split>
					<split pos="right">
						<output>0.63719691949265234</output>
					</split>
				</split>
				<split pos="right">
					<feature>3</feature>
					<threshold>0.306255549</threshold>
					<split pos="left">
						<feature>3</feature>
						<threshold>0.206420437</threshold>
						<split pos="left">
							<output>0.5012142518195426</output>
						</split>
						<split pos="right">
							<feature>3</feature>
							<threshold>0.243843839</threshold>
							<split pos="left">
								<output>1.1804949081498819</output>
							</split>
							<split pos="right">
								<output>0.89305034948717987</output>
							</split>
						</split>
					</split>
					<split pos="right">
						<feature>6</feature>
						<threshold>0.670862734</threshold>
						<split pos="left">
							<output>-1.2198553475236935</output>
						</split>
						<split pos="right">
							<feature>9</feature>
							<threshold>0</threshold>
							<split pos="left">
								<output>0.91614122847482915</output>
							</split>
							<split pos="right">
								<output>-0.46630495131413358</output>
							</split>
						</split>
					</split>
				</split>
			</split>
		</tree>
		<tree id="9" weight="0.10000000149011612">
			<split>
				<feature>7</feature>
				<threshold>0.500416815</threshold>
				<split pos="left">
					<feature>8</feature>
					<threshold>0.680496871</threshold>
					<split pos="left">
						<feature>5</feature>
						<threshold>0.530718148</threshold>
						<split pos="left">
							<feature>8</feature>
							<threshold>0.315021992</threshold>
							<split pos="left">
								<output>-0.97011646578649668</output>
							</split>
							<split pos="right">
								<output>-0.42088720575155142</output>
							</split>
						</split>
						<split pos="right">
							<output>0.18025075169490176</output>
						</split>
					</split>
					<split pos="right">
						<output>0.59520674782427019</output>
					</split>
				</split>
				<split pos="right">
					<feature>3</feature>
					<threshold>0.306255549</threshold>
					<split pos="left">
						<feature>3</feature>
						<threshold>0.206420437</threshold>
						<split pos="left">
							<output>0.45461243325279943</output>
						</split>
						<split pos="right">
							<feature>8</feature>
							<threshold>0.227285162</threshold>
							<split pos="left">
								<output>1.190217709847214</output>
							</split>
							<split pos="right">
								<output>0.93150478186103902</output>
							</split>
						</split>
					</split>
					<split pos="right">
						<feature>6</feature>
						<threshold>0.672545731</threshold>
						<split pos="left">
							<output>-1.0964331620466796</output>
						</split>
						<split pos="right">
							<feature>9</feature>
							<threshold>0</threshold>
							<split pos="left">
								<output>0.83840755524363597</output>
							</split>
							<split pos="right">
								<output>-0.45455610733471719</output>
							</split>
						</split>
					</split>
				</split>
			</split>
		</tree>
		<tree id="10" weight="0.10000000149011612">
			<split>
				<feature>7</feature>
				<threshold>0.500416815</threshold>
				<split pos="left">
					<feature>8</feature>
					<threshold>0.680496871</threshold>
					<split pos="left">
						<feature>5</feature>
						<threshold>0.530718148</threshold>
						<split pos="left">
							<feature>7</feature>
							<threshold>0.182113677</threshold>
							<split pos="left">
								<output>-1.0723144077379014</output>
							</split>
							<split pos="right">
								<feature>7</feature>
								<threshold>0.182254553</threshold>
								<split pos="left">
									<output>3.8605447957809784</output>
								</split>
								<split pos="right">
									<output>-0.65098166832729842</output>
								</split>
							</split>
						</split>
						<split pos="right">
							<output>0.1693373851529737</output>
						</split>
					</split>
					<split pos="right">
						<output>0.54356228866190159</output>
					</split>
				</split>
				<split pos="right">
					<feature>3</feature>
					<threshold>0.306255549</threshold>
					<split pos="left">
						<feature>3</feature>
						<threshold>0.206420437</threshold>
						<split pos="left">
							<output>0.3645621812566322</output>
						</split>
						<split pos="right">
							<feature>8</feature>
							<threshold>0.227285162</threshold>
							<split pos="left">
								<output>1.1592970937150149</output>
							</split>
							<split pos="right">
								<output>0.87031006790466914</output>
							</split>
						</split>
					</split>
					<split pos="right">
						<feature>5</feature>
						<threshold>0.377581298</threshold>
						<split pos="left">
							<output>-0.8013725354641541</output>
						</split>
						<split pos="right">
							<output>0.57424874061108067</output>
						</split>
					</split>
				</split>
			</split>
		</tree>
		<tree id="11" weight="0.10000000149011612">
			<split>
				<feature>7</feature>
				<threshold>0.500416815</threshold>
				<split pos="left">
					<feature>8</feature>
					<threshold>0.301496565</threshold>
					<split pos="left">
						<feature>6</feature>
						<threshold>0.385011822</threshold>
						<split pos="left">
							<feature>6</feature>
							<threshold>0.382183731</threshold>
							<split pos="left">
								<output>-0.83542152626176491</output>
							</split>
							<split pos="right">
								<output>1.678945608159552</output>
							</split>
						</split>
						<split pos="right">
							<output>-1.2632798347157739</output>
						</split>
					</split>
					<split pos="right">
						<feature>8</feature>
						<threshold>0.30426532</threshold>
						<split pos="left">
							<output>1.2410654555007112</output>
						</split>
						<split pos="right">
							<output>-0.0385441265660545</output>
						</split>
					</split>
				</split>
				<split pos="right">
					<feature>3</feature>
					<threshold>0.306255549</threshold>
					<split pos="left">
						<feature>3</feature>
						<threshold>0.206420437</threshold>
						<split pos="left">
							<output>0.34164659483228371</output>
						</split>
						<split pos="right">
							<feature>8</feature>
							<threshold>0.228841335</threshold>
							<split pos="left">
								<output>1.1123522084358568</output>
							</split>
							<split pos="right">
								<output>0.89595999440012741</output>
							</split>
						</split>
					</split>
					<split pos="right">
						<feature>5</feature>
						<threshold>0.377581298</threshold>
						<split pos="left">
							<output>-1.0115348906529413</output>
						</split>
						<split pos="right">
							<output>0.56785487715781735</output>
						</split>
					</split>
				</split>
			</split>
		</tree>
		<tree id="12" weight="0.10000000149011612">
			<split>
				<feature>7</feature>
				<threshold>0.500416815</threshold>
				<split pos="left">
					<feature>8</feature>
					<threshold>0.680496871</threshold>
					<split pos="left">
						<feature>7</feature>
						<threshold>0.229214221</threshold>
						<split pos="left">
							<output>-0.94883039077720255</output>
						</split>
						<split pos="right">
							<output>-0.11525813519777381</output>
						</split>
					</split>
					<split pos="right">
						<output>0.50530587729114773</output>
					</split>
				</split>
				<split pos="right">
					<feature>4</feature>
					<threshold>0.366436601</threshold>
					<split pos="left">
						<output>-0.18589708990826784</output>
					</split>
					<split pos="right">
						<feature>7</feature>
						<threshold>0.51039499</threshold>
						<split pos="left">
							<output>1.2479324168704862</output>
						</split>
						<split pos="right">
							<feature>9</feature>
							<threshold>0</threshold>
							<split pos="left">
								<feature>5</feature>
								<threshold>0.31025371</threshold>
								<split pos="left">
									<output>1.0718786299752747</output>
								</split>
								<split pos="right">
									<feature>3</feature>
									<threshold>0.199876726</threshold>
									<split pos="left">
										<output>0.2719419502223332</output>
									</split>
									<split pos="right">
										<feature>3</feature>
										<threshold>0.243767917</threshold>
										<split pos="left">
											<output>1.2023352650846419</output>
										</split>
										<split pos="right">
											<output>0.5816572572663864</output>
										</split>
									</split>
								</split>
							</split>
							<split pos="right">
								<output>0.099348085038499484</output>
							</split>
						</split>
					</split>
				</split>
			</split>
		</tree>
		<tree id="13" weight="0.10000000149011612">
			<split>
				<feature>5</feature>
				<threshold>0.309167862</threshold>
				<split pos="left">
					<feature>7</feature>
					<threshold>0.124491267</threshold>
					<split pos="left">
						<output>-1.0126224129064507</output>
					</split>
					<split pos="right">
						<output>-0.28916988347451761</output>
					</split>
				</split>
				<split pos="right">
					<feature>5</feature>
					<threshold>0.31025371</threshold>
					<split pos="left">
						<output>1.1563166221558066</output>
					</split>
					<split pos="right">
						<feature>7</feature>
						<threshold>0.226645932</threshold>
						<split pos="left">
							<output>-0.94099532401178598</output>
						</split>
						<split pos="right">
							<feature>5</feature>
							<threshold>0.313925833</threshold>
							<split pos="left">
								<output>-4.7243140810616335</output>
							</split>
							<split pos="right">
								<feature>3</feature>
								<threshold>0.17585586</threshold>
								<split pos="left">
									<output>0.23221611939194634</output>
								</split>
								<split pos="right">
									<feature>3</feature>
									<threshold>0.243843839</threshold>
									<split pos="left">
										<output>0.81552243986255202</output>
									</split>
									<split pos="right">
										<feature>3</feature>
										<threshold>0.250570565</threshold>
										<split pos="left">
											<output>-1.65679266990554</output>
										</split>
										<split pos="right">
											<feature>3</feature>
											<threshold>0.299283653</threshold>
											<split pos="left">
												<output>0.9753208098102657</output>
											</split>
											<split pos="right">
												<output>0.40073147726816866</output>
											</split>
										</split>
									</split>
								</split>
							</split>
						</split>
					</split>
				</split>
			</split>
		</tree>
		<tree id="14" weight="0.10000000149011612">
			<split>
				<feature>5</feature>
				<threshold>0.309167862</threshold>
				<split pos="left">
					<feature>8</feature>
					<threshold>0.403431088</threshold>
					<split pos="left">
						<output>-0.78938491142734113</output>
					</split>
					<split pos="right">
						<output>0.020397117496076419</output>
					</split>
				</split>
				<split pos="right">
					<feature>5</feature>
					<threshold>0.31025371</threshold>
					<split pos="left">
						<output>1.1431334626838676</output>
					</split>
					<split pos="right">
						<feature>3</feature>
						<threshold>0.17585586</threshold>
						<split pos="left">
							<feature>4</feature>
							<threshold>0.649765432</threshold>
							<split pos="left">
								<output>0.60559370412306657</output>
							</split>
							<split pos="right">
								<output>-0.39865562737189475</output>
							</split>
						</split>
						<split pos="right">
							<feature>3</feature>
							<threshold>0.243843839</threshold>
							<split pos="left">
								<output>0.79700617447358835</output>
							</split>
							<split pos="right">
								<feature>3</feature>
								<threshold>0.250570565</threshold>
								<split pos="left">
									<output>-1.8648861082526038</output>
								</split>
								<split pos="right">
									<feature>3</feature>
									<threshold>0.299283653</threshold>
									<split pos="left">
										<output>0.86597638469917493</output>
									</split>
									<split pos="right">
										<feature>9</feature>
										<threshold>0</threshold>
										<split pos="left">
											<output>0.56036521385896143</output>
										</split>
										<split pos="right">
											<output>-0.46861815127721812</output>
										</split>
									</split>
								</split>
							</split>
						</split>
					</split>
				</split>
			</split>
		</tree>
		<tree id="15" weight="0.10000000149011612">
			<split>
				<feature>5</feature>
				<threshold>0.309167862</threshold>
				<split pos="left">
					<feature>8</feature>
					<threshold>0.397867203</threshold>
					<split pos="left">
						<output>-0.7445833935636188</output>
					</split>
					<split pos="right">
						<output>0.016742419767051309</output>
					</split>
				</split>
				<split pos="right">
					<feature>5</feature>
					<threshold>0.31025371</threshold>
					<split pos="left">
						<output>1.1257451021563749</output>
					</split>
					<split pos="right">
						<feature>3</feature>
						<threshold>0.17585586</threshold>
						<split pos="left">
							<output>0.04540128369677305</output>
						</split>
						<split pos="right">
							<feature>3</feature>
							<threshold>0.197323263</threshold>
							<split pos="left">
								<output>1.0709230833698071</output>
							</split>
							<split pos="right">
								<feature>7</feature>
								<threshold>0.418735385</threshold>
								<split pos="left">
									<output>-0.49367911382900903</output>
								</split>
								<split pos="right">
									<feature>3</feature>
									<threshold>0.236996993</threshold>
									<split pos="left">
										<output>0.88181303908620157</output>
									</split>
									<split pos="right">
										<feature>3</feature>
										<threshold>0.239851743</threshold>
										<split pos="left">
											<output>-1.5320159522949472</output>
										</split>
										<split pos="right">
											<feature>3</feature>
											<threshold>0.243843839</threshold>
											<split pos="left">
												<output>1.0948860032807475</output>
											</split>
											<split pos="right">
												<output>0.41081174552892208</output>
											</split>
										</split>
									</split>
								</split>
							</split>
						</split>
					</split>
				</split>
			</split>
		</tree>
		<tree id="16" weight="0.10000000149011612">
			<split>
				<feature>5</feature>
				<threshold>0.306344539</threshold>
				<split pos="left">
					<feature>6</feature>
					<threshold>0.125356331</threshold>
					<split pos="left">
						<output>-0.9290866612260219</output>
					</split>
					<split pos="right">
						<feature>3</feature>
						<threshold>0.171128616</threshold>
						<split pos="left">
							<output>0.63448929428465195</output>
						</split>
						<split pos="right">
							<output>-0.62799052700864122</output>
						</split>
					</split>
				</split>
				<split pos="right">
					<feature>5</feature>
					<threshold>0.31025371</threshold>
					<split pos="left">
						<output>1.0634149700165305</output>
					</split>
					<split pos="right">
						<feature>3</feature>
						<threshold>0.17585586</threshold>
						<split pos="left">
							<feature>4</feature>
							<threshold>0.668112814</threshold>
							<split pos="left">
								<output>0.51345686934654533</output>
							</split>
							<split pos="right">
								<output>-0.45498213922949454</output>
							</split>
						</split>
						<split pos="right">
							<feature>3</feature>
							<threshold>0.243843839</threshold>
							<split pos="left">
								<output>0.76780281878838219</output>
							</split>
							<split pos="right">
								<feature>3</feature>
								<threshold>0.250570565</threshold>
								<split pos="left">
									<output>-1.1560796277601668</output>
								</split>
								<split pos="right">
									<feature>3</feature>
									<threshold>0.299283653</threshold>
									<split pos="left">
										<output>0.78860991914211409</output>
									</split>
									<split pos="right">
										<output>0.24865589488346967</output>
									</split>
								</split>
							</split>
						</split>
					</split>
				</split>
			</split>
		</tree>
		<tree id="17" weight="0.10000000149011612">
			<split>
				<feature>7</feature>
				<threshold>0.451349914</threshold>
				<split pos="left">
					<feature>5</feature>
					<threshold>0.530718148</threshold>
					<split pos="left">
						<feature>8</feature>
						<threshold>0.979849517</threshold>
						<split pos="left">
							<feature>9</feature>
							<threshold>0</threshold>
							<split pos="left">
								<output>-0.76629725473955412</output>
							</split>
							<split pos="right">
								<output>0.020300843875570497</output>
							</split>
						</split>
						<split pos="right">
							<output>0.68152929553888009</output>
						</split>
					</split>
					<split pos="right">
						<output>0.33886579739714484</output>
					</split>
				</split>
				<split pos="right">
					<feature>7</feature>
					<threshold>0.464827359</threshold>
					<split pos="left">
						<output>0.91620870936658649</output>
					</split>
					<split pos="right">
						<feature>7</feature>
						<threshold>0.500416815</threshold>
						<split pos="left">
							<output>-0.93617592357633661</output>
						</split>
						<split pos="right">
							<feature>7</feature>
							<threshold>0.60681355</threshold>
							<split pos="left">
								<output>0.63249850660161999</output>
							</split>
							<split pos="right">
								<feature>3</feature>
								<threshold>0.206420437</threshold>
								<split pos="left">
									<output>-0.21293999912789063</output>
								</split>
								<split pos="right">
									<feature>3</feature>
									<threshold>0.249641657</threshold>
									<split pos="left">
										<output>0.95738691817093957</output>
									</split>
									<split pos="right">
										<output>0.32493448690110271</output>
									</split>
								</split>
							</split>
						</split>
					</split>
				</split>
			</split>
		</tree>
		<tree id="18" weight="0.10000000149011612">
			<split>
				<feature>7</feature>
				<threshold>0.451349914</threshold>
				<split pos="left">
					<feature>5</feature>
					<threshold>0.447262079</threshold>
					<split pos="left">
						<feature>8</feature>
						<threshold>0.945675373</threshold>
						<split pos="left">
							<feature>8</feature>
							<threshold>0.835768402</threshold>
							<split pos="left">
								<output>-0.65615935937768677</output>
							</split>
							<split pos="right">
								<output>-1.2567778173818096</output>
							</split>
						</split>
						<split pos="right">
							<output>0.56646730167502468</output>
						</split>
					</split>
					<split pos="right">
						<output>0.24021620571410437</output>
					</split>
				</split>
				<split pos="right">
					<feature>7</feature>
					<threshold>0.464827359</threshold>
					<split pos="left">
						<output>0.85859895832172961</output>
					</split>
					<split pos="right">
						<feature>5</feature>
						<threshold>0.406814635</threshold>
						<split pos="left">
							<output>-0.080911781289683335</output>
						</split>
						<split pos="right">
							<feature>5</feature>
							<threshold>0.417744547</threshold>
							<split pos="left">
								<output>1.1231787441983208</output>
							</split>
							<split pos="right">
								<feature>3</feature>
								<threshold>0.199876726</threshold>
								<split pos="left">
									<output>-0.075781624396963204</output>
								</split>
								<split pos="right">
									<feature>3</feature>
									<threshold>0.236996993</threshold>
									<split pos="left">
										<output>1.1790551094526664</output>
									</split>
									<split pos="right">
										<output>0.3343114706058799</output>
									</split>
								</split>
							</split>
						</split>
					</split>
				</split>
			</split>
		</tree>
		<tree id="19" weight="0.10000000149011612">
			<split>
				<feature>5</feature>
				<threshold>0.306344539</threshold>
				<split pos="left">
					<feature>9</feature>
					<threshold>0</threshold>
					<split pos="left">
						<output>-0.57513051600100407</output>
					</split>
					<split pos="right">
						<output>0.3433080648797901</output>
					</split>
				</split>
				<split pos="right">
					<feature>5</feature>
					<threshold>0.31025371</threshold>
					<split pos="left">
						<output>1.0421088423464204</output>
					</split>
					<split pos="right">
						<feature>7</feature>
						<threshold>0.226645932</threshold>
						<split pos="left">
							<output>-0.8316089353051791</output>
						</split>
						<split pos="right">
							<feature>7</feature>
							<threshold>0.235863701</threshold>
							<split pos="left">
								<output>3.804985659943692</output>
							</split>
							<split pos="right">
								<feature>3</feature>
								<threshold>0.17585586</threshold>
								<split pos="left">
									<output>0.019028813276507853</output>
								</split>
								<split pos="right">
									<feature>3</feature>
									<threshold>0.197323263</threshold>
									<split pos="left">
										<output>1.0242676074431187</output>
									</split>
									<split pos="right">
										<feature>3</feature>
										<threshold>0.206420437</threshold>
										<split pos="left">
											<output>-2.1536993292356854</output>
										</split>
										<split pos="right">
											<feature>3</feature>
											<threshold>0.236996993</threshold>
											<split pos="left">
												<output>1.0486330343874992</output>
											</split>
											<split pos="right">
												<output>0.25225748298270706</output>
											</split>
										</split>
									</split>
								</split>
							</split>
						</split>
					</split>
				</split>
			</split>
		</tree>
		<tree id="20" weight="0.10000000149011612">
			<split>
				<feature>5</feature>
				<threshold>0.306344539</threshold>
				<split pos="left">
					<feature>9</feature>
					<threshold>0</threshold>
					<split pos="left">
						<feature>8</feature>
						<threshold>0.817578316</threshold>
						<split pos="left">
							<output>-0.65635169697518581</output>
						</split>
						<split pos="right">
							<output>0.40852596583510797</output>
						</split>
					</split>
					<split pos="right">
						<output>0.28536018565249538</output>
					</split>
				</split>
				<split pos="right">
					<feature>5</feature>
					<threshold>0.31025371</threshold>
					<split pos="left">
						<output>1.0163919863968487</output>
					</split>
					<split pos="right">
						<feature>8</feature>
						<threshold>0.994826078</threshold>
						<split pos="left">
							<feature>8</feature>
							<threshold>0.899173677</threshold>
							<split pos="left">
								<feature>3</feature>
								<threshold>0.464384377</threshold>
								<split pos="left">
									<feature>3</feature>
									<threshold>0.17585586</threshold>
									<split pos="left">
										<output>-0.016657460951509575</output>
									</split>
									<split pos="right">
										<feature>9</feature>
										<threshold>0</threshold>
										<split pos="left">
											<output>0.69330871034663999</output>
										</split>
										<split pos="right">
											<output>0.0017036176541342398</output>
										</split>
									</split>
								</split>
								<split pos="right">
									<output>-0.50042512991113619</output>
								</split>
							</split>
							<split pos="right">
								<output>-1.7342277873150507</output>
							</split>
						</split>
						<split pos="right">
							<output>0.65763526737464095</output>
						</split>
					</split>
				</split>
			</split>
		</tree>
		<tree id="21" weight="0.10000000149011612">
			<split>
				<feature>5</feature>
				<threshold>0.406814635</threshold>
				<split pos="left">
					<feature>5</feature>
					<threshold>0.389800906</threshold>
					<split pos="left">
						<feature>6</feature>
						<threshold>0.466189206</threshold>
						<split pos="left">
							<feature>8</feature>
							<threshold>0.945675373</threshold>
							<split pos="left">
								<output>-0.53953819742225984</output>
							</split>
							<split pos="right">
								<output>0.47226888593250427</output>
							</split>
						</split>
						<split pos="right">
							<output>0.35774778804837648</output>
						</split>
					</split>
					<split pos="right">
						<output>-1.4852032370945145</output>
					</split>
				</split>
				<split pos="right">
					<feature>5</feature>
					<threshold>0.417744547</threshold>
					<split pos="left">
						<output>1.0458736363409598</output>
					</split>
					<split pos="right">
						<feature>8</feature>
						<threshold>0.994826078</threshold>
						<split pos="left">
							<feature>8</feature>
							<threshold>0.894263268</threshold>
							<split pos="left">
								<feature>8</feature>
								<threshold>0.665172577</threshold>
								<split pos="left">
									<feature>8</feature>
									<threshold>0.449742258</threshold>
									<split pos="left">
										<output>0.25696494236156076</output>
									</split>
									<split pos="right">
										<output>-0.79802474961257419</output>
									</split>
								</split>
								<split pos="right">
									<output>0.58828112026339163</output>
								</split>
							</split>
							<split pos="right">
								<output>-1.7086563554215808</output>
							</split>
						</split>
						<split pos="right">
							<output>0.69750143939518183</output>
						</split>
					</split>
				</split>
			</split>
		</tree>
		<tree id="22" weight="0.10000000149011612">
			<split>
				<feature>5</feature>
				<threshold>0.278952479</threshold>
				<split pos="left">
					<feature>3</feature>
					<threshold>0.171128616</threshold>
					<split pos="left">
						<feature>3</feature>
						<threshold>0.170968458</threshold>
						<split pos="left">
							<output>-0.30345291646251854</output>
						</split>
						<split pos="right">
							<output>2.6508020457282924</output>
						</split>
					</split>
					<split pos="right">
						<output>-0.6584033907161615</output>
					</split>
				</split>
				<split pos="right">
					<feature>4</feature>
					<threshold>0.381840497</threshold>
					<split pos="left">
						<output>-0.4283943374926012</output>
					</split>
					<split pos="right">
						<feature>4</feature>
						<threshold>0.66924417</threshold>
						<split pos="left">
							<output>0.5581775312238495</output>
						</split>
						<split pos="right">
							<feature>4</feature>
							<threshold>0.70445472</threshold>
							<split pos="left">
								<output>-1.3078548682474789</output>
							</split>
							<split pos="right">
								<feature>8</feature>
								<threshold>0.300886124</threshold>
								<split pos="left">
									<output>-0.42952307905052195</output>
								</split>
								<split pos="right">
									<feature>8</feature>
									<threshold>0.30426532</threshold>
									<split pos="left">
										<output>1.1350132736476266</output>
									</split>
									<split pos="right">
										<feature>5</feature>
										<threshold>0.454304725</threshold>
										<split pos="left">
											<output>-1.4665441052138739</output>
										</split>
										<split pos="right">
											<output>0.35421768009212523</output>
										</split>
									</split>
								</split>
							</split>
						</split>
					</split>
				</split>
			</split>
		</tree>
		<tree id="23" weight="0.10000000149011612">
			<split>
				<feature>7</feature>
				<threshold>0.451349914</threshold>
				<split pos="left">
					<feature>6</feature>
					<threshold>0.383587658</threshold>
					<split pos="left">
						<feature>6</feature>
						<threshold>0.38241607</threshold>
						<split pos="left">
							<feature>6</feature>
							<threshold>0.367046237</threshold>
							<split pos="left">
								<feature>8</feature>
								<threshold>0.677033901</threshold>
								<split pos="left">
									<feature>7</feature>
									<threshold>0.13971135</threshold>
									<split pos="left">
										<output>-0.88117422714683058</output>
									</split>
									<split pos="right">
										<output>-0.057939927758363853</output>
									</split>
								</split>
								<split pos="right">
									<output>0.59207597240519572</output>
								</split>
							</split>
							<split pos="right">
								<output>1.0581436041383916</output>
							</split>
						</split>
						<split pos="right">
							<output>1.4676690608772005</output>
						</split>
					</split>
					<split pos="right">
						<output>-0.94187333514209559</output>
					</split>
				</split>
				<split pos="right">
					<feature>3</feature>
					<threshold>0.306255549</threshold>
					<split pos="left">
						<feature>3</feature>
						<threshold>0.206420437</threshold>
						<split pos="left">
							<feature>7</feature>
							<threshold>0.464633495</threshold>
							<split pos="left">
								<output>1.1015929890195644</output>
							</split>
							<split pos="right">
								<output>0.11816839518146309</output>
							</split>
						</split>
						<split pos="right">
							<output>0.69391633043929646</output>
						</split>
					</split>
					<split pos="right">
						<output>-0.0088745125122101434</output>
					</split>
				</split>
			</split>
		</tree>
		<tree id="24" weight="0.10000000149011612">
			<split>
				<feature>5</feature>
				<threshold>0.406814635</threshold>
				<split pos="left">
					<feature>5</feature>
					<threshold>0.389800906</threshold>
					<split pos="left">
						<feature>5</feature>
						<threshold>0.383844703</threshold>
						<split pos="left">
							<feature>5</feature>
							<threshold>0.375573218</threshold>
							<split pos="left">
								<feature>5</feature>
								<threshold>0.364530355</threshold>
								<split pos="left">
									<output>-0.31438355351523606</output>
								</split>
								<split pos="right">
									<output>0.96688137380470895</output>
								</split>
							</split>
							<split pos="right">
								<output>-1.6815818945235297</output>
							</split>
						</split>
						<split pos="right">
							<output>1.1940323348290316</output>
						</split>
					</split>
					<split pos="right">
						<output>-1.0902637488698235</output>
					</split>
				</split>
				<split pos="right">
					<feature>5</feature>
					<threshold>0.417744547</threshold>
					<split pos="left">
						<output>1.003971583983075</output>
					</split>
					<split pos="right">
						<feature>8</feature>
						<threshold>0.994826078</threshold>
						<split pos="left">
							<feature>8</feature>
							<threshold>0.894263268</threshold>
							<split pos="left">
								<feature>3</feature>
								<threshold>0.464384377</threshold>
								<split pos="left">
									<output>0.22634256650181053</output>
								</split>
								<split pos="right">
									<output>-0.58806475917775014</output>
								</split>
							</split>
							<split pos="right">
								<output>-1.5312419849920744</output>
							</split>
						</split>
						<split pos="right">
							<output>0.61129392874224364</output>
						</split>
					</split>
				</split>
			</split>
		</tree>
		<tree id="25" weight="0.10000000149011612">
			<split>
				<feature>5</feature>
				<threshold>0.278952479</threshold>
				<split pos="left">
					<feature>8</feature>
					<threshold>0.397867203</threshold>
					<split pos="left">
						<output>-0.53719053185815724</output>
					</split>
					<split pos="right">
						<output>0.14504209564996992</output>
					</split>
				</split>
				<split pos="right">
					<feature>4</feature>
					<threshold>0.381840497</threshold>
					<split pos="left">
						<output>-0.36018038387718038</output>
					</split>
					<split pos="right">
						<feature>4</feature>
						<threshold>0.416365355</threshold>
						<split pos="left">
							<output>1.073253281710858</output>
						</split>
						<split pos="right">
							<feature>8</feature>
							<threshold>0</threshold>
							<split pos="left">
								<output>-0.88531384500651078</output>
							</split>
							<split pos="right">
								<feature>8</feature>
								<threshold>0.0318919569</threshold>
								<split pos="left">
									<output>1.3914530458324708</output>
								</split>
								<split pos="right">
									<feature>6</feature>
									<threshold>0.682215631</threshold>
									<split pos="left">
										<feature>7</feature>
										<threshold>0.623630047</threshold>
										<split pos="left">
											<output>0.20314940143276383</output>
										</split>
										<split pos="right">
											<output>-0.81957844911664179</output>
										</split>
									</split>
									<split pos="right">
										<feature>6</feature>
										<threshold>0.764434338</threshold>
										<split pos="left">
											<output>1.0977945008400367</output>
										</split>
										<split pos="right">
											<output>0.16064596639554804</output>
										</split>
									</split>
								</split>
							</split>
						</split>
					</split>
				</split>
			</split>
		</tree>
		<tree id="26" weight="0.10000000149011612">
			<split>
				<feature>7</feature>
				<threshold>0.451349914</threshold>
				<split pos="left">
					<feature>6</feature>
					<threshold>0.40880385</threshold>
					<split pos="left">
						<feature>6</feature>
						<threshold>0.400731534</threshold>
						<split pos="left">
							<feature>5</feature>
							<threshold>0.508135021</threshold>
							<split pos="left">
								<feature>3</feature>
								<threshold>0.970645189</threshold>
								<split pos="left">
									<feature>9</feature>
									<threshold>0</threshold>
									<split pos="left">
										<output>-0.64859469613486775</output>
									</split>
									<split pos="right">
										<output>0.35016407635576896</output>
									</split>
								</split>
								<split pos="right">
									<output>0.63366113902174204</output>
								</split>
							</split>
							<split pos="right">
								<output>0.52666440155963568</output>
							</split>
						</split>
						<split pos="right">
							<output>1.274011396686471</output>
						</split>
					</split>
					<split pos="right">
						<output>-1.3920290807068632</output>
					</split>
				</split>
				<split pos="right">
					<feature>3</feature>
					<threshold>0.306255549</threshold>
					<split pos="left">
						<feature>3</feature>
						<threshold>0.206420437</threshold>
						<split pos="left">
							<feature>3</feature>
							<threshold>0.188766703</threshold>
							<split pos="left">
								<output>0.25526152011405367</output>
							</split>
							<split pos="right">
								<output>-2.5570558424085457</output>
							</split>
						</split>
						<split pos="right">
							<output>0.65827029615065047</output>
						</split>
					</split>
					<split pos="right">
						<output>-0.031953569419384181</output>
					</split>
				</split>
			</split>
		</tree>
		<tree id="27" weight="0.10000000149011612">
			<split>
				<feature>5</feature>
				<threshold>0.406814635</threshold>
				<split pos="left">
					<feature>5</feature>
					<threshold>0.389800906</threshold>
					<split pos="left">
						<feature>5</feature>
						<threshold>0.383844703</threshold>
						<split pos="left">
							<feature>6</feature>
							<threshold>0.996100426</threshold>
							<split pos="left">
								<feature>6</feature>
								<threshold>0.466189206</threshold>
								<split pos="left">
									<output>-0.36059234690524966</output>
								</split>
								<split pos="right">
									<output>0.43254237165544795</output>
								</split>
							</split>
							<split pos="right">
								<output>-1.9225140221855272</output>
							</split>
						</split>
						<split pos="right">
							<output>1.1765724893912861</output>
						</split>
					</split>
					<split pos="right">
						<output>-1.0789017657771542</output>
					</split>
				</split>
				<split pos="right">
					<feature>5</feature>
					<threshold>0.415070325</threshold>
					<split pos="left">
						<output>1.1291060469531686</output>
					</split>
					<split pos="right">
						<feature>8</feature>
						<threshold>0.0302189663</threshold>
						<split pos="left">
							<output>-0.73046747172929583</output>
						</split>
						<split pos="right">
							<feature>8</feature>
							<threshold>0.0309234429</threshold>
							<split pos="left">
								<output>2.7201447468169246</output>
							</split>
							<split pos="right">
								<feature>4</feature>
								<threshold>0.920084238</threshold>
								<split pos="left">
									<output>0.30815676272624865</output>
								</split>
								<split pos="right">
									<output>-0.040216357271232892</output>
								</split>
							</split>
						</split>
					</split>
				</split>
			</split>
		</tree>
		<tree id="28" weight="0.10000000149011612">
			<split>
				<feature>7</feature>
				<threshold>0.12485376</threshold>
				<split pos="left">
					<output>-0.70469364255352529</output>
				</split>
				<split pos="right">
					<feature>3</feature>
					<threshold>0.306255549</threshold>
					<split pos="left">
						<feature>3</feature>
						<threshold>0.304447591</threshold>
						<split pos="left">
							<feature>5</feature>
							<threshold>0.0362916999</threshold>
							<split pos="left">
								<output>1.3196465395907058</output>
							</split>
							<split pos="right">
								<feature>7</feature>
								<threshold>0.504380524</threshold>
								<split pos="left">
									<output>-0.042143298171223996</output>
								</split>
								<split pos="right">
									<feature>8</feature>
									<threshold>0.200576082</threshold>
									<split pos="left">
										<output>0.87832356292847402</output>
									</split>
									<split pos="right">
										<feature>7</feature>
										<threshold>0.51039499</threshold>
										<split pos="left">
											<output>1.2199478647111706</output>
										</split>
										<split pos="right">
											<feature>3</feature>
											<threshold>0.206420437</threshold>
											<split pos="left">
												<output>-0.139852793866481</output>
											</split>
											<split pos="right">
												<output>0.51773123845874258</output>
											</split>
										</split>
									</split>
								</split>
							</split>
						</split>
						<split pos="right">
							<output>1.1850446527817284</output>
						</split>
					</split>
					<split pos="right">
						<feature>8</feature>
						<threshold>0.490752041</threshold>
						<split pos="left">
							<output>-0.49294064344201055</output>
						</split>
						<split pos="right">
							<output>0.19678769886231054</output>
						</split>
					</split>
				</split>
			</split>
		</tree>
		<tree id="29" weight="0.10000000149011612">
			<split>
				<feature>7</feature>
				<threshold>0.234520435</threshold>
				<split pos="left">
					<output>-0.45983945261247655</output>
				</split>
				<split pos="right">
					<feature>7</feature>
					<threshold>0.235863701</threshold>
					<split pos="left">
						<output>2.167933145048806</output>
					</split>
					<split pos="right">
						<feature>7</feature>
						<threshold>0.970198691</threshold>
						<split pos="left">
							<feature>6</feature>
							<threshold>0.681522429</threshold>
							<split pos="left">
								<feature>6</feature>
								<threshold>0.661032259</threshold>
								<split pos="left">
									<feature>6</feature>
									<threshold>0.630766153</threshold>
									<split pos="left">
										<feature>6</feature>
										<threshold>0.610825658</threshold>
										<split pos="left">
											<feature>6</feature>
											<threshold>0.601980448</threshold>
											<split pos="left">
												<feature>4</feature>
												<threshold>0.786264181</threshold>
												<split pos="left">
													<output>0.2451662450821081</output>
												</split>
												<split pos="right">
													<output>-0.88959985359857274</output>
												</split>
											</split>
											<split pos="right">
												<output>1.0934961559380343</output>
											</split>
										</split>
										<split pos="right">
											<output>-1.6048160633768505</output>
										</split>
									</split>
									<split pos="right">
										<output>0.63631288250512508</output>
									</split>
								</split>
								<split pos="right">
									<output>-1.1357687798450371</output>
								</split>
							</split>
							<split pos="right">
								<output>0.56681956281640156</output>
							</split>
						</split>
						<split pos="right">
							<output>-0.15137149667788982</output>
						</split>
					</split>
				</split>
			</split>
		</tree>
		<tree id="30" weight="0.10000000149011612">
			<split>
				<feature>5</feature>
				<threshold>0.364530355</threshold>
				<split pos="left">
					<feature>5</feature>
					<threshold>0.353448331</threshold>
					<split pos="left">
						<feature>5</feature>
						<threshold>0.337784946</threshold>
						<split pos="left">
							<feature>3</feature>
							<threshold>0.171128616</threshold>
							<split pos="left">
								<output>-0.010517888655963962</output>
							</split>
							<split pos="right">
								<output>-0.47300369705705031</output>
							</split>
						</split>
						<split pos="right">
							<output>1.0524014753832078</output>
						</split>
					</split>
					<split pos="right">
						<output>-1.1898040921132382</output>
					</split>
				</split>
				<split pos="right">
					<feature>5</feature>
					<threshold>0.368044019</threshold>
					<split pos="left">
						<output>1.2357388858728011</output>
					</split>
					<split pos="right">
						<feature>8</feature>
						<threshold>0.994826078</threshold>
						<split pos="left">
							<feature>4</feature>
							<threshold>0.979840934</threshold>
							<split pos="left">
								<feature>5</feature>
								<threshold>0.984712422</threshold>
								<split pos="left">
									<feature>5</feature>
									<threshold>0.924412787</threshold>
									<split pos="left">
										<output>0.19664925541601733</output>
									</split>
									<split pos="right">
										<output>-1.9465420774106665</output>
									</split>
								</split>
								<split pos="right">
									<output>1.1247394624548996</output>
								</split>
							</split>
							<split pos="right">
								<output>-0.56454334071292533</output>
							</split>
						</split>
						<split pos="right">
							<output>0.49380674196405761</output>
						</split>
					</split>
				</split>
			</split>
		</tree>
		<tree id="31" weight="0.10000000149011612">
			<split>
				<feature>5</feature>
				<threshold>0.364530355</threshold>
				<split pos="left">
					<feature>5</feature>
					<threshold>0.353448331</threshold>
					<split pos="left">
						<feature>5</feature>
						<threshold>0.337784946</threshold>
						<split pos="left">
							<feature>4</feature>
							<threshold>0.45051387</threshold>
							<split pos="left">
								<feature>9</feature>
								<threshold>0</threshold>
								<split pos="left">
									<output>-0.30108931273068984</output>
								</split>
								<split pos="right">
									<output>0.81859060235115189</output>
								</split>
							</split>
							<split pos="right">
								<output>-0.6811301992647365</output>
							</split>
						</split>
						<split pos="right">
							<output>0.99989647598487319</output>
						</split>
					</split>
					<split pos="right">
						<output>-1.1729098067758734</output>
					</split>
				</split>
				<split pos="right">
					<feature>5</feature>
					<threshold>0.368044019</threshold>
					<split pos="left">
						<output>1.2157141413365478</output>
					</split>
					<split pos="right">
						<feature>4</feature>
						<threshold>0.375063598</threshold>
						<split pos="left">
							<output>-0.4206141331663385</output>
						</split>
						<split pos="right">
							<feature>4</feature>
							<threshold>0.920084238</threshold>
							<split pos="left">
								<feature>4</feature>
								<threshold>0.889503598</threshold>
								<split pos="left">
									<output>0.18250582150788519</output>
								</split>
								<split pos="right">
									<output>1.0073585066270134</output>
								</split>
							</split>
							<split pos="right">
								<output>-0.065367530616756958</output>
							</split>
						</split>
					</split>
				</split>
			</split>
		</tree>
		<tree id="32" weight="0.10000000149011612">
			<split>
				<feature>7</feature>
				<threshold>0.12485376</threshold>
				<split pos="left">
					<output>-0.66790587950143165</output>
				</split>
				<split pos="right">
					<feature>3</feature>
					<threshold>0.24919723</threshold>
					<split pos="left">
						<feature>5</feature>
						<threshold>0.0362916999</threshold>
						<split pos="left">
							<output>1.3806673674779852</output>
						</split>
						<split pos="right">
							<feature>3</feature>
							<threshold>0.212765962</threshold>
							<split pos="left">
								<feature>8</feature>
								<threshold>0.997876287</threshold>
								<split pos="left">
									<feature>4</feature>
									<threshold>0.916966736</threshold>
									<split pos="left">
										<output>0.1843588108757776</output>
									</split>
									<split pos="right">
										<output>-1.0797808884277507</output>
									</split>
								</split>
								<split pos="right">
									<output>0.7029604377521288</output>
								</split>
							</split>
							<split pos="right">
								<output>0.63731632128680404</output>
							</split>
						</split>
					</split>
					<split pos="right">
						<feature>7</feature>
						<threshold>0.125682935</threshold>
						<split pos="left">
							<output>1.4399370941047185</output>
						</split>
						<split pos="right">
							<feature>5</feature>
							<threshold>0.27541995</threshold>
							<split pos="left">
								<output>-0.58880046352132187</output>
							</split>
							<split pos="right">
								<feature>9</feature>
								<threshold>0</threshold>
								<split pos="left">
									<output>0.25444534683288111</output>
								</split>
								<split pos="right">
									<output>-0.48362962626931688</output>
								</split>
							</split>
						</split>
					</split>
				</split>
			</split>
		</tree>
		<tree id="33" weight="0.10000000149011612">
			<split>
				<feature>6</feature>
				<threshold>0.125356331</threshold>
				<split pos="left">
					<output>-0.58723933328576816</output>
				</split>
				<split pos="right">
					<feature>6</feature>
					<threshold>0.129084989</threshold>
					<split pos="left">
						<output>3.4526549094582601</output>
					</split>
					<split pos="right">
						<feature>3</feature>
						<threshold>0.24919723</threshold>
						<split pos="left">
							<feature>5</feature>
							<threshold>0.0362916999</threshold>
							<split pos="left">
								<output>1.8551363627993278</output>
							</split>
							<split pos="right">
								<feature>3</feature>
								<threshold>0.212765962</threshold>
								<split pos="left">
									<feature>3</feature>
									<threshold>0.197323263</threshold>
									<split pos="left">
										<feature>3</feature>
										<threshold>0.194834828</threshold>
										<split pos="left">
											<output>0.096591270350193464</output>
										</split>
										<split pos="right">
											<output>1.1075203658185495</output>
										</split>
									</split>
									<split pos="right">
										<output>-1.4270619411932428</output>
									</split>
								</split>
								<split pos="right">
									<output>0.60298737241163058</output>
								</split>
							</split>
						</split>
						<split pos="right">
							<feature>3</feature>
							<threshold>0.250570565</threshold>
							<split pos="left">
								<output>-1.4521810221303457</output>
							</split>
							<split pos="right">
								<feature>3</feature>
								<threshold>0.25349921</threshold>
								<split pos="left">
									<output>1.1369503327000734</output>
								</split>
								<split pos="right">
									<output>-0.054572426210518804</output>
								</split>
							</split>
						</split>
					</split>
				</split>
			</split>
		</tree>
		<tree id="34" weight="0.10000000149011612">
			<split>
				<feature>7</feature>
				<threshold>0.234520435</threshold>
				<split pos="left">
					<output>-0.38400666742760203</output>
				</split>
				<split pos="right">
					<feature>7</feature>
					<threshold>0.235863701</threshold>
					<split pos="left">
						<output>1.811095469109395</output>
					</split>
					<split pos="right">
						<feature>6</feature>
						<threshold>0.999413908</threshold>
						<split pos="left">
							<feature>6</feature>
							<threshold>0.681522429</threshold>
							<split pos="left">
								<feature>6</feature>
								<threshold>0.661032259</threshold>
								<split pos="left">
									<feature>6</feature>
									<threshold>0.620482981</threshold>
									<split pos="left">
										<feature>6</feature>
										<threshold>0.610825658</threshold>
										<split pos="left">
											<feature>6</feature>
											<threshold>0.601980448</threshold>
											<split pos="left">
												<feature>4</feature>
												<threshold>0.786264181</threshold>
												<split pos="left">
													<output>0.21183223275584137</output>
												</split>
												<split pos="right">
													<output>-0.76805184624278511</output>
												</split>
											</split>
											<split pos="right">
												<output>1.0457612107937886</output>
											</split>
										</split>
										<split pos="right">
											<output>-1.7336751829392494</output>
										</split>
									</split>
									<split pos="right">
										<output>0.66947834642383197</output>
									</split>
								</split>
								<split pos="right">
									<output>-1.1750725939905302</output>
								</split>
							</split>
							<split pos="right">
								<output>0.49360422640234031</output>
							</split>
						</split>
						<split pos="right">
							<output>-0.21756819013773207</output>
						</split>
					</split>
				</split>
			</split>
		</tree>
		<tree id="35" weight="0.10000000149011612">
			<split>
				<feature>5</feature>
				<threshold>0.364530355</threshold>
				<split pos="left">
					<feature>5</feature>
					<threshold>0.353448331</threshold>
					<split pos="left">
						<feature>5</feature>
						<threshold>0.342139512</threshold>
						<split pos="left">
							<feature>7</feature>
							<threshold>0.124491267</threshold>
							<split pos="left">
								<output>-0.5947674804916756</output>
							</split>
							<split pos="right">
								<feature>3</feature>
								<threshold>0.171128616</threshold>
								<split pos="left">
									<output>0.55079280422469723</output>
								</split>
								<split pos="right">
									<output>-0.31656714781850243</output>
								</split>
							</split>
						</split>
						<split pos="right">
							<output>2.2906125965670694</output>
						</split>
					</split>
					<split pos="right">
						<output>-1.1689793602938985</output>
					</split>
				</split>
				<split pos="right">
					<feature>5</feature>
					<threshold>0.368044019</threshold>
					<split pos="left">
						<output>1.1936242951167908</output>
					</split>
					<split pos="right">
						<feature>6</feature>
						<threshold>0.999413908</threshold>
						<split pos="left">
							<feature>6</feature>
							<threshold>0.682215631</threshold>
							<split pos="left">
								<feature>7</feature>
								<threshold>0.623630047</threshold>
								<split pos="left">
									<output>0.26585483070038601</output>
								</split>
								<split pos="right">
									<output>-0.96225554382211043</output>
								</split>
							</split>
							<split pos="right">
								<output>0.45579304677637233</output>
							</split>
						</split>
						<split pos="right">
							<output>-0.15562131515262592</output>
						</split>
					</split>
				</split>
			</split>
		</tree>
		<tree id="36" weight="0.10000000149011612">
			<split>
				<feature>5</feature>
				<threshold>0.364530355</threshold>
				<split pos="left">
					<feature>5</feature>
					<threshold>0.353448331</threshold>
					<split pos="left">
						<feature>5</feature>
						<threshold>0.337784946</threshold>
						<split pos="left">
							<feature>3</feature>
							<threshold>0.98222816</threshold>
							<split pos="left">
								<feature>3</feature>
								<threshold>0.171128616</threshold>
								<split pos="left">
									<output>-0.0041842838894671072</output>
								</split>
								<split pos="right">
									<output>-0.60721741116793582</output>
								</split>
							</split>
							<split pos="right">
								<output>0.47462233063420595</output>
							</split>
						</split>
						<split pos="right">
							<output>0.86576729736092806</output>
						</split>
					</split>
					<split pos="right">
						<output>-1.1439255141640869</output>
					</split>
				</split>
				<split pos="right">
					<feature>5</feature>
					<threshold>0.368044019</threshold>
					<split pos="left">
						<output>1.1727404125220326</output>
					</split>
					<split pos="right">
						<feature>8</feature>
						<threshold>0.449742258</threshold>
						<split pos="left">
							<output>0.27745978853555747</output>
						</split>
						<split pos="right">
							<feature>5</feature>
							<threshold>0.369267195</threshold>
							<split pos="left">
								<output>1.3130235410921882</output>
							</split>
							<split pos="right">
								<feature>8</feature>
								<threshold>0.490417629</threshold>
								<split pos="left">
									<output>-1.4524074521218011</output>
								</split>
								<split pos="right">
									<output>0.051500111888073387</output>
								</split>
							</split>
						</split>
					</split>
				</split>
			</split>
		</tree>
		<tree id="37" weight="0.10000000149011612">
			<split>
				<feature>5</feature>
				<threshold>0.278952479</threshold>
				<split pos="left">
					<output>-0.26036049701245267</output>
				</split>
				<split pos="right">
					<feature>5</feature>
					<threshold>0.284528315</threshold>
					<split pos="left">
						<output>7.840781394723999</output>
					</split>
					<split pos="right">
						<feature>4</feature>
						<threshold>0.366436601</threshold>
						<split pos="left">
							<output>-0.4370840353627925</output>
						</split>
						<split pos="right">
							<feature>4</feature>
							<threshold>0.369129986</threshold>
							<split pos="left">
								<output>1.3588880334621793</output>
							</split>
							<split pos="right">
								<feature>4</feature>
								<threshold>0.387112409</threshold>
								<split pos="left">
									<output>-1.7899366564314407</output>
								</split>
								<split pos="right">
									<feature>4</feature>
									<threshold>0.416365355</threshold>
									<split pos="left">
										<output>1.0045160672630002</output>
									</split>
									<split pos="right">
										<feature>4</feature>
										<threshold>0.44775936</threshold>
										<split pos="left">
											<output>-1.1375847357886308</output>
										</split>
										<split pos="right">
											<feature>4</feature>
											<threshold>0.457258463</threshold>
											<split pos="left">
												<output>1.1392813700528033</output>
											</split>
											<split pos="right">
												<feature>8</feature>
												<threshold>0</threshold>
												<split pos="left">
													<output>-0.954909890196318</output>
												</split>
												<split pos="right">
													<output>0.15560465089331632</output>
												</split>
											</split>
										</split>
									</split>
								</split>
							</split>
						</split>
					</split>
				</split>
			</split>
		</tree>
		<tree id="38" weight="0.10000000149011612">
			<split>
				<feature>5</feature>
				<threshold>0.364530355</threshold>
				<split pos="left">
					<feature>4</feature>
					<threshold>0.559405029</threshold>
					<split pos="left">
						<feature>4</feature>
						<threshold>0.559177041</threshold>
						<split pos="left">
							<feature>3</feature>
							<threshold>0.970645189</threshold>
							<split pos="left">
								<output>-0.25429577358612432</output>
							</split>
							<split pos="right">
								<output>0.59493864429130106</output>
							</split>
						</split>
						<split pos="right">
							<output>1.836625478253842</output>
						</split>
					</split>
					<split pos="right">
						<output>-0.92910611011280819</output>
					</split>
				</split>
				<split pos="right">
					<feature>5</feature>
					<threshold>0.368044019</threshold>
					<split pos="left">
						<output>1.1572596116488301</output>
					</split>
					<split pos="right">
						<feature>4</feature>
						<threshold>0.366436601</threshold>
						<split pos="left">
							<output>-0.56158444251514417</output>
						</split>
						<split pos="right">
							<feature>4</feature>
							<threshold>0.367833018</threshold>
							<split pos="left">
								<output>1.2549052588270213</output>
							</split>
							<split pos="right">
								<feature>8</feature>
								<threshold>0.994826078</threshold>
								<split pos="left">
									<feature>8</feature>
									<threshold>0.449742258</threshold>
									<split pos="left">
										<output>0.26983715330973856</output>
									</split>
									<split pos="right">
										<output>-0.29417301328343542</output>
									</split>
								</split>
								<split pos="right">
									<output>0.42247392418949448</output>
								</split>
							</split>
						</split>
					</split>
				</split>
			</split>
		</tree>
		<tree id="39" weight="0.10000000149011612">
			<split>
				<feature>5</feature>
				<threshold>0.278952479</threshold>
				<split pos="left">
					<feature>3</feature>
					<threshold>0.832425237</threshold>
					<split pos="left">
						<feature>3</feature>
						<threshold>0.171128616</threshold>
						<split pos="left">
							<feature>3</feature>
							<threshold>0.170968458</threshold>
							<split pos="left">
								<output>-0.14050744691498046</output>
							</split>
							<split pos="right">
								<output>2.2775967092886433</output>
							</split>
						</split>
						<split pos="right">
							<output>-0.80710390368900675</output>
						</split>
					</split>
					<split pos="right">
						<output>0.42686961625647052</output>
					</split>
				</split>
				<split pos="right">
					<feature>7</feature>
					<threshold>0.931008518</threshold>
					<split pos="left">
						<feature>7</feature>
						<threshold>0.911562324</threshold>
						<split pos="left">
							<feature>8</feature>
							<threshold>0.458299786</threshold>
							<split pos="left">
								<feature>6</feature>
								<threshold>0.61360985</threshold>
								<split pos="left">
									<output>0.15172771935699117</output>
								</split>
								<split pos="right">
									<output>0.59624543976600963</output>
								</split>
							</split>
							<split pos="right">
								<output>-0.16010013559717651</output>
							</split>
						</split>
						<split pos="right">
							<output>1.2593452981129156</output>
						</split>
					</split>
					<split pos="right">
						<feature>6</feature>
						<threshold>0.881189048</threshold>
						<split pos="left">
							<output>-3.248545109241415</output>
						</split>
						<split pos="right">
							<output>-0.077393798217503793</output>
						</split>
					</split>
				</split>
			</split>
		</tree>
		<tree id="40" weight="0.10000000149011612">
			<split>
				<feature>7</feature>
				<threshold>0.12485376</threshold>
				<split pos="left">
					<output>-0.51370093215125445</output>
				</split>
				<split pos="right">
					<feature>3</feature>
					<threshold>0.24919723</threshold>
					<split pos="left">
						<feature>5</feature>
						<threshold>0.0362916999</threshold>
						<split pos="left">
							<output>1.2063135590755065</output>
						</split>
						<split pos="right">
							<feature>3</feature>
							<threshold>0.212765962</threshold>
							<split pos="left">
								<feature>3</feature>
								<threshold>0.197323263</threshold>
								<split pos="left">
									<feature>3</feature>
									<threshold>0.194834828</threshold>
									<split pos="left">
										<feature>8</feature>
										<threshold>0.994826078</threshold>
										<split pos="left">
											<output>-0.049519451600503119</output>
										</split>
										<split pos="right">
											<output>0.76472558323620243</output>
										</split>
									</split>
									<split pos="right">
										<output>1.0870975516166261</output>
									</split>
								</split>
								<split pos="right">
									<output>-1.3422347697210837</output>
								</split>
							</split>
							<split pos="right">
								<output>0.55924020396715957</output>
							</split>
						</split>
					</split>
					<split pos="right">
						<feature>7</feature>
						<threshold>0.125682935</threshold>
						<split pos="left">
							<output>1.4692570527433824</output>
						</split>
						<split pos="right">
							<feature>6</feature>
							<threshold>0.680777431</threshold>
							<split pos="left">
								<output>-0.34336575849421924</output>
							</split>
							<split pos="right">
								<output>0.12650912830154609</output>
							</split>
						</split>
					</split>
				</split>
			</split>
		</tree>
		<tree id="41" weight="0.10000000149011612">
			<split>
				<feature>6</feature>
				<threshold>0.239106715</threshold>
				<split pos="left">
					<output>-0.30866044603982029</output>
				</split>
				<split pos="right">
					<feature>6</feature>
					<threshold>0.242614344</threshold>
					<split pos="left">
						<output>1.4037998332224588</output>
					</split>
					<split pos="right">
						<feature>5</feature>
						<threshold>0.107425697</threshold>
						<split pos="left">
							<output>-0.766263241935071</output>
						</split>
						<split pos="right">
							<feature>5</feature>
							<threshold>0.119309805</threshold>
							<split pos="left">
								<output>1.9829667330870564</output>
							</split>
							<split pos="right">
								<feature>6</feature>
								<threshold>0.999413908</threshold>
								<split pos="left">
									<feature>7</feature>
									<threshold>0.898475409</threshold>
									<split pos="left">
										<feature>7</feature>
										<threshold>0.854210198</threshold>
										<split pos="left">
											<feature>7</feature>
											<threshold>0.803233564</threshold>
											<split pos="left">
												<feature>7</feature>
												<threshold>0.794224322</threshold>
												<split pos="left">
													<output>0.10710516153163828</output>
												</split>
												<split pos="right">
													<output>-2.4070394085013307</output>
												</split>
											</split>
											<split pos="right">
												<output>1.1138661796239191</output>
											</split>
										</split>
										<split pos="right">
											<output>-1.3135429696567749</output>
										</split>
									</split>
									<split pos="right">
										<output>0.66485525157642134</output>
									</split>
								</split>
								<split pos="right">
									<output>-0.20224980968119641</output>
								</split>
							</split>
						</split>
					</split>
				</split>
			</split>
		</tree>
		<tree id="42" weight="0.10000000149011612">
			<split>
				<feature>6</feature>
				<threshold>0.681522429</threshold>
				<split pos="left">
					<feature>6</feature>
					<threshold>0.661032259</threshold>
					<split pos="left">
						<feature>6</feature>
						<threshold>0.620482981</threshold>
						<split pos="left">
							<feature>6</feature>
							<threshold>0.610825658</threshold>
							<split pos="left">
								<feature>6</feature>
								<threshold>0.601980448</threshold>
								<split pos="left">
									<feature>7</feature>
									<threshold>0.619436324</threshold>
									<split pos="left">
										<feature>7</feature>
										<threshold>0.575373054</threshold>
										<split pos="left">
											<feature>8</feature>
											<threshold>0.736542583</threshold>
											<split pos="left">
												<feature>8</feature>
												<threshold>0.550368607</threshold>
												<split pos="left">
													<output>-0.12229262510870051</output>
												</split>
												<split pos="right">
													<output>-0.8451475274875262</output>
												</split>
											</split>
											<split pos="right">
												<output>0.59891573433961764</output>
											</split>
										</split>
										<split pos="right">
											<output>1.2472025044754951</output>
										</split>
									</split>
									<split pos="right">
										<output>-1.5034336438609195</output>
									</split>
								</split>
								<split pos="right">
									<output>1.022704123118948</output>
								</split>
							</split>
							<split pos="right">
								<output>-1.5714525223843967</output>
							</split>
						</split>
						<split pos="right">
							<output>0.59204977616328303</output>
						</split>
					</split>
					<split pos="right">
						<output>-1.1035564068966193</output>
					</split>
				</split>
				<split pos="right">
					<output>0.14582370399353628</output>
				</split>
			</split>
		</tree>
		<tree id="43" weight="0.10000000149011612">
			<split>
				<feature>8</feature>
				<threshold>0.994826078</threshold>
				<split pos="left">
					<feature>6</feature>
					<threshold>0.998185992</threshold>
					<split pos="left">
						<feature>6</feature>
						<threshold>0.620482981</threshold>
						<split pos="left">
							<feature>6</feature>
							<threshold>0.610825658</threshold>
							<split pos="left">
								<feature>6</feature>
								<threshold>0.601980448</threshold>
								<split pos="left">
									<feature>6</feature>
									<threshold>0.595520973</threshold>
									<split pos="left">
										<feature>7</feature>
										<threshold>0.639236867</threshold>
										<split pos="left">
											<feature>7</feature>
											<threshold>0.575373054</threshold>
											<split pos="left">
												<feature>4</feature>
												<threshold>0.772982419</threshold>
												<split pos="left">
													<output>-0.042327355584362292</output>
												</split>
												<split pos="right">
													<output>-0.59506621053394837</output>
												</split>
											</split>
											<split pos="right">
												<output>1.0643074274003705</output>
											</split>
										</split>
										<split pos="right">
											<output>-1.8587527369316574</output>
										</split>
									</split>
									<split pos="right">
										<output>-1.9806790079608547</output>
									</split>
								</split>
								<split pos="right">
									<output>0.98251799468373002</output>
								</split>
							</split>
							<split pos="right">
								<output>-1.5109746840873908</output>
							</split>
						</split>
						<split pos="right">
							<output>0.29890214709496993</output>
						</split>
					</split>
					<split pos="right">
						<output>-0.61524599890441334</output>
					</split>
				</split>
				<split pos="right">
					<output>0.2336593163688942</output>
				</split>
			</split>
		</tree>
		<tree id="44" weight="0.10000000149011612">
			<split>
				<feature>5</feature>
				<threshold>0.364530355</threshold>
				<split pos="left">
					<feature>5</feature>
					<threshold>0.353448331</threshold>
					<split pos="left">
						<feature>6</feature>
						<threshold>0.718737662</threshold>
						<split pos="left">
							<feature>6</feature>
							<threshold>0.705229759</threshold>
							<split pos="left">
								<feature>8</feature>
								<threshold>0.817578316</threshold>
								<split pos="left">
									<output>-0.23272189325246551</output>
								</split>
								<split pos="right">
									<output>0.44638509551657146</output>
								</split>
							</split>
							<split pos="right">
								<output>2.5842672773774908</output>
							</split>
						</split>
						<split pos="right">
							<output>-0.97939860411948332</output>
						</split>
					</split>
					<split pos="right">
						<output>-1.1180553499707626</output>
					</split>
				</split>
				<split pos="right">
					<feature>5</feature>
					<threshold>0.368044019</threshold>
					<split pos="left">
						<output>1.1162045137238634</output>
					</split>
					<split pos="right">
						<feature>5</feature>
						<threshold>0.374421865</threshold>
						<split pos="left">
							<output>0.92475177400113817</output>
						</split>
						<split pos="right">
							<feature>8</feature>
							<threshold>0.994826078</threshold>
							<split pos="left">
								<feature>8</feature>
								<threshold>0.449742258</threshold>
								<split pos="left">
									<output>0.18082154809508436</output>
								</split>
								<split pos="right">
									<output>-0.33631545421752906</output>
								</split>
							</split>
							<split pos="right">
								<output>0.29838374125065187</output>
							</split>
						</split>
					</split>
				</split>
			</split>
		</tree>
		<tree id="45" weight="0.10000000149011612">
			<split>
				<feature>7</feature>
				<threshold>0.12485376</threshold>
				<split pos="left">
					<output>-0.44634466807714668</output>
				</split>
				<split pos="right">
					<feature>3</feature>
					<threshold>0.24919723</threshold>
					<split pos="left">
						<feature>5</feature>
						<threshold>0.0362916999</threshold>
						<split pos="left">
							<output>1.141561800465444</output>
						</split>
						<split pos="right">
							<feature>3</feature>
							<threshold>0.212765962</threshold>
							<split pos="left">
								<feature>3</feature>
								<threshold>0.197323263</threshold>
								<split pos="left">
									<feature>3</feature>
									<threshold>0.194834828</threshold>
									<split pos="left">
										<feature>8</feature>
										<threshold>0.994826078</threshold>
										<split pos="left">
											<output>-0.041719552516164916</output>
										</split>
										<split pos="right">
											<output>0.70716839630220407</output>
										</split>
									</split>
									<split pos="right">
										<output>1.0808575792776318</output>
									</split>
								</split>
								<split pos="right">
									<output>-1.2075413882124424</output>
								</split>
							</split>
							<split pos="right">
								<output>0.5412882694955431</output>
							</split>
						</split>
					</split>
					<split pos="right">
						<feature>7</feature>
						<threshold>0.125682935</threshold>
						<split pos="left">
							<output>1.2802798405915963</output>
						</split>
						<split pos="right">
							<feature>5</feature>
							<threshold>0.997328222</threshold>
							<split pos="left">
								<output>-0.18760428376291929</output>
							</split>
							<split pos="right">
								<output>0.28272527811061049</output>
							</split>
						</split>
					</split>
				</split>
			</split>
		</tree>
		<tree id="46" weight="0.10000000149011612">
			<split>
				<feature>5</feature>
				<threshold>0.278952479</threshold>
				<split pos="left">
					<feature>3</feature>
					<threshold>0.832425237</threshold>
					<split pos="left">
						<feature>8</feature>
						<threshold>0.655565619</threshold>
						<split pos="left">
							<feature>6</feature>
							<threshold>0.692655265</threshold>
							<split pos="left">
								<output>-0.29040959074516326</output>
							</split>
							<split pos="right">
								<output>1.3966278704582968</output>
							</split>
						</split>
						<split pos="right">
							<output>-0.73194017295667235</output>
						</split>
					</split>
					<split pos="right">
						<output>0.52841211387824072</output>
					</split>
				</split>
				<split pos="right">
					<feature>5</feature>
					<threshold>0.284528315</threshold>
					<split pos="left">
						<output>4.1046647512768049</output>
					</split>
					<split pos="right">
						<feature>7</feature>
						<threshold>0.970198691</threshold>
						<split pos="left">
							<feature>7</feature>
							<threshold>0.963784456</threshold>
							<split pos="left">
								<feature>6</feature>
								<threshold>0.682215631</threshold>
								<split pos="left">
									<feature>7</feature>
									<threshold>0.623630047</threshold>
									<split pos="left">
										<output>0.16588689120969038</output>
									</split>
									<split pos="right">
										<output>-0.65622115091805666</output>
									</split>
								</split>
								<split pos="right">
									<output>0.39318934323533655</output>
								</split>
							</split>
							<split pos="right">
								<output>1.332016476893044</output>
							</split>
						</split>
						<split pos="right">
							<output>-0.18229771866597358</output>
						</split>
					</split>
				</split>
			</split>
		</tree>
		<tree id="47" weight="0.10000000149011612">
			<split>
				<feature>7</feature>
				<threshold>0.451349914</threshold>
				<split pos="left">
					<feature>7</feature>
					<threshold>0.395338029</threshold>
					<split pos="left">
						<feature>8</feature>
						<threshold>0.786738157</threshold>
						<split pos="left">
							<feature>5</feature>
							<threshold>0.530718148</threshold>
							<split pos="left">
								<output>-0.32134023558048852</output>
							</split>
							<split pos="right">
								<output>0.45225811114578629</output>
							</split>
						</split>
						<split pos="right">
							<output>0.74755425968871192</output>
						</split>
					</split>
					<split pos="right">
						<output>-0.85826340083564767</output>
					</split>
				</split>
				<split pos="right">
					<feature>7</feature>
					<threshold>0.464827359</threshold>
					<split pos="left">
						<output>0.71306974021340608</output>
					</split>
					<split pos="right">
						<feature>9</feature>
						<threshold>0</threshold>
						<split pos="left">
							<feature>4</feature>
							<threshold>0.366436601</threshold>
							<split pos="left">
								<output>-0.38491874809733118</output>
							</split>
							<split pos="right">
								<feature>4</feature>
								<threshold>0.367833018</threshold>
								<split pos="left">
									<output>1.2273756019093567</output>
								</split>
								<split pos="right">
									<feature>4</feature>
									<threshold>0.920084238</threshold>
									<split pos="left">
										<output>0.3554921416538635</output>
									</split>
									<split pos="right">
										<output>-0.039498351887167563</output>
									</split>
								</split>
							</split>
						</split>
						<split pos="right">
							<output>-0.18281612598301031</output>
						</split>
					</split>
				</split>
			</split>
		</tree>
		<tree id="48" weight="0.10000000149011612">
			<split>
				<feature>7</feature>
				<threshold>0.451349914</threshold>
				<split pos="left">
					<feature>6</feature>
					<threshold>0.383587658</threshold>
					<split pos="left">
						<feature>6</feature>
						<threshold>0.38241607</threshold>
						<split pos="left">
							<feature>6</feature>
							<threshold>0.367046237</threshold>
							<split pos="left">
								<feature>8</feature>
								<threshold>0.677033901</threshold>
								<split pos="left">
									<feature>8</feature>
									<threshold>0.44877103</threshold>
									<split pos="left">
										<output>-0.17341655696496774</output>
									</split>
									<split pos="right">
										<output>-1.0161020642470922</output>
									</split>
								</split>
								<split pos="right">
									<output>0.57186362879859531</output>
								</split>
							</split>
							<split pos="right">
								<output>0.75093861625059999</output>
							</split>
						</split>
						<split pos="right">
							<output>1.4793892495958703</output>
						</split>
					</split>
					<split pos="right">
						<output>-0.76324942074384783</output>
					</split>
				</split>
				<split pos="right">
					<feature>7</feature>
					<threshold>0.464827359</threshold>
					<split pos="left">
						<output>0.66075739611498419</output>
					</split>
					<split pos="right">
						<feature>9</feature>
						<threshold>0</threshold>
						<split pos="left">
							<feature>5</feature>
							<threshold>0.706592202</threshold>
							<split pos="left">
								<output>-0.022245093291495818</output>
							</split>
							<split pos="right">
								<output>0.40097169378313696</output>
							</split>
						</split>
						<split pos="right">
							<output>-0.16446132140367298</output>
						</split>
					</split>
				</split>
			</split>
		</tree>
		<tree id="49" weight="0.10000000149011612">
			<split>
				<feature>7</feature>
				<threshold>0.12485376</threshold>
				<split pos="left">
					<output>-0.40518254555352984</output>
				</split>
				<split pos="right">
					<feature>7</feature>
					<threshold>0.142581969</threshold>
					<split pos="left">
						<output>0.91006311757511338</output>
					</split>
					<split pos="right">
						<feature>3</feature>
						<threshold>0.24919723</threshold>
						<split pos="left">
							<feature>4</feature>
							<threshold>0.916966736</threshold>
							<split pos="left">
								<feature>4</feature>
								<threshold>0.889503598</threshold>
								<split pos="left">
									<feature>5</feature>
									<threshold>0.522677898</threshold>
									<split pos="left">
										<feature>8</feature>
										<threshold>0.655565619</threshold>
										<split pos="left">
											<feature>7</feature>
											<threshold>0.504380524</threshold>
											<split pos="left">
												<output>-0.036662311342472151</output>
											</split>
											<split pos="right">
												<output>0.78057505989181164</output>
											</split>
										</split>
										<split pos="right">
											<output>-0.94665107063603959</output>
										</split>
									</split>
									<split pos="right">
										<output>0.39012350407897689</output>
									</split>
								</split>
								<split pos="right">
									<output>1.1820260427114002</output>
								</split>
							</split>
							<split pos="right">
								<output>-0.2469676524898734</output>
							</split>
						</split>
						<split pos="right">
							<feature>7</feature>
							<threshold>0.803233564</threshold>
							<split pos="left">
								<output>-0.244588398079821</output>
							</split>
							<split pos="right">
								<output>0.12791466622098049</output>
							</split>
						</split>
					</split>
				</split>
			</split>
		</tree>
		<tree id="50" weight="0.10000000149011612">
			<split>
				<feature>6</feature>
				<threshold>0.999413908</threshold>
				<split pos="left">
					<feature>7</feature>
					<threshold>0.803233564</threshold>
					<split pos="left">
						<feature>7</feature>
						<threshold>0.794224322</threshold>
						<split pos="left">
							<feature>5</feature>
							<threshold>0.997328222</threshold>
							<split pos="left">
								<feature>5</feature>
								<threshold>0.923457503</threshold>
								<split pos="left">
									<feature>4</feature>
									<threshold>0.935095787</threshold>
									<split pos="left">
										<feature>5</feature>
										<threshold>0.508135021</threshold>
										<split pos="left">
											<feature>4</feature>
											<threshold>0.615875363</threshold>
											<split pos="left">
												<feature>4</feature>
												<threshold>0.601191163</threshold>
												<split pos="left">
													<output>-0.089110920152948608</output>
												</split>
												<split pos="right">
													<output>1.1168411095615636</output>
												</split>
											</split>
											<split pos="right">
												<output>-0.73807190836045566</output>
											</split>
										</split>
										<split pos="right">
											<output>0.28595794622576409</output>
										</split>
									</split>
									<split pos="right">
										<output>-0.84248911820175532</output>
									</split>
								</split>
								<split pos="right">
									<output>-1.520047523156008</output>
								</split>
							</split>
							<split pos="right">
								<output>0.4809619450862111</output>
							</split>
						</split>
						<split pos="right">
							<output>-2.1447372706122825</output>
						</split>
					</split>
					<split pos="right">
						<output>0.50573336588650297</output>
					</split>
				</split>
				<split pos="right">
					<output>-0.20189450722811028</output>
				</split>
			</split>
		</tree>
		<tree id="51" weight="0.10000000149011612">
			<split>
				<feature>7</feature>
				<threshold>0.12485376</threshold>
				<split pos="left">
					<output>-0.37920560245029244</output>
				</split>
				<split pos="right">
					<feature>3</feature>
					<threshold>0.258609325</threshold>
					<split pos="left">
						<feature>5</feature>
						<threshold>0.0362916999</threshold>
						<split pos="left">
							<output>0.93130479410704659</output>
						</split>
						<split pos="right">
							<feature>3</feature>
							<threshold>0.208135009</threshold>
							<split pos="left">
								<feature>3</feature>
								<threshold>0.197323263</threshold>
								<split pos="left">
									<feature>3</feature>
									<threshold>0.194834828</threshold>
									<split pos="left">
										<feature>8</feature>
										<threshold>0.994826078</threshold>
										<split pos="left">
											<output>-0.05533451573378749</output>
										</split>
										<split pos="right">
											<output>0.67870533721097415</output>
										</split>
									</split>
									<split pos="right">
										<output>1.0599128144879653</output>
									</split>
								</split>
								<split pos="right">
									<output>-1.572867536429128</output>
								</split>
							</split>
							<split pos="right">
								<output>0.46631129605321092</output>
							</split>
						</split>
					</split>
					<split pos="right">
						<feature>3</feature>
						<threshold>0.259010643</threshold>
						<split pos="left">
							<output>-2.6828240242748889</output>
						</split>
						<split pos="right">
							<feature>7</feature>
							<threshold>0.125682935</threshold>
							<split pos="left">
								<output>1.2439379262499966</output>
							</split>
							<split pos="right">
								<output>-0.085762648218501186</output>
							</split>
						</split>
					</split>
				</split>
			</split>
		</tree>
		<tree id="52" weight="0.10000000149011612">
			<split>
				<feature>6</feature>
				<threshold>0.125356331</threshold>
				<split pos="left">
					<output>-0.33190354174944997</output>
				</split>
				<split pos="right">
					<feature>6</feature>
					<threshold>0.129084989</threshold>
					<split pos="left">
						<output>2.7486342365053531</output>
					</split>
					<split pos="right">
						<feature>3</feature>
						<threshold>0.24919723</threshold>
						<split pos="left">
							<feature>5</feature>
							<threshold>0.0362916999</threshold>
							<split pos="left">
								<output>1.7725391457901132</output>
							</split>
							<split pos="right">
								<feature>3</feature>
								<threshold>0.208135009</threshold>
								<split pos="left">
									<feature>3</feature>
									<threshold>0.197323263</threshold>
									<split pos="left">
										<feature>3</feature>
										<threshold>0.194834828</threshold>
										<split pos="left">
											<feature>8</feature>
											<threshold>0.994826078</threshold>
											<split pos="left">
												<output>-0.054608633334054774</output>
											</split>
											<split pos="right">
												<output>0.6633313080766764</output>
											</split>
										</split>
										<split pos="right">
											<output>1.0541655539460588</output>
										</split>
									</split>
									<split pos="right">
										<output>-1.4651757484364054</output>
									</split>
								</split>
								<split pos="right">
									<output>0.49628565637561589</output>
								</split>
							</split>
						</split>
						<split pos="right">
							<feature>9</feature>
							<threshold>0</threshold>
							<split pos="left">
								<output>0.023383038959830061</output>
							</split>
							<split pos="right">
								<output>-0.36498681912499353</output>
							</split>
						</split>
					</split>
				</split>
			</split>
		</tree>
		<tree id="53" weight="0.10000000149011612">
			<split>
				<feature>6</feature>
				<threshold>0.999413908</threshold>
				<split pos="left">
					<feature>7</feature>
					<threshold>0.803233564</threshold>
					<split pos="left">
						<feature>7</feature>
						<threshold>0.79798162</threshold>
						<split pos="left">
							<feature>7</feature>
