<ranker>
	<info>
		<type>LAMBDAMART</type>
		<trees>1000</trees>
		<leaves>10</leaves>
		<shrinkage>0.10000000149011612</shrinkage>
		<leafsupport>1</leafsupport>
		<discretization>0</discretization>
		<estop>100</estop>
		<subsample>1</subsample>
		<max_features>1</max_features>
		<collapse_leaves_factor>0</collapse_leaves_factor>
	</info>
	<ensemble>
		<tree id="1" weight="0.10000000149011612">
			<split>
				<feature>7</feature>
				<threshold>0.434597045</threshold>
				<split pos="left">
					<output>-1.5830267796314592</output>
				</split>
				<split pos="right">
					<feature>7</feature>
					<threshold>0.456096619</threshold>
					<split pos="left">
						<feature>7</feature>
						<threshold>0.452035666</threshold>
						<split pos="left">
							<output>0.7033194017810358</output>
						</split>
						<split pos="right">
							<output>2</output>
						</split>
					</split>
					<split pos="right">
						<feature>5</feature>
						<threshold>0.22007449</threshold>
						<split pos="left">
							<feature>5</feature>
							<threshold>0.197940141</threshold>
							<split pos="left">
								<output>1.2296637358118081</output>
							</split>
							<split pos="right">
								<feature>3</feature>
								<threshold>0.156163946</threshold>
								<split pos="left">
									<output>2</output>
								</split>
								<split pos="right">
									<output>2</output>
								</split>
							</split>
						</split>
						<split pos="right">
							<feature>8</feature>
							<threshold>0.998783946</threshold>
							<split pos="left">
								<output>-0.87754088590063162</output>
							</split>
							<split pos="right">
								<feature>3</feature>
								<threshold>0.417220563</threshold>
								<split pos="left">
									<feature>6</feature>
									<threshold>0.944177628</threshold>
									<split pos="left">
										<output>2</output>
									</split>
									<split pos="right">
										<output>0.85147973764453044</output>
									</split>
								</split>
								<split pos="right">
									<output>0.25667868367925495</output>
								</split>
							</split>
						</split>
					</split>
				</split>
			</split>
		</tree>
		<tree id="2" weight="0.10000000149011612">
			<split>
				<feature>7</feature>
				<threshold>0.452035666</threshold>
				<split pos="left">
					<output>-1.6413292931092174</output>
				</split>
				<split pos="right">
					<feature>7</feature>
					<threshold>0.456096619</threshold>
					<split pos="left">
						<output>1.7080945003960064</output>
					</split>
					<split pos="right">
						<feature>5</feature>
						<threshold>0.225178003</threshold>
						<split pos="left">
							<feature>5</feature>
							<threshold>0.20155558</threshold>
							<split pos="left">
								<feature>5</feature>
								<threshold>0.197940141</threshold>
								<split pos="left">
									<output>0.95071819037572258</output>
								</split>
								<split pos="right">
									<output>1.7185929682887828</output>
								</split>
							</split>
							<split pos="right">
								<feature>6</feature>
								<threshold>0.297667414</threshold>
								<split pos="left">
									<output>1.7552001019292829</output>
								</split>
								<split pos="right">
									<output>1.7287430218042426</output>
								</split>
							</split>
						</split>
						<split pos="right">
							<feature>8</feature>
							<threshold>0.998783946</threshold>
							<split pos="left">
								<output>-1.0769148670293964</output>
							</split>
							<split pos="right">
								<feature>3</feature>
								<threshold>0.462404311</threshold>
								<split pos="left">
									<feature>3</feature>
									<threshold>0.221563712</threshold>
									<split pos="left">
										<output>1.1707263484851751</output>
									</split>
									<split pos="right">
										<output>1.7100133585429709</output>
									</split>
								</split>
								<split pos="right">
									<output>0.30324877460139976</output>
								</split>
							</split>
						</split>
					</split>
				</split>
			</split>
		</tree>
		<tree id="3" weight="0.10000000149011612">
			<split>
				<feature>6</feature>
				<threshold>0.788452089</threshold>
				<split pos="left">
					<feature>7</feature>
					<threshold>0.354062319</threshold>
					<split pos="left">
						<output>-1.4722540637355972</output>
					</split>
					<split pos="right">
						<feature>8</feature>
						<threshold>0.349782676</threshold>
						<split pos="left">
							<feature>8</feature>
							<threshold>0.259371668</threshold>
							<split pos="left">
								<feature>4</feature>
								<threshold>0.80460602</threshold>
								<split pos="left">
									<output>-0.016383643460841733</output>
								</split>
								<split pos="right">
									<feature>4</feature>
									<threshold>0.833256423</threshold>
									<split pos="left">
										<output>1.5124635931379962</output>
									</split>
									<split pos="right">
										<output>-1.5676472830071859</output>
									</split>
								</split>
							</split>
							<split pos="right">
								<output>1.5173081148434193</output>
							</split>
						</split>
						<split pos="right">
							<output>-1.2954942850490725</output>
						</split>
					</split>
				</split>
				<split pos="right">
					<feature>6</feature>
					<threshold>0.987189114</threshold>
					<split pos="left">
						<feature>6</feature>
						<threshold>0.902808607</threshold>
						<split pos="left">
							<output>1.0453482625835571</output>
						</split>
						<split pos="right">
							<feature>3</feature>
							<threshold>0.38268584</threshold>
							<split pos="left">
								<output>1.5149496562348219</output>
							</split>
							<split pos="right">
								<output>1.5453507477178812</output>
							</split>
						</split>
					</split>
					<split pos="right">
						<output>0.28661523559800528</output>
					</split>
				</split>
			</split>
		</tree>
		<tree id="4" weight="0.10000000149011612">
			<split>
				<feature>6</feature>
				<threshold>0.788452089</threshold>
				<split pos="left">
					<feature>7</feature>
					<threshold>0.354062319</threshold>
					<split pos="left">
						<output>-1.3468488280888262</output>
					</split>
					<split pos="right">
						<feature>8</feature>
						<threshold>0.291093528</threshold>
						<split pos="left">
							<feature>8</feature>
							<threshold>0.259371668</threshold>
							<split pos="left">
								<feature>4</feature>
								<threshold>0.80460602</threshold>
								<split pos="left">
									<output>0.11282565110351855</output>
								</split>
								<split pos="right">
									<feature>4</feature>
									<threshold>0.833256423</threshold>
									<split pos="left">
										<output>1.3842415615743777</output>
									</split>
									<split pos="right">
										<output>-1.4171680561692643</output>
									</split>
								</split>
							</split>
							<split pos="right">
								<output>1.3934301399221523</output>
							</split>
						</split>
						<split pos="right">
							<output>-1.1615417088127569</output>
						</split>
					</split>
				</split>
				<split pos="right">
					<feature>6</feature>
					<threshold>0.987189114</threshold>
					<split pos="left">
						<feature>6</feature>
						<threshold>0.902808607</threshold>
						<split pos="left">
							<output>0.9371070859623839</output>
						</split>
						<split pos="right">
							<feature>8</feature>
							<threshold>0.910885334</threshold>
							<split pos="left">
								<output>1.4186810453633765</output>
							</split>
							<split pos="right">
								<output>1.3890413548274683</output>
							</split>
						</split>
					</split>
					<split pos="right">
						<output>0.26672028026041794</output>
					</split>
				</split>
			</split>
		</tree>
		<tree id="5" weight="0.10000000149011612">
			<split>
				<feature>7</feature>
				<threshold>0.452035666</threshold>
				<split pos="left">
					<output>-1.2356084949712607</output>
				</split>
				<split pos="right">
					<feature>7</feature>
					<threshold>0.456096619</threshold>
					<split pos="left">
						<output>1.2962531557012953</output>
					</split>
					<split pos="right">
						<feature>5</feature>
						<threshold>0.22007449</threshold>
						<split pos="left">
							<feature>5</feature>
							<threshold>0.20155558</threshold>
							<split pos="left">
								<feature>5</feature>
								<threshold>0.197940141</threshold>
								<split pos="left">
									<output>0.62881953237298616</output>
								</split>
								<split pos="right">
									<output>1.3071462057941621</output>
								</split>
							</split>
							<split pos="right">
								<feature>3</feature>
								<threshold>0.000268096512</threshold>
								<split pos="left">
									<output>1.693229341270694</output>
								</split>
								<split pos="right">
									<output>1.3323400463194475</output>
								</split>
							</split>
						</split>
						<split pos="right">
							<feature>7</feature>
							<threshold>0.96238941</threshold>
							<split pos="left">
								<output>-0.80974939968284576</output>
							</split>
							<split pos="right">
								<feature>6</feature>
								<threshold>0.944177628</threshold>
								<split pos="left">
									<feature>3</feature>
									<threshold>0.248026311</threshold>
									<split pos="left">
										<output>0.38118796592210868</output>
									</split>
									<split pos="right">
										<output>1.3027615506154109</output>
									</split>
								</split>
								<split pos="right">
									<output>0.29245203908877015</output>
								</split>
							</split>
						</split>
					</split>
				</split>
			</split>
		</tree>
		<tree id="6" weight="0.10000000149011612">
			<split>
				<feature>6</feature>
				<threshold>0.788452089</threshold>
				<split pos="left">
					<feature>7</feature>
					<threshold>0.354062319</threshold>
					<split pos="left">
						<output>-1.1957662644336513</output>
					</split>
					<split pos="right">
						<feature>8</feature>
						<threshold>0.384886682</threshold>
						<split pos="left">
							<feature>3</feature>
							<threshold>0.181888551</threshold>
							<split pos="left">
								<feature>3</feature>
								<threshold>0.170569584</threshold>
								<split pos="left">
									<output>0.93968782718626154</output>
								</split>
								<split pos="right">
									<output>1.2349334933111624</output>
								</split>
							</split>
							<split pos="right">
								<output>-0.92624149763217856</output>
							</split>
						</split>
						<split pos="right">
							<output>-1.2800281805795894</output>
						</split>
					</split>
				</split>
				<split pos="right">
					<feature>6</feature>
					<threshold>0.987189114</threshold>
					<split pos="left">
						<feature>6</feature>
						<threshold>0.902808607</threshold>
						<split pos="left">
							<output>0.79276814381382776</output>
						</split>
						<split pos="right">
							<feature>9</feature>
							<threshold>0</threshold>
							<split pos="left">
								<output>1.2725300408830402</output>
							</split>
							<split pos="right">
								<output>1.2386514757376355</output>
							</split>
						</split>
					</split>
					<split pos="right">
						<feature>6</feature>
						<threshold>0.998258948</threshold>
						<split pos="left">
							<output>0.86209061246076346</output>
						</split>
						<split pos="right">
							<output>0.042515067280914615</output>
						</split>
					</split>
				</split>
			</split>
		</tree>
		<tree id="7" weight="0.10000000149011612">
			<split>
				<feature>6</feature>
				<threshold>0.788452089</threshold>
				<split pos="left">
					<feature>7</feature>
					<threshold>0.380641639</threshold>
					<split pos="left">
						<output>-1.1441525329628714</output>
					</split>
					<split pos="right">
						<feature>8</feature>
						<threshold>0.384886682</threshold>
						<split pos="left">
							<feature>3</feature>
							<threshold>0.181888551</threshold>
							<split pos="left">
								<feature>3</feature>
								<threshold>0.170569584</threshold>
								<split pos="left">
									<output>1.0208639633638203</output>
								</split>
								<split pos="right">
									<output>1.1898857705532337</output>
								</split>
							</split>
							<split pos="right">
								<output>-0.84622457274050067</output>
							</split>
						</split>
						<split pos="right">
							<output>-1.2152705823717851</output>
						</split>
					</split>
				</split>
				<split pos="right">
					<feature>6</feature>
					<threshold>0.987189114</threshold>
					<split pos="left">
						<feature>6</feature>
						<threshold>0.902808607</threshold>
						<split pos="left">
							<output>0.77687328800939592</output>
						</split>
						<split pos="right">
							<feature>5</feature>
							<threshold>0.239058405</threshold>
							<split pos="left">
								<output>1.2209156543900259</output>
							</split>
							<split pos="right">
								<output>1.1898195487373568</output>
							</split>
						</split>
					</split>
					<split pos="right">
						<feature>6</feature>
						<threshold>0.998258948</threshold>
						<split pos="left">
							<output>0.81100737394383127</output>
						</split>
						<split pos="right">
							<output>0.022569436278214578</output>
						</split>
					</split>
				</split>
			</split>
		</tree>
		<tree id="8" weight="0.10000000149011612">
			<split>
				<feature>6</feature>
				<threshold>0.788452089</threshold>
				<split pos="left">
					<feature>7</feature>
					<threshold>0.380641639</threshold>
					<split pos="left">
						<output>-1.0978523385865222</output>
					</split>
					<split pos="right">
						<feature>8</feature>
						<threshold>0.384886682</threshold>
						<split pos="left">
							<feature>3</feature>
							<threshold>0.181888551</threshold>
							<split pos="left">
								<feature>3</feature>
								<threshold>0.170569584</threshold>
								<split pos="left">
									<output>0.97021102982254848</output>
								</split>
								<split pos="right">
									<output>1.1565363996639615</output>
								</split>
							</split>
							<split pos="right">
								<output>-0.72326568021514681</output>
							</split>
						</split>
						<split pos="right">
							<output>-1.1702509967493069</output>
						</split>
					</split>
				</split>
				<split pos="right">
					<feature>6</feature>
					<threshold>0.987189114</threshold>
					<split pos="left">
						<feature>6</feature>
						<threshold>0.902808607</threshold>
						<split pos="left">
							<output>0.69535304586436675</output>
						</split>
						<split pos="right">
							<feature>8</feature>
							<threshold>0.910885334</threshold>
							<split pos="left">
								<output>1.1816670803053739</output>
							</split>
							<split pos="right">
								<output>1.1529959479096958</output>
							</split>
						</split>
					</split>
					<split pos="right">
						<feature>6</feature>
						<threshold>0.998258948</threshold>
						<split pos="left">
							<output>0.7660890674170554</output>
						</split>
						<split pos="right">
							<output>0.013487726081942373</output>
						</split>
					</split>
				</split>
			</split>
		</tree>
		<tree id="9" weight="0.10000000149011612">
			<split>
				<feature>6</feature>
				<threshold>0.788452089</threshold>
				<split pos="left">
					<feature>7</feature>
					<threshold>0.380641639</threshold>
					<split pos="left">
						<output>-1.0555217574449791</output>
					</split>
					<split pos="right">
						<feature>8</feature>
						<threshold>0.384886682</threshold>
						<split pos="left">
							<feature>3</feature>
							<threshold>0.181888551</threshold>
							<split pos="left">
								<feature>3</feature>
								<threshold>0.170569584</threshold>
								<split pos="left">
									<output>0.90566882785729652</output>
								</split>
								<split pos="right">
									<output>1.1316947989929755</output>
								</split>
							</split>
							<split pos="right">
								<output>-0.6181810391852377</output>
							</split>
						</split>
						<split pos="right">
							<output>-1.1291613797811539</output>
						</split>
					</split>
				</split>
				<split pos="right">
					<feature>6</feature>
					<threshold>0.987189114</threshold>
					<split pos="left">
						<feature>6</feature>
						<threshold>0.902808607</threshold>
						<split pos="left">
							<output>0.62483451454891792</output>
						</split>
						<split pos="right">
							<feature>4</feature>
							<threshold>0.335556477</threshold>
							<split pos="left">
								<output>1.1519877944849262</output>
							</split>
							<split pos="right">
								<output>1.1248938491009197</output>
							</split>
						</split>
					</split>
					<split pos="right">
						<feature>6</feature>
						<threshold>0.998258948</threshold>
						<split pos="left">
							<output>0.72619898055123688</output>
						</split>
						<split pos="right">
							<output>-0.0029004779175454713</output>
						</split>
					</split>
				</split>
			</split>
		</tree>
		<tree id="10" weight="0.10000000149011612">
			<split>
				<feature>7</feature>
				<threshold>0.452035666</threshold>
				<split pos="left">
					<output>-0.9595499232931386</output>
				</split>
				<split pos="right">
					<feature>7</feature>
					<threshold>0.456096619</threshold>
					<split pos="left">
						<output>1.1130670694216152</output>
					</split>
					<split pos="right">
						<feature>5</feature>
						<threshold>0.22007449</threshold>
						<split pos="left">
							<feature>5</feature>
							<threshold>0.20155558</threshold>
							<split pos="left">
								<feature>5</feature>
								<threshold>0.197940141</threshold>
								<split pos="left">
									<output>0.48801206375838813</output>
								</split>
								<split pos="right">
									<output>1.1253260390494033</output>
								</split>
							</split>
							<split pos="right">
								<feature>6</feature>
								<threshold>0.816938579</threshold>
								<split pos="left">
									<output>1.3984747899501941</output>
								</split>
								<split pos="right">
									<output>1.1293677605504229</output>
								</split>
							</split>
						</split>
						<split pos="right">
							<feature>8</feature>
							<threshold>0.998783946</threshold>
							<split pos="left">
								<output>-0.55487805400254864</output>
							</split>
							<split pos="right">
								<feature>3</feature>
								<threshold>0.38268584</threshold>
								<split pos="left">
									<feature>3</feature>
									<threshold>0.221563712</threshold>
									<split pos="left">
										<output>0.49295166183740879</output>
									</split>
									<split pos="right">
										<output>1.1031469144564952</output>
									</split>
								</split>
								<split pos="right">
									<output>0.022479769157526343</output>
								</split>
							</split>
						</split>
					</split>
				</split>
			</split>
		</tree>
		<tree id="11" weight="0.10000000149011612">
			<split>
				<feature>6</feature>
				<threshold>0.788452089</threshold>
				<split pos="left">
					<feature>7</feature>
					<threshold>0.380641639</threshold>
					<split pos="left">
						<output>-0.9854157444508409</output>
					</split>
					<split pos="right">
						<feature>8</feature>
						<threshold>0.384886682</threshold>
						<split pos="left">
							<feature>9</feature>
							<threshold>0</threshold>
							<split pos="left">
								<feature>7</feature>
								<threshold>0.456096619</threshold>
								<split pos="left">
									<output>1.1202776684165348</output>
								</split>
								<split pos="right">
									<output>1.4674774830148432</output>
								</split>
							</split>
							<split pos="right">
								<output>0.10097590754447815</output>
							</split>
						</split>
						<split pos="right">
							<output>-1.0841913556403244</output>
						</split>
					</split>
				</split>
				<split pos="right">
					<feature>6</feature>
					<threshold>0.987189114</threshold>
					<split pos="left">
						<feature>6</feature>
						<threshold>0.902808607</threshold>
						<split pos="left">
							<output>0.53855202602950591</output>
						</split>
						<split pos="right">
							<output>1.1055634418762814</output>
						</split>
					</split>
					<split pos="right">
						<feature>6</feature>
						<threshold>0.998258948</threshold>
						<split pos="left">
							<output>0.65941230280454211</output>
						</split>
						<split pos="right">
							<feature>3</feature>
							<threshold>0.0898414552</threshold>
							<split pos="left">
								<output>-0.54874361455025433</output>
							</split>
							<split pos="right">
								<output>0.29709122207571809</output>
							</split>
						</split>
					</split>
				</split>
			</split>
		</tree>
		<tree id="12" weight="0.10000000149011612">
			<split>
				<feature>6</feature>
				<threshold>0.788452089</threshold>
				<split pos="left">
					<feature>7</feature>
					<threshold>0.380641639</threshold>
					<split pos="left">
						<output>-0.94801610244549406</output>
					</split>
					<split pos="right">
						<feature>8</feature>
						<threshold>0.384886682</threshold>
						<split pos="left">
							<feature>9</feature>
							<threshold>0</threshold>
							<split pos="left">
								<feature>7</feature>
								<threshold>0.456096619</threshold>
								<split pos="left">
									<output>1.1040216997928574</output>
								</split>
								<split pos="right">
									<output>1.4314926628063565</output>
								</split>
							</split>
							<split pos="right">
								<output>0.078331417993412644</output>
							</split>
						</split>
						<split pos="right">
							<output>-1.0634506509794703</output>
						</split>
					</split>
				</split>
				<split pos="right">
					<feature>6</feature>
					<threshold>0.987189114</threshold>
					<split pos="left">
						<feature>6</feature>
						<threshold>0.902808607</threshold>
						<split pos="left">
							<output>0.48291647479983768</output>
						</split>
						<split pos="right">
							<output>1.0934069240166788</output>
						</split>
					</split>
					<split pos="right">
						<feature>6</feature>
						<threshold>0.998258948</threshold>
						<split pos="left">
							<output>0.6169787399227632</output>
						</split>
						<split pos="right">
							<feature>3</feature>
							<threshold>0.0575784743</threshold>
							<split pos="left">
								<output>-0.53496579863693294</output>
							</split>
							<split pos="right">
								<output>0.26546823126983832</output>
							</split>
						</split>
					</split>
				</split>
			</split>
		</tree>
		<tree id="13" weight="0.10000000149011612">
			<split>
				<feature>7</feature>
				<threshold>0.452035666</threshold>
				<split pos="left">
					<output>-0.84624531601014752</output>
				</split>
				<split pos="right">
					<feature>7</feature>
					<threshold>0.456096619</threshold>
					<split pos="left">
						<output>1.0730901599669018</output>
					</split>
					<split pos="right">
						<feature>5</feature>
						<threshold>0.22007449</threshold>
						<split pos="left">
							<feature>5</feature>
							<threshold>0.20155558</threshold>
							<split pos="left">
								<feature>5</feature>
								<threshold>0.197940141</threshold>
								<split pos="left">
									<output>0.3855137115723356</output>
								</split>
								<split pos="right">
									<output>1.0985901894063723</output>
								</split>
							</split>
							<split pos="right">
								<feature>8</feature>
								<threshold>0.384886682</threshold>
								<split pos="left">
									<output>1.2957474133813909</output>
								</split>
								<split pos="right">
									<output>1.093664321896622</output>
								</split>
							</split>
						</split>
						<split pos="right">
							<feature>6</feature>
							<threshold>0.902808607</threshold>
							<split pos="left">
								<output>-0.66425603357747154</output>
							</split>
							<split pos="right">
								<feature>6</feature>
								<threshold>0.987189114</threshold>
								<split pos="left">
									<output>1.0637225535916681</output>
								</split>
								<split pos="right">
									<feature>7</feature>
									<threshold>0.997542083</threshold>
									<split pos="left">
										<output>0.91387717046583239</output>
									</split>
									<split pos="right">
										<output>-0.24039540397580264</output>
									</split>
								</split>
							</split>
						</split>
					</split>
				</split>
			</split>
		</tree>
		<tree id="14" weight="0.10000000149011612">
			<split>
				<feature>7</feature>
				<threshold>0.612863839</threshold>
				<split pos="left">
					<feature>7</feature>
					<threshold>0.380641639</threshold>
					<split pos="left">
						<output>-0.88303876734494091</output>
					</split>
					<split pos="right">
						<output>0.080843147603266177</output>
					</split>
				</split>
				<split pos="right">
					<feature>8</feature>
					<threshold>0.503172517</threshold>
					<split pos="left">
						<feature>8</feature>
						<threshold>0.455242753</threshold>
						<split pos="left">
							<output>0.91649474130004016</output>
						</split>
						<split pos="right">
							<feature>4</feature>
							<threshold>0.253120661</threshold>
							<split pos="left">
								<output>1.0858855189375474</output>
							</split>
							<split pos="right">
								<output>1.2233502850600471</output>
							</split>
						</split>
					</split>
					<split pos="right">
						<feature>3</feature>
						<threshold>0.000298329367</threshold>
						<split pos="left">
							<output>-0.92909571025526672</output>
						</split>
						<split pos="right">
							<feature>3</feature>
							<threshold>0.000894988072</threshold>
							<split pos="left">
								<output>1.3562465801295298</output>
							</split>
							<split pos="right">
								<feature>8</feature>
								<threshold>0.759228647</threshold>
								<split pos="left">
									<output>-1.4185850034813863</output>
								</split>
								<split pos="right">
									<feature>5</feature>
									<threshold>0.613557041</threshold>
									<split pos="left">
										<output>-0.24443680678288338</output>
									</split>
									<split pos="right">
										<output>0.89344981714222926</output>
									</split>
								</split>
							</split>
						</split>
					</split>
				</split>
			</split>
		</tree>
		<tree id="15" weight="0.10000000149011612">
			<split>
				<feature>7</feature>
				<threshold>0.612863839</threshold>
				<split pos="left">
					<feature>7</feature>
					<threshold>0.564501643</threshold>
					<split pos="left">
						<output>-0.44435895353370058</output>
					</split>
					<split pos="right">
						<output>-1.4182767409321182</output>
					</split>
				</split>
				<split pos="right">
					<feature>8</feature>
					<threshold>0.503172517</threshold>
					<split pos="left">
						<feature>8</feature>
						<threshold>0.455242753</threshold>
						<split pos="left">
							<output>0.86872555676951579</output>
						</split>
						<split pos="right">
							<feature>4</feature>
							<threshold>0.327167749</threshold>
							<split pos="left">
								<output>1.0777599843470382</output>
							</split>
							<split pos="right">
								<output>1.1933661183741626</output>
							</split>
						</split>
					</split>
					<split pos="right">
						<feature>3</feature>
						<threshold>0.000298329367</threshold>
						<split pos="left">
							<output>-0.88585217458602916</output>
						</split>
						<split pos="right">
							<feature>3</feature>
							<threshold>0.00236518448</threshold>
							<split pos="left">
								<output>1.2888105300800141</output>
							</split>
							<split pos="right">
								<feature>8</feature>
								<threshold>0.759228647</threshold>
								<split pos="left">
									<output>-1.3578902366457097</output>
								</split>
								<split pos="right">
									<feature>5</feature>
									<threshold>0.613557041</threshold>
									<split pos="left">
										<output>-0.22224731764614525</output>
									</split>
									<split pos="right">
										<output>0.84813260443231953</output>
									</split>
								</split>
							</split>
						</split>
					</split>
				</split>
			</split>
		</tree>
		<tree id="16" weight="0.10000000149011612">
			<split>
				<feature>7</feature>
				<threshold>0.380641639</threshold>
				<split pos="left">
					<output>-0.83177904927542246</output>
				</split>
				<split pos="right">
					<feature>8</feature>
					<threshold>0.493091971</threshold>
					<split pos="left">
						<feature>8</feature>
						<threshold>0.4768852</threshold>
						<split pos="left">
							<output>0.63419600009317612</output>
						</split>
						<split pos="right">
							<feature>7</feature>
							<threshold>0.702331245</threshold>
							<split pos="left">
								<output>0.550345699601127</output>
							</split>
							<split pos="right">
								<output>1.0687116832227621</output>
							</split>
						</split>
					</split>
					<split pos="right">
						<feature>3</feature>
						<threshold>0.000298329367</threshold>
						<split pos="left">
							<output>-0.83611058508968072</output>
						</split>
						<split pos="right">
							<feature>3</feature>
							<threshold>0.000894988072</threshold>
							<split pos="left">
								<output>1.2351606277421512</output>
							</split>
							<split pos="right">
								<feature>3</feature>
								<threshold>0.0310670864</threshold>
								<split pos="left">
									<output>-1.3850420317577434</output>
								</split>
								<split pos="right">
									<feature>7</feature>
									<threshold>0.782900095</threshold>
									<split pos="left">
										<output>-0.99374625143757733</output>
									</split>
									<split pos="right">
										<feature>7</feature>
										<threshold>0.804243803</threshold>
										<split pos="left">
											<output>1.2265191916527625</output>
										</split>
										<split pos="right">
											<output>0.15608262742598683</output>
										</split>
									</split>
								</split>
							</split>
						</split>
					</split>
				</split>
			</split>
		</tree>
		<tree id="17" weight="0.10000000149011612">
			<split>
				<feature>7</feature>
				<threshold>0.380641639</threshold>
				<split pos="left">
					<output>-0.79450086924852537</output>
				</split>
				<split pos="right">
					<feature>8</feature>
					<threshold>0.503172517</threshold>
					<split pos="left">
						<feature>9</feature>
						<threshold>0</threshold>
						<split pos="left">
							<feature>8</feature>
							<threshold>0.4768852</threshold>
							<split pos="left">
								<output>1.0870594057397547</output>
							</split>
							<split pos="right">
								<output>1.0760033700884077</output>
							</split>
						</split>
						<split pos="right">
							<output>-0.16590082433857811</output>
						</split>
					</split>
					<split pos="right">
						<feature>3</feature>
						<threshold>0.000298329367</threshold>
						<split pos="left">
							<output>-0.80189769271644229</output>
						</split>
						<split pos="right">
							<feature>3</feature>
							<threshold>0.000894988072</threshold>
							<split pos="left">
								<output>1.1935084930295241</output>
							</split>
							<split pos="right">
								<feature>3</feature>
								<threshold>0.0251595937</threshold>
								<split pos="left">
									<output>-1.303455922209438</output>
								</split>
								<split pos="right">
									<feature>8</feature>
									<threshold>0.759228647</threshold>
									<split pos="left">
										<output>-1.0880563953687299</output>
									</split>
									<split pos="right">
										<feature>3</feature>
										<threshold>0.423982859</threshold>
										<split pos="left">
											<output>0.82252359485043669</output>
										</split>
										<split pos="right">
											<output>-0.22173795211015129</output>
										</split>
									</split>
								</split>
							</split>
						</split>
					</split>
				</split>
			</split>
		</tree>
		<tree id="18" weight="0.10000000149011612">
			<split>
				<feature>7</feature>
				<threshold>0.380641639</threshold>
				<split pos="left">
					<output>-0.77987615419025036</output>
				</split>
				<split pos="right">
					<feature>8</feature>
					<threshold>0.493091971</threshold>
					<split pos="left">
						<feature>8</feature>
						<threshold>0.4768852</threshold>
						<split pos="left">
							<feature>3</feature>
							<threshold>0.181888551</threshold>
							<split pos="left">
								<output>0.8603158129174775</output>
							</split>
							<split pos="right">
								<output>-0.43432450416511209</output>
							</split>
						</split>
						<split pos="right">
							<feature>6</feature>
							<threshold>0.793169737</threshold>
							<split pos="left">
								<output>0.46556765089960006</output>
							</split>
							<split pos="right">
								<output>1.0566091415480312</output>
							</split>
						</split>
					</split>
					<split pos="right">
						<feature>3</feature>
						<threshold>0.000298329367</threshold>
						<split pos="left">
							<output>-0.7782677921443315</output>
						</split>
						<split pos="right">
							<feature>3</feature>
							<threshold>0.000894988072</threshold>
							<split pos="left">
								<output>1.1600767634573748</output>
							</split>
							<split pos="right">
								<feature>3</feature>
								<threshold>0.0257695056</threshold>
								<split pos="left">
									<output>-1.248572678552595</output>
								</split>
								<split pos="right">
									<feature>6</feature>
									<threshold>0.902808607</threshold>
									<split pos="left">
										<output>-0.39739056636366005</output>
									</split>
									<split pos="right">
										<output>0.38311122504022554</output>
									</split>
								</split>
							</split>
						</split>
					</split>
				</split>
			</split>
		</tree>
		<tree id="19" weight="0.10000000149011612">
			<split>
				<feature>7</feature>
				<threshold>0.612863839</threshold>
				<split pos="left">
					<feature>7</feature>
					<threshold>0.564501643</threshold>
					<split pos="left">
						<feature>7</feature>
						<threshold>0.452035666</threshold>
						<split pos="left">
							<output>-0.66833314792519316</output>
						</split>
						<split pos="right">
							<output>0.41230127498329527</output>
						</split>
					</split>
					<split pos="right">
						<output>-1.3114460966094801</output>
					</split>
				</split>
				<split pos="right">
					<feature>6</feature>
					<threshold>0.998258948</threshold>
					<split pos="left">
						<feature>6</feature>
						<threshold>0.902808607</threshold>
						<split pos="left">
							<output>0.39326516191746191</output>
						</split>
						<split pos="right">
							<output>0.94398991083757688</output>
						</split>
					</split>
					<split pos="right">
						<feature>7</feature>
						<threshold>0.941285431</threshold>
						<split pos="left">
							<output>0.89840725798364285</output>
						</split>
						<split pos="right">
							<feature>7</feature>
							<threshold>0.977917671</threshold>
							<split pos="left">
								<output>-1.6064408664352954</output>
							</split>
							<split pos="right">
								<feature>4</feature>
								<threshold>0.427830309</threshold>
								<split pos="left">
									<output>0.72620141276295525</output>
								</split>
								<split pos="right">
									<feature>5</feature>
									<threshold>0.21354951</threshold>
									<split pos="left">
										<output>0.26235765549314533</output>
									</split>
									<split pos="right">
										<output>-0.91792019075961018</output>
									</split>
								</split>
							</split>
						</split>
					</split>
				</split>
			</split>
		</tree>
		<tree id="20" weight="0.10000000149011612">
			<split>
				<feature>7</feature>
				<threshold>0.380641639</threshold>
				<split pos="left">
					<output>-0.70250004347376149</output>
				</split>
				<split pos="right">
					<feature>8</feature>
					<threshold>0.493091971</threshold>
					<split pos="left">
						<feature>8</feature>
						<threshold>0.4768852</threshold>
						<split pos="left">
							<feature>3</feature>
							<threshold>0.181888551</threshold>
							<split pos="left">
								<output>0.79326335086180422</output>
							</split>
							<split pos="right">
								<output>-0.32197821756850165</output>
							</split>
						</split>
						<split pos="right">
							<output>0.92188508762561816</output>
						</split>
					</split>
					<split pos="right">
						<feature>3</feature>
						<threshold>0.000298329367</threshold>
						<split pos="left">
							<output>-0.75936950586110108</output>
						</split>
						<split pos="right">
							<feature>3</feature>
							<threshold>0.000894988072</threshold>
							<split pos="left">
								<output>1.129109285854718</output>
							</split>
							<split pos="right">
								<feature>3</feature>
								<threshold>0.0398606807</threshold>
								<split pos="left">
									<output>-1.2305671738652366</output>
								</split>
								<split pos="right">
									<feature>8</feature>
									<threshold>0.759228647</threshold>
									<split pos="left">
										<output>-0.96520287130831317</output>
									</split>
									<split pos="right">
										<feature>3</feature>
										<threshold>0.417220563</threshold>
										<split pos="left">
											<output>0.81025211797762209</output>
										</split>
										<split pos="right">
											<output>-0.20093324470087859</output>
										</split>
									</split>
								</split>
							</split>
						</split>
					</split>
				</split>
			</split>
		</tree>
		<tree id="21" weight="0.10000000149011612">
			<split>
				<feature>7</feature>
				<threshold>0.612863839</threshold>
				<split pos="left">
					<feature>7</feature>
					<threshold>0.564501643</threshold>
					<split pos="left">
						<feature>7</feature>
						<threshold>0.452035666</threshold>
						<split pos="left">
							<output>-0.58673512932808991</output>
						</split>
						<split pos="right">
							<output>0.36738995999905411</output>
						</split>
					</split>
					<split pos="right">
						<output>-1.3215510148926031</output>
					</split>
				</split>
				<split pos="right">
					<feature>8</feature>
					<threshold>0.503172517</threshold>
					<split pos="left">
						<feature>8</feature>
						<threshold>0.455242753</threshold>
						<split pos="left">
							<output>0.77409470983110518</output>
						</split>
						<split pos="right">
							<output>1.0493177970397913</output>
						</split>
					</split>
					<split pos="right">
						<feature>3</feature>
						<threshold>0.000298329367</threshold>
						<split pos="left">
							<output>-0.7414085075713619</output>
						</split>
						<split pos="right">
							<feature>8</feature>
							<threshold>0.759228647</threshold>
							<split pos="left">
								<output>-1.257755782740327</output>
							</split>
							<split pos="right">
								<feature>5</feature>
								<threshold>0.613557041</threshold>
								<split pos="left">
									<output>-0.23602549710781195</output>
								</split>
								<split pos="right">
									<feature>5</feature>
									<threshold>0.748933673</threshold>
									<split pos="left">
										<output>1.0481028298561437</output>
									</split>
									<split pos="right">
										<output>0.5134066306084587</output>
									</split>
								</split>
							</split>
						</split>
					</split>
				</split>
			</split>
		</tree>
		<tree id="22" weight="0.10000000149011612">
			<split>
				<feature>7</feature>
				<threshold>0.380641639</threshold>
				<split pos="left">
					<output>-0.61931093627498102</output>
				</split>
				<split pos="right">
					<feature>8</feature>
					<threshold>0.506978691</threshold>
					<split pos="left">
						<feature>9</feature>
						<threshold>0</threshold>
						<split pos="left">
							<feature>8</feature>
							<threshold>0.0562751219</threshold>
							<split pos="left">
								<output>1.082487529073475</output>
							</split>
							<split pos="right">
								<feature>8</feature>
								<threshold>0.110309921</threshold>
								<split pos="left">
									<output>1.0855304040756624</output>
								</split>
								<split pos="right">
									<output>0.97771204194237105</output>
								</split>
							</split>
						</split>
						<split pos="right">
							<output>-0.16914771964503625</output>
						</split>
					</split>
					<split pos="right">
						<feature>3</feature>
						<threshold>0.000298329367</threshold>
						<split pos="left">
							<output>-0.72536969162831433</output>
						</split>
						<split pos="right">
							<feature>3</feature>
							<threshold>0.000894988072</threshold>
							<split pos="left">
								<output>1.0953535965971699</output>
							</split>
							<split pos="right">
								<feature>3</feature>
								<threshold>0.0257695056</threshold>
								<split pos="left">
									<output>-1.1917259854702109</output>
								</split>
								<split pos="right">
									<feature>3</feature>
									<threshold>0.38268584</threshold>
									<split pos="left">
										<output>0.38744626901459217</output>
									</split>
									<split pos="right">
										<output>-0.26967139974173099</output>
									</split>
								</split>
							</split>
						</split>
					</split>
				</split>
			</split>
		</tree>
		<tree id="23" weight="0.10000000149011612">
			<split>
				<feature>7</feature>
				<threshold>0.612863839</threshold>
				<split pos="left">
					<feature>7</feature>
					<threshold>0.564501643</threshold>
					<split pos="left">
						<feature>7</feature>
						<threshold>0.452035666</threshold>
						<split pos="left">
							<output>-0.50675653961625378</output>
						</split>
						<split pos="right">
							<output>0.33556405338446915</output>
						</split>
					</split>
					<split pos="right">
						<output>-1.3414807637454416</output>
					</split>
				</split>
				<split pos="right">
					<feature>8</feature>
					<threshold>0.503172517</threshold>
					<split pos="left">
						<output>0.89458565857958661</output>
					</split>
					<split pos="right">
						<feature>3</feature>
						<threshold>0.000298329367</threshold>
						<split pos="left">
							<feature>5</feature>
							<threshold>0</threshold>
							<split pos="left">
								<output>0.25129419886367604</output>
							</split>
							<split pos="right">
								<output>-1.8723085228382745</output>
							</split>
						</split>
						<split pos="right">
							<feature>8</feature>
							<threshold>0.759228647</threshold>
							<split pos="left">
								<output>-1.2469627501539824</output>
							</split>
							<split pos="right">
								<feature>3</feature>
								<threshold>0.388413638</threshold>
								<split pos="left">
									<output>0.71427362455608601</output>
								</split>
								<split pos="right">
									<feature>3</feature>
									<threshold>0.593209922</threshold>
									<split pos="left">
										<output>-1.5608634393720333</output>
									</split>
									<split pos="right">
										<output>0.19819565779425607</output>
									</split>
								</split>
							</split>
						</split>
					</split>
				</split>
			</split>
		</tree>
		<tree id="24" weight="0.10000000149011612">
			<split>
				<feature>4</feature>
				<threshold>0.416653067</threshold>
				<split pos="left">
					<feature>7</feature>
					<threshold>0.501131296</threshold>
					<split pos="left">
						<output>-0.22492038944927825</output>
					</split>
					<split pos="right">
						<feature>8</feature>
						<threshold>0.910885334</threshold>
						<split pos="left">
							<output>1.0157391997865755</output>
						</split>
						<split pos="right">
							<output>-0.44767087257180349</output>
						</split>
					</split>
				</split>
				<split pos="right">
					<feature>4</feature>
					<threshold>0.816590369</threshold>
					<split pos="left">
						<output>-1.0416845764980389</output>
					</split>
					<split pos="right">
						<feature>4</feature>
						<threshold>0.833256423</threshold>
						<split pos="left">
							<output>1.053413952642098</output>
						</split>
						<split pos="right">
							<feature>3</feature>
							<threshold>0.000298329367</threshold>
							<split pos="left">
								<feature>8</feature>
								<threshold>0.998753786</threshold>
								<split pos="left">
									<output>0.2454934775132353</output>
								</split>
								<split pos="right">
									<output>-1.1258289890572606</output>
								</split>
							</split>
							<split pos="right">
								<feature>6</feature>
								<threshold>0.799709797</threshold>
								<split pos="left">
									<output>-1.1049191731741588</output>
								</split>
								<split pos="right">
									<feature>6</feature>
									<threshold>0.998258948</threshold>
									<split pos="left">
										<output>1.1322759048005979</output>
									</split>
									<split pos="right">
										<output>-0.024905029120494523</output>
									</split>
								</split>
							</split>
						</split>
					</split>
				</split>
			</split>
		</tree>
		<tree id="25" weight="0.10000000149011612">
			<split>
				<feature>8</feature>
				<threshold>0.910885334</threshold>
				<split pos="left">
					<feature>8</feature>
					<threshold>0.858520508</threshold>
					<split pos="left">
						<feature>7</feature>
						<threshold>0.380641639</threshold>
						<split pos="left">
							<feature>9</feature>
							<threshold>0</threshold>
							<split pos="left">
								<output>-1.0581438729847852</output>
							</split>
							<split pos="right">
								<output>0.21862454315499616</output>
							</split>
						</split>
						<split pos="right">
							<feature>9</feature>
							<threshold>0</threshold>
							<split pos="left">
								<feature>5</feature>
								<threshold>0.633120596</threshold>
								<split pos="left">
									<output>1.053526361254242</output>
								</split>
								<split pos="right">
									<output>0.04676428431223547</output>
								</split>
							</split>
							<split pos="right">
								<output>-0.26611895475209124</output>
							</split>
						</split>
					</split>
					<split pos="right">
						<output>1.3548673049096511</output>
					</split>
				</split>
				<split pos="right">
					<feature>3</feature>
					<threshold>0</threshold>
					<split pos="left">
						<output>-2.1263405105575077</output>
					</split>
					<split pos="right">
						<feature>4</feature>
						<threshold>0.904296756</threshold>
						<split pos="left">
							<output>-0.63327902256175683</output>
						</split>
						<split pos="right">
							<feature>4</feature>
							<threshold>0.945713699</threshold>
							<split pos="left">
								<output>1.0165180595019194</output>
							</split>
							<split pos="right">
								<output>0.1801812805850336</output>
							</split>
						</split>
					</split>
				</split>
			</split>
		</tree>
		<tree id="26" weight="0.10000000149011612">
			<split>
				<feature>8</feature>
				<threshold>0.910885334</threshold>
				<split pos="left">
					<feature>8</feature>
					<threshold>0.858520508</threshold>
					<split pos="left">
						<feature>7</feature>
						<threshold>0.380641639</threshold>
						<split pos="left">
							<feature>9</feature>
							<threshold>0</threshold>
							<split pos="left">
								<output>-1.0470951807539581</output>
							</split>
							<split pos="right">
								<output>0.25571396260827711</output>
							</split>
						</split>
						<split pos="right">
							<feature>5</feature>
							<threshold>0.22007449</threshold>
							<split pos="left">
								<output>0.86265045046154132</output>
							</split>
							<split pos="right">
								<output>0.12761781286237833</output>
							</split>
						</split>
					</split>
					<split pos="right">
						<output>1.269193709653718</output>
					</split>
				</split>
				<split pos="right">
					<feature>3</feature>
					<threshold>0</threshold>
					<split pos="left">
						<output>-1.8932091212593831</output>
					</split>
					<split pos="right">
						<feature>4</feature>
						<threshold>0.904296756</threshold>
						<split pos="left">
							<output>-0.58206074063073399</output>
						</split>
						<split pos="right">
							<feature>4</feature>
							<threshold>0.910205185</threshold>
							<split pos="left">
								<output>1.0146767088214874</output>
							</split>
							<split pos="right">
								<feature>7</feature>
								<threshold>0.997542083</threshold>
								<split pos="left">
									<output>0.88604909264659693</output>
								</split>
								<split pos="right">
									<output>-0.26111977808338321</output>
								</split>
							</split>
						</split>
					</split>
				</split>
			</split>
		</tree>
		<tree id="27" weight="0.10000000149011612">
			<split>
				<feature>8</feature>
				<threshold>0.910885334</threshold>
				<split pos="left">
					<feature>8</feature>
					<threshold>0.858520508</threshold>
					<split pos="left">
						<feature>7</feature>
						<threshold>0.380641639</threshold>
						<split pos="left">
							<output>-0.42859103470193605</output>
						</split>
						<split pos="right">
							<feature>5</feature>
							<threshold>0.22007449</threshold>
							<split pos="left">
								<output>0.85918192067724142</output>
							</split>
							<split pos="right">
								<feature>7</feature>
								<threshold>0.456096619</threshold>
								<split pos="left">
									<output>1.0946946388153158</output>
								</split>
								<split pos="right">
									<output>-0.17328930394167147</output>
								</split>
							</split>
						</split>
					</split>
					<split pos="right">
						<output>1.2055369184162412</output>
					</split>
				</split>
				<split pos="right">
					<feature>3</feature>
					<threshold>0</threshold>
					<split pos="left">
						<output>-1.7127513930742875</output>
					</split>
					<split pos="right">
						<feature>4</feature>
						<threshold>0.904296756</threshold>
						<split pos="left">
							<output>-0.68885751909034998</output>
						</split>
						<split pos="right">
							<feature>4</feature>
							<threshold>0.910205185</threshold>
							<split pos="left">
								<output>1.0135233357430031</output>
							</split>
							<split pos="right">
								<feature>7</feature>
								<threshold>0.997542083</threshold>
								<split pos="left">
									<output>0.82246082391529585</output>
								</split>
								<split pos="right">
									<output>-0.2618027812889398</output>
								</split>
							</split>
						</split>
					</split>
				</split>
			</split>
		</tree>
		<tree id="28" weight="0.10000000149011612">
			<split>
				<feature>8</feature>
				<threshold>0.910885334</threshold>
				<split pos="left">
					<feature>8</feature>
					<threshold>0.858520508</threshold>
					<split pos="left">
						<feature>7</feature>
						<threshold>0.380641639</threshold>
						<split pos="left">
							<feature>9</feature>
							<threshold>0</threshold>
							<split pos="left">
								<output>-1.026217502470248</output>
							</split>
							<split pos="right">
								<output>0.30483883082130075</output>
							</split>
						</split>
						<split pos="right">
							<feature>5</feature>
							<threshold>0.221633732</threshold>
							<split pos="left">
								<output>0.83649442912614658</output>
							</split>
							<split pos="right">
								<output>0.13710462461060119</output>
							</split>
						</split>
					</split>
					<split pos="right">
						<output>1.1601931054991259</output>
					</split>
				</split>
				<split pos="right">
					<feature>3</feature>
					<threshold>0</threshold>
					<split pos="left">
						<output>-1.5954253948872259</output>
					</split>
					<split pos="right">
						<feature>4</feature>
						<threshold>0.904296756</threshold>
						<split pos="left">
							<output>-0.63224901494272434</output>
						</split>
						<split pos="right">
							<feature>4</feature>
							<threshold>0.941624701</threshold>
							<split pos="left">
								<output>1.0120480517773816</output>
							</split>
							<split pos="right">
								<feature>7</feature>
								<threshold>0.997542083</threshold>
								<split pos="left">
									<output>0.80503244148254616</output>
								</split>
								<split pos="right">
									<output>-0.25208998343564737</output>
								</split>
							</split>
						</split>
					</split>
				</split>
			</split>
		</tree>
		<tree id="29" weight="0.10000000149011612">
			<split>
				<feature>4</feature>
				<threshold>0.416653067</threshold>
				<split pos="left">
					<feature>7</feature>
					<threshold>0.256729841</threshold>
					<split pos="left">
						<output>-0.31293785316456435</output>
					</split>
					<split pos="right">
						<output>0.57498804897564559</output>
					</split>
				</split>
				<split pos="right">
					<feature>3</feature>
					<threshold>0.0257695056</threshold>
					<split pos="left">
						<feature>3</feature>
						<threshold>0.0247636195</threshold>
						<split pos="left">
							<feature>8</feature>
							<threshold>0.869977951</threshold>
							<split pos="left">
								<output>0.093862422161446912</output>
							</split>
							<split pos="right">
								<output>-1.139788349677352</output>
							</split>
						</split>
						<split pos="right">
							<output>-1.6340410640291012</output>
						</split>
					</split>
					<split pos="right">
						<feature>3</feature>
						<threshold>0.181888551</threshold>
						<split pos="left">
							<output>0.48942060425743011</output>
						</split>
						<split pos="right">
							<feature>6</feature>
							<threshold>0.902808607</threshold>
							<split pos="left">
								<output>-1.0806015958667579</output>
							</split>
							<split pos="right">
								<feature>6</feature>
								<threshold>0.995276153</threshold>
								<split pos="left">
									<output>1.0111688149080051</output>
								</split>
								<split pos="right">
									<feature>7</feature>
									<threshold>0.941285431</threshold>
									<split pos="left">
										<output>0.975283927970922</output>
									</split>
									<split pos="right">
										<output>-0.27151353992576405</output>
									</split>
								</split>
							</split>
						</split>
					</split>
				</split>
			</split>
		</tree>
		<tree id="30" weight="0.10000000149011612">
			<split>
				<feature>8</feature>
				<threshold>0.910885334</threshold>
				<split pos="left">
					<feature>8</feature>
					<threshold>0.858520508</threshold>
					<split pos="left">
						<feature>7</feature>
						<threshold>0.380641639</threshold>
						<split pos="left">
							<output>-0.39859154220738191</output>
						</split>
						<split pos="right">
							<feature>9</feature>
							<threshold>0</threshold>
							<split pos="left">
								<output>0.70375795468573021</output>
							</split>
							<split pos="right">
								<output>-0.23466813683068471</output>
							</split>
						</split>
					</split>
					<split pos="right">
						<output>1.113621494072583</output>
					</split>
				</split>
				<split pos="right">
					<feature>3</feature>
					<threshold>0</threshold>
					<split pos="left">
						<output>-1.3878924173545786</output>
					</split>
					<split pos="right">
						<feature>4</feature>
						<threshold>0.904296756</threshold>
						<split pos="left">
							<output>-0.54792473184603652</output>
						</split>
						<split pos="right">
							<feature>4</feature>
							<threshold>0.910205185</threshold>
							<split pos="left">
								<output>1.0103569710104954</output>
							</split>
							<split pos="right">
								<feature>7</feature>
								<threshold>0.997542083</threshold>
								<split pos="left">
									<output>0.75413099440762466</output>
								</split>
								<split pos="right">
									<feature>9</feature>
									<threshold>0</threshold>
									<split pos="left">
										<output>-0.33349715114621759</output>
									</split>
									<split pos="right">
										<output>1.0564523713184886</output>
									</split>
								</split>
							</split>
						</split>
					</split>
				</split>
			</split>
		</tree>
		<tree id="31" weight="0.10000000149011612">
			<split>
				<feature>4</feature>
				<threshold>0.483829945</threshold>
				<split pos="left">
					<feature>7</feature>
					<threshold>0.256729841</threshold>
					<split pos="left">
						<output>-0.32985945233063407</output>
					</split>
					<split pos="right">
						<output>0.56528861708539135</output>
					</split>
				</split>
				<split pos="right">
					<feature>3</feature>
					<threshold>0.0257695056</threshold>
					<split pos="left">
						<output>-0.62782798751759061</output>
					</split>
					<split pos="right">
						<feature>3</feature>
						<threshold>0.181888551</threshold>
						<split pos="left">
							<output>0.50829469328969445</output>
						</split>
						<split pos="right">
							<feature>9</feature>
							<threshold>0</threshold>
							<split pos="left">
								<feature>8</feature>
								<threshold>0.614239216</threshold>
								<split pos="left">
									<output>-1.1781249728743146</output>
								</split>
								<split pos="right">
									<feature>8</feature>
									<threshold>0.70763272</threshold>
									<split pos="left">
										<output>-1.2357741774954332</output>
									</split>
									<split pos="right">
										<feature>4</feature>
										<threshold>0.563195527</threshold>
										<split pos="left">
											<output>-1.4315868871823898</output>
										</split>
										<split pos="right">
											<feature>8</feature>
											<threshold>0.794642866</threshold>
											<split pos="left">
												<output>-1.0020691954285401</output>
											</split>
											<split pos="right">
												<output>-0.331392635103538</output>
											</split>
										</split>
									</split>
								</split>
							</split>
							<split pos="right">
								<output>0.078390228848536872</output>
							</split>
						</split>
					</split>
				</split>
			</split>
		</tree>
		<tree id="32" weight="0.10000000149011612">
			<split>
				<feature>8</feature>
				<threshold>0.910885334</threshold>
				<split pos="left">
					<feature>8</feature>
					<threshold>0.858520508</threshold>
					<split pos="left">
						<feature>7</feature>
						<threshold>0.380641639</threshold>
						<split pos="left">
							<output>-0.34894139757991782</output>
						</split>
						<split pos="right">
							<feature>5</feature>
							<threshold>0.22007449</threshold>
							<split pos="left">
								<output>0.79327847128226248</output>
							</split>
							<split pos="right">
								<output>0.16644603165518815</output>
							</split>
						</split>
					</split>
					<split pos="right">
						<output>1.0900433729290768</output>
					</split>
				</split>
				<split pos="right">
					<feature>3</feature>
					<threshold>0</threshold>
					<split pos="left">
						<output>-1.2882360984171222</output>
					</split>
					<split pos="right">
						<feature>4</feature>
						<threshold>0.904296756</threshold>
						<split pos="left">
							<output>-0.52014784248387758</output>
						</split>
						<split pos="right">
							<feature>4</feature>
							<threshold>0.910205185</threshold>
							<split pos="left">
								<output>1.0095760134374958</output>
							</split>
							<split pos="right">
								<feature>7</feature>
								<threshold>0.997542083</threshold>
								<split pos="left">
									<output>0.72701494382505183</output>
								</split>
								<split pos="right">
									<feature>9</feature>
									<threshold>0</threshold>
									<split pos="left">
										<output>-0.31631218655330318</output>
									</split>
									<split pos="right">
										<output>1.0468554783125255</output>
									</split>
								</split>
							</split>
						</split>
					</split>
				</split>
			</split>
		</tree>
		<tree id="33" weight="0.10000000149011612">
			<split>
				<feature>5</feature>
				<threshold>0.766988039</threshold>
				<split pos="left">
					<feature>5</feature>
					<threshold>0.622202039</threshold>
					<split pos="left">
						<feature>7</feature>
						<threshold>0.501131296</threshold>
						<split pos="left">
							<output>-0.30316624601606301</output>
						</split>
						<split pos="right">
							<output>0.37156342873954612</output>
						</split>
					</split>
					<split pos="right">
						<output>0.74343549644811791</output>
					</split>
				</split>
				<split pos="right">
					<feature>8</feature>
					<threshold>0.70756191</threshold>
					<split pos="left">
						<output>-0.059511347030668821</output>
					</split>
					<split pos="right">
						<feature>9</feature>
						<threshold>0</threshold>
						<split pos="left">
							<feature>3</feature>
							<threshold>0</threshold>
							<split pos="left">
								<output>-1.2327055702889542</output>
							</split>
							<split pos="right">
								<feature>4</feature>
								<threshold>0.808087826</threshold>
								<split pos="left">
									<output>-1.2536647491701984</output>
								</split>
								<split pos="right">
									<feature>6</feature>
									<threshold>0.998258948</threshold>
									<split pos="left">
										<output>1.0637420933247883</output>
									</split>
									<split pos="right">
										<feature>8</feature>
										<threshold>0.998753786</threshold>
										<split pos="left">
											<output>-1.029377386417446</output>
										</split>
										<split pos="right">
											<output>-0.28334686377521767</output>
										</split>
									</split>
								</split>
							</split>
						</split>
						<split pos="right">
							<output>0.43187365391166682</output>
						</split>
					</split>
				</split>
			</split>
		</tree>
		<tree id="34" weight="0.10000000149011612">
			<split>
				<feature>8</feature>
				<threshold>0.910885334</threshold>
				<split pos="left">
					<feature>7</feature>
					<threshold>0.380641639</threshold>
					<split pos="left">
						<output>-0.30323921755613503</output>
					</split>
					<split pos="right">
						<feature>5</feature>
						<threshold>0.22007449</threshold>
						<split pos="left">
							<output>0.84186225418491012</output>
						</split>
						<split pos="right">
							<output>0.1893912266964492</output>
						</split>
					</split>
				</split>
				<split pos="right">
					<feature>3</feature>
					<threshold>0</threshold>
					<split pos="left">
						<output>-1.17271478576474</output>
					</split>
					<split pos="right">
						<feature>7</feature>
						<threshold>0.977917671</threshold>
						<split pos="left">
							<output>-0.48453261999499736</output>
						</split>
						<split pos="right">
							<feature>6</feature>
							<threshold>0.998258948</threshold>
							<split pos="left">
								<output>1.0100087640767519</output>
							</split>
							<split pos="right">
								<feature>5</feature>
								<threshold>0.653589547</threshold>
								<split pos="left">
									<output>0.44376164510785188</output>
								</split>
								<split pos="right">
									<feature>9</feature>
									<threshold>0</threshold>
									<split pos="left">
										<feature>3</feature>
										<threshold>0.000298329367</threshold>
										<split pos="left">
											<output>-1.0184894903729405</output>
										</split>
										<split pos="right">
											<output>-0.27990849316189559</output>
										</split>
									</split>
									<split pos="right">
										<output>1.0378633737921197</output>
									</split>
								</split>
							</split>
						</split>
					</split>
				</split>
			</split>
		</tree>
		<tree id="35" weight="0.10000000149011612">
			<split>
				<feature>8</feature>
				<threshold>0.910885334</threshold>
				<split pos="left">
					<feature>7</feature>
					<threshold>0.262920529</threshold>
					<split pos="left">
						<output>-0.45517361327887429</output>
					</split>
					<split pos="right">
						<feature>7</feature>
						<threshold>0.264298499</threshold>
						<split pos="left">
							<output>5.4077556890610952</output>
						</split>
						<split pos="right">
							<output>0.36124936683667352</output>
						</split>
					</split>
				</split>
				<split pos="right">
					<feature>3</feature>
					<threshold>0</threshold>
					<split pos="left">
						<output>-1.1070614924971587</output>
					</split>
					<split pos="right">
						<feature>4</feature>
						<threshold>0.904296756</threshold>
						<split pos="left">
							<output>-0.49066074259280357</output>
						</split>
						<split pos="right">
							<feature>4</feature>
							<threshold>0.917060912</threshold>
							<split pos="left">
								<output>1.0076313694870012</output>
							</split>
							<split pos="right">
								<feature>7</feature>
								<threshold>0.997542083</threshold>
								<split pos="left">
									<output>0.66354447735954969</output>
								</split>
								<split pos="right">
									<feature>9</feature>
									<threshold>0</threshold>
									<split pos="left">
										<feature>3</feature>
										<threshold>0.000298329367</threshold>
										<split pos="left">
											<output>-1.0150948353308347</output>
										</split>
										<split pos="right">
											<output>-0.27426723519735186</output>
										</split>
									</split>
									<split pos="right">
										<output>1.0331112794424737</output>
									</split>
								</split>
							</split>
						</split>
					</split>
				</split>
			</split>
		</tree>
		<tree id="36" weight="0.10000000149011612">
			<split>
				<feature>8</feature>
				<threshold>0.910885334</threshold>
				<split pos="left">
					<feature>7</feature>
					<threshold>0.380641639</threshold>
					<split pos="left">
						<output>-0.28391889367768097</output>
					</split>
					<split pos="right">
						<output>0.47868843167235697</output>
					</split>
				</split>
				<split pos="right">
					<feature>3</feature>
					<threshold>0</threshold>
					<split pos="left">
						<output>-1.058006642202129</output>
					</split>
					<split pos="right">
						<feature>6</feature>
						<threshold>0.888910532</threshold>
						<split pos="left">
							<output>-0.83087861054312817</output>
						</split>
						<split pos="right">
							<feature>7</feature>
							<threshold>0.96238941</threshold>
							<split pos="left">
								<output>1.1458623522242608</output>
							</split>
							<split pos="right">
								<feature>7</feature>
								<threshold>0.977917671</threshold>
								<split pos="left">
									<output>-1.205236190816638</output>
								</split>
								<split pos="right">
									<feature>6</feature>
									<threshold>0.987189114</threshold>
									<split pos="left">
										<output>1.007252460552146</output>
									</split>
									<split pos="right">
										<feature>5</feature>
										<threshold>0.991514564</threshold>
										<split pos="left">
											<output>0.56208472796097986</output>
										</split>
										<split pos="right">
											<feature>9</feature>
											<threshold>0</threshold>
											<split pos="left">
												<output>-0.26397863993039472</output>
											</split>
											<split pos="right">
												<output>1.0285325488777519</output>
											</split>
										</split>
									</split>
								</split>
							</split>
						</split>
					</split>
				</split>
			</split>
		</tree>
		<tree id="37" weight="0.10000000149011612">
			<split>
				<feature>8</feature>
				<threshold>0.910885334</threshold>
				<split pos="left">
					<feature>7</feature>
					<threshold>0.380641639</threshold>
					<split pos="left">
						<output>-0.26397360398441755</output>
					</split>
					<split pos="right">
						<feature>9</feature>
						<threshold>0</threshold>
						<split pos="left">
							<output>0.67638632610606653</output>
						</split>
						<split pos="right">
							<output>-0.073778380648409247</output>
						</split>
					</split>
				</split>
				<split pos="right">
					<feature>3</feature>
					<threshold>0</threshold>
					<split pos="left">
						<output>-1.0002790328738729</output>
					</split>
					<split pos="right">
						<feature>3</feature>
						<threshold>0.593209922</threshold>
						<split pos="left">
							<output>-0.68325204696842901</output>
						</split>
						<split pos="right">
							<feature>3</feature>
							<threshold>0.638848066</threshold>
							<split pos="left">
								<output>1.1468693958681706</output>
							</split>
							<split pos="right">
								<feature>9</feature>
								<threshold>0</threshold>
								<split pos="left">
									<feature>4</feature>
									<threshold>0.423149914</threshold>
									<split pos="left">
										<output>-0.24684080986440346</output>
									</split>
									<split pos="right">
										<feature>3</feature>
										<threshold>0.790289521</threshold>
										<split pos="left">
											<output>-1.3268501810612912</output>
										</split>
										<split pos="right">
											<output>-0.24607237124610334</output>
										</split>
									</split>
								</split>
								<split pos="right">
									<output>0.96542094210773233</output>
								</split>
							</split>
						</split>
					</split>
				</split>
			</split>
		</tree>
		<tree id="38" weight="0.10000000149011612">
			<split>
				<feature>8</feature>
				<threshold>0.910885334</threshold>
				<split pos="left">
					<feature>7</feature>
					<threshold>0.262920529</threshold>
					<split pos="left">
						<output>-0.41485535009288899</output>
					</split>
					<split pos="right">
						<output>0.43684125835322729</output>
					</split>
				</split>
				<split pos="right">
					<feature>3</feature>
					<threshold>0</threshold>
					<split pos="left">
						<output>-0.94553199156652779</output>
					</split>
					<split pos="right">
						<feature>6</feature>
						<threshold>0.888910532</threshold>
						<split pos="left">
							<output>-0.74183038367864218</output>
						</split>
						<split pos="right">
							<feature>6</feature>
							<threshold>0.944177628</threshold>
							<split pos="left">
								<output>1.0074736242784419</output>
							</split>
							<split pos="right">
								<feature>7</feature>
								<threshold>0.941285431</threshold>
								<split pos="left">
									<output>1.135579444242705</output>
								</split>
								<split pos="right">
									<feature>7</feature>
									<threshold>0.977917671</threshold>
									<split pos="left">
										<output>-1.1581345553136004</output>
									</split>
									<split pos="right">
										<feature>5</feature>
										<threshold>0.991514564</threshold>
										<split pos="left">
											<output>0.56621200630601931</output>
										</split>
										<split pos="right">
											<feature>9</feature>
											<threshold>0</threshold>
											<split pos="left">
												<output>-0.25605838944738868</output>
											</split>
											<split pos="right">
												<output>1.0221283789214499</output>
											</split>
										</split>
									</split>
								</split>
							</split>
						</split>
					</split>
				</split>
			</split>
		</tree>
		<tree id="39" weight="0.10000000149011612">
			<split>
				<feature>5</feature>
				<threshold>0.766988039</threshold>
				<split pos="left">
					<feature>5</feature>
					<threshold>0.622202039</threshold>
					<split pos="left">
						<feature>5</feature>
						<threshold>0.239058405</threshold>
						<split pos="left">
							<feature>5</feature>
							<threshold>0.210947365</threshold>
							<split pos="left">
								<output>0.18145589350308033</output>
							</split>
							<split pos="right">
								<output>1.3749639015171717</output>
							</split>
						</split>
						<split pos="right">
							<output>-0.52237572290183643</output>
						</split>
					</split>
					<split pos="right">
						<output>0.69775480988603145</output>
					</split>
				</split>
				<split pos="right">
					<feature>9</feature>
					<threshold>0</threshold>
					<split pos="left">
						<feature>8</feature>
						<threshold>0.998753786</threshold>
						<split pos="left">
							<output>-0.24266548202607552</output>
						</split>
						<split pos="right">
							<feature>3</feature>
							<threshold>0</threshold>
							<split pos="left">
								<output>-1.911109707148956</output>
							</split>
							<split pos="right">
								<feature>3</feature>
								<threshold>0.000894988072</threshold>
								<split pos="left">
									<output>1.008229613932111</output>
								</split>
								<split pos="right">
									<feature>3</feature>
									<threshold>0.790289521</threshold>
									<split pos="left">
										<output>-1.3104677599072239</output>
									</split>
									<split pos="right">
										<output>-0.23775159282888761</output>
									</split>
								</split>
							</split>
						</split>
					</split>
					<split pos="right">
						<output>0.020921225895551898</output>
					</split>
				</split>
			</split>
		</tree>
		<tree id="40" weight="0.10000000149011612">
			<split>
				<feature>5</feature>
				<threshold>0.766988039</threshold>
				<split pos="left">
					<feature>5</feature>
					<threshold>0.622202039</threshold>
					<split pos="left">
						<feature>5</feature>
						<threshold>0.239058405</threshold>
						<split pos="left">
							<feature>5</feature>
							<threshold>0.20056133</threshold>
							<split pos="left">
								<output>0.12845636511678385</output>
							</split>
							<split pos="right">
								<output>1.1970755521316174</output>
							</split>
						</split>
						<split pos="right">
							<output>-0.48606769398154293</output>
						</split>
					</split>
					<split pos="right">
						<output>0.67024000192425781</output>
					</split>
				</split>
				<split pos="right">
					<feature>9</feature>
					<threshold>0</threshold>
					<split pos="left">
						<feature>8</feature>
						<threshold>0.998753786</threshold>
						<split pos="left">
							<output>-0.21496677646950429</output>
						</split>
						<split pos="right">
							<feature>3</feature>
							<threshold>0</threshold>
							<split pos="left">
								<output>-1.7390804303742013</output>
							</split>
							<split pos="right">
								<feature>3</feature>
								<threshold>0.00550785661</threshold>
								<split pos="left">
									<output>1.0073596645569238</output>
								</split>
								<split pos="right">
									<feature>7</feature>
									<threshold>0.566620111</threshold>
									<split pos="left">
										<output>-1.2847966679155274</output>
									</split>
									<split pos="right">
										<output>-0.21722393322476785</output>
									</split>
								</split>
							</split>
						</split>
					</split>
					<split pos="right">
						<output>0.040077893633332806</output>
					</split>
				</split>
			</split>
		</tree>
		<tree id="41" weight="0.10000000149011612">
			<split>
				<feature>8</feature>
				<threshold>0.910885334</threshold>
				<split pos="left">
					<feature>7</feature>
					<threshold>0.262920529</threshold>
					<split pos="left">
						<output>-0.46678170997051849</output>
					</split>
					<split pos="right">
						<feature>7</feature>
						<threshold>0.264298499</threshold>
						<split pos="left">
							<output>3.7288537686325136</output>
						</split>
						<split pos="right">
							<output>0.35972468703638211</output>
						</split>
					</split>
				</split>
				<split pos="right">
					<feature>3</feature>
					<threshold>0</threshold>
					<split pos="left">
						<output>-0.74011558519404663</output>
					</split>
					<split pos="right">
						<feature>3</feature>
						<threshold>0.593209922</threshold>
						<split pos="left">
							<output>-0.67400760258142201</output>
						</split>
						<split pos="right">
							<feature>3</feature>
							<threshold>0.638848066</threshold>
							<split pos="left">
								<output>1.1472836652302407</output>
							</split>
							<split pos="right">
								<feature>9</feature>
								<threshold>0</threshold>
								<split pos="left">
									<feature>4</feature>
									<threshold>0.423149914</threshold>
									<split pos="left">
										<output>-0.26166898786340059</output>
									</split>
									<split pos="right">
										<feature>3</feature>
										<threshold>0.790289521</threshold>
										<split pos="left">
											<output>-1.2621016699915677</output>
										</split>
										<split pos="right">
											<output>-0.19943162560155478</output>
										</split>
									</split>
								</split>
								<split pos="right">
									<output>0.97909640318873004</output>
								</split>
							</split>
						</split>
					</split>
				</split>
			</split>
		</tree>
		<tree id="42" weight="0.10000000149011612">
			<split>
				<feature>5</feature>
				<threshold>0.766988039</threshold>
				<split pos="left">
					<feature>5</feature>
					<threshold>0.622202039</threshold>
					<split pos="left">
						<feature>5</feature>
						<threshold>0.249921635</threshold>
						<split pos="left">
							<feature>5</feature>
							<threshold>0.20056133</threshold>
							<split pos="left">
								<output>0.11517982027918888</output>
							</split>
							<split pos="right">
								<output>1.1338648056257268</output>
							</split>
						</split>
						<split pos="right">
							<output>-0.46442038764426613</output>
						</split>
					</split>
					<split pos="right">
						<output>0.65786039816020647</output>
					</split>
				</split>
				<split pos="right">
					<feature>9</feature>
					<threshold>0</threshold>
					<split pos="left">
						<feature>8</feature>
						<threshold>0.998753786</threshold>
						<split pos="left">
							<output>-0.20504741353963668</output>
						</split>
						<split pos="right">
							<feature>3</feature>
							<threshold>0</threshold>
							<split pos="left">
								<output>-1.5966434397023934</output>
							</split>
							<split pos="right">
								<feature>3</feature>
								<threshold>0.000894988072</threshold>
								<split pos="left">
									<output>1.0066026290759618</output>
								</split>
								<split pos="right">
									<feature>3</feature>
									<threshold>0.790289521</threshold>
									<split pos="left">
										<output>-1.2466549338627406</output>
									</split>
									<split pos="right">
										<output>-0.1744811407518683</output>
									</split>
								</split>
							</split>
						</split>
					</split>
					<split pos="right">
						<output>0.035150208709702861</output>
					</split>
				</split>
			</split>
		</tree>
		<tree id="43" weight="0.10000000149011612">
			<split>
				<feature>5</feature>
				<threshold>0.766988039</threshold>
				<split pos="left">
					<feature>5</feature>
					<threshold>0.622202039</threshold>
					<split pos="left">
						<feature>7</feature>
						<threshold>0.977917671</threshold>
						<split pos="left">
							<feature>7</feature>
							<threshold>0.905450821</threshold>
							<split pos="left">
								<output>0.1430640846469142</output>
							</split>
							<split pos="right">
								<output>-1.2437930946003479</output>
							</split>
						</split>
						<split pos="right">
							<output>0.61284533647494899</output>
						</split>
					</split>
					<split pos="right">
						<output>0.64863955525073136</output>
					</split>
				</split>
				<split pos="right">
					<feature>9</feature>
					<threshold>0</threshold>
					<split pos="left">
						<feature>8</feature>
						<threshold>0.998753786</threshold>
						<split pos="left">
							<output>-0.1834790415007686</output>
						</split>
						<split pos="right">
							<feature>3</feature>
							<threshold>0</threshold>
							<split pos="left">
								<output>-1.502772284552871</output>
							</split>
							<split pos="right">
								<feature>3</feature>
								<threshold>0.120871253</threshold>
								<split pos="left">
									<output>1.0059241906559864</output>
								</split>
								<split pos="right">
									<feature>3</feature>
									<threshold>0.790289521</threshold>
									<split pos="left">
										<output>-1.2270633713121446</output>
									</split>
									<split pos="right">
										<output>-0.15724692873670443</output>
									</split>
								</split>
							</split>
						</split>
					</split>
					<split pos="right">
						<output>0.058137194537867726</output>
					</split>
				</split>
			</split>
		</tree>
		<tree id="44" weight="0.10000000149011612">
			<split>
				<feature>5</feature>
				<threshold>0.696695864</threshold>
				<split pos="left">
					<feature>5</feature>
					<threshold>0.622202039</threshold>
					<split pos="left">
						<feature>7</feature>
						<threshold>0.501131296</threshold>
						<split pos="left">
							<output>-0.25997170490431398</output>
						</split>
						<split pos="right">
							<feature>8</feature>
							<threshold>0.910885334</threshold>
							<split pos="left">
								<output>0.81389269040599754</output>
							</split>
							<split pos="right">
								<output>-0.3157157869006097</output>
							</split>
						</split>
					</split>
					<split pos="right">
						<output>1.0412814123521936</output>
					</split>
				</split>
				<split pos="right">
					<feature>9</feature>
					<threshold>0</threshold>
					<split pos="left">
						<feature>8</feature>
						<threshold>0.998753786</threshold>
						<split pos="left">
							<output>-0.17841577344771611</output>
						</split>
						<split pos="right">
							<feature>3</feature>
							<threshold>0</threshold>
							<split pos="left">
								<output>-1.4264749850937928</output>
							</split>
							<split pos="right">
								<feature>3</feature>
								<threshold>0.0575784743</threshold>
								<split pos="left">
									<output>1.00533110384959</output>
								</split>
								<split pos="right">
									<feature>6</feature>
									<threshold>0.596231163</threshold>
									<split pos="left">
										<output>-1.2044527700940404</output>
									</split>
									<split pos="right">
										<output>-0.15032156811017572</output>
									</split>
								</split>
							</split>
						</split>
					</split>
					<split pos="right">
						<output>0.0029945392589408666</output>
					</split>
				</split>
			</split>
		</tree>
		<tree id="45" weight="0.10000000149011612">
			<split>
				<feature>5</feature>
				<threshold>0.766988039</threshold>
				<split pos="left">
					<feature>7</feature>
					<threshold>0.262920529</threshold>
					<split pos="left">
						<output>-0.42886161175902227</output>
					</split>
					<split pos="right">
						<feature>7</feature>
						<threshold>0.264298499</threshold>
						<split pos="left">
							<output>2.857700688978519</output>
						</split>
						<split pos="right">
							<feature>9</feature>
							<threshold>0</threshold>
							<split pos="left">
								<output>0.62674728402772761</output>
							</split>
							<split pos="right">
								<output>-0.26061125811732722</output>
							</split>
						</split>
					</split>
				</split>
				<split pos="right">
					<feature>9</feature>
					<threshold>0</threshold>
					<split pos="left">
						<feature>8</feature>
						<threshold>0.998753786</threshold>
						<split pos="left">
							<output>-0.17299837070755925</output>
						</split>
						<split pos="right">
							<feature>3</feature>
							<threshold>0</threshold>
							<split pos="left">
								<output>-1.3795185151263425</output>
							</split>
							<split pos="right">
								<feature>3</feature>
								<threshold>0.000894988072</threshold>
								<split pos="left">
									<output>1.0047589327780495</output>
								</split>
								<split pos="right">
									<feature>3</feature>
									<threshold>0.790289521</threshold>
									<split pos="left">
										<output>-1.1908751256600036</output>
									</split>
									<split pos="right">
										<output>-0.15004119656422296</output>
									</split>
								</split>
							</split>
						</split>
					</split>
					<split pos="right">
						<output>0.10015074606064167</output>
					</split>
				</split>
			</split>
		</tree>
		<tree id="46" weight="0.10000000149011612">
			<split>
				<feature>7</feature>
				<threshold>0.247692689</threshold>
				<split pos="left">
					<output>-0.5273959044276324</output>
				</split>
				<split pos="right">
					<feature>8</feature>
					<threshold>0.503172517</threshold>
					<split pos="left">
						<output>0.54257836673584392</output>
					</split>
					<split pos="right">
						<feature>7</feature>
						<threshold>0.941285431</threshold>
						<split pos="left">
							<output>0.45585228343695688</output>
						</split>
						<split pos="right">
							<feature>7</feature>
							<threshold>0.977917671</threshold>
							<split pos="left">
								<output>-1.1903019470043212</output>
							</split>
							<split pos="right">
								<feature>5</feature>
								<threshold>0.871815026</threshold>
								<split pos="left">
									<output>0.41817117286945488</output>
								</split>
								<split pos="right">
									<feature>5</feature>
									<threshold>0.902701378</threshold>
									<split pos="left">
										<output>-1.1180464100464289</output>
									</split>
									<split pos="right">
										<feature>3</feature>
										<threshold>0</threshold>
										<split pos="left">
											<output>-0.68684680932140074</output>
										</split>
										<split pos="right">
											<feature>9</feature>
											<threshold>0</threshold>
											<split pos="left">
												<feature>4</feature>
												<threshold>0.998745739</threshold>
												<split pos="left">
													<output>1.0042551884933495</output>
												</split>
												<split pos="right">
													<output>-0.1605794370288825</output>
												</split>
											</split>
											<split pos="right">
												<output>1.0159708280886819</output>
											</split>
										</split>
									</split>
								</split>
							</split>
						</split>
					</split>
				</split>
			</split>
		</tree>
		<tree id="47" weight="0.10000000149011612">
			<split>
				<feature>5</feature>
				<threshold>0.766988039</threshold>
				<split pos="left">
					<feature>7</feature>
					<threshold>0.262920529</threshold>
					<split pos="left">
						<output>-0.42521218617643036</output>
					</split>
					<split pos="right">
						<output>0.31987832191926957</output>
					</split>
				</split>
				<split pos="right">
					<feature>4</feature>
					<threshold>0.124514572</threshold>
					<split pos="left">
						<output>-1.182225156213714</output>
					</split>
					<split pos="right">
						<feature>8</feature>
						<threshold>0.70756191</threshold>
						<split pos="left">
							<output>0.28360681579289321</output>
						</split>
						<split pos="right">
							<feature>9</feature>
							<threshold>0</threshold>
							<split pos="left">
								<feature>3</feature>
								<threshold>0</threshold>
								<split pos="left">
									<output>-0.66397787649223627</output>
								</split>
								<split pos="right">
									<feature>4</feature>
									<threshold>0.808087826</threshold>
									<split pos="left">
										<output>-1.1279799207168766</output>
									</split>
									<split pos="right">
										<feature>7</feature>
										<threshold>0.997542083</threshold>
										<split pos="left">
											<output>1.0909014752576516</output>
										</split>
										<split pos="right">
											<feature>8</feature>
											<threshold>0.998753786</threshold>
											<split pos="left">
												<output>-1.0158093649277857</output>
											</split>
											<split pos="right">
												<output>-0.12469268441109738</output>
											</split>
										</split>
									</split>
								</split>
							</split>
							<split pos="right">
								<output>0.43510769519757447</output>
							</split>
						</split>
					</split>
				</split>
			</split>
		</tree>
		<tree id="48" weight="0.10000000149011612">
			<split>
				<feature>8</feature>
				<threshold>0.910885334</threshold>
				<split pos="left">
					<feature>8</feature>
					<threshold>0.901166797</threshold>
					<split pos="left">
						<feature>7</feature>
						<threshold>0.262920529</threshold>
						<split pos="left">
							<output>-0.4970010834425177</output>
						</split>
						<split pos="right">
							<output>0.35361326984651315</output>
						</split>
					</split>
					<split pos="right">
						<output>1.026189679748033</output>
					</split>
				</split>
				<split pos="right">
					<feature>3</feature>
					<threshold>0</threshold>
					<split pos="left">
						<output>-0.57152418909779568</output>
					</split>
					<split pos="right">
						<feature>3</feature>
						<threshold>0.614164114</threshold>
						<split pos="left">
							<output>-0.58970818419007676</output>
						</split>
						<split pos="right">
							<feature>3</feature>
							<threshold>0.638848066</threshold>
							<split pos="left">
								<output>1.0980424745224713</output>
							</split>
							<split pos="right">
								<feature>9</feature>
								<threshold>0</threshold>
								<split pos="left">
									<feature>4</feature>
									<threshold>0.423149914</threshold>
									<split pos="left">
										<output>-0.29759721178350934</output>
									</split>
									<split pos="right">
										<feature>7</feature>
										<threshold>0.977917671</threshold>
										<split pos="left">
											<output>-1.1641067828257541</output>
										</split>
										<split pos="right">
											<output>-0.1234932125788305</output>
										</split>
									</split>
								</split>
								<split pos="right">
									<output>0.94016919221262596</output>
								</split>
							</split>
						</split>
					</split>
				</split>
			</split>
		</tree>
		<tree id="49" weight="0.10000000149011612">
			<split>
				<feature>5</feature>
				<threshold>0.766988039</threshold>
				<split pos="left">
					<output>0.14216529187893354</output>
				</split>
				<split pos="right">
					<feature>8</feature>
					<threshold>0.70756191</threshold>
					<split pos="left">
						<output>-0.06920597681642135</output>
					</split>
					<split pos="right">
						<feature>3</feature>
						<threshold>0</threshold>
						<split pos="left">
							<output>-0.65278737066672099</output>
						</split>
						<split pos="right">
							<feature>8</feature>
							<threshold>0.70763272</threshold>
							<split pos="left">
								<output>-1.0813469730414944</output>
							</split>
							<split pos="right">
								<feature>7</feature>
								<threshold>0.612863839</threshold>
								<split pos="left">
									<output>-1.0829193035089997</output>
								</split>
								<split pos="right">
									<feature>7</feature>
									<threshold>0.941285431</threshold>
									<split pos="left">
										<output>1.07864507893876</output>
									</split>
									<split pos="right">
										<feature>4</feature>
										<threshold>0.998745739</threshold>
										<split pos="left">
											<output>1.0032008384680648</output>
										</split>
										<split pos="right">
											<feature>9</feature>
											<threshold>0</threshold>
											<split pos="left">
												<feature>8</feature>
												<threshold>0.998753786</threshold>
												<split pos="left">
													<output>-1.0139300562611124</output>
												</split>
												<split pos="right">
													<output>-0.1226828425138939</output>
												</split>
											</split>
											<split pos="right">
												<output>-0.084454113936361166</output>
											</split>
										</split>
									</split>
								</split>
							</split>
						</split>
					</split>
				</split>
			</split>
		</tree>
		<tree id="50" weight="0.10000000149011612">
			<split>
				<feature>8</feature>
				<threshold>0.910885334</threshold>
				<split pos="left">
					<output>0.13562573519582816</output>
				</split>
				<split pos="right">
					<feature>3</feature>
					<threshold>0</threshold>
					<split pos="left">
						<output>-0.53968769389338878</output>
					</split>
					<split pos="right">
						<feature>5</feature>
						<threshold>0.304976046</threshold>
						<split pos="left">
							<output>-0.54411279884870445</output>
						</split>
						<split pos="right">
							<feature>6</feature>
							<threshold>0.861222506</threshold>
							<split pos="left">
								<output>-1.0578636812088131</output>
							</split>
							<split pos="right">
								<feature>6</feature>
								<threshold>0.944177628</threshold>
								<split pos="left">
									<output>1.0061315141949767</output>
								</split>
								<split pos="right">
									<feature>7</feature>
									<threshold>0.941285431</threshold>
									<split pos="left">
										<output>1.0574352780210516</output>
									</split>
									<split pos="right">
										<feature>5</feature>
										<threshold>0.991514564</threshold>
										<split pos="left">
											<output>1.0267455572761151</output>
										</split>
										<split pos="right">
											<feature>9</feature>
											<threshold>0</threshold>
											<split pos="left">
												<feature>3</feature>
												<threshold>0.000298329367</threshold>
												<split pos="left">
													<output>-1.0030932112405235</output>
												</split>
												<split pos="right">
													<output>-0.11690345756347939</output>
												</split>
											</split>
											<split pos="right">
												<output>1.011126615821532</output>
											</split>
										</split>
									</split>
								</split>
							</split>
						</split>
					</split>
				</split>
			</split>
		</tree>
		<tree id="51" weight="0.10000000149011612">
			<split>
				<feature>5</feature>
				<threshold>0.696695864</threshold>
				<split pos="left">
					<output>0.14435037485463095</output>
				</split>
				<split pos="right">
					<feature>4</feature>
					<threshold>0.0991865322</threshold>
					<split pos="left">
						<output>-1.1756967293257949</output>
					</split>
					<split pos="right">
						<feature>6</feature>
						<threshold>0.998258948</threshold>
						<split pos="left">
							<output>0.056073923482389688</output>
						</split>
						<split pos="right">
							<feature>7</feature>
							<threshold>0.941285431</threshold>
							<split pos="left">
								<output>1.0524388008419383</output>
							</split>
							<split pos="right">
								<feature>8</feature>
								<threshold>0.019556595</threshold>
								<split pos="left">
									<output>1.0161242666397674</output>
								</split>
								<split pos="right">
									<feature>3</feature>
									<threshold>0</threshold>
									<split pos="left">
										<output>-0.59167377252570774</output>
									</split>
									<split pos="right">
										<feature>4</feature>
										<threshold>0.91386354</threshold>
										<split pos="left">
											<output>-1.0433862746613767</output>
										</split>
										<split pos="right">
											<feature>9</feature>
											<threshold>0</threshold>
											<split pos="left">
												<feature>8</feature>
												<threshold>0.998753786</threshold>
												<split pos="left">
													<output>-1.0127403944617865</output>
												</split>
												<split pos="right">
													<output>-0.1113574118358565</output>
												</split>
											</split>
											<split pos="right">
												<output>-0.062035023034132046</output>
											</split>
										</split>
									</split>
								</split>
							</split>
						</split>
					</split>
				</split>
			</split>
		</tree>
		<tree id="52" weight="0.10000000149011612">
			<split>
				<feature>7</feature>
				<threshold>0.247692689</threshold>
				<split pos="left">
					<output>-0.54108751732041538</output>
				</split>
				<split pos="right">
					<feature>8</feature>
					<threshold>0.910885334</threshold>
					<split pos="left">
						<feature>9</feature>
						<threshold>0</threshold>
						<split pos="left">
							<feature>8</feature>
							<threshold>0.0562751219</threshold>
							<split pos="left">
								<output>1.0147788080622566</output>
							</split>
							<split pos="right">
								<output>0.58047215787680628</output>
							</split>
						</split>
						<split pos="right">
							<output>-0.0076517543053119183</output>
						</split>
					</split>
					<split pos="right">
						<feature>3</feature>
						<threshold>0.593209922</threshold>
						<split pos="left">
							<output>-0.51772106848343225</output>
						</split>
						<split pos="right">
							<feature>3</feature>
							<threshold>0.638848066</threshold>
							<split pos="left">
								<output>1.0834130368022197</output>
							</split>
							<split pos="right">
								<feature>9</feature>
								<threshold>0</threshold>
								<split pos="left">
									<feature>7</feature>
									<threshold>0.977917671</threshold>
									<split pos="left">
										<output>-1.1072975329432804</output>
									</split>
									<split pos="right">
										<feature>4</feature>
										<threshold>0.366489738</threshold>
										<split pos="left">
											<output>1.0336727487638111</output>
										</split>
										<split pos="right">
											<output>-0.10570619549116428</output>
										</split>
									</split>
								</split>
								<split pos="right">
									<output>0.94356654777767079</output>
								</split>
							</split>
						</split>
					</split>
				</split>
			</split>
		</tree>
		<tree id="53" weight="0.10000000149011612">
			<split>
				<feature>5</feature>
				<threshold>0.766988039</threshold>
				<split pos="left">
					<feature>5</feature>
					<threshold>0.622202039</threshold>
					<split pos="left">
						<feature>7</feature>
						<threshold>0.977917671</threshold>
						<split pos="left">
							<output>-0.086123823233499042</output>
						</split>
						<split pos="right">
							<output>0.54967920674861459</output>
						</split>
					</split>
					<split pos="right">
						<output>0.62056920911905755</output>
					</split>
				</split>
				<split pos="right">
					<feature>4</feature>
					<threshold>0.132816911</threshold>
					<split pos="left">
						<output>-1.1578270471849883</output>
					</split>
					<split pos="right">
						<feature>8</feature>
						<threshold>0.931974947</threshold>
						<split pos="left">
							<output>0.011813399480979073</output>
						</split>
						<split pos="right">
							<feature>3</feature>
							<threshold>0</threshold>
							<split pos="left">
								<output>-1.2607871606294343</output>
							</split>
							<split pos="right">
								<feature>9</feature>
								<threshold>0</threshold>
								<split pos="left">
									<feature>3</feature>
