<ranker>
	<info>
		<type>LAMBDAMART</type>
		<trees>1000</trees>
		<leaves>10</leaves>
		<shrinkage>0.10000000149011612</shrinkage>
		<leafsupport>1</leafsupport>
		<discretization>0</discretization>
		<estop>100</estop>
		<subsample>1</subsample>
		<max_features>1</max_features>
		<collapse_leaves_factor>0</collapse_leaves_factor>
	</info>
	<ensemble>
		<tree id="1" weight="0.10000000149011612">
			<split>
				<feature>6</feature>
				<threshold>0.444209784</threshold>
				<split pos="left">
					<feature>8</feature>
					<threshold>0.108403072</threshold>
					<split pos="left">
						<feature>9</feature>
						<threshold>0</threshold>
						<split pos="left">
							<output>-1.8190256646534262</output>
						</split>
						<split pos="right">
							<output>-0.66145365150628854</output>
						</split>
					</split>
					<split pos="right">
						<output>-0.99240416969557921</output>
					</split>
				</split>
				<split pos="right">
					<feature>3</feature>
					<threshold>0.539436162</threshold>
					<split pos="left">
						<feature>3</feature>
						<threshold>0.529465079</threshold>
						<split pos="left">
							<feature>8</feature>
							<threshold>0.115432732</threshold>
							<split pos="left">
								<output>1.8105565219538091</output>
							</split>
							<split pos="right">
								<feature>3</feature>
								<threshold>0</threshold>
								<split pos="left">
									<output>1.8782793852716171</output>
								</split>
								<split pos="right">
									<feature>8</feature>
									<threshold>0.708620787</threshold>
									<split pos="left">
										<output>0.42005582813801179</output>
									</split>
									<split pos="right">
										<output>1.7145520207155303</output>
									</split>
								</split>
							</split>
						</split>
						<split pos="right">
							<output>2</output>
						</split>
					</split>
					<split pos="right">
						<feature>3</feature>
						<threshold>0.999449492</threshold>
						<split pos="left">
							<output>-0.74459843568595474</output>
						</split>
						<split pos="right">
							<output>1.244304159854897</output>
						</split>
					</split>
				</split>
			</split>
		</tree>
		<tree id="2" weight="0.10000000149011612">
			<split>
				<feature>6</feature>
				<threshold>0.444209784</threshold>
				<split pos="left">
					<output>-1.5893668211335201</output>
				</split>
				<split pos="right">
					<feature>3</feature>
					<threshold>0.539436162</threshold>
					<split pos="left">
						<feature>3</feature>
						<threshold>0.529465079</threshold>
						<split pos="left">
							<feature>6</feature>
							<threshold>0.453182817</threshold>
							<split pos="left">
								<output>1.7253041544104089</output>
							</split>
							<split pos="right">
								<feature>8</feature>
								<threshold>0.115432732</threshold>
								<split pos="left">
									<output>1.5658758465683436</output>
								</split>
								<split pos="right">
									<feature>6</feature>
									<threshold>0.656147778</threshold>
									<split pos="left">
										<output>-0.25817000014283797</output>
									</split>
									<split pos="right">
										<feature>7</feature>
										<threshold>0.643149495</threshold>
										<split pos="left">
											<output>1.7583402682431313</output>
										</split>
										<split pos="right">
											<output>1.420889440445722</output>
										</split>
									</split>
								</split>
							</split>
						</split>
						<split pos="right">
							<output>1.7141859065353844</output>
						</split>
					</split>
					<split pos="right">
						<feature>3</feature>
						<threshold>0.999449492</threshold>
						<split pos="left">
							<output>-1.1481631373345289</output>
						</split>
						<split pos="right">
							<feature>7</feature>
							<threshold>0.954842567</threshold>
							<split pos="left">
								<output>1.5450837913595574</output>
							</split>
							<split pos="right">
								<output>-0.20193070102800248</output>
							</split>
						</split>
					</split>
				</split>
			</split>
		</tree>
		<tree id="3" weight="0.10000000149011612">
			<split>
				<feature>6</feature>
				<threshold>0.444209784</threshold>
				<split pos="left">
					<output>-1.4069822425305343</output>
				</split>
				<split pos="right">
					<feature>6</feature>
					<threshold>0.453182817</threshold>
					<split pos="left">
						<output>1.5434453953111316</output>
					</split>
					<split pos="right">
						<feature>3</feature>
						<threshold>0.539436162</threshold>
						<split pos="left">
							<feature>3</feature>
							<threshold>0.529465079</threshold>
							<split pos="left">
								<feature>8</feature>
								<threshold>0.115432732</threshold>
								<split pos="left">
									<output>1.3877980813967399</output>
								</split>
								<split pos="right">
									<feature>6</feature>
									<threshold>0.656147778</threshold>
									<split pos="left">
										<output>-0.4292795887869173</output>
									</split>
									<split pos="right">
										<feature>7</feature>
										<threshold>0.643149495</threshold>
										<split pos="left">
											<output>1.5636467444157633</output>
										</split>
										<split pos="right">
											<output>1.2332549918938349</output>
										</split>
									</split>
								</split>
							</split>
							<split pos="right">
								<output>1.5227639265968322</output>
							</split>
						</split>
						<split pos="right">
							<feature>3</feature>
							<threshold>0.999449492</threshold>
							<split pos="left">
								<output>-0.98595829740667251</output>
							</split>
							<split pos="right">
								<feature>7</feature>
								<threshold>0.954842567</threshold>
								<split pos="left">
									<output>1.3778648019571977</output>
								</split>
								<split pos="right">
									<output>-0.27109572828101219</output>
								</split>
							</split>
						</split>
					</split>
				</split>
			</split>
		</tree>
		<tree id="4" weight="0.10000000149011612">
			<split>
				<feature>6</feature>
				<threshold>0.444209784</threshold>
				<split pos="left">
					<output>-1.2784781672421968</output>
				</split>
				<split pos="right">
					<feature>6</feature>
					<threshold>0.453182817</threshold>
					<split pos="left">
						<output>1.4256517349394762</output>
					</split>
					<split pos="right">
						<feature>3</feature>
						<threshold>0.539436162</threshold>
						<split pos="left">
							<feature>3</feature>
							<threshold>0.529465079</threshold>
							<split pos="left">
								<feature>8</feature>
								<threshold>0.115432732</threshold>
								<split pos="left">
									<output>1.2658354596498007</output>
								</split>
								<split pos="right">
									<feature>6</feature>
									<threshold>0.656147778</threshold>
									<split pos="left">
										<output>-0.36517889543688653</output>
									</split>
									<split pos="right">
										<feature>7</feature>
										<threshold>0.643149495</threshold>
										<split pos="left">
											<output>1.4376295223284681</output>
										</split>
										<split pos="right">
											<output>1.1078654096262359</output>
										</split>
									</split>
								</split>
							</split>
							<split pos="right">
								<output>1.3974426359768062</output>
							</split>
						</split>
						<split pos="right">
							<feature>3</feature>
							<threshold>0.999449492</threshold>
							<split pos="left">
								<output>-0.85493674857447854</output>
							</split>
							<split pos="right">
								<feature>7</feature>
								<threshold>0.954842567</threshold>
								<split pos="left">
									<output>1.235221840374652</output>
								</split>
								<split pos="right">
									<output>-0.31619711812406309</output>
								</split>
							</split>
						</split>
					</split>
				</split>
			</split>
		</tree>
		<tree id="5" weight="0.10000000149011612">
			<split>
				<feature>6</feature>
				<threshold>0.444209784</threshold>
				<split pos="left">
					<output>-1.1836263281496391</output>
				</split>
				<split pos="right">
					<feature>6</feature>
					<threshold>0.453182817</threshold>
					<split pos="left">
						<output>1.3457156520321483</output>
					</split>
					<split pos="right">
						<feature>3</feature>
						<threshold>0.539436162</threshold>
						<split pos="left">
							<feature>3</feature>
							<threshold>0.529465079</threshold>
							<split pos="left">
								<feature>8</feature>
								<threshold>0.115432732</threshold>
								<split pos="left">
									<output>1.1764574715707352</output>
								</split>
								<split pos="right">
									<feature>6</feature>
									<threshold>0.656147778</threshold>
									<split pos="left">
										<output>-0.31214947248034036</output>
									</split>
									<split pos="right">
										<feature>7</feature>
										<threshold>0.643149495</threshold>
										<split pos="left">
											<output>1.3524562764874433</output>
										</split>
										<split pos="right">
											<output>1.0098476024522882</output>
										</split>
									</split>
								</split>
							</split>
							<split pos="right">
								<output>1.3106019814306411</output>
							</split>
						</split>
						<split pos="right">
							<feature>3</feature>
							<threshold>0.999449492</threshold>
							<split pos="left">
								<output>-0.7484010952582747</output>
							</split>
							<split pos="right">
								<feature>7</feature>
								<threshold>0.954842567</threshold>
								<split pos="left">
									<output>1.1270873321094572</output>
								</split>
								<split pos="right">
									<output>-0.35377552112935268</output>
								</split>
							</split>
						</split>
					</split>
				</split>
			</split>
		</tree>
		<tree id="6" weight="0.10000000149011612">
			<split>
				<feature>6</feature>
				<threshold>0.444209784</threshold>
				<split pos="left">
					<output>-1.1094803359303895</output>
				</split>
				<split pos="right">
					<feature>6</feature>
					<threshold>0.453182817</threshold>
					<split pos="left">
						<output>1.2897530721975994</output>
					</split>
					<split pos="right">
						<feature>3</feature>
						<threshold>0.578034699</threshold>
						<split pos="left">
							<feature>8</feature>
							<threshold>0.999955416</threshold>
							<split pos="left">
								<feature>8</feature>
								<threshold>0.159885675</threshold>
								<split pos="left">
									<output>1.0391907162170184</output>
								</split>
								<split pos="right">
									<output>0.59837792691068803</output>
								</split>
							</split>
							<split pos="right">
								<feature>5</feature>
								<threshold>0.702549994</threshold>
								<split pos="left">
									<output>-1.714280336807954</output>
								</split>
								<split pos="right">
									<output>1.3520110857075445</output>
								</split>
							</split>
						</split>
						<split pos="right">
							<feature>3</feature>
							<threshold>0.999449492</threshold>
							<split pos="left">
								<output>-1.3866672308150154</output>
							</split>
							<split pos="right">
								<feature>7</feature>
								<threshold>0.954842567</threshold>
								<split pos="left">
									<feature>7</feature>
									<threshold>0.905828655</threshold>
									<split pos="left">
										<output>0.97541830147137087</output>
									</split>
									<split pos="right">
										<output>1.3481167079425971</output>
									</split>
								</split>
								<split pos="right">
									<output>-0.38596396665641042</output>
								</split>
							</split>
						</split>
					</split>
				</split>
			</split>
		</tree>
		<tree id="7" weight="0.10000000149011612">
			<split>
				<feature>6</feature>
				<threshold>0.444209784</threshold>
				<split pos="left">
					<output>-1.0466886992470237</output>
				</split>
				<split pos="right">
					<feature>6</feature>
					<threshold>0.453182817</threshold>
					<split pos="left">
						<output>1.2462346386066847</output>
					</split>
					<split pos="right">
						<feature>3</feature>
						<threshold>0.578034699</threshold>
						<split pos="left">
							<feature>8</feature>
							<threshold>0.999955416</threshold>
							<split pos="left">
								<feature>8</feature>
								<threshold>0.168057457</threshold>
								<split pos="left">
									<output>0.98880879876141392</output>
								</split>
								<split pos="right">
									<feature>3</feature>
									<threshold>0</threshold>
									<split pos="left">
										<output>1.1258918270120515</output>
									</split>
									<split pos="right">
										<output>0.22566248706950637</output>
									</split>
								</split>
							</split>
							<split pos="right">
								<feature>5</feature>
								<threshold>0.702549994</threshold>
								<split pos="left">
									<output>-1.6043308484524363</output>
								</split>
								<split pos="right">
									<output>1.290245469324967</output>
								</split>
							</split>
						</split>
						<split pos="right">
							<feature>3</feature>
							<threshold>0.999449492</threshold>
							<split pos="left">
								<output>-1.3242681230516122</output>
							</split>
							<split pos="right">
								<feature>7</feature>
								<threshold>0.954842567</threshold>
								<split pos="left">
									<output>1.0563320454670815</output>
								</split>
								<split pos="right">
									<output>-0.41328657350362935</output>
								</split>
							</split>
						</split>
					</split>
				</split>
			</split>
		</tree>
		<tree id="8" weight="0.10000000149011612">
			<split>
				<feature>7</feature>
				<threshold>0.466379344</threshold>
				<split pos="left">
					<output>-0.98443451172414986</output>
				</split>
				<split pos="right">
					<feature>3</feature>
					<threshold>0.578034699</threshold>
					<split pos="left">
						<feature>3</feature>
						<threshold>0.517063916</threshold>
						<split pos="left">
							<feature>3</feature>
							<threshold>0.323898464</threshold>
							<split pos="left">
								<feature>3</feature>
								<threshold>0.297177017</threshold>
								<split pos="left">
									<feature>8</feature>
									<threshold>0.836395442</threshold>
									<split pos="left">
										<feature>3</feature>
										<threshold>0.0385356471</threshold>
										<split pos="left">
											<output>1.0755129805513246</output>
										</split>
										<split pos="right">
											<output>0.74736976430413149</output>
										</split>
									</split>
									<split pos="right">
										<output>-0.085282447127304026</output>
									</split>
								</split>
								<split pos="right">
									<output>1.2386630789605475</output>
								</split>
							</split>
							<split pos="right">
								<output>-0.094447439989546272</output>
							</split>
						</split>
						<split pos="right">
							<output>1.1602506054536648</output>
						</split>
					</split>
					<split pos="right">
						<feature>3</feature>
						<threshold>0.999449492</threshold>
						<split pos="left">
							<output>-1.2799126881946263</output>
						</split>
						<split pos="right">
							<feature>7</feature>
							<threshold>0.954842567</threshold>
							<split pos="left">
								<output>0.98490639066670738</output>
							</split>
							<split pos="right">
								<output>-0.43835490215709555</output>
							</split>
						</split>
					</split>
				</split>
			</split>
		</tree>
		<tree id="9" weight="0.10000000149011612">
			<split>
				<feature>7</feature>
				<threshold>0.444841951</threshold>
				<split pos="left">
					<output>-0.98155970605110954</output>
				</split>
				<split pos="right">
					<feature>3</feature>
					<threshold>0.578034699</threshold>
					<split pos="left">
						<feature>3</feature>
						<threshold>0.517063916</threshold>
						<split pos="left">
							<feature>6</feature>
							<threshold>0.699943066</threshold>
							<split pos="left">
								<output>0.28067219835545065</output>
							</split>
							<split pos="right">
								<feature>7</feature>
								<threshold>0.747226238</threshold>
								<split pos="left">
									<output>1.0786021696238404</output>
								</split>
								<split pos="right">
									<feature>5</feature>
									<threshold>0.383462518</threshold>
									<split pos="left">
										<output>0.89829349596830488</output>
									</split>
									<split pos="right">
										<output>0.49779195508685042</output>
									</split>
								</split>
							</split>
						</split>
						<split pos="right">
							<output>1.1083584297433771</output>
						</split>
					</split>
					<split pos="right">
						<feature>3</feature>
						<threshold>0.999449492</threshold>
						<split pos="left">
							<output>-1.2413585668728242</output>
						</split>
						<split pos="right">
							<feature>7</feature>
							<threshold>0.954842567</threshold>
							<split pos="left">
								<feature>7</feature>
								<threshold>0.905828655</threshold>
								<split pos="left">
									<output>0.83414409037619153</output>
								</split>
								<split pos="right">
									<output>1.2668500429680212</output>
								</split>
							</split>
							<split pos="right">
								<output>-0.45944533293033579</output>
							</split>
						</split>
					</split>
				</split>
			</split>
		</tree>
		<tree id="10" weight="0.10000000149011612">
			<split>
				<feature>6</feature>
				<threshold>0.699943066</threshold>
				<split pos="left">
					<feature>7</feature>
					<threshold>0.442589939</threshold>
					<split pos="left">
						<output>-0.93662690620510325</output>
					</split>
					<split pos="right">
						<feature>6</feature>
						<threshold>0.580679417</threshold>
						<split pos="left">
							<feature>3</feature>
							<threshold>0.998291314</threshold>
							<split pos="left">
								<output>0.37777075600563664</output>
							</split>
							<split pos="right">
								<output>1.1243378898447629</output>
							</split>
						</split>
						<split pos="right">
							<output>-0.86261470766809167</output>
						</split>
					</split>
				</split>
				<split pos="right">
					<feature>6</feature>
					<threshold>0.776035488</threshold>
					<split pos="left">
						<feature>5</feature>
						<threshold>0.83168</threshold>
						<split pos="left">
							<output>0.49526255187673052</output>
						</split>
						<split pos="right">
							<output>1.2554927588694331</output>
						</split>
					</split>
					<split pos="right">
						<feature>5</feature>
						<threshold>0.995627224</threshold>
						<split pos="left">
							<feature>5</feature>
							<threshold>0.715027452</threshold>
							<split pos="left">
								<feature>7</feature>
								<threshold>0.954842567</threshold>
								<split pos="left">
									<output>0.91328728770608092</output>
								</split>
								<split pos="right">
									<output>0.21175100823684614</output>
								</split>
							</split>
							<split pos="right">
								<output>1.2867689778067504</output>
							</split>
						</split>
						<split pos="right">
							<output>-0.17358272854808457</output>
						</split>
					</split>
				</split>
			</split>
		</tree>
		<tree id="11" weight="0.10000000149011612">
			<split>
				<feature>6</feature>
				<threshold>0.699943066</threshold>
				<split pos="left">
					<feature>7</feature>
					<threshold>0.442589939</threshold>
					<split pos="left">
						<feature>9</feature>
						<threshold>0</threshold>
						<split pos="left">
							<output>-0.99857927279037606</output>
						</split>
						<split pos="right">
							<output>0.0090781684764800388</output>
						</split>
					</split>
					<split pos="right">
						<feature>6</feature>
						<threshold>0.560059607</threshold>
						<split pos="left">
							<feature>6</feature>
							<threshold>0.559075952</threshold>
							<split pos="left">
								<output>0.44383850077099446</output>
							</split>
							<split pos="right">
								<output>1.1005034433524659</output>
							</split>
						</split>
						<split pos="right">
							<output>-0.70670066829338607</output>
						</split>
					</split>
				</split>
				<split pos="right">
					<feature>6</feature>
					<threshold>0.776035488</threshold>
					<split pos="left">
						<output>0.95585332208169638</output>
					</split>
					<split pos="right">
						<feature>5</feature>
						<threshold>0.995627224</threshold>
						<split pos="left">
							<feature>5</feature>
							<threshold>0.715027452</threshold>
							<split pos="left">
								<feature>7</feature>
								<threshold>0.954842567</threshold>
								<split pos="left">
									<output>0.86414248987311204</output>
								</split>
								<split pos="right">
									<output>0.19039998393337038</output>
								</split>
							</split>
							<split pos="right">
								<output>1.2671682822926877</output>
							</split>
						</split>
						<split pos="right">
							<output>-0.1922052134317925</output>
						</split>
					</split>
				</split>
			</split>
		</tree>
		<tree id="12" weight="0.10000000149011612">
			<split>
				<feature>6</feature>
				<threshold>0.444209784</threshold>
				<split pos="left">
					<feature>9</feature>
					<threshold>0</threshold>
					<split pos="left">
						<output>-0.96518660202086104</output>
					</split>
					<split pos="right">
						<output>0.24844904991554159</output>
					</split>
				</split>
				<split pos="right">
					<feature>6</feature>
					<threshold>0.453182817</threshold>
					<split pos="left">
						<output>1.1749643592767882</output>
					</split>
					<split pos="right">
						<feature>3</feature>
						<threshold>0.578034699</threshold>
						<split pos="left">
							<feature>3</feature>
							<threshold>0.517063916</threshold>
							<split pos="left">
								<feature>3</feature>
								<threshold>0</threshold>
								<split pos="left">
									<output>0.96144277388288568</output>
								</split>
								<split pos="right">
									<feature>5</feature>
									<threshold>0.0921715498</threshold>
									<split pos="left">
										<output>-1.3123283991369428</output>
									</split>
									<split pos="right">
										<output>0.56087211387901925</output>
									</split>
								</split>
							</split>
							<split pos="right">
								<output>0.97895624162226458</output>
							</split>
						</split>
						<split pos="right">
							<feature>3</feature>
							<threshold>0.999449492</threshold>
							<split pos="left">
								<output>-1.241836331247347</output>
							</split>
							<split pos="right">
								<feature>7</feature>
								<threshold>0.954842567</threshold>
								<split pos="left">
									<output>0.82940174050005333</output>
								</split>
								<split pos="right">
									<output>-0.59303199298956988</output>
								</split>
							</split>
						</split>
					</split>
				</split>
			</split>
		</tree>
		<tree id="13" weight="0.10000000149011612">
			<split>
				<feature>6</feature>
				<threshold>0.699943066</threshold>
				<split pos="left">
					<feature>7</feature>
					<threshold>0.457408637</threshold>
					<split pos="left">
						<feature>9</feature>
						<threshold>0</threshold>
						<split pos="left">
							<feature>3</feature>
							<threshold>0.41373238</threshold>
							<split pos="left">
								<output>-1.0856289002184423</output>
							</split>
							<split pos="right">
								<output>-0.3947219170639249</output>
							</split>
						</split>
						<split pos="right">
							<output>0.074336655185696085</output>
						</split>
					</split>
					<split pos="right">
						<feature>8</feature>
						<threshold>0.115432732</threshold>
						<split pos="left">
							<output>0.97620878631813124</output>
						</split>
						<split pos="right">
							<output>-0.17697014938727385</output>
						</split>
					</split>
				</split>
				<split pos="right">
					<feature>6</feature>
					<threshold>0.776035488</threshold>
					<split pos="left">
						<output>0.90727550273774638</output>
					</split>
					<split pos="right">
						<feature>5</feature>
						<threshold>0.995627224</threshold>
						<split pos="left">
							<feature>5</feature>
							<threshold>0.715027452</threshold>
							<split pos="left">
								<feature>7</feature>
								<threshold>0.954842567</threshold>
								<split pos="left">
									<output>0.82603597368086279</output>
								</split>
								<split pos="right">
									<output>0.070235705482711103</output>
								</split>
							</split>
							<split pos="right">
								<output>1.2609996660954834</output>
							</split>
						</split>
						<split pos="right">
							<output>-0.31476718808669873</output>
						</split>
					</split>
				</split>
			</split>
		</tree>
		<tree id="14" weight="0.10000000149011612">
			<split>
				<feature>7</feature>
				<threshold>0.466379344</threshold>
				<split pos="left">
					<feature>8</feature>
					<threshold>0.382886261</threshold>
					<split pos="left">
						<feature>7</feature>
						<threshold>0.456095994</threshold>
						<split pos="left">
							<feature>9</feature>
							<threshold>0</threshold>
							<split pos="left">
								<output>-0.9374048908927245</output>
							</split>
							<split pos="right">
								<output>0.071873589834640872</output>
							</split>
						</split>
						<split pos="right">
							<output>-2.985620317764194</output>
						</split>
					</split>
					<split pos="right">
						<output>0.4103551371822477</output>
					</split>
				</split>
				<split pos="right">
					<feature>3</feature>
					<threshold>0.578034699</threshold>
					<split pos="left">
						<feature>3</feature>
						<threshold>0.517063916</threshold>
						<split pos="left">
							<feature>3</feature>
							<threshold>0.0385356471</threshold>
							<split pos="left">
								<output>0.9284638964609675</output>
							</split>
							<split pos="right">
								<feature>8</feature>
								<threshold>0.998553991</threshold>
								<split pos="left">
									<output>0.18084567127925491</output>
								</split>
								<split pos="right">
									<output>0.84272733427801327</output>
								</split>
							</split>
						</split>
						<split pos="right">
							<output>1.0056094911094773</output>
						</split>
					</split>
					<split pos="right">
						<feature>5</feature>
						<threshold>0.625791013</threshold>
						<split pos="left">
							<output>0.2657387972795211</output>
						</split>
						<split pos="right">
							<output>-1.0136634645648341</output>
						</split>
					</split>
				</split>
			</split>
		</tree>
		<tree id="15" weight="0.10000000149011612">
			<split>
				<feature>6</feature>
				<threshold>0.699943066</threshold>
				<split pos="left">
					<feature>9</feature>
					<threshold>0</threshold>
					<split pos="left">
						<feature>3</feature>
						<threshold>0.41373238</threshold>
						<split pos="left">
							<output>-0.79790941623686273</output>
						</split>
						<split pos="right">
							<feature>3</feature>
							<threshold>0.42892459</threshold>
							<split pos="left">
								<output>3.7770102021902874</output>
							</split>
							<split pos="right">
								<output>-0.54223247222831861</output>
							</split>
						</split>
					</split>
					<split pos="right">
						<output>0.32772623493381575</output>
					</split>
				</split>
				<split pos="right">
					<feature>6</feature>
					<threshold>0.776035488</threshold>
					<split pos="left">
						<output>0.83658483855384613</output>
					</split>
					<split pos="right">
						<feature>5</feature>
						<threshold>0.995627224</threshold>
						<split pos="left">
							<feature>5</feature>
							<threshold>0.715027452</threshold>
							<split pos="left">
								<feature>7</feature>
								<threshold>0.954842567</threshold>
								<split pos="left">
									<output>0.69698012414397226</output>
								</split>
								<split pos="right">
									<output>0.02539826109133159</output>
								</split>
							</split>
							<split pos="right">
								<output>1.2588073588927595</output>
							</split>
						</split>
						<split pos="right">
							<feature>3</feature>
							<threshold>0.529465079</threshold>
							<split pos="left">
								<output>0.48756660121638756</output>
							</split>
							<split pos="right">
								<output>-1.0206143262997571</output>
							</split>
						</split>
					</split>
				</split>
			</split>
		</tree>
		<tree id="16" weight="0.10000000149011612">
			<split>
				<feature>6</feature>
				<threshold>0.444209784</threshold>
				<split pos="left">
					<feature>9</feature>
					<threshold>0</threshold>
					<split pos="left">
						<feature>3</feature>
						<threshold>0.377599746</threshold>
						<split pos="left">
							<output>-1.0602021689184582</output>
						</split>
						<split pos="right">
							<output>-0.11962922779760204</output>
						</split>
					</split>
					<split pos="right">
						<output>0.28209449729254987</output>
					</split>
				</split>
				<split pos="right">
					<feature>6</feature>
					<threshold>0.453182817</threshold>
					<split pos="left">
						<output>1.1822420938907796</output>
					</split>
					<split pos="right">
						<feature>3</feature>
						<threshold>0.578034699</threshold>
						<split pos="left">
							<feature>3</feature>
							<threshold>0.517063916</threshold>
							<split pos="left">
								<feature>3</feature>
								<threshold>0</threshold>
								<split pos="left">
									<output>0.87316124449918486</output>
								</split>
								<split pos="right">
									<output>0.32818131031070175</output>
								</split>
							</split>
							<split pos="right">
								<output>0.885966347561153</output>
							</split>
						</split>
						<split pos="right">
							<feature>3</feature>
							<threshold>0.999449492</threshold>
							<split pos="left">
								<output>-1.2308026523955837</output>
							</split>
							<split pos="right">
								<feature>7</feature>
								<threshold>0.954842567</threshold>
								<split pos="left">
									<output>0.73942047670090583</output>
								</split>
								<split pos="right">
									<output>-0.52542117646003117</output>
								</split>
							</split>
						</split>
					</split>
				</split>
			</split>
		</tree>
		<tree id="17" weight="0.10000000149011612">
			<split>
				<feature>7</feature>
				<threshold>0.466379344</threshold>
				<split pos="left">
					<feature>8</feature>
					<threshold>0.382886261</threshold>
					<split pos="left">
						<feature>8</feature>
						<threshold>0.348857313</threshold>
						<split pos="left">
							<output>-0.72983069517045562</output>
						</split>
						<split pos="right">
							<output>-1.3023183100785782</output>
						</split>
					</split>
					<split pos="right">
						<output>0.45858055891876298</output>
					</split>
				</split>
				<split pos="right">
					<feature>3</feature>
					<threshold>0.578034699</threshold>
					<split pos="left">
						<feature>3</feature>
						<threshold>0.517063916</threshold>
						<split pos="left">
							<feature>3</feature>
							<threshold>0.0385356471</threshold>
							<split pos="left">
								<output>0.8765203428654379</output>
							</split>
							<split pos="right">
								<output>0.27656766363680824</output>
							</split>
						</split>
						<split pos="right">
							<output>0.95257993516626727</output>
						</split>
					</split>
					<split pos="right">
						<feature>4</feature>
						<threshold>0.272978455</threshold>
						<split pos="left">
							<output>0.75714008641984598</output>
						</split>
						<split pos="right">
							<feature>6</feature>
							<threshold>0.83547169</threshold>
							<split pos="left">
								<output>-1.6463029437395256</output>
							</split>
							<split pos="right">
								<feature>7</feature>
								<threshold>0.954842567</threshold>
								<split pos="left">
									<output>1.136701477929039</output>
								</split>
								<split pos="right">
									<output>-0.89375586635773263</output>
								</split>
							</split>
						</split>
					</split>
				</split>
			</split>
		</tree>
		<tree id="18" weight="0.10000000149011612">
			<split>
				<feature>6</feature>
				<threshold>0.699943066</threshold>
				<split pos="left">
					<feature>9</feature>
					<threshold>0</threshold>
					<split pos="left">
						<feature>3</feature>
						<threshold>0.0374971516</threshold>
						<split pos="left">
							<output>-1.1735754971861208</output>
						</split>
						<split pos="right">
							<feature>3</feature>
							<threshold>0.0385356471</threshold>
							<split pos="left">
								<output>1.1721480175277603</output>
							</split>
							<split pos="right">
								<feature>5</feature>
								<threshold>0.354047418</threshold>
								<split pos="left">
									<output>-0.71330753519074108</output>
								</split>
								<split pos="right">
									<output>0.32533362114031444</output>
								</split>
							</split>
						</split>
					</split>
					<split pos="right">
						<output>0.30930772235822585</output>
					</split>
				</split>
				<split pos="right">
					<feature>6</feature>
					<threshold>0.776035488</threshold>
					<split pos="left">
						<output>0.75237644978613516</output>
					</split>
					<split pos="right">
						<feature>5</feature>
						<threshold>0.995627224</threshold>
						<split pos="left">
							<feature>5</feature>
							<threshold>0.966991067</threshold>
							<split pos="left">
								<output>0.49609832783778274</output>
							</split>
							<split pos="right">
								<output>1.5376877511380622</output>
							</split>
						</split>
						<split pos="right">
							<feature>3</feature>
							<threshold>0.539436162</threshold>
							<split pos="left">
								<output>0.381509455671454</output>
							</split>
							<split pos="right">
								<output>-0.94550218171980671</output>
							</split>
						</split>
					</split>
				</split>
			</split>
		</tree>
		<tree id="19" weight="0.10000000149011612">
			<split>
				<feature>7</feature>
				<threshold>0.466379344</threshold>
				<split pos="left">
					<feature>9</feature>
					<threshold>0</threshold>
					<split pos="left">
						<feature>3</feature>
						<threshold>0.41373238</threshold>
						<split pos="left">
							<output>-1.0140417624035418</output>
						</split>
						<split pos="right">
							<output>0.096057626336714885</output>
						</split>
					</split>
					<split pos="right">
						<output>0.18309399356638392</output>
					</split>
				</split>
				<split pos="right">
					<feature>3</feature>
					<threshold>0.578034699</threshold>
					<split pos="left">
						<feature>3</feature>
						<threshold>0.569390893</threshold>
						<split pos="left">
							<feature>3</feature>
							<threshold>0.539436162</threshold>
							<split pos="left">
								<feature>3</feature>
								<threshold>0.517063916</threshold>
								<split pos="left">
									<feature>3</feature>
									<threshold>0.0385356471</threshold>
									<split pos="left">
										<output>0.85207424602920678</output>
									</split>
									<split pos="right">
										<output>0.23222744523286443</output>
									</split>
								</split>
								<split pos="right">
									<output>1.1260707411876409</output>
								</split>
							</split>
							<split pos="right">
								<output>-1.3011286721154041</output>
							</split>
						</split>
						<split pos="right">
							<output>1.1988785904756962</output>
						</split>
					</split>
					<split pos="right">
						<feature>5</feature>
						<threshold>0.637691736</threshold>
						<split pos="left">
							<output>0.12056436810111851</output>
						</split>
						<split pos="right">
							<output>-0.7920193863524192</output>
						</split>
					</split>
				</split>
			</split>
		</tree>
		<tree id="20" weight="0.10000000149011612">
			<split>
				<feature>6</feature>
				<threshold>0.699943066</threshold>
				<split pos="left">
					<feature>6</feature>
					<threshold>0.635803699</threshold>
					<split pos="left">
						<feature>6</feature>
						<threshold>0.444209784</threshold>
						<split pos="left">
							<feature>9</feature>
							<threshold>0</threshold>
							<split pos="left">
								<feature>3</feature>
								<threshold>0.377599746</threshold>
								<split pos="left">
									<output>-1.003282787442251</output>
								</split>
								<split pos="right">
									<output>0.081543497099270917</output>
								</split>
							</split>
							<split pos="right">
								<output>0.27863720582373669</output>
							</split>
						</split>
						<split pos="right">
							<output>0.43987162310488581</output>
						</split>
					</split>
					<split pos="right">
						<output>-1.1344587446510588</output>
					</split>
				</split>
				<split pos="right">
					<feature>6</feature>
					<threshold>0.776035488</threshold>
					<split pos="left">
						<output>0.69745562994271482</output>
					</split>
					<split pos="right">
						<feature>5</feature>
						<threshold>0.995627224</threshold>
						<split pos="left">
							<feature>5</feature>
							<threshold>0.966991067</threshold>
							<split pos="left">
								<output>0.43114641542364507</output>
							</split>
							<split pos="right">
								<output>1.4075843825212357</output>
							</split>
						</split>
						<split pos="right">
							<feature>3</feature>
							<threshold>0.529465079</threshold>
							<split pos="left">
								<output>0.33117879395869443</output>
							</split>
							<split pos="right">
								<output>-0.83678759485842413</output>
							</split>
						</split>
					</split>
				</split>
			</split>
		</tree>
		<tree id="21" weight="0.10000000149011612">
			<split>
				<feature>6</feature>
				<threshold>0.699943066</threshold>
				<split pos="left">
					<feature>6</feature>
					<threshold>0.635803699</threshold>
					<split pos="left">
						<feature>6</feature>
						<threshold>0.444209784</threshold>
						<split pos="left">
							<feature>9</feature>
							<threshold>0</threshold>
							<split pos="left">
								<feature>3</feature>
								<threshold>0.377599746</threshold>
								<split pos="left">
									<output>-0.98861942540360215</output>
								</split>
								<split pos="right">
									<output>0.1029799899632757</output>
								</split>
							</split>
							<split pos="right">
								<output>0.23335585157050948</output>
							</split>
						</split>
						<split pos="right">
							<output>0.41545201995142356</output>
						</split>
					</split>
					<split pos="right">
						<output>-1.0600736854918051</output>
					</split>
				</split>
				<split pos="right">
					<feature>6</feature>
					<threshold>0.776035488</threshold>
					<split pos="left">
						<output>0.67252743864894249</output>
					</split>
					<split pos="right">
						<feature>5</feature>
						<threshold>0.995627224</threshold>
						<split pos="left">
							<feature>5</feature>
							<threshold>0.966991067</threshold>
							<split pos="left">
								<output>0.39598263845291271</output>
							</split>
							<split pos="right">
								<output>1.3301461081318029</output>
							</split>
						</split>
						<split pos="right">
							<feature>3</feature>
							<threshold>0.529465079</threshold>
							<split pos="left">
								<output>0.30578571210540589</output>
							</split>
							<split pos="right">
								<output>-0.78324261904023273</output>
							</split>
						</split>
					</split>
				</split>
			</split>
		</tree>
		<tree id="22" weight="0.10000000149011612">
			<split>
				<feature>6</feature>
				<threshold>0.83547169</threshold>
				<split pos="left">
					<feature>6</feature>
					<threshold>0.815462589</threshold>
					<split pos="left">
						<feature>5</feature>
						<threshold>0.637691736</threshold>
						<split pos="left">
							<feature>5</feature>
							<threshold>0.602314711</threshold>
							<split pos="left">
								<feature>7</feature>
								<threshold>0.819806397</threshold>
								<split pos="left">
									<feature>6</feature>
									<threshold>0.635803699</threshold>
									<split pos="left">
										<feature>9</feature>
										<threshold>0</threshold>
										<split pos="left">
											<feature>3</feature>
											<threshold>0.41373238</threshold>
											<split pos="left">
												<output>-0.81620155489892754</output>
											</split>
											<split pos="right">
												<output>0.15485934581526836</output>
											</split>
										</split>
										<split pos="right">
											<output>0.60548627003729738</output>
										</split>
									</split>
									<split pos="right">
										<output>-1.1963252948715719</output>
									</split>
								</split>
								<split pos="right">
									<output>1.3163845583392011</output>
								</split>
							</split>
							<split pos="right">
								<output>-2.1043071223793359</output>
							</split>
						</split>
						<split pos="right">
							<output>0.425583377142702</output>
						</split>
					</split>
					<split pos="right">
						<output>-2.5394278854415764</output>
					</split>
				</split>
				<split pos="right">
					<feature>6</feature>
					<threshold>0.999399483</threshold>
					<split pos="left">
						<output>0.73982847620550285</output>
					</split>
					<split pos="right">
						<output>0.10848884401031264</output>
					</split>
				</split>
			</split>
		</tree>
		<tree id="23" weight="0.10000000149011612">
			<split>
				<feature>6</feature>
				<threshold>0.444209784</threshold>
				<split pos="left">
					<feature>9</feature>
					<threshold>0</threshold>
					<split pos="left">
						<feature>3</feature>
						<threshold>0.377599746</threshold>
						<split pos="left">
							<output>-0.97387217325392306</output>
						</split>
						<split pos="right">
							<output>0.11400529153984962</output>
						</split>
					</split>
					<split pos="right">
						<output>0.15190021627560141</output>
					</split>
				</split>
				<split pos="right">
					<feature>6</feature>
					<threshold>0.453182817</threshold>
					<split pos="left">
						<output>1.1767054182406078</output>
					</split>
					<split pos="right">
						<feature>3</feature>
						<threshold>0.578034699</threshold>
						<split pos="left">
							<feature>3</feature>
							<threshold>0.517063916</threshold>
							<split pos="left">
								<feature>3</feature>
								<threshold>0</threshold>
								<split pos="left">
									<output>0.77426285847862364</output>
								</split>
								<split pos="right">
									<feature>8</feature>
									<threshold>0.708620787</threshold>
									<split pos="left">
										<output>-0.23302371958313609</output>
									</split>
									<split pos="right">
										<output>0.54463246225645889</output>
									</split>
								</split>
							</split>
							<split pos="right">
								<output>0.653806133324355</output>
							</split>
						</split>
						<split pos="right">
							<feature>5</feature>
							<threshold>0.740592122</threshold>
							<split pos="left">
								<output>0.11848514736959564</output>
							</split>
							<split pos="right">
								<output>-0.69009194201460522</output>
							</split>
						</split>
					</split>
				</split>
			</split>
		</tree>
		<tree id="24" weight="0.10000000149011612">
			<split>
				<feature>6</feature>
				<threshold>0.699943066</threshold>
				<split pos="left">
					<feature>6</feature>
					<threshold>0.635803699</threshold>
					<split pos="left">
						<feature>6</feature>
						<threshold>0.444209784</threshold>
						<split pos="left">
							<feature>5</feature>
							<threshold>0.00265262392</threshold>
							<split pos="left">
								<output>-0.066195292073469095</output>
							</split>
							<split pos="right">
								<output>-0.7388638466919959</output>
							</split>
						</split>
						<split pos="right">
							<output>0.36400881646535355</output>
						</split>
					</split>
					<split pos="right">
						<output>-1.0021225045432862</output>
					</split>
				</split>
				<split pos="right">
					<feature>3</feature>
					<threshold>0</threshold>
					<split pos="left">
						<output>1.1820988461935846</output>
					</split>
					<split pos="right">
						<feature>6</feature>
						<threshold>0.730451524</threshold>
						<split pos="left">
							<output>1.1120388109479467</output>
						</split>
						<split pos="right">
							<feature>6</feature>
							<threshold>0.746344328</threshold>
							<split pos="left">
								<output>-1.5427157864801027</output>
							</split>
							<split pos="right">
								<feature>5</feature>
								<threshold>0.995627224</threshold>
								<split pos="left">
									<feature>5</feature>
									<threshold>0.966991067</threshold>
									<split pos="left">
										<output>0.38984807939652427</output>
									</split>
									<split pos="right">
										<output>1.2275364355848364</output>
									</split>
								</split>
								<split pos="right">
									<output>-0.35857906018903768</output>
								</split>
							</split>
						</split>
					</split>
				</split>
			</split>
		</tree>
		<tree id="25" weight="0.10000000149011612">
			<split>
				<feature>6</feature>
				<threshold>0.444209784</threshold>
				<split pos="left">
					<feature>9</feature>
					<threshold>0</threshold>
					<split pos="left">
						<feature>3</feature>
						<threshold>0.41373238</threshold>
						<split pos="left">
							<output>-0.95958651652071536</output>
						</split>
						<split pos="right">
							<output>0.16722430497909579</output>
						</split>
					</split>
					<split pos="right">
						<output>0.18323297213473402</output>
					</split>
				</split>
				<split pos="right">
					<feature>6</feature>
					<threshold>0.453182817</threshold>
					<split pos="left">
						<output>1.1678283384804844</output>
					</split>
					<split pos="right">
						<feature>3</feature>
						<threshold>0.539436162</threshold>
						<split pos="left">
							<feature>3</feature>
							<threshold>0.517063916</threshold>
							<split pos="left">
								<feature>4</feature>
								<threshold>0.207245141</threshold>
								<split pos="left">
									<output>-0.78692689452861164</output>
								</split>
								<split pos="right">
									<feature>4</feature>
									<threshold>0.394486457</threshold>
									<split pos="left">
										<output>0.91872630791830878</output>
									</split>
									<split pos="right">
										<output>0.25440316466893026</output>
									</split>
								</split>
							</split>
							<split pos="right">
								<output>1.1302388272007318</output>
							</split>
						</split>
						<split pos="right">
							<feature>5</feature>
							<threshold>0.995627224</threshold>
							<split pos="left">
								<output>0.1327494185570679</output>
							</split>
							<split pos="right">
								<output>-0.69853571790441493</output>
							</split>
						</split>
					</split>
				</split>
			</split>
		</tree>
		<tree id="26" weight="0.10000000149011612">
			<split>
				<feature>6</feature>
				<threshold>0.83547169</threshold>
				<split pos="left">
					<feature>6</feature>
					<threshold>0.815462589</threshold>
					<split pos="left">
						<feature>5</feature>
						<threshold>0.637691736</threshold>
						<split pos="left">
							<feature>6</feature>
							<threshold>0.70379591</threshold>
							<split pos="left">
								<feature>4</feature>
								<threshold>0.569699228</threshold>
								<split pos="left">
									<feature>9</feature>
									<threshold>0</threshold>
									<split pos="left">
										<feature>5</feature>
										<threshold>0.354047418</threshold>
										<split pos="left">
											<output>-0.47512065668406139</output>
										</split>
										<split pos="right">
											<output>0.98782673810650146</output>
										</split>
									</split>
									<split pos="right">
										<output>0.78176523062467784</output>
									</split>
								</split>
								<split pos="right">
									<output>-1.2236951880482674</output>
								</split>
							</split>
							<split pos="right">
								<output>-0.79870766473273735</output>
							</split>
						</split>
						<split pos="right">
							<output>0.40922614199157165</output>
						</split>
					</split>
					<split pos="right">
						<output>-2.2270181429175762</output>
					</split>
				</split>
				<split pos="right">
					<feature>6</feature>
					<threshold>0.854793787</threshold>
					<split pos="left">
						<output>1.1963169947377283</output>
					</split>
					<split pos="right">
						<feature>3</feature>
						<threshold>0.569647908</threshold>
						<split pos="left">
							<output>0.56897429183659087</output>
						</split>
						<split pos="right">
							<output>-0.10316258121821249</output>
						</split>
					</split>
				</split>
			</split>
		</tree>
		<tree id="27" weight="0.10000000149011612">
			<split>
				<feature>6</feature>
				<threshold>0.444209784</threshold>
				<split pos="left">
					<output>-0.45049334715367456</output>
				</split>
				<split pos="right">
					<feature>6</feature>
					<threshold>0.453182817</threshold>
					<split pos="left">
						<output>1.1551017060117337</output>
					</split>
					<split pos="right">
						<feature>3</feature>
						<threshold>0.578034699</threshold>
						<split pos="left">
							<feature>4</feature>
							<threshold>0.123188995</threshold>
							<split pos="left">
								<output>-1.1319827175119828</output>
							</split>
							<split pos="right">
								<feature>3</feature>
								<threshold>0.569390893</threshold>
								<split pos="left">
									<feature>5</feature>
									<threshold>0.0808529183</threshold>
									<split pos="left">
										<output>1.110932425357738</output>
									</split>
									<split pos="right">
										<feature>3</feature>
										<threshold>0.539436162</threshold>
										<split pos="left">
											<feature>3</feature>
											<threshold>0.517063916</threshold>
											<split pos="left">
												<output>0.29109934023028305</output>
											</split>
											<split pos="right">
												<output>1.1240765238376171</output>
											</split>
										</split>
										<split pos="right">
											<output>-1.1116388479721435</output>
										</split>
									</split>
								</split>
								<split pos="right">
									<output>1.1724112541063902</output>
								</split>
							</split>
						</split>
						<split pos="right">
							<feature>7</feature>
							<threshold>0.954842567</threshold>
							<split pos="left">
								<output>0.35997273905675337</output>
							</split>
							<split pos="right">
								<output>-0.61333552127821278</output>
							</split>
						</split>
					</split>
				</split>
			</split>
		</tree>
		<tree id="28" weight="0.10000000149011612">
			<split>
				<feature>6</feature>
				<threshold>0.746344328</threshold>
				<split pos="left">
					<feature>6</feature>
					<threshold>0.730451524</threshold>
					<split pos="left">
						<feature>6</feature>
						<threshold>0.707035959</threshold>
						<split pos="left">
							<feature>9</feature>
							<threshold>0</threshold>
							<split pos="left">
								<feature>3</feature>
								<threshold>0.0374971516</threshold>
								<split pos="left">
									<output>-0.94453765850344096</output>
								</split>
								<split pos="right">
									<output>-0.2209249839211487</output>
								</split>
							</split>
							<split pos="right">
								<output>0.29216436227304232</output>
							</split>
						</split>
						<split pos="right">
							<output>1.1072054447462631</output>
						</split>
					</split>
					<split pos="right">
						<output>-1.4086106884617515</output>
					</split>
				</split>
				<split pos="right">
					<feature>6</feature>
					<threshold>0.776035488</threshold>
					<split pos="left">
						<output>1.1605122756969224</output>
					</split>
					<split pos="right">
						<feature>6</feature>
						<threshold>0.809832573</threshold>
						<split pos="left">
							<output>-1.2856942092547183</output>
						</split>
						<split pos="right">
							<feature>5</feature>
							<threshold>0.995627224</threshold>
							<split pos="left">
								<output>0.48833652348827761</output>
							</split>
							<split pos="right">
								<feature>3</feature>
								<threshold>0.529465079</threshold>
								<split pos="left">
									<output>0.51872215524382981</output>
								</split>
								<split pos="right">
									<output>-0.60599547803476361</output>
								</split>
							</split>
						</split>
					</split>
				</split>
			</split>
		</tree>
		<tree id="29" weight="0.10000000149011612">
			<split>
				<feature>6</feature>
				<threshold>0.83547169</threshold>
				<split pos="left">
					<feature>6</feature>
					<threshold>0.815462589</threshold>
					<split pos="left">
						<feature>7</feature>
						<threshold>0.865603447</threshold>
						<split pos="left">
							<feature>5</feature>
							<threshold>0.637691736</threshold>
							<split pos="left">
								<feature>5</feature>
								<threshold>0.602314711</threshold>
								<split pos="left">
									<feature>7</feature>
									<threshold>0.819806397</threshold>
									<split pos="left">
										<feature>6</feature>
										<threshold>0.699943066</threshold>
										<split pos="left">
											<output>-0.20154217878897634</output>
										</split>
										<split pos="right">
											<output>-1.0208364846411677</output>
										</split>
									</split>
									<split pos="right">
										<output>1.1159669016827802</output>
									</split>
								</split>
								<split pos="right">
									<output>-1.5210815866894136</output>
								</split>
							</split>
							<split pos="right">
								<output>0.61018863750209773</output>
							</split>
						</split>
						<split pos="right">
							<output>-1.1811784065035709</output>
						</split>
					</split>
					<split pos="right">
						<output>-2.1988586298932984</output>
					</split>
				</split>
				<split pos="right">
					<feature>6</feature>
					<threshold>0.854793787</threshold>
					<split pos="left">
						<output>1.1861754885219116</output>
					</split>
					<split pos="right">
						<feature>7</feature>
						<threshold>0.954842567</threshold>
						<split pos="left">
							<output>0.77773731585332317</output>
						</split>
						<split pos="right">
							<output>0.063782900926686412</output>
						</split>
					</split>
				</split>
			</split>
		</tree>
		<tree id="30" weight="0.10000000149011612">
			<split>
				<feature>6</feature>
				<threshold>0.444209784</threshold>
				<split pos="left">
					<feature>6</feature>
					<threshold>0.374615699</threshold>
					<split pos="left">
						<output>-0.33107934413850937</output>
					</split>
					<split pos="right">
						<output>-1.2909983426281113</output>
					</split>
				</split>
				<split pos="right">
					<feature>6</feature>
					<threshold>0.453182817</threshold>
					<split pos="left">
						<output>1.1144738461540353</output>
					</split>
					<split pos="right">
						<feature>3</feature>
						<threshold>0.578034699</threshold>
						<split pos="left">
							<feature>3</feature>
							<threshold>0.569390893</threshold>
							<split pos="left">
								<feature>3</feature>
								<threshold>0.539436162</threshold>
								<split pos="left">
									<feature>3</feature>
									<threshold>0.517063916</threshold>
									<split pos="left">
										<output>0.18588979782157289</output>
									</split>
									<split pos="right">
										<output>1.1172618330902582</output>
									</split>
								</split>
								<split pos="right">
									<output>-1.0829075624301179</output>
								</split>
							</split>
							<split pos="right">
								<output>0.83214200579744757</output>
							</split>
						</split>
						<split pos="right">
							<feature>3</feature>
							<threshold>0.999449492</threshold>
							<split pos="left">
								<output>-1.1680118968453352</output>
							</split>
							<split pos="right">
								<feature>7</feature>
								<threshold>0.954842567</threshold>
								<split pos="left">
									<output>0.73949980651166003</output>
								</split>
								<split pos="right">
									<output>-0.3564665109388469</output>
								</split>
							</split>
						</split>
					</split>
				</split>
			</split>
		</tree>
		<tree id="31" weight="0.10000000149011612">
			<split>
				<feature>7</feature>
				<threshold>0.466379344</threshold>
				<split pos="left">
					<feature>7</feature>
					<threshold>0.456095994</threshold>
					<split pos="left">
						<feature>9</feature>
						<threshold>0</threshold>
						<split pos="left">
							<output>-0.54109551261518973</output>
						</split>
						<split pos="right">
							<output>0.29739225244131928</output>
						</split>
					</split>
					<split pos="right">
						<output>-1.8031437256737184</output>
					</split>
				</split>
				<split pos="right">
					<feature>7</feature>
					<threshold>0.499464333</threshold>
					<split pos="left">
						<output>1.0982480244721211</output>
					</split>
					<split pos="right">
						<feature>3</feature>
						<threshold>0.0385356471</threshold>
						<split pos="left">
							<output>0.68179723118891133</output>
						</split>
						<split pos="right">
							<feature>6</feature>
							<threshold>0.83547169</threshold>
							<split pos="left">
								<output>-0.21747241246238769</output>
							</split>
							<split pos="right">
								<feature>7</feature>
								<threshold>0.954842567</threshold>
								<split pos="left">
									<output>0.84142763373189944</output>
								</split>
								<split pos="right">
									<feature>3</feature>
									<threshold>0.569647908</threshold>
									<split pos="left">
										<output>0.48253926658217461</output>
									</split>
									<split pos="right">
										<feature>9</feature>
										<threshold>0</threshold>
										<split pos="left">
											<output>-0.15426312402099174</output>
										</split>
										<split pos="right">
											<output>-1.5398598375967452</output>
										</split>
									</split>
								</split>
							</split>
						</split>
					</split>
				</split>
			</split>
		</tree>
		<tree id="32" weight="0.10000000149011612">
			<split>
				<feature>7</feature>
				<threshold>0.466379344</threshold>
				<split pos="left">
					<feature>7</feature>
					<threshold>0.456095994</threshold>
					<split pos="left">
						<output>-0.34118627524422884</output>
					</split>
					<split pos="right">
						<output>-1.707918419697926</output>
					</split>
				</split>
				<split pos="right">
					<feature>7</feature>
					<threshold>0.499464333</threshold>
					<split pos="left">
						<output>1.0867628172647534</output>
					</split>
					<split pos="right">
						<feature>3</feature>
						<threshold>0.0385356471</threshold>
						<split pos="left">
							<output>0.64955557967704303</output>
						</split>
						<split pos="right">
							<feature>3</feature>
							<threshold>0.0549051948</threshold>
							<split pos="left">
								<output>-0.80536837314881382</output>
							</split>
							<split pos="right">
								<feature>3</feature>
								<threshold>0.0560006462</threshold>
								<split pos="left">
									<output>1.2217487998564442</output>
								</split>
								<split pos="right">
									<feature>4</feature>
									<threshold>0.683209598</threshold>
									<split pos="left">
										<output>-0.14670361830170017</output>
									</split>
									<split pos="right">
										<feature>4</feature>
										<threshold>0.737403989</threshold>
										<split pos="left">
											<output>1.1270350807452125</output>
										</split>
										<split pos="right">
											<feature>3</feature>
											<threshold>0.571605682</threshold>
											<split pos="left">
												<output>0.7021849905665003</output>
											</split>
											<split pos="right">
												<output>-0.43873868062008614</output>
											</split>
										</split>
									</split>
								</split>
							</split>
						</split>
					</split>
				</split>
			</split>
		</tree>
		<tree id="33" weight="0.10000000149011612">
			<split>
				<feature>6</feature>
				<threshold>0.444209784</threshold>
				<split pos="left">
					<feature>6</feature>
					<threshold>0.374615699</threshold>
					<split pos="left">
						<feature>7</feature>
						<threshold>0.342238635</threshold>
						<split pos="left">
							<output>-0.42114556912462453</output>
						</split>
						<split pos="right">
							<output>1.0528945063319441</output>
						</split>
					</split>
					<split pos="right">
						<output>-1.2323532278421181</output>
					</split>
				</split>
				<split pos="right">
					<feature>6</feature>
					<threshold>0.453182817</threshold>
					<split pos="left">
						<output>1.09284915739487</output>
					</split>
					<split pos="right">
						<feature>3</feature>
						<threshold>0.578034699</threshold>
						<split pos="left">
							<feature>5</feature>
							<threshold>0.028870225</threshold>
							<split pos="left">
								<output>-1.0955420042425663</output>
							</split>
							<split pos="right">
								<feature>3</feature>
								<threshold>0.569390893</threshold>
								<split pos="left">
									<output>0.28711067087450409</output>
								</split>
								<split pos="right">
									<output>1.1210263741717938</output>
								</split>
							</split>
						</split>
						<split pos="right">
							<feature>7</feature>
							<threshold>0.954842567</threshold>
							<split pos="left">
								<output>0.30474426193093157</output>
							</split>
							<split pos="right">
								<feature>4</feature>
								<threshold>0.367346942</threshold>
								<split pos="left">
									<output>0.65146546978081266</output>
								</split>
								<split pos="right">
									<output>-0.56370559998122549</output>
								</split>
							</split>
						</split>
					</split>
				</split>
			</split>
		</tree>
		<tree id="34" weight="0.10000000149011612">
			<split>
				<feature>3</feature>
				<threshold>0.579380691</threshold>
				<split pos="left">
					<feature>3</feature>
					<threshold>0.418650448</threshold>
					<split pos="left">
						<feature>9</feature>
						<threshold>0</threshold>
						<split pos="left">
							<feature>8</feature>
							<threshold>0.96868664</threshold>
							<split pos="left">
								<output>-0.48894096512418356</output>
							</split>
							<split pos="right">
								<output>1.060744656020653</output>
							</split>
						</split>
						<split pos="right">
							<output>0.51185730753013436</output>
						</split>
					</split>
					<split pos="right">
						<feature>3</feature>
						<threshold>0.42892459</threshold>
						<split pos="left">
							<output>1.9844789358328361</output>
						</split>
						<split pos="right">
							<output>0.39327720510007519</output>
						</split>
					</split>
				</split>
				<split pos="right">
					<feature>5</feature>
					<threshold>0.740592122</threshold>
					<split pos="left">
						<output>-0.13313725861906367</output>
					</split>
					<split pos="right">
						<feature>9</feature>
						<threshold>0</threshold>
						<split pos="left">
							<feature>4</feature>
							<threshold>0.897590697</threshold>
							<split pos="left">
								<output>-1.176604816763434</output>
							</split>
							<split pos="right">
								<feature>3</feature>
								<threshold>0.68686682</threshold>
								<split pos="left">
									<output>-1.006593613444638</output>
								</split>
								<split pos="right">
									<output>0.025038699241870827</output>
								</split>
							</split>
						</split>
						<split pos="right">
							<output>-1.9131118481721112</output>
						</split>
					</split>
				</split>
			</split>
		</tree>
		<tree id="35" weight="0.10000000149011612">
			<split>
				<feature>3</feature>
				<threshold>0.579380691</threshold>
				<split pos="left">
					<feature>3</feature>
					<threshold>0.418650448</threshold>
					<split pos="left">
						<feature>7</feature>
						<threshold>0.516346931</threshold>
						<split pos="left">
							<output>-0.61508780817191977</output>
						</split>
						<split pos="right">
							<feature>7</feature>
							<threshold>0.568836272</threshold>
							<split pos="left">
								<output>1.099428616349408</output>
							</split>
							<split pos="right">
								<feature>3</feature>
								<threshold>0.323898464</threshold>
								<split pos="left">
									<output>0.25751733275251265</output>
								</split>
								<split pos="right">
									<output>-1.153486471490776</output>
								</split>
							</split>
						</split>
					</split>
					<split pos="right">
						<feature>3</feature>
						<threshold>0.42892459</threshold>
						<split pos="left">
							<output>1.6554503549851418</output>
						</split>
						<split pos="right">
							<output>0.35940812703877656</output>
						</split>
					</split>
				</split>
				<split pos="right">
					<feature>3</feature>
					<threshold>0.790289521</threshold>
					<split pos="left">
						<output>-1.2295734652257959</output>
					</split>
					<split pos="right">
						<feature>5</feature>
						<threshold>0.740592122</threshold>
						<split pos="left">
							<output>0.36078517991188375</output>
						</split>
						<split pos="right">
							<feature>9</feature>
							<threshold>0</threshold>
							<split pos="left">
								<output>0.019995181925977736</output>
							</split>
							<split pos="right">
								<output>-1.6278397981312087</output>
							</split>
						</split>
					</split>
				</split>
			</split>
		</tree>
		<tree id="36" weight="0.10000000149011612">
			<split>
				<feature>5</feature>
				<threshold>0</threshold>
				<split pos="left">
					<feature>3</feature>
					<threshold>0.41373238</threshold>
					<split pos="left">
						<output>-0.37967728271905737</output>
					</split>
					<split pos="right">
						<feature>3</feature>
						<threshold>0.42892459</threshold>
						<split pos="left">
							<output>1.4940132063245668</output>
						</split>
						<split pos="right">
							<output>0.11200753576420434</output>
						</split>
					</split>
				</split>
				<split pos="right">
					<feature>4</feature>
					<threshold>0.683209598</threshold>
					<split pos="left">
						<feature>4</feature>
						<threshold>0.655398905</threshold>
						<split pos="left">
							<output>-0.10631200086754419</output>
						</split>
						<split pos="right">
							<output>-1.3769527392885625</output>
						</split>
					</split>
					<split pos="right">
						<feature>4</feature>
						<threshold>0.737403989</threshold>
						<split pos="left">
							<output>1.1729814461865695</output>
						</split>
						<split pos="right">
							<feature>3</feature>
							<threshold>0.748555422</threshold>
							<split pos="left">
								<output>0.12950112817740814</output>
							</split>
							<split pos="right">
								<feature>9</feature>
								<threshold>0</threshold>
								<split pos="left">
									<feature>3</feature>
									<threshold>0.790289521</threshold>
									<split pos="left">
										<output>-1.1564591486106741</output>
									</split>
									<split pos="right">
										<output>-0.0134448697046656</output>
									</split>
								</split>
								<split pos="right">
									<output>-1.4568895758420231</output>
								</split>
							</split>
						</split>
					</split>
				</split>
			</split>
		</tree>
		<tree id="37" weight="0.10000000149011612">
			<split>
				<feature>6</feature>
				<threshold>0.83547169</threshold>
				<split pos="left">
					<feature>6</feature>
					<threshold>0.815462589</threshold>
					<split pos="left">
						<feature>7</feature>
						<threshold>0.865603447</threshold>
						<split pos="left">
							<feature>7</feature>
							<threshold>0.857065976</threshold>
							<split pos="left">
								<feature>5</feature>
								<threshold>0.637691736</threshold>
								<split pos="left">
									<feature>5</feature>
									<threshold>0.602314711</threshold>
									<split pos="left">
										<feature>6</feature>
										<threshold>0.70379591</threshold>
										<split pos="left">
											<output>-0.083892738924696827</output>
										</split>
										<split pos="right">
											<output>-0.96188432155763282</output>
										</split>
									</split>
									<split pos="right">
										<output>-1.2793747411717062</output>
									</split>
								</split>
								<split pos="right">
									<output>0.58612739903223743</output>
								</split>
							</split>
							<split pos="right">
								<output>1.1615827486646388</output>
							</split>
						</split>
						<split pos="right">
							<output>-1.1085870176841279</output>
						</split>
					</split>
					<split pos="right">
						<output>-1.4653264906793502</output>
					</split>
				</split>
				<split pos="right">
					<feature>6</feature>
					<threshold>0.854793787</threshold>
					<split pos="left">
						<output>1.1515585395356942</output>
					</split>
					<split pos="right">
						<feature>5</feature>
						<threshold>0.995627224</threshold>
						<split pos="left">
							<output>0.38698818636984844</output>
						</split>
						<split pos="right">
							<output>-0.24416849735339699</output>
						</split>
					</split>
				</split>
			</split>
		</tree>
		<tree id="38" weight="0.10000000149011612">
			<split>
				<feature>6</feature>
				<threshold>0.83547169</threshold>
				<split pos="left">
					<feature>6</feature>
					<threshold>0.815462589</threshold>
					<split pos="left">
						<feature>7</feature>
						<threshold>0.865603447</threshold>
						<split pos="left">
							<feature>7</feature>
							<threshold>0.857065976</threshold>
							<split pos="left">
								<feature>5</feature>
								<threshold>0.637691736</threshold>
								<split pos="left">
									<feature>5</feature>
									<threshold>0.602314711</threshold>
									<split pos="left">
										<feature>6</feature>
										<threshold>0.70379591</threshold>
										<split pos="left">
											<output>-0.0819707978647123</output>
										</split>
										<split pos="right">
											<output>-0.89823351421943032</output>
										</split>
									</split>
									<split pos="right">
										<output>-1.2436386243112976</output>
									</split>
								</split>
								<split pos="right">
									<output>0.54461437360016174</output>
								</split>
							</split>
							<split pos="right">
								<output>1.1324452312182649</output>
							</split>
						</split>
						<split pos="right">
							<output>-1.0926067909870016</output>
						</split>
					</split>
					<split pos="right">
						<output>-1.4052871841440728</output>
					</split>
				</split>
				<split pos="right">
					<feature>6</feature>
					<threshold>0.854793787</threshold>
					<split pos="left">
						<output>1.1341003590159728</output>
					</split>
					<split pos="right">
						<feature>5</feature>
						<threshold>0.995627224</threshold>
						<split pos="left">
							<output>0.36562408487210873</output>
						</split>
						<split pos="right">
							<output>-0.22402383879824275</output>
						</split>
					</split>
				</split>
			</split>
		</tree>
		<tree id="39" weight="0.10000000149011612">
			<split>
				<feature>6</feature>
				<threshold>0.83547169</threshold>
				<split pos="left">
					<feature>6</feature>
					<threshold>0.815462589</threshold>
					<split pos="left">
						<feature>3</feature>
						<threshold>0.593088806</threshold>
						<split pos="left">
							<feature>3</feature>
							<threshold>0.418650448</threshold>
							<split pos="left">
								<output>-0.21324756035253845</output>
							</split>
							<split pos="right">
								<output>0.84885825067114673</output>
							</split>
						</split>
						<split pos="right">
							<output>-0.62845939690254937</output>
						</split>
					</split>
					<split pos="right">
						<output>-1.3550520050583625</output>
					</split>
				</split>
				<split pos="right">
					<feature>6</feature>
					<threshold>0.854793787</threshold>
					<split pos="left">
						<output>1.118921328836586</output>
					</split>
					<split pos="right">
						<feature>7</feature>
						<threshold>0.954842567</threshold>
						<split pos="left">
							<output>0.64776847394592585</output>
						</split>
						<split pos="right">
							<feature>3</feature>
							<threshold>0.569647908</threshold>
							<split pos="left">
								<output>0.38541373024619929</output>
							</split>
							<split pos="right">
								<feature>5</feature>
								<threshold>0</threshold>
								<split pos="left">
									<output>1.054405345398874</output>
								</split>
								<split pos="right">
									<feature>7</feature>
									<threshold>0.996291935</threshold>
									<split pos="left">
										<output>-1.1033204166216906</output>
									</split>
									<split pos="right">
										<output>-0.36409932288686825</output>
									</split>
								</split>
							</split>
						</split>
					</split>
				</split>
			</split>
		</tree>
		<tree id="40" weight="0.10000000149011612">
			<split>
				<feature>6</feature>
				<threshold>0.83547169</threshold>
				<split pos="left">
					<feature>6</feature>
					<threshold>0.815462589</threshold>
					<split pos="left">
						<feature>5</feature>
						<threshold>0.637691736</threshold>
						<split pos="left">
							<feature>5</feature>
							<threshold>0.602314711</threshold>
							<split pos="left">
								<feature>7</feature>
								<threshold>0.819806397</threshold>
								<split pos="left">
									<feature>6</feature>
									<threshold>0.635803699</threshold>
									<split pos="left">
										<output>-0.072392996724171266</output>
									</split>
									<split pos="right">
										<output>-0.93471317596778958</output>
									</split>
								</split>
								<split pos="right">
									<output>1.0795518312851069</output>
								</split>
							</split>
							<split pos="right">
								<output>-1.1942293449497263</output>
							</split>
						</split>
						<split pos="right">
							<output>0.35172422313429275</output>
						</split>
					</split>
					<split pos="right">
						<output>-1.2848245119320689</output>
					</split>
				</split>
				<split pos="right">
					<feature>6</feature>
					<threshold>0.854793787</threshold>
					<split pos="left">
						<output>1.1121983663913984</output>
					</split>
					<split pos="right">
						<feature>7</feature>
						<threshold>0.954842567</threshold>
						<split pos="left">
							<output>0.62612049099316924</output>
						</split>
						<split pos="right">
							<feature>3</feature>
							<threshold>0.569647908</threshold>
							<split pos="left">
								<output>0.3708641533252921</output>
							</split>
							<split pos="right">
								<output>-0.36229951077284234</output>
							</split>
						</split>
					</split>
				</split>
			</split>
		</tree>
		<tree id="41" weight="0.10000000149011612">
			<split>
				<feature>8</feature>
				<threshold>0.999926269</threshold>
				<split pos="left">
					<feature>4</feature>
					<threshold>0.497219622</threshold>
					<split pos="left">
						<feature>7</feature>
						<threshold>0.779293537</threshold>
						<split pos="left">
							<feature>9</feature>
							<threshold>0</threshold>
							<split pos="left">
								<output>-0.32644140374037517</output>
							</split>
							<split pos="right">
								<output>0.97706154112891763</output>
							</split>
						</split>
						<split pos="right">
							<output>0.90805486925984147</output>
						</split>
					</split>
					<split pos="right">
						<output>-0.4375856695610576</output>
					</split>
				</split>
				<split pos="right">
					<feature>5</feature>
					<threshold>0.413619727</threshold>
					<split pos="left">
						<output>-0.62889561776340808</output>
					</split>
					<split pos="right">
						<feature>7</feature>
						<threshold>0.999305904</threshold>
						<split pos="left">
							<output>1.0217552659406761</output>
						</split>
						<split pos="right">
							<feature>3</feature>
							<threshold>0.569647908</threshold>
							<split pos="left">
								<output>1.0146962774194115</output>
							</split>
							<split pos="right">
								<feature>9</feature>
								<threshold>0</threshold>
								<split pos="left">
									<feature>3</feature>
									<threshold>0.626655281</threshold>
									<split pos="left">
										<output>-1.0313189512880989</output>
									</split>
									<split pos="right">
										<output>-3.6434765461382461e-05</output>
									</split>
								</split>
								<split pos="right">
									<output>-1.3115023812895545</output>
								</split>
							</split>
						</split>
					</split>
				</split>
			</split>
		</tree>
		<tree id="42" weight="0.10000000149011612">
			<split>
				<feature>6</feature>
				<threshold>0.444209784</threshold>
				<split pos="left">
					<feature>6</feature>
					<threshold>0.374615699</threshold>
					<split pos="left">
						<output>-0.16962406245334888</output>
					</split>
					<split pos="right">
						<output>-1.1133825773429855</output>
					</split>
				</split>
				<split pos="right">
					<feature>6</feature>
					<threshold>0.453182817</threshold>
					<split pos="left">
						<output>1.0583874924868504</output>
					</split>
					<split pos="right">
						<feature>4</feature>
						<threshold>0.352836162</threshold>
						<split pos="left">
							<output>0.46195205117819993</output>
						</split>
						<split pos="right">
							<feature>4</feature>
							<threshold>0.683209598</threshold>
							<split pos="left">
								<output>-0.35525454007297197</output>
							</split>
							<split pos="right">
								<feature>4</feature>
								<threshold>0.779974699</threshold>
								<split pos="left">
									<output>1.0923734608038871</output>
								</split>
								<split pos="right">
									<feature>6</feature>
									<threshold>0.999399483</threshold>
									<split pos="left">
										<output>0.50399704633164455</output>
									</split>
									<split pos="right">
										<feature>3</feature>
										<threshold>0.517063916</threshold>
										<split pos="left">
											<output>-0.0045339608022270878</output>
										</split>
										<split pos="right">
											<feature>9</feature>
											<threshold>0</threshold>
											<split pos="left">
												<output>-0.055053790599531943</output>
											</split>
											<split pos="right">
												<output>-1.2736544805269754</output>
											</split>
										</split>
									</split>
								</split>
							</split>
						</split>
					</split>
				</split>
			</split>
		</tree>
		<tree id="43" weight="0.10000000149011612">
			<split>
				<feature>7</feature>
				<threshold>0.466379344</threshold>
				<split pos="left">
					<output>-0.26577828526163777</output>
				</split>
				<split pos="right">
					<feature>7</feature>
					<threshold>0.499464333</threshold>
					<split pos="left">
						<output>1.0533821960101399</output>
					</split>
					<split pos="right">
						<feature>3</feature>
						<threshold>0.323898464</threshold>
						<split pos="left">
							<output>0.38082627284652842</output>
						</split>
						<split pos="right">
							<feature>3</feature>
							<threshold>0.324287534</threshold>
							<split pos="left">
								<output>-1.497912702065983</output>
							</split>
							<split pos="right">
								<feature>8</feature>
								<threshold>0.999926269</threshold>
								<split pos="left">
									<output>-0.25195835273061529</output>
								</split>
								<split pos="right">
									<feature>3</feature>
									<threshold>0.569647908</threshold>
									<split pos="left">
										<output>1.0357655947371689</output>
									</split>
									<split pos="right">
										<feature>7</feature>
										<threshold>0.954842567</threshold>
										<split pos="left">
											<output>0.91705870527264544</output>
										</split>
										<split pos="right">
											<feature>9</feature>
											<threshold>0</threshold>
											<split pos="left">
												<feature>3</feature>
												<threshold>0.626655281</threshold>
												<split pos="left">
													<output>-1.0456966386336777</output>
												</split>
												<split pos="right">
													<output>0.08805519408196151</output>
												</split>
											</split>
											<split pos="right">
												<output>-1.1686773429903621</output>
											</split>
										</split>
									</split>
								</split>
							</split>
						</split>
					</split>
				</split>
			</split>
		</tree>
		<tree id="44" weight="0.10000000149011612">
			<split>
				<feature>6</feature>
				<threshold>0.444209784</threshold>
				<split pos="left">
					<output>-0.24594418466165702</output>
				</split>
				<split pos="right">
					<feature>6</feature>
					<threshold>0.453182817</threshold>
					<split pos="left">
						<output>1.0506895678729216</output>
					</split>
					<split pos="right">
						<feature>3</feature>
						<threshold>0</threshold>
						<split pos="left">
							<output>0.70094919069573813</output>
						</split>
						<split pos="right">
							<feature>4</feature>
							<threshold>0.441164792</threshold>
							<split pos="left">
								<output>0.33621613677181933</output>
							</split>
							<split pos="right">
								<feature>5</feature>
								<threshold>0.586317599</threshold>
								<split pos="left">
									<output>-0.70274194768368536</output>
								</split>
								<split pos="right">
									<feature>5</feature>
									<threshold>0.62272656</threshold>
									<split pos="left">
										<output>1.1195863264904635</output>
									</split>
									<split pos="right">
										<feature>3</feature>
										<threshold>0.596452355</threshold>
										<split pos="left">
											<output>0.33482226077582233</output>
										</split>
										<split pos="right">
											<feature>8</feature>
											<threshold>0.923155725</threshold>
											<split pos="left">
												<output>0.58183217741580329</output>
											</split>
											<split pos="right">
												<feature>9</feature>
												<threshold>0</threshold>
												<split pos="left">
													<output>-0.08679026097661928</output>
												</split>
												<split pos="right">
													<output>-1.211068183302866</output>
												</split>
											</split>
										</split>
									</split>
								</split>
							</split>
						</split>
					</split>
				</split>
			</split>
		</tree>
		<tree id="45" weight="0.10000000149011612">
			<split>
				<feature>9</feature>
				<threshold>0</threshold>
				<split pos="left">
					<feature>3</feature>
					<threshold>0.0374971516</threshold>
					<split pos="left">
						<output>-0.91276485112363337</output>
					</split>
					<split pos="right">
						<feature>3</feature>
						<threshold>0.0385356471</threshold>
						<split pos="left">
							<output>1.047878191440178</output>
						</split>
						<split pos="right">
							<feature>8</feature>
							<threshold>0.999926269</threshold>
							<split pos="left">
								<feature>8</feature>
								<threshold>0.781440079</threshold>
								<split pos="left">
									<output>0.0001531524335581387</output>
								</split>
								<split pos="right">
									<output>-0.62282473728731902</output>
								</split>
							</split>
							<split pos="right">
								<feature>3</feature>
								<threshold>0.569647908</threshold>
								<split pos="left">
									<output>1.0407954152850092</output>
								</split>
								<split pos="right">
									<feature>3</feature>
									<threshold>0.998291314</threshold>
									<split pos="left">
										<output>-1.0907563488596899</output>
									</split>
									<split pos="right">
										<feature>4</feature>
										<threshold>0.647103548</threshold>
										<split pos="left">
											<output>1.1048764226260017</output>
										</split>
										<split pos="right">
											<feature>5</feature>
											<threshold>0.586317599</threshold>
											<split pos="left">
												<output>0</output>
											</split>
											<split pos="right">
												<output>-0.014328976801642966</output>
											</split>
										</split>
									</split>
								</split>
							</split>
						</split>
					</split>
				</split>
				<split pos="right">
					<output>0.2360735376482451</output>
				</split>
			</split>
		</tree>
		<tree id="46" weight="0.10000000149011612">
			<split>
				<feature>3</feature>
				<threshold>0.579380691</threshold>
				<split pos="left">
					<feature>3</feature>
					<threshold>0.418650448</threshold>
					<split pos="left">
						<feature>9</feature>
						<threshold>0</threshold>
						<split pos="left">
							<feature>7</feature>
							<threshold>0.292654812</threshold>
							<split pos="left">
								<output>-1.0905697923370841</output>
							</split>
							<split pos="right">
								<output>0.15799770103918495</output>
							</split>
						</split>
						<split pos="right">
							<feature>5</feature>
							<threshold>0.383462518</threshold>
							<split pos="left">
								<output>1.3043253402031005</output>
							</split>
							<split pos="right">
								<output>-0.034535720852703559</output>
							</split>
						</split>
					</split>
					<split pos="right">
						<feature>3</feature>
						<threshold>0.42892459</threshold>
						<split pos="left">
							<output>1.200857523591655</output>
						</split>
						<split pos="right">
							<output>0.29436707556330921</output>
						</split>
					</split>
				</split>
				<split pos="right">
					<feature>3</feature>
					<threshold>0.790289521</threshold>
					<split pos="left">
						<output>-1.0860915872747194</output>
					</split>
					<split pos="right">
						<feature>5</feature>
						<threshold>0.905272484</threshold>
						<split pos="left">
							<output>0.31094023465230525</output>
						</split>
						<split pos="right">
							<feature>9</feature>
							<threshold>0</threshold>
							<split pos="left">
								<output>-0.034794513464780748</output>
							</split>
							<split pos="right">
								<output>-1.1938181732754638</output>
							</split>
						</split>
					</split>
				</split>
			</split>
		</tree>
		<tree id="47" weight="0.10000000149011612">
			<split>
				<feature>9</feature>
				<threshold>0</threshold>
				<split pos="left">
					<feature>3</feature>
					<threshold>0.0374971516</threshold>
					<split pos="left">
						<output>-0.84608261109265803</output>
					</split>
					<split pos="right">
						<feature>3</feature>
						<threshold>0.0385356471</threshold>
						<split pos="left">
							<output>1.0436908554279551</output>
						</split>
						<split pos="right">
							<feature>8</feature>
							<threshold>0.999926269</threshold>
							<split pos="left">
								<feature>8</feature>
								<threshold>0.482269853</threshold>
								<split pos="left">
									<output>0.038199079409219197</output>
								</split>
								<split pos="right">
									<output>-0.51109511902947558</output>
								</split>
							</split>
							<split pos="right">
								<feature>3</feature>
								<threshold>0.569647908</threshold>
								<split pos="left">
									<output>1.0374766286990316</output>
								</split>
								<split pos="right">
									<feature>3</feature>
									<threshold>0.998291314</threshold>
									<split pos="left">
										<output>-1.0747205727081826</output>
									</split>
									<split pos="right">
										<feature>4</feature>
										<threshold>0.999594033</threshold>
										<split pos="left">
											<output>1.0889680397715786</output>
										</split>
										<split pos="right">
											<feature>5</feature>
											<threshold>0.700876415</threshold>
											<split pos="left">
												<output>0</output>
											</split>
											<split pos="right">
												<output>-0.034213854212295385</output>
											</split>
										</split>
									</split>
								</split>
							</split>
						</split>
					</split>
				</split>
				<split pos="right">
					<output>0.22832282019939065</output>
				</split>
			</split>
		</tree>
		<tree id="48" weight="0.10000000149011612">
			<split>
				<feature>9</feature>
				<threshold>0</threshold>
				<split pos="left">
					<feature>3</feature>
					<threshold>0.0374971516</threshold>
					<split pos="left">
						<output>-0.8131518034192019</output>
					</split>
					<split pos="right">
						<feature>3</feature>
						<threshold>0.0385356471</threshold>
						<split pos="left">
							<output>1.0398148378487122</output>
						</split>
						<split pos="right">
							<feature>5</feature>
							<threshold>0</threshold>
							<split pos="left">
								<output>0.4089117539991185</output>
							</split>
							<split pos="right">
								<feature>5</feature>
								<threshold>0.599145353</threshold>
								<split pos="left">
									<output>-0.32652067205904972</output>
								</split>
								<split pos="right">
									<feature>7</feature>
									<threshold>0.999305904</threshold>
									<split pos="left">
										<output>0.83615757700532245</output>
									</split>
									<split pos="right">
										<feature>8</feature>
										<threshold>0.701146245</threshold>
										<split pos="left">
											<output>0</output>
										</split>
										<split pos="right">
											<feature>3</feature>
											<threshold>0.569390893</threshold>
											<split pos="left">
												<output>-0.48719820015563736</output>
											</split>
											<split pos="right">
												<feature>3</feature>
												<threshold>0.684796035</threshold>
												<split pos="left">
													<output>-1.0166141442789662</output>
												</split>
												<split pos="right">
													<output>-0.054959407706650837</output>
												</split>
											</split>
										</split>
									</split>
								</split>
							</split>
						</split>
					</split>
				</split>
				<split pos="right">
					<output>0.23527229698434932</output>
				</split>
			</split>
		</tree>
		<tree id="49" weight="0.10000000149011612">
			<split>
				<feature>3</feature>
				<threshold>0.579380691</threshold>
				<split pos="left">
					<feature>3</feature>
					<threshold>0.418650448</threshold>
					<split pos="left">
						<feature>9</feature>
						<threshold>0</threshold>
						<split pos="left">
							<feature>5</feature>
							<threshold>0.377236754</threshold>
							<split pos="left">
								<output>-0.61138902754035518</output>
							</split>
							<split pos="right">
								<output>0.30493135143939054</output>
							</split>
						</split>
						<split pos="right">
							<feature>5</feature>
							<threshold>0.383462518</threshold>
							<split pos="left">
								<output>1.2644732031099335</output>
							</split>
							<split pos="right">
								<output>-0.040736723471685658</output>
							</split>
						</split>
					</split>
					<split pos="right">
						<feature>3</feature>
						<threshold>0.42892459</threshold>
						<split pos="left">
							<output>1.1574505193931273</output>
						</split>
						<split pos="right">
							<output>0.28975804169316216</output>
						</split>
					</split>
				</split>
				<split pos="right">
					<feature>3</feature>
					<threshold>0.999449492</threshold>
					<split pos="left">
						<output>-1.0622587315373622</output>
					</split>
					<split pos="right">
						<feature>5</feature>
						<threshold>0.740592122</threshold>
						<split pos="left">
							<output>0.47742434183203947</output>
						</split>
						<split pos="right">
							<feature>9</feature>
							<threshold>0</threshold>
							<split pos="left">
								<output>-0.06346308730463246</output>
							</split>
							<split pos="right">
								<output>-1.1645833515313788</output>
							</split>
						</split>
					</split>
				</split>
			</split>
		</tree>
		<tree id="50" weight="0.10000000149011612">
			<split>
				<feature>3</feature>
				<threshold>0.579380691</threshold>
				<split pos="left">
					<feature>3</feature>
					<threshold>0.418650448</threshold>
					<split pos="left">
						<feature>9</feature>
						<threshold>0</threshold>
						<split pos="left">
							<feature>7</feature>
							<threshold>0.299153626</threshold>
							<split pos="left">
								<output>-1.0648310561526151</output>
							</split>
							<split pos="right">
								<feature>3</feature>
								<threshold>0.323898464</threshold>
								<split pos="left">
									<output>0.41295428955183872</output>
								</split>
								<split pos="right">
									<output>-1.125495932824812</output>
								</split>
							</split>
						</split>
						<split pos="right">
							<output>0.46527331770510522</output>
						</split>
					</split>
					<split pos="right">
						<feature>3</feature>
						<threshold>0.42892459</threshold>
						<split pos="left">
							<output>1.1302995111602254</output>
						</split>
						<split pos="right">
							<output>0.26867124704253303</output>
						</split>
					</split>
				</split>
				<split pos="right">
					<feature>3</feature>
					<threshold>0.999449492</threshold>
					<split pos="left">
						<output>-1.0541493313169157</output>
					</split>
					<split pos="right">
						<feature>5</feature>
						<threshold>0.740592122</threshold>
						<split pos="left">
							<output>0.4445517525458782</output>
						</split>
						<split pos="right">
							<feature>9</feature>
							<threshold>0</threshold>
							<split pos="left">
								<output>-0.047882875383288524</output>
							</split>
							<split pos="right">
								<output>-1.1313617274081376</output>
							</split>
						</split>
					</split>
				</split>
			</split>
		</tree>
		<tree id="51" weight="0.10000000149011612">
			<split>
				<feature>9</feature>
				<threshold>0</threshold>
				<split pos="left">
					<feature>8</feature>
					<threshold>0.999926269</threshold>
					<split pos="left">
						<feature>8</feature>
						<threshold>0.761784673</threshold>
						<split pos="left">
							<feature>8</feature>
							<threshold>0.710959435</threshold>
							<split pos="left">
								<feature>8</feature>
								<threshold>0.701146245</threshold>
								<split pos="left">
									<output>-0.12177322553881484</output>
								</split>
								<split pos="right">
									<output>-1.1342197022967258</output>
								</split>
							</split>
							<split pos="right">
								<output>1.0829919126298844</output>
							</split>
						</split>
						<split pos="right">
							<output>-0.50807212276738656</output>
						</split>
					</split>
					<split pos="right">
						<feature>3</feature>
						<threshold>0.569647908</threshold>
						<split pos="left">
							<output>1.0333169641866491</output>
						</split>
						<split pos="right">
							<feature>5</feature>
							<threshold>0.533352077</threshold>
							<split pos="left">
								<output>0.53105386190231274</output>
							</split>
							<split pos="right">
								<feature>6</feature>
								<threshold>0.999914348</threshold>
								<split pos="left">
									<output>-1.111980328795795</output>
								</split>
								<split pos="right">
									<feature>3</feature>
									<threshold>0.835392237</threshold>
									<split pos="left">
										<output>-1.0095257286023587</output>
									</split>
									<split pos="right">
										<output>-0.061422656982532013</output>
									</split>
								</split>
							</split>
						</split>
					</split>
				</split>
				<split pos="right">
					<output>0.24922162760503291</output>
				</split>
			</split>
		</tree>
		<tree id="52" weight="0.10000000149011612">
			<split>
				<feature>3</feature>
				<threshold>0.540139616</threshold>
				<split pos="left">
					<feature>3</feature>
					<threshold>0.517063916</threshold>
					<split pos="left">
						<feature>9</feature>
						<threshold>0</threshold>
						<split pos="left">
							<feature>3</feature>
							<threshold>0.41373238</threshold>
							<split pos="left">
								<output>-0.29605875794076691</output>
							</split>
							<split pos="right">
								<output>0.50469269497879532</output>
							</split>
						</split>
						<split pos="right">
							<output>0.44240370670407247</output>
						</split>
					</split>
					<split pos="right">
						<output>1.0650082484594703</output>
					</split>
				</split>
				<split pos="right">
					<feature>3</feature>
					<threshold>0.569390893</threshold>
					<split pos="left">
						<output>-1.0464020433063641</output>
					</split>
					<split pos="right">
						<feature>3</feature>
						<threshold>0.569647908</threshold>
						<split pos="left">
							<output>1.0364422237433453</output>
						</split>
						<split pos="right">
							<feature>3</feature>
							<threshold>0.999449492</threshold>
							<split pos="left">
								<output>-0.81919962369804888</output>
							</split>
							<split pos="right">
								<feature>5</feature>
								<threshold>0.740592122</threshold>
								<split pos="left">
									<output>0.41888594951711505</output>
								</split>
								<split pos="right">
									<feature>9</feature>
									<threshold>0</threshold>
									<split pos="left">
										<output>-0.056119802583544667</output>
									</split>
									<split pos="right">
										<output>-1.1087145828870546</output>
									</split>
								</split>
							</split>
						</split>
					</split>
				</split>
			</split>
		</tree>
		<tree id="53" weight="0.10000000149011612">
			<split>
				<feature>9</feature>
				<threshold>0</threshold>
				<split pos="left">
					<feature>7</feature>
					<threshold>0.299153626</threshold>
					<split pos="left">
						<output>-0.52721641409853348</output>
					</split>
					<split pos="right">
						<feature>3</feature>
						<threshold>0.323898464</threshold>
						<split pos="left">
							<output>0.41646509230822965</output>
						</split>
						<split pos="right">
							<feature>3</feature>
							<threshold>0.327721</threshold>
							<split pos="left">
								<output>-1.3350915304384365</output>
							</split>
							<split pos="right">
								<feature>4</feature>
								<threshold>0.571024954</threshold>
								<split pos="left">
									<output>0.29500573733705343</output>
								</split>
								<split pos="right">
									<feature>5</feature>
									<threshold>0.564659536</threshold>
									<split pos="left">
										<output>-1.0917694703520886</output>
									</split>
									<split pos="right">
										<feature>6</feature>
										<threshold>0.999914348</threshold>
										<split pos="left">
											<output>0.64110879208264637</output>
										</split>
										<split pos="right">
